,0,1,2,3,4,5,6,7,8,9,10,11,12,13,14,15,16,17,18,19,20,21,22,23,24,25,26,27,28,29,30,31,32,33,34,35,36,37,38,39,40,41,42,43,44,45,46,47,48,49
1634:_The_Ram_Rebellion,-0.15558715,-0.14736624,0.12713774,0.10516732,-0.14937483,-0.17721839,-0.17450811,-0.19446152,0.16534024,0.1693678,0.09187607,0.17318077,-0.14852922,-0.14947674,0.121984735,-0.15392454,0.17805849,-0.12564377,-0.16445781,-0.16053623,-0.15342261,0.1326973,-0.17434822,-0.16137034,-0.19176826,-0.17710833,0.16372523,-0.141699,-0.17257288,0.09527276,0.10633862,-0.15866698,0.18277378,0.117845625,0.15387255,0.16672046,0.16055852,0.086408645,0.10999515,0.15932015,-0.17275745,0.14827992,-0.1325216,-0.19998094,0.1495807,-0.15220238,0.19198038,-0.15301621,-0.15981857,-0.18803622
1635:_The_Cannon_Law,-0.18333693,-0.13634469,0.19041125,0.17192352,-0.2243479,-0.1799605,-0.10029237,-0.095923565,0.1407732,0.16395278,0.12895724,0.090198025,-0.112183556,-0.108961016,0.08694224,-0.15227431,0.17359918,-0.14138676,-0.1448904,-0.133341,-0.1486158,0.12298258,-0.15305413,-0.1349669,-0.17321184,-0.18720862,0.12985766,-0.21444009,-0.13432077,0.18372999,0.09155987,-0.12283125,0.08415725,0.16106181,0.16077681,0.1868043,0.13922662,0.16091277,0.14409389,0.14092547,-0.106663845,0.19294985,-0.15285197,-0.120114274,0.13258776,-0.1366711,0.107073784,-0.13042694,-0.13292399,-0.19349444
2012_(film),-0.035870794,-0.06796092,0.03126824,0.049502525,-0.02663778,-0.10711903,-0.058324534,-0.089513384,0.0943828,0.10131868,0.097560294,0.07016943,-0.09502448,-0.11068737,0.085325286,-0.07839084,0.029528989,-0.08686092,-0.036363523,-0.119814016,-0.04595432,0.0021093064,-0.07249631,-0.06979147,-0.06444187,-0.10672768,0.09232064,-0.073926225,-0.1196927,0.037536435,0.09029613,-0.08675708,0.080068305,0.03863907,0.099797405,0.03583238,0.045353044,0.025208198,0.05870353,0.046864767,-0.05492033,0.059253816,-0.03993549,-0.035037816,0.06637977,-0.15538017,0.13008115,-0.030929187,-0.09704466,-0.02722021
334,-0.14263323,-0.15388177,0.16654368,0.13188939,-0.14482574,-0.11640466,-0.046663735,-0.14899258,0.045773216,0.09209382,0.15370025,0.12017663,-0.086372085,-0.14593792,0.16453686,-0.10313191,0.13243882,-0.15048651,-0.1417738,-0.21743394,-0.13359585,0.039856847,0.0068185707,-0.10698601,-0.15939392,-0.15057155,0.106709,-0.18059772,-0.11732119,0.102207035,0.18995012,-0.18564586,0.1395944,0.12219255,0.12923744,0.12671229,0.07325161,0.180354,0.14503853,0.12934132,-0.13931522,0.061278466,-0.14543442,-0.12541342,0.1292462,-0.10525289,0.13098921,-0.16777836,-0.12128668,-0.14254504
360Commerce,-0.088590644,-0.11954446,0.12145042,0.19092993,-0.13978016,-0.17686825,-0.14475204,-0.19861355,0.15124854,0.15870646,0.13297446,0.09752988,-0.16199876,-0.17773978,0.14968559,-0.1318181,0.14382623,-0.16741234,-0.15369266,-0.15559164,-0.13639103,0.10264708,-0.10077058,-0.12524253,-0.124352545,-0.15004495,0.13312319,-0.09852481,-0.17040464,0.10689119,0.04117234,-0.19084767,0.19157967,0.14765377,0.12699705,0.14333461,0.1660366,0.14413,0.14313108,0.1893496,-0.16792905,0.15371442,-0.16797383,-0.16954139,0.15940803,-0.14536372,0.19126594,-0.15536323,-0.0646932,-0.09024547
A._E._van_Vogt,-0.14234006,-0.039398514,0.12444499,0.08970436,-0.08088455,-0.06882198,-0.06555765,-0.066398114,0.13708451,0.036068026,0.108308345,0.06167412,-0.066722415,-0.06683441,0.058188748,0.0035876709,0.11780031,-0.08032285,-0.14796178,-0.03749355,-0.11489562,0.07257857,-0.12291532,-0.06467788,-0.036020655,-0.0501674,-0.011525568,-0.11032019,-0.040378585,0.08099666,0.0962199,-0.09651642,0.013181327,0.05690397,0.047138564,0.14521359,0.053876232,0.1368335,0.07427897,0.15683143,-0.04301688,0.104946725,-0.051336538,-0.045955364,0.03192723,-0.06857352,0.13079183,-0.14873567,-0.035314348,-0.13931775
ABC_Family_Worldwide_Inc.,-0.09610584,-0.12128608,0.05709502,0.115396716,-0.028276924,-0.06353717,-0.064968556,-0.12311703,0.074029915,0.061925795,0.12079122,0.04971559,-0.08513408,-0.1362807,0.098019734,-0.052279036,0.06204732,-0.08194988,-0.05802612,-0.07673531,-0.018030366,0.06780817,-0.11889792,-0.108100444,-0.04432465,-0.078592755,0.07669132,-0.14015971,-0.04236821,0.041930728,-0.008702103,-0.08760923,0.107241504,0.16140877,0.12877007,0.024776056,0.051914144,0.06779388,0.0863905,0.044844072,-0.052675825,0.061563548,-0.13891125,-0.12472642,0.06450729,-0.119660385,0.042158764,-0.094713405,-0.06173653,-0.06829723
ADC_Telecommunications,-0.14463781,-0.12264687,0.06358446,0.12290045,-0.08235456,-0.0924274,-0.040319737,-0.061209675,0.12118002,0.049467623,0.11055394,0.007713514,-0.116008,-0.069634296,0.10829882,-0.043933757,0.045403183,-0.055102605,-0.08931733,-0.072734624,-0.07555691,0.053523872,-0.12058474,-0.13203305,-0.024268504,-0.080642655,0.00593245,-0.14137623,-0.029901871,0.015893968,-0.0028348211,-0.08151947,0.043840744,0.14359197,0.11986224,0.062769815,0.14532669,0.081954785,0.12304807,0.07031074,-0.03622468,0.08604376,-0.07823615,-0.08057705,0.0040432853,-0.063327685,0.1201418,-0.10973802,-0.11724893,-0.05633589
AOL,-0.04894099,-0.008059269,0.041057777,0.13460082,-0.0830413,-0.08299787,-0.04815979,-0.12664142,0.086757615,0.08152304,0.05889907,0.030938756,-0.09951145,-0.05140886,0.006033243,-0.1288464,0.027937789,-0.13155529,-0.015383141,-0.12109032,-0.08756276,0.037901983,-0.08821322,-0.065344915,-0.07429897,-0.058474913,0.09463005,-0.114717275,-0.14308178,-0.013809669,0.088743895,-0.10624379,0.07465343,0.15795955,0.081425466,0.04674737,0.08231067,0.044445086,0.038004287,0.05176223,-0.12879276,0.018252265,-0.07078497,-0.07285697,0.017873539,-0.06600079,0.04250215,-0.09788652,-0.09571996,-0.03802364
A_Calculus_of_Angels,-0.1304593,-0.08008705,0.22759742,0.1636057,-0.1496987,-0.12894809,-0.08449954,-0.19279376,0.12671752,0.13738556,0.18005878,0.14707032,-0.07861812,-0.16417567,0.121947125,-0.1783195,0.14191996,-0.16631673,-0.15349036,-0.11835177,-0.16482338,0.10402288,-0.12156582,-0.08888224,-0.19330862,-0.15792294,0.14704967,-0.12838683,-0.08210925,0.11867259,-0.0073316214,-0.19825105,0.114326976,0.10256426,0.13948661,0.17023611,0.061876003,0.16390008,0.12460568,0.11768413,-0.13569172,0.14205024,-0.18967527,-0.05881883,0.15622912,-0.088984475,0.13103944,-0.16467406,-0.118609935,-0.15810642
A_Canticle_for_Leibowitz,-0.11967677,-0.15271597,0.15617405,0.14841372,-0.102482334,-0.16250291,-0.16340037,-0.17911531,0.1385672,0.1547459,0.13587718,0.15785761,-0.10879132,-0.14498715,0.12740178,-0.19870567,0.126831,-0.12974511,-0.148518,-0.18376118,-0.18184237,0.08581168,-0.03419524,-0.066075064,-0.12874569,-0.16843213,0.14070024,-0.12523331,-0.07837505,0.12445785,0.061392445,-0.16327412,0.093943015,0.06130021,0.13909373,0.15900168,0.09399024,0.16295141,0.15384504,0.09283684,-0.13335322,0.16823582,-0.17837748,-0.10790484,0.119170785,-0.108034156,0.12657337,-0.12370247,-0.13499859,-0.12551174
A_Connecticut_Yankee_in_King_Arthur's_Court,-0.14611569,-0.10955625,0.13491699,0.064997144,-0.1671672,-0.17779143,-0.035512883,-0.16831931,0.06379085,0.14439592,0.106624134,0.1475201,-0.032581683,-0.16367584,0.004534545,-0.20026863,0.1538885,-0.14199083,-0.18172325,-0.15405223,-0.12037142,0.057726733,-0.057547234,-0.12530972,-0.11127038,-0.13219015,0.1819301,-0.105875015,-0.074070275,0.015495223,-0.0018722916,-0.1220387,0.06273628,0.105342224,0.1240616,0.14197238,0.054727856,0.12915239,0.13581944,0.15334219,-0.09279292,0.15857828,-0.1687496,-0.06073339,0.109633155,-0.15854876,0.11408271,-0.14498094,-0.06474363,-0.13119668
A_Deepness_in_the_Sky,-0.18255335,-0.11916858,0.13319665,0.20163864,-0.19010276,-0.16659603,-0.10963712,-0.19361383,0.14145498,0.18997136,0.14920825,0.17665434,-0.14941461,-0.16783804,0.10918056,-0.16480602,0.20557165,-0.15236606,-0.18103465,-0.17615701,-0.15187876,0.132041,-0.17324601,-0.13539225,-0.16852196,-0.13386461,0.16733155,-0.15299548,-0.15615606,0.19055194,0.05983628,-0.14875782,0.15904123,0.12680964,0.14355302,0.13545784,0.12953727,0.1662219,0.14840437,0.13829291,-0.15403752,0.17399006,-0.16054921,-0.11630074,0.16081908,-0.13557298,0.10532084,-0.17579445,-0.1251005,-0.15435895
A_Door_into_Ocean,-0.12384605,-0.0631605,0.12094608,0.11144692,-0.20191678,-0.174971,-0.1428287,-0.138074,0.10426602,0.12474935,0.12530838,0.17656355,-0.1417455,-0.1567349,0.049722284,-0.14938493,0.14192452,-0.13707793,-0.13452734,-0.115177624,-0.103070855,0.13723439,0.022158803,-0.119606555,-0.13610402,-0.10292989,0.1145369,-0.12692147,-0.09028838,0.024119634,0.009799916,-0.13750945,0.06334569,0.13851605,0.043496117,0.13150726,0.09818116,0.13042489,0.089528754,0.15417646,-0.16678661,0.10564427,-0.19321455,-0.11016145,0.12829511,-0.12755401,0.1378019,-0.12583928,-0.11361874,-0.10191938
A_Hard_Day's_Night_(film),0.008902365,-0.05876757,0.037769638,0.056951612,-0.046847112,-0.07033958,-0.1160102,-0.056331728,0.019298077,0.098726854,0.016115353,0.09869366,-0.06777358,-0.05860273,0.04066857,-0.10605941,0.03548238,-0.10252181,-0.073884904,-0.076745234,-0.06140609,0.06593852,-0.066435225,-0.025912264,-0.14473909,-0.07143805,0.12842311,-0.03516909,-0.10578236,0.06994027,0.17810336,-0.069874935,0.09306221,0.047492195,0.024482423,0.061989125,0.047101162,0.029767944,0.014884381,0.045267455,-0.061325062,0.036791846,-0.03575159,-0.07936742,0.09948692,-0.082660206,0.048095383,-0.026768338,-0.113067344,-0.018893301
A_Time_of_Changes,-0.08983113,-0.086073644,0.16042769,0.1986141,-0.18460049,-0.20042616,-0.056451183,-0.17775357,0.09345971,0.1258765,0.108180605,0.1308658,-0.036901597,-0.15957412,0.116130956,-0.15708391,0.15863505,-0.14858718,-0.17002335,-0.18751179,-0.13256246,0.07023003,-0.075599745,-0.047099654,-0.16888519,-0.124923036,0.12621036,-0.2121196,-0.14048417,0.084458746,0.020007184,-0.18648745,0.057305183,0.07690566,0.10442841,0.18895873,-0.0028871284,0.09414241,0.13859499,0.13574584,-0.14806123,0.105646625,-0.16315563,-0.08793888,0.13693151,-0.07221719,0.11555206,-0.11573014,-0.0620025,-0.11485721
Aaryn_Doyle,-0.029218595,-0.17761773,0.076545894,0.12754698,-0.2379597,-0.17010976,-0.0455675,-0.1886261,0.14707169,0.16511312,0.19387151,0.14614506,-0.16754162,-0.2139425,0.18659201,-0.17357297,0.06640517,-0.13769479,-0.10582767,-0.13396506,-0.20991041,0.05234684,-0.16615991,-0.12033219,-0.20075405,-0.18105248,0.119165495,-0.14473917,-0.10817914,0.117735386,0.1502516,-0.17717537,0.14484312,0.16139147,0.16445713,0.07365785,0.07405669,0.13951804,0.110500574,0.1840333,-0.10455304,0.102423035,-0.15351929,-0.10375526,0.14921728,-0.07103073,0.10914015,-0.17963554,-0.17689763,-0.20927285
Aarón_Díaz,-0.10375994,-0.12797108,0.10980663,0.04189001,-0.11138466,-0.07684219,-0.08931629,-0.031214118,0.11108096,0.09955009,0.12455496,0.07769798,-0.08176344,-0.04801639,0.08037136,-0.023561593,0.112562075,-0.033468954,-0.058458935,-0.07437284,-0.122456804,0.1157413,-0.044299737,-0.11838643,-0.028643366,-0.022700224,0.03472848,-0.083157994,-0.035993252,0.07926514,0.06950109,-0.08554176,0.06837963,0.14237507,0.13359286,0.09824488,0.10703673,0.12889701,0.12952088,0.08214315,-0.061098177,0.14447723,-0.06756865,-0.05545341,0.039464045,0.0015909387,0.094340034,-0.10800603,-0.049010172,-0.15210915
Abbie_Cornish,-0.16032302,-0.071115255,0.14798234,0.052223306,-0.09868155,-0.17348805,-0.12717651,-0.150147,0.10866174,0.10960932,0.10427026,0.09010346,-0.082745485,-0.16473986,0.14916559,-0.17124547,0.16495766,-0.048016828,-0.010054899,-0.1292269,-0.09481375,0.13191478,-0.100836925,-0.17532073,-0.10139865,-0.015363163,0.08060669,-0.021603169,-0.12794138,0.124741055,0.068518735,-0.08772585,0.06823335,0.16928056,0.1525987,0.032913502,0.14150625,0.16650411,0.11893776,0.0950567,-0.19597083,0.12040005,-0.10344107,-0.1806192,0.059779845,-0.10755426,0.09081297,-0.16012007,-0.10102098,-0.12693754
"Abbott,_Texas",-0.17042826,-0.19882956,0.09961546,0.08683585,-0.11499227,-0.15615077,-0.19176045,-0.15257195,0.16097145,0.16804837,0.16641667,0.17217219,-0.17891477,-0.15579474,0.12726387,-0.13657275,0.14091302,-0.094814256,-0.16215572,-0.18021905,-0.1724755,0.112350434,-0.11326652,-0.13822041,-0.19979088,-0.14454532,0.124343224,-0.12650286,-0.070041955,0.19408284,0.13836683,-0.19793093,0.13517451,0.111822285,0.14556636,0.15607724,0.17365368,0.15501751,0.1295615,0.16895293,-0.14540228,0.1575154,-0.16815828,-0.09161054,0.122922815,-0.12138117,0.14094388,-0.06318914,-0.13838291,-0.1111646
Abd_Al-Rahman_Al-Gillani,-0.09213768,-0.034845777,0.13325714,0.14620261,-0.12415141,-0.04174406,-0.13073955,-0.07077295,0.04726827,0.10729855,0.081914134,0.011221024,-0.13615188,-0.037383,0.06738524,-0.03801828,0.124835886,-0.08754994,-0.07193214,-0.0631426,-0.13280076,0.14464732,-0.11578501,-0.08158825,-0.08647922,-0.04186895,0.048055895,-0.1131377,-0.03955115,0.034699667,0.08410977,-0.08127212,0.035386622,0.15521865,0.039091524,0.15329127,0.15322033,0.05813899,0.065246604,0.10781336,-0.049958114,0.08965022,-0.04685628,-0.086176135,0.018214164,0.002546369,0.06545348,-0.13172387,-0.10559246,-0.11103356
Abdul-Wahab_Mirjan,-0.06946913,-0.11150211,0.11564358,0.07414324,-0.05228228,-0.08247349,-0.1392154,-0.045630537,0.07375468,0.11024427,0.12326696,0.061475217,-0.11977982,-0.067521565,0.12970899,0.017324574,0.058876693,-0.091981314,-0.12509973,-0.06497594,-0.102983005,0.103187405,-0.06946241,-0.11859145,-0.055027872,-0.08558043,0.0455157,-0.09976743,0.012989198,0.08290569,0.07500869,-0.093978636,0.061615508,0.047498625,0.08143169,0.085475415,0.11618092,0.042862803,0.059349336,0.07480182,0.008511114,0.16401596,-0.030234152,-0.09397218,0.022999292,-0.056538176,0.13559465,-0.13711981,-0.11846088,-0.05853188
Abdul_Razak_Hussein,-0.054620165,-0.03663887,0.07155999,0.13666382,-0.14167425,-0.0866555,-0.07947362,-0.05807798,0.1383702,0.12531188,0.07990698,0.09189819,-0.09163257,-0.040322177,0.09186541,-0.038596388,0.07057578,-0.07475191,-0.08745695,-0.06868896,-0.14388886,0.09978762,-0.044329025,-0.08448279,-0.08639924,-0.034160014,0.031941283,-0.16763888,-0.028829662,0.00797533,0.09201752,-0.067169584,0.034929987,0.11780603,0.13941802,0.070800126,0.051411852,0.113603406,0.047934994,0.12345922,-0.050037332,0.111841924,-0.036330003,-0.031961598,-0.03271235,-0.04824072,0.14881799,-0.12788232,-0.033750553,-0.12238661
Abdullah_Ahmad_Badawi,-0.11728696,-0.1353041,0.055289682,0.12025872,-0.085704386,-0.082217,-0.06074669,-0.04619939,0.10617033,0.04947943,0.11228195,-0.0037746748,-0.11549407,-0.06756885,0.08772254,-0.051424906,0.04437609,-0.07903819,-0.07023385,-0.077994466,-0.07790272,0.048991684,-0.11917682,-0.13308974,-0.025534207,-0.09432549,-0.0016830751,-0.14378469,-0.03924051,0.025404446,-0.0013403037,-0.08764608,0.0510616,0.14769705,0.12344847,0.0631518,0.12297351,0.078115396,0.11932178,0.065937474,-0.029789576,0.08990129,-0.07696433,-0.0965921,0.00025286933,-0.052543093,0.107990086,-0.10273661,-0.12260814,-0.055545207
Abigail_Spencer,-0.14527196,-0.12992117,0.13369755,0.16497631,-0.1312668,-0.176668,-0.13856892,-0.18361989,0.1531037,0.14157002,0.13342237,0.18050358,-0.15948321,-0.17026758,0.13981357,-0.17012726,0.12201911,-0.13634442,-0.109744675,-0.08671559,-0.11416677,0.07922679,-0.21875726,-0.12881906,-0.1570604,-0.07523879,0.14328901,-0.09567248,-0.1266936,0.12766702,0.1240418,-0.18613882,0.14528404,0.17082764,0.14981772,0.1437923,0.15647788,0.15247302,0.18654647,0.11253155,-0.15313536,0.13670966,-0.193334,-0.1817829,0.15029421,-0.07309228,0.15499869,-0.17608832,-0.1716769,-0.082862504
Abraham_Lincoln,-0.043482248,-0.051675506,0.07747171,0.06302869,-0.026861614,-0.05327526,-0.15113878,-0.10290371,0.028718073,0.13739751,0.07179552,0.07387217,-0.12482651,-0.08218933,0.049400184,-0.06598139,0.09295309,-0.083963804,-0.06742158,-0.09901918,-0.07210062,0.06813248,-0.09190012,-0.05593655,-0.1132791,-0.092469655,0.100494996,-0.04776806,-0.0995292,0.068184875,0.14413978,-0.1095445,0.07491016,0.054349065,0.044085864,0.09448562,0.10290461,0.020442583,0.037900656,0.058634654,-0.04942973,0.074704446,-0.021940785,-0.071237534,0.106484085,-0.072042756,0.061477393,-0.05026087,-0.1334542,-0.029035982
Aceva_Technologies,-0.092161976,-0.12538958,0.15402074,0.15205604,-0.12189123,-0.14782374,-0.11671332,-0.161956,0.11788047,0.15198019,0.08773685,0.12979184,-0.20078352,-0.15745468,0.14281932,-0.0865543,0.087835334,-0.1578334,-0.13646612,-0.13771881,-0.10689975,0.10678602,-0.06504904,-0.16788621,-0.123728774,-0.1388077,0.17537174,-0.11251775,-0.14574182,0.1631703,-0.013216265,-0.14830413,0.16193788,0.13920093,0.1416994,0.08131088,0.1375601,0.16706197,0.14221264,0.095009774,-0.18748458,0.1219332,-0.086681284,-0.15275438,0.100497834,-0.102969795,0.13463487,-0.19618481,-0.14538465,-0.12332115
Acronis,-0.0516253,-0.12413119,0.13289085,0.022604445,-0.076092124,-0.10716775,-0.100072965,-0.049090337,0.06106011,0.08947575,0.12798133,0.12254105,-0.08154591,-0.077049896,0.07822799,-0.0409419,0.08298253,-0.08321278,-0.0571257,-0.12352763,-0.09374732,0.085695274,-0.021248883,-0.09214111,-0.038483173,-0.04696132,0.10099286,-0.039058004,-0.0699358,0.09426654,0.12542883,-0.10812971,0.117182955,0.04731681,0.109007835,0.050593887,0.11058642,0.046186913,0.062352065,0.03385361,-0.04950087,0.12320525,-0.073608816,-0.08258223,0.116968215,-0.054472316,0.08743409,-0.09910833,-0.055845097,-0.081886254
Acuson,-0.17420772,-0.21736933,0.16735987,0.17577451,-0.14169599,-0.20972726,-0.054298077,-0.20344193,0.15278181,0.18112545,0.12488916,0.10197318,-0.18212056,-0.21289672,0.16133094,-0.17562822,0.12388739,-0.17414787,-0.096751876,-0.15760498,-0.16631408,0.15062638,-0.087320425,-0.19031097,-0.12602761,-0.14202598,0.15351869,-0.15898849,-0.109065026,0.13060254,0.19861838,-0.20496646,0.19417112,0.16510291,0.17040224,0.0972243,0.18215978,0.15311782,0.1746016,0.09705129,-0.15218107,0.037409328,-0.19588357,-0.18561684,0.1426513,-0.15795246,0.14391652,-0.10626347,-0.14326318,-0.06073241
Adam_Kaufman,-0.17577408,-0.044674654,0.1616463,-0.004845358,-0.11586587,-0.17197865,-0.07020822,-0.11424373,0.10317683,0.11899864,0.025304222,0.12666675,-0.09666411,-0.1642481,0.10824776,-0.099061124,0.17413221,-0.11676865,-0.088137984,-0.1106754,-0.1336969,0.14187968,-0.06766835,-0.08932343,-0.074103765,-0.08201266,0.09847842,-0.059398808,-0.1132317,0.06570965,0.15408541,-0.21764565,0.008388128,0.12024203,0.12792563,0.05156848,0.112006694,0.085876435,0.09956039,0.031055238,-0.16250746,0.085472114,-0.16294266,-0.09850994,0.1436025,-0.11404705,0.16808715,-0.15655373,-0.17529252,-0.11741578
Adam_Smith,-0.065629445,-0.13709927,0.021052381,0.0765959,-0.049208373,-0.07413592,-0.11687245,-0.07482926,0.07664998,0.06839991,0.011703978,0.1120983,-0.05539814,-0.10896662,0.065358065,-0.1289843,0.07500284,-0.067464374,-0.12712549,-0.031150736,-0.043110106,0.08194979,-0.09194825,-0.023922829,-0.13718846,-0.09204296,0.07616843,-0.052878134,-0.119265944,0.05454216,0.114663795,-0.057081543,0.07638451,0.06489377,0.06535287,0.11479912,0.11064582,0.09752342,0.1073033,0.115793705,-0.09810917,0.07308238,-0.066804305,-0.07193224,0.11309168,-0.10086486,0.044174805,-0.021124912,-0.083571464,-0.05066304
Adelaide,-0.14105934,-0.15977587,0.08652164,0.11893061,-0.08375231,-0.114020884,-0.052328326,-0.19561908,0.13304381,0.14457874,0.12261886,0.14099589,-0.09738215,-0.17222616,0.11835634,-0.09283641,0.1621563,-0.097082786,-0.13935372,-0.10243639,-0.12291282,0.075032145,-0.014723476,0.01173495,-0.06968423,-0.16652146,0.14060819,-0.13086814,-0.052962534,0.10726313,0.10995384,-0.20308283,0.071504675,0.04666537,0.14967965,0.1366266,0.11689523,0.15667842,0.18270428,0.14149895,-0.14478852,0.115635775,-0.08061285,-0.06618072,0.13713695,-0.0972688,0.16624719,-0.08953334,-0.14254653,-0.08332478
Adjowa_Hayes,-0.070731916,-0.03845814,0.13797407,0.05699135,-0.102033295,-0.06379462,-0.09794918,-0.07585041,0.061876,0.11215821,0.08297887,0.0730838,-0.0896074,-0.052298207,0.0141091775,-0.08329108,0.1318259,-0.07221803,-0.02348661,-0.1111642,-0.12289945,0.11756337,-0.06807122,-0.089727856,-0.05523438,-0.016860645,0.107536435,-0.051255483,-0.110831656,0.08262813,0.11553776,-0.116263926,0.099353924,0.160272,0.076969974,0.09875569,0.13920064,0.07946736,0.06968928,0.06150446,-0.11688586,0.09297575,-0.07369006,-0.08131328,0.100747444,-0.0015009788,0.031655487,-0.09517436,-0.049815252,-0.1274713
Adobe_Systems,-0.09077575,-0.15447018,0.060070146,0.02583413,-0.030830605,-0.08596202,-0.047434732,-0.037254132,0.055627543,0.07698013,0.15769035,0.06678536,-0.052401997,-0.11614765,0.089465275,-0.037819814,0.04146197,-0.055894595,-0.022929698,-0.123314425,-0.026093835,0.035472155,-0.07426248,-0.12532651,-0.004245828,-0.058141995,0.117325604,-0.06579817,-0.058369853,0.09636573,0.036764998,-0.08563859,0.13811639,0.08326368,0.13472098,-0.0011890774,0.06749216,0.02947108,0.06385711,0.007975738,-0.04832206,0.09871042,-0.109676614,-0.09850983,0.09762525,-0.0846596,0.054920327,-0.08148924,-0.07861395,-0.04504863
Adolphe_Thiers,-0.08390599,-0.028062265,0.114813216,0.14382295,-0.12002617,-0.03867791,-0.13124448,-0.082426265,0.053790994,0.11144635,0.07200578,0.02550404,-0.13049217,-0.031574003,0.0586244,-0.03993541,0.106652245,-0.07831737,-0.067879416,-0.07527891,-0.1366353,0.1296684,-0.113856,-0.07464625,-0.089970805,-0.054532498,0.04203059,-0.10420337,-0.024140868,0.03227492,0.08454253,-0.10426634,0.031653244,0.17008494,0.055638887,0.13395226,0.13373415,0.052356567,0.057684805,0.10062142,-0.04504341,0.09642874,-0.035170782,-0.09749646,0.039575443,0.0032810674,0.047517154,-0.12900013,-0.11247791,-0.10439344
Adrianne_Curry,-0.10574161,-0.08578689,0.15612699,-0.018635994,-0.14135452,-0.17935285,-0.039681435,-0.08518031,0.12247094,0.06418068,0.025918867,0.12501357,-0.18271391,-0.104966335,0.19529514,-0.1364712,0.15063512,-0.009572449,-0.037639663,-0.10978705,-0.05178768,0.11122424,-0.06622464,-0.15891296,-0.072841436,-0.10744697,0.18792422,-0.08251678,-0.08481092,0.15763949,0.11827677,-0.17540242,0.15365182,0.19735879,0.0818272,0.13645883,0.13743065,0.14227517,0.082696,0.16922829,-0.1474387,0.064158276,-0.2238375,-0.031230869,0.1919843,-0.06005773,0.17552531,-0.13067043,-0.12939349,-0.1466095
Adrien_Brody,-0.09110403,-0.17268477,0.19257408,0.028516753,-0.18968083,-0.13424598,-0.15188034,-0.16522804,0.17339781,0.069598176,0.15469506,0.09585262,-0.1510664,-0.1654353,0.14224946,-0.07481123,0.15131797,-0.0024664933,-0.05348844,-0.15004201,-0.17697628,0.1696701,-0.16954954,-0.18580748,-0.18500596,-0.12127277,0.15133134,-0.011665863,-0.056511894,0.123404674,0.07453614,-0.1437776,0.14617243,0.13244782,0.12591176,0.13525857,0.16490865,0.17836651,0.10720984,0.16603479,-0.12787583,0.1528459,-0.17440373,-0.005813756,0.116276525,-0.17349276,0.17882086,-0.0914128,-0.16324064,-0.12553579
"Again,_Dangerous_Visions",-0.11447561,-0.16193628,0.17809224,0.11412912,-0.15495759,-0.091797955,-0.09133439,-0.20447432,0.11451397,0.14338793,0.09680939,0.15794106,-0.05553241,-0.14646366,0.15488067,-0.12667419,0.1834798,-0.18373734,-0.15538074,-0.13284844,-0.12193861,0.055173427,-0.093362466,-0.165135,-0.096594684,-0.15090157,0.15865164,-0.087015666,-0.16126636,-0.0021686163,0.037746914,-0.08903297,0.12519327,0.005169619,0.07739847,0.16307174,0.021343881,0.12516649,0.109925225,0.19780399,-0.15322085,0.17185178,-0.14667793,-0.12982933,0.09194498,-0.0723564,0.13874514,-0.105842225,-0.11539613,-0.12249266
Agile,-0.1250471,-0.17236148,0.14683847,0.16815996,-0.15091984,-0.12630573,-0.01744628,-0.19280028,0.15582502,0.19140951,0.07053381,0.11026708,-0.17923436,-0.19529568,0.15122071,-0.2100867,0.12566711,-0.17866717,-0.14564216,-0.08961793,-0.13459583,0.062280696,-0.10953185,-0.1345846,-0.041029073,-0.13447447,0.1547312,-0.107507534,-0.15661691,0.14330979,0.020863084,-0.1970313,0.17556274,0.17377406,0.14891183,0.07121735,0.1965301,0.11241868,0.16703218,0.09430841,-0.14583807,0.15166996,-0.12106795,-0.16284096,0.1495286,-0.075986266,0.117154084,-0.1753201,-0.1978295,-0.08827686
Agra,-0.053471137,-0.10471779,0.12367533,0.14511466,-0.13630752,-0.16483828,-0.21642917,-0.04190821,0.13230154,0.1444126,0.06922007,0.16373412,-0.10327928,-0.06560438,0.11029485,-0.0920561,0.08456869,-0.1413155,-0.11026512,-0.10433615,-0.14973296,0.09644109,-0.116085306,-0.14102875,-0.15694457,-0.19134699,0.16749652,-0.07465864,-0.08065872,0.108579434,0.04950038,-0.041501258,0.119037434,0.12731275,0.013779516,0.19422433,0.114799656,0.2167709,0.15068798,0.20103005,-0.12988782,0.090927556,-0.16611147,-0.16140921,0.13983674,-0.14795169,0.11551731,-0.06882772,-0.05853565,-0.1907092
Ahmed_Ouyahia,-0.14290744,-0.039354526,0.12575181,0.08746626,-0.08257448,-0.072646804,-0.05827788,-0.05950894,0.14096521,0.028204538,0.11529816,0.060476948,-0.06937639,-0.05058384,0.07547559,0.0046099154,0.11346541,-0.06665093,-0.145383,-0.03850695,-0.123942316,0.0753326,-0.11404087,-0.07028138,-0.039297342,-0.054241933,-0.002076303,-0.09683258,-0.047556676,0.092895016,0.09357586,-0.09211902,0.016127741,0.05664062,0.056557212,0.1562403,0.05156263,0.14083971,0.0553293,0.1249101,-0.051865276,0.10118688,-0.05501304,-0.045569543,0.031254373,-0.061757542,0.12617837,-0.15160482,-0.026984014,-0.1492704
Ahmed_Zewail,-0.04469828,-0.0289811,0.120025255,0.08835419,-0.044939037,-0.07793327,-0.14231162,-0.09920622,0.036300775,0.092747465,0.07441953,0.07019463,-0.13128114,-0.066504836,0.049310464,-0.051195703,0.077354334,-0.11665433,-0.04975825,-0.1190192,-0.096595176,0.086687036,-0.09085015,-0.09223294,-0.09099615,-0.08816553,0.124552995,-0.063001946,-0.06517138,0.07948415,0.12711601,-0.13951932,0.09339763,0.06795303,0.037745096,0.100860186,0.10261707,0.022398178,0.015681006,0.04991513,-0.04707018,0.07356448,-0.054271813,-0.13107556,0.09065387,-0.054609608,0.06440205,-0.11608136,-0.10581797,-0.06649341
Ahna_O'Reilly,-0.08848809,-0.13266286,0.061426483,0.018779485,-0.0630797,-0.052553315,-0.09615435,-0.07683046,0.09962934,0.12188367,0.09756301,0.12919421,-0.06927336,-0.0956942,0.04957072,-0.11436538,0.1353399,-0.042381424,-0.03399079,-0.09099012,-0.073910736,0.07282223,-0.0632658,-0.057245806,-0.06920776,-0.05920197,0.07942687,-0.035811905,-0.1419069,0.07989012,0.12518829,-0.067822486,0.07221146,0.07685913,0.1328487,0.07482554,0.11209064,0.07923757,0.12744543,0.10108709,-0.09407669,0.109030336,-0.056823067,-0.03884824,0.12207773,-0.04443907,0.07992901,-0.02548324,-0.05911663,-0.06341741
Ai_Sugiyama,-0.085555986,-0.02354231,0.121609166,0.1252484,-0.10126826,-0.06793382,-0.1384826,-0.11807306,0.067509696,0.09420405,0.045989793,0.060130607,-0.10718386,-0.07903364,0.041680165,-0.0852251,0.122682124,-0.12319569,-0.06219726,-0.09981225,-0.10940432,0.10285106,-0.095339864,-0.080952875,-0.10602987,-0.070846684,0.09803319,-0.09237375,-0.10123809,0.051677193,0.09832173,-0.12336295,0.08327527,0.146292,0.052454807,0.12289517,0.123019926,0.057558246,0.054346062,0.09610206,-0.10366151,0.07151916,-0.07273695,-0.12297453,0.09966661,-0.03925888,0.038428914,-0.0886987,-0.09529757,-0.11368203
Aimo_Cajander,-0.102925636,-0.13799973,0.10080923,0.0477284,-0.12552884,-0.068454295,-0.0871718,-0.035670884,0.1110125,0.10273615,0.120452955,0.08398545,-0.08100969,-0.047136355,0.073288314,-0.034403313,0.123666026,-0.041493703,-0.059923977,-0.074096605,-0.1312396,0.13393743,-0.050324984,-0.119583905,-0.03627746,-0.036804214,0.044918235,-0.08267174,-0.035835028,0.08570142,0.060604986,-0.084541604,0.06472008,0.14115962,0.12277988,0.092243105,0.14347185,0.1314822,0.1186889,0.09697151,-0.058393374,0.12562607,-0.069194496,-0.04922607,0.042552963,0.0025384852,0.090530455,-0.104441196,-0.03209786,-0.14702038
Akbar,-0.038649414,-0.17281513,0.05454465,0.06691485,-0.05894476,-0.11467722,-0.11599407,0.0060110535,0.03469876,0.03981768,0.06310263,0.050950307,-0.06535833,-0.035267796,0.13381624,-0.037380423,0.02212687,-0.06458247,-0.15531892,-0.0051291985,-0.073861405,0.120439924,-0.0723692,-0.10909897,-0.07270869,-0.06639016,0.0503552,-0.05077579,0.029727234,0.088418774,0.105171375,-0.039406076,0.083250605,0.0484197,0.016954126,0.096167035,0.11837418,0.05555976,0.068761915,0.054135095,0.002988504,0.12630573,-0.055110615,-0.109543614,0.04129039,-0.05749146,0.07004873,-0.039901618,-0.16198108,-0.07387485
Akira_Kurosawa,-0.080620065,-0.0126426,0.116588,0.12574707,-0.09963624,-0.07516581,-0.13573344,-0.11965608,0.06094941,0.09076881,0.045954302,0.05469768,-0.10999689,-0.08475463,0.038973324,-0.0833065,0.1193605,-0.13257346,-0.061437666,-0.11658273,-0.10175587,0.111382,-0.10374141,-0.07640382,-0.109833926,-0.06299084,0.08977056,-0.08378155,-0.10801557,0.052367266,0.11235704,-0.12703423,0.079044186,0.15475342,0.05972161,0.13057698,0.12625839,0.061835606,0.059930585,0.093805656,-0.102691084,0.075833715,-0.05792635,-0.1260927,0.08163554,-0.038263988,0.040762037,-0.11618949,-0.08740253,-0.11725288
"Akron,_Ohio",-0.17049804,-0.09815631,0.20486212,0.19886526,-0.18243597,-0.18375912,-0.15115856,-0.10943953,0.14520703,0.16895193,0.16087607,0.13069065,-0.1191186,-0.12389781,0.1314462,-0.15823059,0.16423716,-0.10896117,-0.1368315,-0.083842285,-0.13013591,0.14582725,-0.14953399,-0.13091153,-0.20612419,-0.17402102,0.13747978,-0.09658122,-0.12000888,0.12178479,0.09976832,-0.0726944,0.15299419,0.17126727,0.13257378,0.1422388,0.16282785,0.14141437,0.1405297,0.14219652,-0.11550429,0.15993963,-0.1058372,-0.17948708,0.1268755,-0.15537849,0.15183856,-0.17581432,-0.1459699,-0.15381067
Al_Jefferson,-0.1234165,-0.12375791,0.12441695,0.06421721,-0.055408232,-0.0509835,-0.10090298,-0.080238916,0.04406571,0.08500205,0.122104995,0.13259047,-0.07754153,-0.108258955,0.07224842,-0.03981729,0.13039806,-0.055477,-0.050825655,-0.07903469,-0.067635484,0.10254709,-0.04816212,-0.10190313,-0.040023975,-0.036606066,0.098920785,-0.07226442,-0.054627787,0.1046844,0.037607618,-0.06783589,0.10304834,0.13766009,0.1382853,0.021451263,0.05416786,0.106278345,0.08665062,0.051678326,-0.07732373,0.1090244,-0.13281803,-0.10282459,0.10128161,-0.037039973,0.02286175,-0.0897538,-0.0072517185,-0.15919
Alan_Arkin,0.016160378,-0.11785862,0.14033867,0.14971632,-0.23110414,-0.17137364,-0.12168328,-0.1564903,0.17613384,0.045599736,0.2224616,0.13850239,-0.16297539,-0.15252395,0.14329109,-0.19271822,0.1305262,-0.18527685,-0.03947353,-0.109168366,-0.12109253,0.121632665,-0.13082136,-0.11684083,-0.14430614,-0.15656604,0.082207985,-0.16639379,-0.1090941,0.17631137,0.059322402,-0.16225594,0.20271191,0.19211572,0.09329764,0.057485987,0.03283879,0.1312879,0.046005577,0.18809843,-0.18260741,0.12042361,-0.11264602,-0.098700024,0.1853883,-0.12822075,0.12875907,-0.21155061,-0.11631589,-0.1787508
Alan_E._Nourse,-0.11018369,-0.04274923,0.044750746,0.048685305,-0.031861316,-0.059026666,-0.092231594,-0.11555415,0.10953626,0.05950767,0.07425885,0.107902214,-0.06069758,-0.13506049,0.04182784,-0.08173867,0.10489885,-0.071136735,-0.10755535,-0.06561752,-0.06428773,0.03166507,-0.1181344,-0.025144607,-0.087741695,-0.08614829,0.028947074,-0.05771465,-0.13466619,0.07279782,0.124546416,-0.100088246,0.022459395,0.053873938,0.067380086,0.12507482,0.04467697,0.09858378,0.08006563,0.1416752,-0.10412651,0.07221439,-0.0489067,-0.0447937,0.12632376,-0.12161239,0.10053865,-0.05330914,-0.061090894,-0.0570526
Alan_Rickman,0.012041706,-0.15047498,0.17400266,0.12169819,-0.14005552,-0.16289899,-0.121061794,-0.15547834,0.20263574,0.11123403,0.16045083,0.21996048,-0.14527667,-0.11244699,0.08340572,-0.074818924,0.1265803,-0.13285515,-0.040514667,-0.10064999,-0.14984027,0.18933518,-0.18584666,-0.09762728,-0.10713654,-0.08981531,0.065371364,-0.16374987,-0.06801027,0.15252598,0.037329394,-0.11913269,0.1976801,0.17291018,0.15041715,0.09886986,0.10410928,0.19985415,0.07505668,0.1493572,-0.117930554,0.12739429,-0.14611231,-0.110034265,0.19463511,-0.16724187,0.17388235,-0.15936895,-0.18626645,-0.17827521
"Albany,_Georgia",-0.13054498,-0.084881075,0.015666882,0.12774456,-0.08817937,-0.14688386,-0.09901389,-0.14951813,0.16247465,0.10270847,0.20318747,0.09958341,-0.19154412,-0.12845638,0.17865366,-0.061757006,0.15104477,-0.09567079,-0.17051768,-0.11930616,-0.07465572,0.11902874,-0.050527643,-0.10278349,-0.10248126,-0.055142175,0.1818543,-0.11471577,-0.09290281,0.15667221,0.15158503,-0.1180402,0.20357788,0.092289336,0.15273726,0.11011828,0.11502569,0.13641444,0.07995851,0.14904025,-0.17091088,0.12802523,-0.15539612,-0.13390759,0.13687202,-0.07930203,0.22007032,-0.055329908,-0.03796681,-0.028866623
Albert_Camus,-0.02994096,-0.013750146,0.08139355,0.072142765,-0.11788724,-0.065804526,-0.082573734,-0.08986949,0.06024418,0.12864466,0.07022983,0.08947222,-0.08041806,-0.0356046,-0.0043688426,-0.10004397,0.07625138,-0.08765977,-0.0059450455,-0.13923503,-0.1270753,0.08322,-0.048165057,-0.07264438,-0.06747654,-0.020563804,0.12844694,-0.05782755,-0.119006775,0.053070303,0.1458325,-0.099474706,0.086780794,0.13728172,0.088459305,0.06294657,0.07002373,0.06883833,0.041269302,0.07133917,-0.13954814,0.07912645,-0.058106814,-0.06254918,0.062215496,-0.02640977,0.041467045,-0.09079463,-0.027239453,-0.13072711
Albert_Einstein,-0.036716998,-0.054123,0.061859395,0.1428393,-0.10598249,-0.08696908,-0.109238535,-0.08249516,0.04013788,0.03277982,0.0014403088,0.051592037,-0.067223065,-0.053132486,0.030523544,-0.116458885,0.07116649,-0.12406634,-0.08448063,-0.05112284,-0.056774564,0.11189753,-0.09409273,-0.051633034,-0.12295039,-0.050222352,0.1143138,-0.053479612,-0.108630896,0.06642859,0.12468679,-0.0768378,0.10091876,0.14442344,0.02035438,0.13697904,0.1275369,0.092161536,0.076823205,0.084437266,-0.10533823,0.05355073,-0.08643514,-0.13374507,0.104055695,-0.04129147,0.0062292772,-0.06385037,-0.12745924,-0.11632506
Albuquerque,-0.0464945,-0.18047263,0.13425304,0.13989078,-0.09309676,-0.12235994,-0.1231959,-0.13638319,0.010855788,0.08428833,0.11160489,0.2164236,-0.0962731,-0.15286294,0.09828724,-0.120997354,0.12964731,-0.12869866,-0.17314619,-0.11489649,-0.14452003,0.19841097,-0.11594172,-0.13165626,-0.16333419,-0.095765956,0.08151117,-0.1845164,-0.13962556,0.20345221,0.11327171,-0.1785601,0.16169932,0.048708078,0.15533014,0.115750015,0.098152995,-0.036479518,-0.0057831826,0.042555574,-0.043296397,0.1287617,-0.09936752,-0.123343036,0.13573231,-0.120824754,0.056877628,-0.15308958,-0.043996222,-0.044026535
Alcalá_de_Henares,-0.09884896,-0.10074778,0.17680612,0.11370737,-0.09621858,-0.16380426,-0.19391221,-0.08752784,0.08955907,0.09115878,0.0327734,0.16053626,-0.1395052,-0.121958695,0.12455672,-0.13169546,0.10570186,-0.1755564,-0.11998393,-0.10456822,-0.12820777,0.10984593,-0.19814195,-0.1640466,-0.15591682,-0.09928491,0.1566252,-0.038995575,-0.18907546,0.09093314,0.03452333,-0.11897455,0.11665077,0.031241206,0.122370586,0.12339066,0.19264376,0.083681285,0.108708985,0.07128837,-0.10851164,0.135831,-0.20651628,-0.12157762,0.17477883,-0.15941618,0.08343495,-0.12423959,-0.07134283,-0.07920532
Alec_Douglas-Home,-0.13841201,-0.12951966,0.05967467,0.119367726,-0.0831597,-0.0910519,-0.0658078,-0.053359218,0.1307187,0.05969977,0.123781264,0.00860225,-0.102054514,-0.05634927,0.098337024,-0.06162489,0.048451416,-0.064545475,-0.08744732,-0.06933097,-0.067650184,0.049495902,-0.12157691,-0.12180736,-0.009672537,-0.10043388,0.0019322534,-0.16163746,-0.031635005,0.014283347,-0.010288736,-0.096228324,0.051891986,0.14859723,0.12136327,0.0659415,0.15000272,0.07366514,0.11963589,0.08978177,-0.041902877,0.0820676,-0.086377695,-0.086046696,-0.011366855,-0.06354543,0.09232555,-0.100747995,-0.11339719,-0.050607707
Aleksandr_Solzhenitsyn,-0.053684067,-0.029598976,0.076465,0.12169886,-0.10323624,-0.12699804,-0.07973732,-0.112112224,0.1282595,0.12256355,0.03661726,0.1299957,-0.08711164,-0.08716483,0.054243144,-0.089920714,0.051007554,-0.14548346,-0.051224694,-0.095550545,-0.10885946,0.06881646,-0.031584095,-0.070973694,-0.12183353,-0.054261293,0.10047347,-0.12685825,-0.099148475,0.030382523,0.12595676,-0.10176846,0.08440127,0.1256427,0.1386119,0.08034502,0.04572111,0.114169106,0.056603335,0.11798379,-0.1145608,0.09421212,-0.06511031,-0.07355031,0.026878923,-0.10832509,0.11045835,-0.12031574,-0.032094322,-0.13340215
Alexa_Internet,-0.18412413,-0.13981782,0.11465384,0.17367816,-0.17952201,-0.17732625,-0.12869844,-0.2150283,0.18312864,0.17283915,0.15344556,0.15218969,-0.18530566,-0.15146902,0.17198566,-0.14017087,0.10609958,-0.15716101,-0.17576747,-0.17328563,-0.11815504,0.15305462,-0.13982196,-0.13785413,-0.10820731,-0.1684597,0.18576215,-0.15931866,-0.20374377,0.17460135,0.11130143,-0.1794456,0.18215887,0.16223441,0.15776666,0.1172416,0.15474054,0.16799533,0.17372815,0.111070365,-0.17221984,0.13992056,-0.14349164,-0.18355322,0.17468902,-0.10468867,0.13929197,-0.17792512,-0.14272165,-0.10271425
Alexander_Jablokov,-0.13610433,-0.042749487,0.06599682,0.069880836,-0.049588688,-0.122630574,-0.050319146,-0.11685174,0.13335808,0.0059977137,0.10467483,0.041711528,-0.057775415,-0.12980288,0.048941996,-0.07150238,0.057301275,-0.12549067,-0.08364356,-0.10057616,-0.056198187,-0.0043090167,-0.13252912,-0.07844276,-0.027470326,-0.090703905,0.01729301,-0.10055878,-0.1265591,0.07435104,0.06365867,-0.13595761,0.050101556,0.07506352,0.06237368,0.07994804,0.045855295,0.0995137,0.07631943,0.07698573,-0.12765537,0.06310102,-0.10832289,-0.07892736,0.06749691,-0.12904985,0.096471064,-0.114797786,-0.064533316,-0.072260305
Alexandre_Pato,-0.07111261,-0.038771313,0.1304319,0.053747173,-0.10405571,-0.06481225,-0.105096266,-0.08815365,0.056122065,0.109894894,0.091874585,0.06989549,-0.09628334,-0.056662053,0.025721462,-0.080002435,0.1351794,-0.07189147,-0.019447008,-0.115495704,-0.11281148,0.111143105,-0.07564935,-0.080745146,-0.05429193,-0.024809888,0.09798926,-0.05570798,-0.11303868,0.07531891,0.11934474,-0.113937594,0.095364265,0.15821645,0.07386864,0.10183278,0.13019757,0.0736528,0.07901694,0.06426508,-0.13823159,0.07580577,-0.0663324,-0.083675586,0.10545551,-0.0032502636,0.041280065,-0.07380193,-0.053939868,-0.12548295
Alexis_Valdés,-0.14036976,-0.12536278,0.053174254,0.11401081,-0.025397068,-0.06509457,-0.078069456,-0.11512109,0.06633329,0.052158974,0.12179272,0.05430173,-0.07750637,-0.13559134,0.09861,-0.054520402,0.053890638,-0.08426666,-0.04642655,-0.08371281,-0.018818446,0.048424292,-0.110192604,-0.09708159,-0.029615339,-0.09888572,0.07577247,-0.14985697,-0.05111352,0.037838858,-0.006731008,-0.083170876,0.10375196,0.15776332,0.12940398,0.034789614,0.068932414,0.07620744,0.08374569,0.054217424,-0.05922997,0.06427421,-0.12881136,-0.13351758,0.072991155,-0.1142874,0.0398111,-0.08546226,-0.06044668,-0.07849533
Alexondra_Lee,-0.12171432,-0.10563399,0.11131186,-0.018568067,-0.08409227,-0.118622616,-0.15056601,-0.16188124,0.097699635,0.1445794,0.018501762,0.15130095,-0.16187687,-0.20125881,0.16442315,-0.14949785,0.11789489,0.008306443,-0.04246408,-0.118894115,-0.12949021,0.16497704,-0.16372581,-0.092942044,-0.080171056,0.033321086,0.1607704,-0.07046569,-0.10316053,0.046973977,0.14877556,-0.10594421,0.17110069,0.13876489,0.10936374,0.11947443,0.13202596,0.12594429,0.14717075,0.1723015,-0.12939122,0.12673454,-0.16604035,-0.13561349,0.11392166,-0.08370434,0.14640237,-0.13016072,-0.110127605,-0.12504882
Alfred_Bester,-0.13584992,-0.039469574,0.13860933,0.08741615,-0.094175376,-0.06922939,-0.07025708,-0.056888968,0.15018938,0.028914776,0.13132933,0.06398651,-0.060403686,-0.06517912,0.079378106,0.009205228,0.1167807,-0.07268231,-0.11075217,-0.037615173,-0.11575236,0.07144688,-0.12321811,-0.06402663,-0.02984979,-0.047871415,-0.011060389,-0.11421057,-0.04766987,0.08288488,0.081076905,-0.09637612,0.011133629,0.056916986,0.052561868,0.15295485,0.06455455,0.11771588,0.05559935,0.13215226,-0.031279147,0.11065976,-0.067118295,-0.047658373,0.034831874,-0.05581965,0.13331784,-0.14424853,-0.036445044,-0.14751606
Algeria,-0.098842606,-0.15408319,0.13423659,0.15149072,-0.17202047,-0.18225953,-0.13946436,-0.12748957,0.12381663,0.15521316,0.072379425,0.16395839,-0.17451954,-0.09248908,0.22177486,-0.08343871,0.19279054,-0.09694149,-0.10943802,-0.1729849,-0.039936814,0.13268879,-0.08900709,-0.17254408,-0.1148577,-0.13607323,0.0626804,-0.14284375,-0.13746896,0.15121673,0.15846169,-0.17440231,0.054645233,0.14391431,0.12801394,0.12704873,0.16133557,0.1628451,0.12898366,0.12663773,-0.15024178,0.115713626,-0.14171812,-0.084413394,0.1345118,-0.13243067,0.14175805,-0.14636114,-0.15863073,-0.119174115
Ali_Landry,-0.10538975,-0.12481532,0.063447215,0.035334807,-0.07340611,-0.112219274,-0.047977697,-0.06604778,0.111029245,0.056404147,0.117222376,0.050351065,-0.07791482,-0.08664683,0.06253564,-0.09159506,0.0652938,-0.06289677,-0.026277982,-0.14049998,-0.0620774,0.03855656,-0.07689272,-0.12886046,-0.011257433,-0.05230725,0.06628133,-0.08028304,-0.12417306,0.056261633,0.05473604,-0.11644188,0.10079072,0.13218713,0.12612602,0.053889003,0.13539423,0.09705243,0.116784796,0.052161846,-0.108330816,0.08780117,-0.11924962,-0.089492865,0.076347,-0.042295754,0.06965581,-0.08143046,-0.06380786,-0.073807485
Alicante,-0.13101415,-0.11715566,0.12859909,0.06461317,-0.097016424,-0.18974169,-0.16712871,-0.14033337,0.174416,0.17152,0.10936305,0.16687322,-0.13789502,-0.108567014,0.11735148,-0.15325256,0.12720248,-0.09952268,-0.15227275,-0.14526874,-0.1188593,0.200469,-0.0873556,-0.09108177,-0.11489327,-0.11500807,0.235526,-0.043421797,-0.1342673,0.08113995,0.10471186,-0.17371055,0.15504041,0.1385432,0.14433248,0.17484844,0.13435623,0.22149855,0.084767975,0.18446936,-0.18808237,0.11595093,-0.17008038,-0.09353015,0.11660354,-0.10438958,0.20501843,-0.107938685,-0.10280252,-0.112930514
Alki_David,-0.14663215,-0.14617056,0.16422391,0.08012598,-0.13664818,-0.14811094,-0.1652312,-0.12835267,0.16498224,0.15238301,0.108351655,0.19153033,-0.16849442,-0.110067904,0.12198508,-0.13874102,0.13185662,-0.101908244,-0.098111436,-0.12227372,-0.11333738,0.13090734,-0.12094202,-0.115529895,-0.12373886,-0.09786058,0.16645631,-0.098138124,-0.12448321,0.10975082,0.09173102,-0.18053782,0.09890799,0.10355686,0.12236807,0.14633895,0.12869896,0.15703839,0.15670921,0.15810667,-0.17835373,0.111169904,-0.16988167,-0.111807495,0.14849903,-0.02050787,0.119492285,-0.20188628,-0.11857144,-0.1549715
Alyson_Stoner,0.0110209705,-0.1612541,0.08915535,0.19959907,-0.18862146,-0.18752807,-0.13389553,-0.14400074,0.15464765,0.18237855,0.12029071,0.20083477,-0.18120492,-0.100099966,0.1293474,-0.10605132,0.12154049,-0.1890593,-0.14119117,-0.12967303,-0.20466742,0.15490554,-0.19112116,-0.096694015,-0.14337316,-0.17203952,0.14800455,-0.15778397,-0.15853724,0.12607156,0.034354705,-0.033279505,0.15376586,0.16097847,0.12897357,0.16382098,0.1275441,0.20158978,0.13721938,0.18746567,-0.21384183,0.10074441,-0.12237035,-0.0966023,0.15531728,-0.12380369,0.13863933,-0.096918784,-0.17186737,-0.16336338
Amanda_Peet,-0.057318997,-0.14677884,0.07158375,0.1489526,-0.14576614,-0.15998398,-0.018635537,-0.18184105,0.14205083,0.19306222,0.15812317,0.19147027,-0.18001239,-0.16737995,0.13310923,-0.1081338,0.035681263,-0.14454055,-0.07153853,-0.08962427,-0.1322783,0.022787156,-0.23239721,-0.14959696,-0.18482232,-0.17239544,0.15684444,-0.15214515,-0.053217277,0.059835758,0.11682701,-0.19181576,0.1912366,0.17741936,0.1665697,0.064456895,0.120272815,0.1423727,0.13014382,0.16203338,-0.14554688,0.08248002,-0.18462259,-0.08669543,0.15699506,-0.056199063,0.17154518,-0.15829715,-0.17047502,-0.122752234
Amanda_Seyfried,-0.15270986,-0.17426102,0.17787288,0.15495181,-0.15341929,-0.2044056,-0.15035746,-0.19617932,0.12033238,0.12662886,0.14232309,0.13843124,-0.10197385,-0.1212328,0.20607458,-0.1436934,0.18911424,-0.16740593,-0.16954319,-0.18718189,-0.14346474,0.16561256,-0.15971182,-0.16781822,-0.17082569,-0.1209426,0.19254068,-0.09038768,-0.17573158,0.074405484,0.19390851,-0.11068219,0.15627119,0.11915581,0.09869624,0.13189296,0.10254688,0.108744256,0.044206813,0.08671906,-0.16005138,0.19863248,-0.14309649,-0.11542643,0.124902226,-0.15032108,0.18856432,-0.19247688,-0.181239,-0.12306777
Amazon.com,-0.12311849,-0.09240589,0.06390948,0.11294544,-0.063956305,-0.1246685,-0.0734307,-0.115838386,0.1182333,0.045872875,0.09110407,0.032979574,-0.10811831,-0.12722087,0.08659422,-0.08962902,0.043721236,-0.11866737,-0.077938125,-0.10867081,-0.04429968,0.027694132,-0.10494714,-0.111032166,-0.041227583,-0.10025696,0.056707542,-0.13058242,-0.09971561,0.043251388,0.038469817,-0.12802875,0.09375405,0.14673996,0.10168903,0.07160652,0.13618496,0.08128189,0.09968307,0.07369076,-0.11408696,0.08309664,-0.12511899,-0.11315138,0.046359934,-0.099748425,0.09008267,-0.10155297,-0.11214369,-0.06677134
Amir_Johnson,-0.12777343,-0.11758352,0.121381275,0.11019084,-0.04299872,-0.046000224,-0.12083762,-0.12007302,0.05666204,0.103420794,0.09371749,0.11089117,-0.086271666,-0.10762902,0.105581574,-0.031146998,0.12160499,-0.09619156,-0.09262022,-0.058880903,-0.048426736,0.11765579,-0.090091154,-0.09588845,-0.103379585,-0.06554737,0.08684946,-0.118966736,-0.019488033,0.07552799,0.025084862,-0.07195143,0.104738854,0.15874852,0.1234675,0.050104126,0.046722706,0.10287458,0.07957261,0.05473771,-0.04747428,0.09410868,-0.089252315,-0.13471454,0.104760505,-0.089143604,0.03630956,-0.10156856,-0.02660965,-0.1446508
Amnesia_Moon,-0.17752121,-0.13410698,0.16588342,0.15871967,-0.16531327,-0.17673507,-0.1328046,-0.15165782,0.17104979,0.14555788,0.1362946,0.19640525,-0.13076128,-0.1734165,0.11446801,-0.20173901,0.16085936,-0.15048806,-0.16048844,-0.16200447,-0.14847651,0.119827144,-0.105514206,-0.12692447,-0.16413641,-0.16105318,0.1824071,-0.13260245,-0.1451681,0.0794376,0.05319137,-0.12775968,0.06901595,0.11649176,0.031252764,0.13927305,0.10194132,0.15772784,0.1183444,0.17910378,-0.14909136,0.15841547,-0.18785658,-0.15209487,0.1352414,-0.13208789,0.10978501,-0.18228011,-0.16365823,-0.14771833
Amy_Poehler,-0.12128359,-0.090299055,0.16769136,-0.00430012,-0.1476688,-0.14790094,-0.07901684,-0.12601626,0.15131083,0.07949901,0.08467213,0.10627464,-0.13129038,-0.13575165,0.14876127,-0.115497485,0.15908505,-0.049022563,-0.061958767,-0.067950375,-0.13531178,0.14585048,-0.08688442,-0.13882414,-0.08469256,0.040599156,0.13297543,-0.06811577,-0.07366761,0.045672674,0.09774117,-0.18885814,0.15189677,0.18883349,0.08904476,0.116591185,0.17286393,0.118957624,0.15043741,0.16393305,-0.13126688,0.12671399,-0.14824444,-0.075245924,0.13143824,-0.093734205,0.16653003,-0.12668963,-0.09498386,-0.16128261
Amy_Spanger,-0.10258079,-0.07355205,0.075576946,0.033038657,-0.04652583,-0.06464656,-0.048425034,-0.06822506,0.04591418,0.023726953,0.0755288,0.14078286,-0.0034274952,-0.092238545,0.012371469,-0.03693301,0.09260561,-0.05102454,-0.08878969,-0.039413385,-0.034721877,0.07103052,-0.092261456,-0.045068227,-0.042865183,-0.0056618704,0.06215351,-0.028974188,-0.08378236,0.14268327,0.09977891,-0.059328042,0.069128476,0.10274047,0.044188447,0.05819294,0.01736845,0.1443836,0.050377827,0.053445898,-0.08875024,0.050617814,-0.14861453,-0.076580845,0.13725352,-0.07622587,0.009168045,-0.0760754,0.0007443356,-0.17960161
Anatole_France,-0.10721659,-0.03331802,0.13136645,0.14118701,-0.040597867,-0.02165015,-0.12341424,-0.14235292,0.03272041,0.12146557,0.08263816,0.08165908,-0.0939134,-0.08344679,0.05974949,-0.044847112,0.1375969,-0.09429162,-0.037234947,-0.08530615,-0.07028576,0.12896444,-0.11089675,-0.061132714,-0.112772256,-0.04515223,0.12716885,-0.09882776,-0.05288971,0.05777132,0.06517562,-0.078996964,0.094091766,0.18633763,0.06781351,0.060877033,0.042956784,0.047845647,0.05049404,0.04793367,-0.068266526,0.05795136,-0.08167892,-0.14704667,0.106526956,-0.048337325,0.0044021104,-0.11015754,-0.05229116,-0.13092403
Anders_Fogh_Rasmussen,-0.0866732,-0.10167512,0.10391306,0.1301956,-0.11838804,-0.083010696,-0.121824816,-0.06327995,0.12072957,0.086363025,0.1106419,0.060314912,-0.10296336,-0.055432837,0.112114206,-0.010914999,0.110335596,-0.100695804,-0.12025602,-0.05134213,-0.1095194,0.1267716,-0.091268785,-0.1095601,-0.08458552,-0.078162216,0.019054318,-0.14473836,-0.012125582,0.051621005,0.04217142,-0.090948075,0.050931107,0.13818492,0.110847995,0.13889271,0.14354965,0.12442036,0.10003717,0.09966875,-0.03461587,0.12497493,-0.07212444,-0.0948182,0.008153023,-0.030416904,0.119707875,-0.1362812,-0.0798903,-0.1311286
Andre_Agassi,-0.05611119,-0.12145806,0.01743697,0.078156635,-0.045587998,-0.0767498,-0.107828185,-0.06645761,0.079386264,0.055388242,0.014049311,0.107425414,-0.06159397,-0.10609147,0.064029425,-0.11163555,0.077776395,-0.05953809,-0.12470159,-0.014668837,-0.031181686,0.0808502,-0.09628534,-0.029343897,-0.123274006,-0.09190859,0.07555501,-0.051067185,-0.1146276,0.064126275,0.12283101,-0.0668044,0.067174524,0.06446658,0.06851423,0.10920695,0.105175644,0.10777276,0.13048403,0.109673366,-0.09802657,0.073097825,-0.067722075,-0.088354856,0.12258216,-0.10754044,0.0488051,-0.009399857,-0.11411351,-0.06561733
Andrei_Kirilenko,-0.14262213,-0.120038554,0.056818444,0.115386106,-0.031647637,-0.07469771,-0.067163564,-0.11848764,0.057549287,0.056743525,0.11989236,0.05473371,-0.08675209,-0.12991339,0.09737532,-0.050337635,0.050766602,-0.09349763,-0.07175754,-0.086280346,-0.027939204,0.057709645,-0.10608682,-0.11239439,-0.03745001,-0.09245683,0.074567944,-0.13689287,-0.05070267,0.035752077,-0.017634677,-0.07067468,0.098235555,0.15911624,0.12523113,0.021921316,0.048145596,0.087262675,0.09478703,0.050963767,-0.050671007,0.076854944,-0.133628,-0.11329868,0.06200189,-0.11295887,0.03356751,-0.09958663,-0.0724976,-0.063274115
Andrew_Bynum,-0.11215379,-0.117324136,0.11683451,0.05174916,-0.06060436,-0.055639774,-0.09491961,-0.07454976,0.051888496,0.097656384,0.124733366,0.12620085,-0.06545008,-0.10097467,0.07341222,-0.038351875,0.12779562,-0.05065558,-0.054255255,-0.08852964,-0.067741,0.112579204,-0.052806806,-0.0894539,-0.05008057,-0.029851563,0.10749914,-0.07487234,-0.0464728,0.102727614,0.04393821,-0.061372057,0.11746516,0.14571543,0.14013071,0.039931644,0.05605428,0.10705272,0.0918382,0.04330595,-0.048149128,0.10738892,-0.10564654,-0.08623341,0.11636478,-0.04444522,0.030154437,-0.102176465,-0.0072311168,-0.15301262
Andrew_Huxley,-0.08179461,-0.016481088,0.11864795,0.13389167,-0.099814706,-0.06792702,-0.12722877,-0.12748903,0.057264294,0.09458932,0.04485492,0.06131068,-0.1141977,-0.0671057,0.026130809,-0.08755932,0.12224389,-0.12878636,-0.06138321,-0.11565485,-0.10806156,0.1043798,-0.11479653,-0.083713785,-0.10872119,-0.0748089,0.0976667,-0.09481798,-0.09726169,0.054332208,0.12423715,-0.13147533,0.08453528,0.15025881,0.0557445,0.12703192,0.12566754,0.061552923,0.06365919,0.09447511,-0.11105715,0.06769209,-0.06857981,-0.12670545,0.08202957,-0.03552648,0.03887826,-0.06769541,-0.100096025,-0.11641104
Andrew_Johnson,-0.031551745,-0.057084586,0.040941507,0.123403616,-0.07368454,-0.14921506,-0.060687646,-0.06710763,0.093918756,0.048754983,-0.013301385,0.12354304,-0.03355383,-0.064266115,0.04672345,-0.12173518,0.026775258,-0.13719364,-0.093432665,-0.05265545,-0.052004363,0.08627901,-0.030239044,-0.047333326,-0.1258595,-0.047183983,0.10783648,-0.07254792,-0.10700516,0.04938795,0.15456815,-0.058570024,0.09754066,0.11796278,0.0774256,0.07377003,0.05140712,0.14355972,0.063671105,0.11020692,-0.1207809,0.06990483,-0.09598445,-0.07233962,0.05863269,-0.10820042,0.051582202,-0.04965546,-0.045547877,-0.13816899
Andrew_Pruett,-0.10217389,-0.11434527,0.11934163,0.03228271,-0.11253036,-0.11604218,-0.09331523,-0.077372916,0.106145024,0.07362065,0.103101075,0.116975754,-0.0841412,-0.08682028,0.060460143,-0.080740325,0.11008946,-0.07242683,-0.048733857,-0.10041659,-0.09896916,0.0958002,-0.042471074,-0.1001116,-0.02885359,-0.033253327,0.092103355,-0.061483525,-0.101998314,0.10240139,0.0952751,-0.11281667,0.1031801,0.112873815,0.13000913,0.09138427,0.09118156,0.12160038,0.11416266,0.08782092,-0.09126646,0.12117579,-0.10548801,-0.08249745,0.10199848,-0.02920094,0.068792045,-0.098623045,-0.032359075,-0.14268374
Andrew_Schally,-0.07886845,-0.01653216,0.10904344,0.14007571,-0.09914463,-0.06726797,-0.1264353,-0.13756777,0.06244305,0.09993758,0.044553377,0.0643323,-0.099715486,-0.06733323,0.031231329,-0.0915754,0.1218881,-0.105042815,-0.05345249,-0.11390762,-0.10720797,0.10676496,-0.097716555,-0.0829522,-0.09791594,-0.069178276,0.098670185,-0.087225534,-0.0874575,0.047156576,0.121544555,-0.12861761,0.08336672,0.15765087,0.041062634,0.1360498,0.12166658,0.055639412,0.05133466,0.091478005,-0.11521214,0.06833457,-0.07645773,-0.12925212,0.08653087,-0.03266503,0.04095403,-0.12245335,-0.09863596,-0.11564016
Andris_Biedriņš,-0.06276532,-0.09263431,0.062108032,0.12814572,-0.04947213,-0.056901366,-0.099632114,-0.07601539,0.019654375,0.049532373,0.036808282,0.10388518,-0.047148656,-0.10695119,0.09497486,-0.07451147,0.06263383,-0.0980606,-0.122112244,-0.022055354,-0.027596023,0.12352679,-0.090961635,-0.06569955,-0.11186468,-0.061990626,0.10458066,-0.07294605,-0.0453415,0.085503645,0.069482595,-0.047498796,0.11374193,0.14351222,0.0691641,0.060353722,0.04525486,0.12702325,0.10292065,0.054781146,-0.052696288,0.072536916,-0.124752,-0.13288182,0.114916235,-0.09050097,0.0031731266,-0.045302056,-0.06281566,-0.1473311
André_Gide,-0.09256461,-0.031061774,0.11646126,0.13432911,-0.1305827,-0.035936307,-0.12661675,-0.061779507,0.046470806,0.1190761,0.080523126,0.01220877,-0.11114286,-0.029161954,0.064846836,-0.037097465,0.108880706,-0.08049888,-0.0735329,-0.067228824,-0.12840436,0.14404644,-0.119505465,-0.08310569,-0.08257427,-0.043309264,0.04572692,-0.115335494,-0.041071698,0.036388546,0.07493931,-0.083411634,0.047768466,0.15428568,0.056983903,0.14467676,0.14355151,0.053463105,0.069241285,0.10151607,-0.041896313,0.0857124,-0.02769838,-0.08170824,0.0070786667,0.0038534314,0.051383987,-0.13891196,-0.11170523,-0.10466243
Andrés_Calamaro,-0.0919287,-0.12400978,0.045873247,0.021166645,-0.061614513,-0.050772864,-0.09791332,-0.074819155,0.09876682,0.12860046,0.09128074,0.12739457,-0.08177148,-0.09477609,0.04362471,-0.102747716,0.14379077,-0.03656429,-0.046125628,-0.08146228,-0.07412033,0.07343109,-0.055398107,-0.059793327,-0.058927793,-0.050786693,0.07808585,-0.04310873,-0.13098621,0.070584856,0.11865006,-0.0726824,0.07176858,0.06683827,0.13781232,0.07991104,0.09379702,0.092784196,0.13327183,0.09801734,-0.096211165,0.10316509,-0.05746133,-0.045517243,0.13228832,-0.058158435,0.08346968,-0.02235306,-0.065855615,-0.06043946
Andy_Roddick,-0.061169885,-0.12906173,0.02780318,0.07509057,-0.043962467,-0.07499004,-0.108731434,-0.07088014,0.077547535,0.06011919,0.011165171,0.10767471,-0.058985706,-0.10521629,0.06765534,-0.12845834,0.079789564,-0.067708604,-0.12865525,-0.019252218,-0.029352207,0.084583275,-0.093464285,-0.02366638,-0.114566535,-0.09306316,0.07561825,-0.0653728,-0.10766419,0.06879292,0.112845935,-0.065492645,0.06725587,0.06950554,0.05746691,0.10268142,0.10722575,0.10245572,0.09822266,0.110857576,-0.09488077,0.06668556,-0.07971648,-0.088428795,0.12295287,-0.10103282,0.04242024,-0.009878262,-0.10422993,-0.06358425
Andy_Williams,-0.06824106,-0.11729397,0.054419544,0.123090714,-0.10166345,-0.13443719,-0.10675082,-0.07237278,0.082457125,0.020453518,0.0031586492,0.10018959,-0.05769237,-0.1029687,0.07553809,-0.08758457,0.065068595,-0.12743542,-0.13676745,-0.03880075,-0.040597215,0.09248411,-0.075566985,-0.074685745,-0.112956606,-0.076875225,0.08525941,-0.071307026,-0.09055162,0.082684755,0.12307135,-0.086570784,0.11034167,0.1306038,0.04534707,0.10631541,0.12722446,0.14180121,0.11069621,0.09789229,-0.102885015,0.090842955,-0.11298913,-0.1381553,0.10559395,-0.08840898,0.036802523,-0.04925313,-0.10428696,-0.1273883
Angela_Carter,-0.08744134,0.013991793,0.1310729,0.09382886,-0.07590292,-0.063817665,-0.08128057,-0.13142519,0.07860063,0.04774666,0.06099946,0.05824027,-0.07655155,-0.0832504,0.010464101,-0.06379709,0.13231999,-0.13692947,-0.056879587,-0.10607503,-0.09785147,0.05915739,-0.12672873,-0.03848293,-0.089229055,-0.050204102,0.050712395,-0.0687873,-0.11802342,0.0781656,0.1533395,-0.13708147,0.038018376,0.08648087,0.0296755,0.14003776,0.049789634,0.06610843,0.026485052,0.09895686,-0.10249614,0.057974175,-0.06722889,-0.078138925,0.104709886,-0.062054418,0.05418984,-0.13553198,-0.050469253,-0.1255156
Angham_Mohammad_Ali_Suleiman,-0.13044812,-0.103815295,0.13529724,0.009931586,-0.20458017,-0.14164026,-0.17288464,-0.19227588,0.1603556,0.04166679,0.065447286,0.10226518,-0.08294889,-0.18855353,0.1356344,-0.09916629,0.08450221,-0.027011016,-0.079197675,-0.13007478,-0.111605436,0.11902215,-0.18025686,-0.1534244,-0.10894468,-0.11205833,0.13227469,-0.04169863,-0.11182459,0.09979525,0.11271989,-0.14371371,0.15275657,0.14180845,0.05563484,0.11442065,0.1563056,0.17945272,0.10659504,0.14539105,-0.13605726,0.07841173,-0.11094663,-0.10596167,0.054854672,-0.11566955,0.09381235,-0.14547946,-0.12880675,-0.17556661
Angoss,-0.074503966,-0.12153308,0.11513311,0.07395524,-0.06310112,-0.08665954,-0.12630695,-0.030417575,0.063028686,0.11653559,0.13471428,0.06923755,-0.122827694,-0.059105914,0.12703231,0.012212348,0.059713513,-0.0812952,-0.13310915,-0.058717497,-0.10204874,0.10632491,-0.06944876,-0.11939269,-0.04994752,-0.094001405,0.04847868,-0.08660769,0.00054956164,0.086644076,0.07471409,-0.09602595,0.06314745,0.034364093,0.08199204,0.0806817,0.10066793,0.036010336,0.04960995,0.077009454,-0.004507271,0.14622827,-0.029640827,-0.08665976,0.025229434,-0.055794537,0.12933592,-0.12870343,-0.10336832,-0.061517697
Anna_Faris,-0.13449042,-0.122605145,0.15059683,0.09412132,-0.089832395,-0.21337561,-0.022985492,0.004451753,0.14557654,0.09243232,0.121708296,0.18337443,-0.09138022,-0.07431302,0.10492169,-0.10163235,0.19522192,-0.14999579,-0.1522101,-0.14748982,-0.14731851,0.1642866,-0.12860493,-0.13479225,-0.15920632,0.014339202,0.14764597,-0.01500608,-0.106880255,0.13963734,0.09541097,-0.042282388,0.13924693,0.11312907,0.10044544,0.18362272,0.18774098,0.017846214,0.14059389,0.17026947,-0.044758018,0.11717927,-0.08084495,-0.13707767,0.14793023,-0.13659793,0.09655936,-0.14531688,-0.10282945,-0.07585112
Anna_Maria_Perez_de_Taglé,-0.1262518,-0.14937304,0.14640193,0.14179868,-0.1665442,-0.17306179,-0.11344246,-0.15433162,0.18560389,0.20234455,0.17678891,0.18243665,-0.17973469,-0.15732874,0.10959573,-0.15563132,0.14197874,-0.18748634,-0.12016624,-0.10504764,-0.17379734,0.14823616,-0.20028883,-0.17389438,-0.18052733,-0.16941455,0.15316415,-0.114162646,-0.152038,0.123036094,0.1372931,-0.20736864,0.12752928,0.15858988,0.13794468,0.15301143,0.1640381,0.17533882,0.15530574,0.19831927,-0.15085046,0.1287809,-0.11182864,-0.17930184,0.1362564,-0.15212609,0.17639773,-0.18438262,-0.18243861,-0.16071434
Anna_Nicole_Smith,-0.10712028,-0.14910193,0.18608652,0.038161308,-0.136479,-0.18842334,-0.074653424,-0.1618945,0.112986535,0.13115144,0.08157279,0.11766047,-0.10081193,-0.1696596,0.119095705,-0.06505982,0.11151664,-0.09509081,-0.10453262,-0.09155152,-0.13531716,0.16419251,-0.107604586,-0.1957395,-0.06099182,-0.08046898,0.15933438,-0.06496065,-0.05595591,0.11123333,0.043772366,-0.16742048,0.18924129,0.18238215,0.097840495,0.12096802,0.13134095,0.15969777,0.12885933,0.1314098,-0.10828114,0.18674223,-0.1658925,-0.062985025,0.1371495,-0.15125844,0.1468185,-0.17177823,-0.10363228,-0.20696424
Anna_Tsuchiya,-0.16280518,-0.0982151,0.12008707,-0.01646129,-0.14620662,-0.1988677,-0.11560378,-0.11406889,0.14987849,0.16632834,0.13687947,0.13622653,-0.056683183,-0.124522075,0.08404079,-0.17153575,0.15148778,-0.040911555,-0.13669407,-0.1912298,-0.15202379,0.10921044,-0.16446346,-0.16440123,-0.079968,-0.0023640492,0.17275535,-0.0018604164,-0.072036244,-0.031309314,0.062830135,-0.1563388,0.094671324,0.18302293,0.17274344,0.1693396,0.09204848,0.10097614,0.15554434,0.16166402,-0.09622104,0.17758279,-0.13723788,-0.13809654,0.09614434,-0.11244845,0.12998168,-0.15347342,-0.093548454,-0.12459614
Anne_McCaffrey,-0.12418066,-0.02583942,0.110411555,0.0886833,-0.07607423,-0.10995647,-0.08429997,-0.11967778,0.13586499,0.03739091,0.088069834,0.107549235,-0.05659537,-0.121260226,0.04818646,-0.053457096,0.10409414,-0.12981261,-0.11704412,-0.08139527,-0.086219184,0.038369577,-0.11546009,-0.06891922,-0.0688096,-0.079932824,0.036552947,-0.088024706,-0.10950581,0.102350324,0.111988716,-0.13739696,0.040591523,0.07215707,0.04600951,0.13233106,0.058661062,0.13600168,0.069531865,0.112316966,-0.10838412,0.10072736,-0.09662249,-0.08206574,0.098647766,-0.09878007,0.109861664,-0.14296721,-0.031638466,-0.12732954
Ansoft,-0.064465255,-0.10720816,0.12342368,0.024618372,-0.052833643,-0.11412335,-0.1070551,-0.058844402,0.07180542,0.10569158,0.11542085,0.1293195,-0.08010026,-0.08197174,0.07329042,-0.040987365,0.07746802,-0.06782027,-0.058277585,-0.11928465,-0.08673103,0.07316109,-0.02172862,-0.118858054,-0.038816176,-0.06406752,0.111122556,-0.03815969,-0.07661565,0.10716272,0.11942107,-0.1061374,0.11082002,0.064131945,0.1038754,0.04631324,0.105749905,0.060077753,0.07139146,0.038435273,-0.05658623,0.13088201,-0.07765993,-0.07719492,0.103323266,-0.043959696,0.09107248,-0.10101623,-0.05900277,-0.08034887
Ansys,-0.057169586,-0.09382451,0.11821949,0.0839812,-0.03811441,-0.11923472,-0.13422394,-0.084255174,0.0794042,0.07873344,0.10152153,0.12162095,-0.097641215,-0.10888481,0.10008438,-0.022011923,0.07567814,-0.12740073,-0.11537262,-0.11276431,-0.08153517,0.077393755,-0.055123206,-0.10757491,-0.09392815,-0.06444466,0.08384492,-0.07955179,-0.04936655,0.09152524,0.12453488,-0.12758769,0.09446519,0.052601628,0.08708413,0.08009026,0.10866123,0.03923728,0.046554323,0.04329516,-0.035654426,0.11836278,-0.074423745,-0.0931446,0.075244315,-0.10514809,0.12033203,-0.12322782,-0.11239489,-0.07673165
Anthem,-0.13839555,-0.07158426,0.1674806,0.19002816,-0.17062607,-0.1713173,-0.098085165,-0.14173447,0.11111211,0.094692975,0.15171808,0.158373,-0.067076355,-0.18061467,0.11010592,-0.17614889,0.1595198,-0.18585782,-0.19124022,-0.16612934,-0.14792508,0.12465796,-0.03329657,-0.07722555,-0.1623835,-0.1377909,0.14016443,-0.1770702,-0.11036701,0.014361489,0.03060402,-0.13680793,0.060978234,0.107256785,0.08987792,0.19975418,0.02482276,0.14888594,0.10488781,0.14139311,-0.11773348,0.11769511,-0.17467874,-0.12649025,0.14727256,-0.08163697,0.11216937,-0.13840258,-0.102064006,-0.10069605
Anthony_Michael_Hall,-0.10524054,-0.18272418,0.13596055,0.195977,-0.20376696,-0.19522178,-0.13800266,-0.1733707,0.13077496,0.18087433,0.17681435,0.11150749,-0.17244287,-0.16942741,0.15080877,-0.19133529,0.15002353,-0.1508108,-0.15305887,-0.1382075,-0.17411503,0.13958763,-0.17228644,-0.17882144,-0.16714832,-0.1802195,0.15437247,-0.15957369,-0.12846026,0.14923973,0.14191082,-0.18718652,0.20140207,0.15565312,0.13830645,0.06602786,0.12638353,0.1931336,0.13664517,0.16976537,-0.18268678,0.14503421,-0.15529187,-0.110760674,0.18752468,-0.09796682,0.118947804,-0.14754812,-0.20041299,-0.15637825
Anthony_Quinn,-0.044456758,-0.04428397,0.046149604,0.093768105,-0.08857225,-0.1345182,-0.03100812,-0.08090646,0.12260373,0.021876821,0.0061593945,0.12901597,-0.02221937,-0.07184185,0.03595091,-0.08745392,0.03363393,-0.13013119,-0.105697505,-0.043358557,-0.070626795,0.044983886,-0.067603,-0.023951164,-0.10266436,-0.046515,0.05425607,-0.07469922,-0.12602763,0.07743237,0.15115914,-0.068085,0.0567142,0.062386513,0.049308863,0.088976145,0.024698623,0.13515228,0.03975985,0.115081005,-0.12324445,0.06109608,-0.09033805,-0.061556563,0.06998174,-0.112514146,0.058687266,-0.06767263,-0.028586308,-0.14784747
Antoine_Henri_Becquerel,-0.08725376,-0.041982226,0.04983575,0.12543005,-0.06258634,-0.071285605,-0.06890422,-0.12453499,0.059837095,0.070479736,0.067424946,-0.004230705,-0.12733518,-0.07768233,0.028443592,-0.121102534,0.05124508,-0.12112754,-0.013335875,-0.15031138,-0.06503767,0.03222304,-0.11919974,-0.08815565,-0.053681318,-0.07968441,0.0711001,-0.11135225,-0.10666923,0.016663346,0.054303084,-0.13711974,0.08797966,0.16999565,0.05118269,0.07228087,0.14775139,0.036016442,0.06665365,0.054748133,-0.13215439,0.04221421,-0.08162524,-0.12373214,0.054519102,-0.063415,0.027883843,-0.09704964,-0.1338647,-0.048093837
Anton_Rop,-0.122805715,-0.101023264,0.11999683,0.12287552,-0.117203675,-0.084723145,-0.12260592,-0.063722424,0.120226055,0.086336635,0.10712146,0.061810836,-0.11684204,-0.07315886,0.10862369,-0.018162243,0.07693286,-0.09351972,-0.09698758,-0.05436057,-0.1221703,0.11888796,-0.083469965,-0.10721229,-0.0738617,-0.08166067,0.023834158,-0.1369838,-0.017163152,0.05332699,0.03974887,-0.09618906,0.048180915,0.13676776,0.09672323,0.14200154,0.14611228,0.1153244,0.1039363,0.10903443,-0.03701268,0.119166784,-0.061910253,-0.094197765,-0.0010173084,-0.030001346,0.124172814,-0.12888002,-0.07951566,-0.130491
Anwar_Sadat,-0.06792858,-0.13628305,0.12801793,0.02823569,-0.08400043,-0.082017586,-0.097423464,-0.02419897,0.066774234,0.13816576,0.13909177,0.08696759,-0.1012732,-0.04418498,0.11169694,0.0038378413,0.0816567,-0.05523121,-0.07356634,-0.08891947,-0.12210145,0.09205784,-0.037766058,-0.14997461,-0.0068683717,-0.057816304,0.061667133,-0.07110805,-0.021593552,0.105428815,0.07962242,-0.08986077,0.0861583,0.052018337,0.11496313,0.06107678,0.11770923,0.06226101,0.06966138,0.053516775,-0.012789609,0.15911262,-0.047552783,-0.05597777,0.042047996,-0.01877641,0.1118416,-0.11649583,-0.06556419,-0.07091955
"Apago,_Inc.",-0.057907857,-0.12303253,0.12770505,0.021900026,-0.05968634,-0.1156607,-0.11073807,-0.048817977,0.06490267,0.10625528,0.11451997,0.12542245,-0.075335324,-0.082726985,0.06943966,-0.038455002,0.08529209,-0.07351219,-0.058907703,-0.120428964,-0.090878226,0.07926942,-0.030199254,-0.118250236,-0.042183667,-0.04814773,0.10081153,-0.032327183,-0.07309786,0.10098363,0.12810917,-0.11184397,0.121494584,0.06697392,0.10837784,0.060720332,0.099828154,0.04424342,0.06312283,0.03906642,-0.065806046,0.1336717,-0.07176565,-0.07775962,0.115191616,-0.05696442,0.091943264,-0.10703097,-0.057942256,-0.07209144
AppForge,-0.16813383,-0.081994675,0.11837265,0.18074517,-0.13252689,-0.17459679,-0.1471396,-0.17408755,0.22701837,0.1925871,0.08557008,0.1528668,-0.16763866,-0.12888268,0.14194162,-0.15744497,0.12743218,-0.16761407,-0.10855579,-0.11000475,-0.11923575,0.109313115,-0.04852709,-0.15275446,-0.12803097,-0.14274392,0.18707238,-0.12634532,-0.15741329,0.1509138,0.040657014,-0.18915765,0.1623297,0.17603278,0.16749611,0.06629321,0.20090304,0.11874467,0.17031845,0.06659959,-0.1968853,0.08343059,-0.12466972,-0.17084959,0.20537242,-0.08511914,0.1561543,-0.14724015,-0.09349952,0.0060730237
Apple_Inc.,-0.0444538,-0.14465046,0.022958552,0.06985735,-0.04838358,-0.15632102,-0.071670786,-0.041582048,0.06571277,0.0316497,0.05441485,0.053012904,-0.057403073,-0.1095421,0.088008866,-0.08521151,0.0015206321,-0.12521851,-0.10945155,-0.06629115,-0.013299589,0.04259477,-0.086716555,-0.10226156,-0.047796477,-0.11187058,0.09383955,-0.0642862,-0.085436806,0.07173293,0.08230424,-0.09136594,0.108511806,0.05366982,0.048088066,0.04238566,0.106537744,0.048684016,0.06935527,0.03395197,-0.062048327,0.057228934,-0.10699931,-0.1306555,0.08135655,-0.12219078,0.0456965,-0.03861839,-0.14929608,-0.033354938
Applied_HealthCare,-0.106249325,-0.10511326,0.05586094,0.11715842,-0.028555214,-0.06617192,-0.0648502,-0.11351843,0.065976374,0.06213962,0.121450275,0.051563643,-0.085669674,-0.13713156,0.09082459,-0.05125929,0.058681123,-0.08808236,-0.06585408,-0.07568196,-0.032707818,0.055801865,-0.10983394,-0.10299234,-0.051818755,-0.07816836,0.06999316,-0.13693537,-0.04748837,0.042867832,-0.0081611425,-0.07625025,0.106615394,0.16174497,0.118981116,0.03141384,0.055776253,0.070399165,0.09219388,0.03874772,-0.060425803,0.071634874,-0.12867044,-0.1256211,0.07524843,-0.1257689,0.043361843,-0.1010995,-0.06341964,-0.07401727
Applied_Minds,-0.058462024,-0.11639975,0.119552955,0.019108875,-0.06643475,-0.11520674,-0.10937141,-0.058275506,0.07430132,0.105435096,0.11529908,0.124502055,-0.08177651,-0.08034555,0.07092128,-0.033866722,0.08348252,-0.07037436,-0.06149771,-0.11899476,-0.0946071,0.079567134,-0.026255852,-0.12022338,-0.027280996,-0.065342076,0.10410095,-0.03621769,-0.071378864,0.09221017,0.12720917,-0.101376615,0.12358615,0.072900325,0.10667776,0.06644452,0.10486965,0.034085147,0.062626265,0.045310825,-0.06394927,0.14099923,-0.07962921,-0.07828563,0.106408015,-0.041576978,0.08651297,-0.10423211,-0.05169363,-0.07899388
"Archer,_Florida",-0.106559634,-0.078300014,0.059377015,0.17607908,-0.15305096,-0.10589485,-0.103214726,-0.08705521,0.14871152,0.07266989,0.14400908,0.15191329,-0.083397046,-0.12923126,0.17591985,-0.06495334,0.032445926,-0.18345827,-0.10640536,-0.122938514,-0.06934278,0.13077182,-0.15212868,-0.1629887,-0.15051861,-0.15864357,0.15946311,-0.17049916,-0.15862258,0.18917607,0.09394518,-0.090052105,0.15582833,0.15344784,0.11537704,0.16902442,0.18096848,0.17004304,0.1534095,0.15755147,-0.14765897,0.08403749,-0.088530615,-0.1265338,0.20976815,-0.14260125,0.08858436,-0.052722655,-0.07355839,-0.12757176
Ariel_Sharon,-0.06453635,-0.15504795,0.035764527,0.13825333,-0.1268291,-0.089434095,-0.09220213,-0.035546083,0.08153953,0.012890021,0.039380733,0.043015286,-0.05378146,-0.03603895,0.10363867,-0.06641859,0.057403248,-0.058195405,-0.13433436,0.011567063,-0.077076726,0.12786187,-0.10243192,-0.06525985,-0.07977821,-0.055691954,0.020578777,-0.07875364,-0.023422318,0.06986847,0.07352409,-0.039523114,0.057723034,0.13227107,0.06394737,0.108222276,0.14264446,0.153233,0.13038701,0.09876469,-0.022542344,0.078967646,-0.09440915,-0.09845135,0.02699895,-0.03439762,0.04773803,-0.050302725,-0.12322885,-0.1408148
Aristoi,-0.11757263,-0.12307141,0.16654982,0.15501738,-0.13945933,-0.13032618,-0.06126139,-0.17370209,0.0702254,0.1156226,0.13917483,0.155433,-0.11109883,-0.16340065,0.16698332,-0.17877355,0.17532338,-0.20241061,-0.15545855,-0.14526504,-0.16715728,0.038502093,0.03815947,-0.16372687,-0.103791274,-0.18174964,0.14314644,-0.121362396,-0.093012884,0.112142414,0.10782982,-0.121547684,0.16230102,0.1556129,0.14576587,0.1688743,0.09457498,0.17716223,0.17066695,0.16266976,-0.100904524,0.11495788,-0.16526869,-0.16823773,0.16468398,-0.0912457,0.11880705,-0.1697907,-0.13265012,-0.13052116
Arjun_Rampal,-0.06611343,-0.1526953,0.1299426,0.15682338,-0.18629345,-0.16690946,-0.17020036,-0.19405204,0.16857128,0.12689833,0.14358689,0.19339083,-0.18689218,-0.08706719,0.14780806,-0.13231584,0.17360838,-0.18096836,-0.19626229,-0.21473965,-0.16815646,0.16636427,-0.18709704,-0.12672049,-0.16301298,-0.13815401,0.21619892,-0.16556793,-0.14499332,0.09480434,0.091443315,-0.13201399,0.13542233,0.17074655,0.16719766,0.21354617,0.16603366,0.11110673,0.17308524,0.15650912,-0.17452762,0.14117286,-0.1404942,-0.124116935,0.16778077,-0.16866785,0.123548806,-0.15379055,-0.15515707,-0.19555691
Armenia,-0.13136855,-0.0976747,0.13672939,0.16777919,-0.098372,-0.19105095,-0.17415576,-0.031505156,0.1553298,0.1962501,0.04707802,0.16698475,-0.1250999,-0.022212638,0.026197359,-0.08606397,0.1600295,-0.08633112,-0.1323886,-0.16747995,-0.010573848,0.07920767,-0.17906438,-0.09447972,-0.15221058,-0.18304415,0.05139662,-0.1054688,0.033214115,0.14043164,0.15551177,-0.22674489,0.13694358,0.116245754,0.17180979,0.10684278,0.14962311,0.11140884,0.14093366,0.09589162,-0.02612178,-0.00016965983,-0.14330575,-0.21196216,0.047362406,-0.06708285,0.030465659,-0.12045831,-0.10999535,-0.17675997
Arno_Allan_Penzias,-0.05460563,-0.05610162,0.06781216,0.13328741,-0.10873141,-0.073696174,-0.116437554,-0.08403909,0.039802853,0.035376016,-0.00082655885,0.05569536,-0.070534416,-0.04942583,0.03202846,-0.11944761,0.06736815,-0.12949257,-0.07437785,-0.046704993,-0.07639905,0.124257445,-0.10204234,-0.049989425,-0.12105857,-0.058019456,0.1135285,-0.06120306,-0.105559364,0.06420554,0.1362496,-0.083500415,0.095649004,0.15419866,0.031032534,0.13288778,0.12897544,0.07401553,0.077981055,0.08098924,-0.11053969,0.05646814,-0.08667667,-0.14463536,0.10713832,-0.045516253,0.0056520277,-0.047139134,-0.117775366,-0.11925286
Arnold_Schwarzenegger,0.025537992,-0.09341073,0.1110812,0.14392845,-0.17801452,-0.16413896,-0.04222331,-0.18479532,0.20168768,0.13811667,0.13720053,0.13415137,-0.18161361,-0.092466615,0.111413114,-0.0635371,0.05472264,-0.1860424,-0.032034002,-0.05065275,-0.10638133,0.09215554,-0.12644053,-0.1740361,-0.16710834,-0.124028616,0.13607171,-0.123147,-0.08132933,0.035639647,0.057707723,-0.21303771,0.1798331,0.17198569,0.2144819,0.050206937,0.10629541,0.16737267,0.115445524,0.17938565,-0.11147779,0.048689935,-0.15964445,-0.097353585,0.144385,-0.15875368,0.20663689,-0.16917086,-0.16918868,-0.16675673
Art_Carney,-0.08641227,-0.17366575,0.1293579,0.17813389,-0.16859378,-0.16228938,-0.09187671,-0.16173226,0.14449228,0.13798054,0.1443013,0.12507746,-0.17613526,-0.17183366,0.15540473,-0.1853026,0.12139051,-0.18023238,-0.08010332,-0.15935765,-0.14704105,0.15083742,-0.16885881,-0.13363019,-0.15673141,-0.22102697,0.0844052,-0.10929305,-0.13646354,0.15309514,0.16459422,-0.14645225,0.15855096,0.18896672,0.11520744,-0.012699327,0.04133126,0.14580214,0.101700604,0.119766824,-0.17331766,0.12669839,-0.13624051,-0.113250874,0.16232906,-0.06508929,0.16588373,-0.18135749,-0.1722864,-0.20805633
Art_Technology_Group,-0.065276206,-0.09380367,0.11477386,0.09727616,-0.048879992,-0.120155826,-0.13649717,-0.09102872,0.09720876,0.086800404,0.10763588,0.118329614,-0.10873921,-0.10540226,0.093651064,-0.027379239,0.074232735,-0.14780386,-0.115315765,-0.113371976,-0.08089628,0.07526477,-0.04432212,-0.112952605,-0.095674686,-0.09366971,0.07253571,-0.07800046,-0.04812372,0.066245325,0.11294301,-0.12418704,0.09761006,0.053520326,0.09515348,0.08853651,0.11505562,0.02541437,0.040619247,0.053383537,-0.04680606,0.11468515,-0.07835722,-0.096590385,0.079221405,-0.1055367,0.11685847,-0.12298534,-0.106578454,-0.050038602
Arthur_Ashe,-0.09357722,-0.1444232,0.027145613,0.08384339,-0.013026249,-0.04130677,-0.10417388,-0.08721355,0.036810722,0.0738181,0.037394725,0.11970162,-0.037160363,-0.1189163,0.0842924,-0.07839727,0.07825616,-0.05055806,-0.09987519,-0.0077874525,-0.0061893514,0.10597228,-0.10428467,-0.028573394,-0.13008974,-0.073629834,0.09528024,-0.061241142,-0.07576524,0.06602604,0.074176,-0.034280736,0.08414919,0.08155118,0.08827757,0.067568466,0.050547015,0.09318806,0.108830065,0.07420744,-0.05543967,0.06517013,-0.09216667,-0.08885107,0.13696574,-0.11696037,0.013139747,-0.026033161,-0.07124466,-0.07152407
Arthur_C._Clarke,-0.068688005,-0.046828233,0.07138256,0.09087646,-0.07618384,-0.1260689,-0.07488986,-0.07690716,0.097580306,-0.01205249,0.027233506,0.105089046,-0.024332644,-0.10167062,0.035114273,-0.08387822,0.07258567,-0.12967938,-0.14447348,-0.028841443,-0.047407757,0.054128077,-0.103473805,-0.03243909,-0.08183798,-0.064496614,0.045551006,-0.05020391,-0.11523833,0.10583692,0.15010588,-0.09147516,0.054123577,0.06727259,0.032304797,0.1337223,0.051225644,0.1549051,0.07724234,0.113633685,-0.1170892,0.05943028,-0.116461515,-0.08836487,0.12708941,-0.10360956,0.05156531,-0.04700129,-0.047124594,-0.13619725
Arthur_Conan_Doyle,-0.09059929,-0.050279606,0.021307383,0.08060545,-0.044910863,-0.076176025,-0.028005838,-0.062793896,0.17230478,0.06945316,0.115696125,0.030883318,-0.063294895,-0.039514963,0.053853016,-0.07383076,0.05805179,-0.02428759,-0.07401919,-0.06907791,-0.085762635,0.0048988806,-0.10223464,-0.038134597,-0.03530507,-0.06350072,-0.00067736336,-0.118041374,-0.0926668,0.016341098,0.07551757,-0.051432997,-0.014918425,0.028456774,0.1094339,0.05938461,0.035811055,0.08970604,0.074279875,0.13522199,-0.0592013,0.044242565,-0.02634938,-0.0004420559,-0.0079629645,-0.11159672,0.18184723,-0.057494298,-0.07200889,-0.038674798
"Arthur_Wellesley,_1st_Duke_of_Wellington",-0.05192574,-0.11570576,0.024790242,0.07787418,-0.04545623,-0.070794135,-0.11761445,-0.07373445,0.07804958,0.054180477,0.011765976,0.10882734,-0.064887516,-0.10407576,0.06522027,-0.11723063,0.07944251,-0.06051859,-0.13182038,-0.018825352,-0.03592373,0.07877296,-0.08416452,-0.03855788,-0.12069915,-0.089264184,0.070730746,-0.053269263,-0.10940386,0.059726212,0.12560359,-0.06490682,0.081761815,0.06723274,0.060596798,0.10761963,0.109828934,0.112072885,0.1305957,0.110726215,-0.09751452,0.06909057,-0.06517632,-0.0841838,0.11374879,-0.100572675,0.05010686,-0.013421032,-0.09991961,-0.0663622
Arun_Nayar,-0.07231232,-0.11447438,0.055091944,0.05264103,-0.059003927,-0.051675044,-0.05469468,-0.07435592,0.015215922,0.05724814,0.07482529,0.021422647,-0.047708787,-0.048772942,0.024413502,-0.10784732,0.056215897,-0.057897326,-0.0019252535,-0.0911025,-0.03442623,0.08476218,-0.111147135,-0.060869526,-0.04282871,-0.016061943,0.12776649,-0.043994922,-0.11103496,0.058625214,0.058059365,-0.05961688,0.13221246,0.20263539,0.06511662,0.030105464,0.092726335,0.043021616,0.081005774,-0.004372031,-0.10489054,0.030559301,-0.12435131,-0.12123963,0.13315932,-0.033634447,-0.037762046,-0.04529116,-0.080664605,-0.06381071
Ascend_Communications,-0.039878353,-0.048505917,0.02868322,0.074911274,-0.05836247,-0.14263658,-0.061885446,-0.07555304,0.10400698,0.08921611,0.08083111,0.07704266,-0.08036204,-0.08064119,0.08110576,-0.07212977,0.0050187754,-0.14274406,-0.04039687,-0.1491539,-0.07273664,0.016559765,-0.051593967,-0.09217247,-0.07054089,-0.08777627,0.111361094,-0.10392045,-0.08437913,0.03839484,0.0798844,-0.109056495,0.08208758,0.0558265,0.11007406,0.030629205,0.034096956,0.03231496,0.0097525595,0.046815343,-0.06758713,0.06680447,-0.05623777,-0.067139335,0.016553072,-0.13976642,0.12364122,-0.10585539,-0.08234339,-0.034986112
Ashlee_Simpson-Wentz,-0.123455495,-0.0850759,0.13486052,0.17483573,-0.18551973,-0.15956885,-0.14301635,-0.16031651,0.1490181,0.15710662,0.13963017,0.1605879,-0.16882592,-0.14163843,0.1062685,-0.1831294,0.18951428,-0.16934308,-0.18455851,-0.17060043,-0.15815519,0.13356909,-0.12067062,-0.11911169,-0.16165772,-0.20380579,0.1668381,-0.15485851,-0.16677658,0.10682373,0.13072583,-0.1730258,0.12920435,0.15799153,0.12497524,0.12745437,0.13281682,0.16917373,0.16113207,0.14808618,-0.13615288,0.17441146,-0.21780236,-0.16742827,0.118737854,-0.09940815,0.1614698,-0.16468047,-0.16896528,-0.1602428
Ashley_Tisdale,0.019000184,-0.103167206,0.14662403,0.14327484,-0.19939862,-0.1768014,-0.108212315,-0.19299608,0.17391846,0.015803894,0.13544132,0.09712685,-0.1835616,-0.06358411,0.11460031,-0.15442653,0.14704916,-0.23565848,-0.11751708,-0.20622008,-0.14680731,0.19520444,-0.15423505,-0.063418895,-0.13951835,-0.061953604,0.17173448,-0.1492597,-0.11681859,0.054378066,0.022811951,0.019362416,0.17153798,0.17301676,0.11708148,0.081494056,0.022545386,0.1618275,0.047364518,0.16164573,-0.15593272,0.1320321,-0.10153823,-0.036711838,0.19216582,-0.17656499,0.14202692,-0.15425286,-0.11661482,-0.14681113
Ashton_Kutcher,-0.053569287,-0.14024892,0.06971908,0.0444379,-0.113485076,-0.119583964,-0.07064215,-0.036166187,0.087620534,0.03975513,0.049304143,0.11721433,-0.029034998,-0.07307673,0.050349426,-0.104164034,0.06505734,-0.07273937,-0.084125824,-0.054519154,-0.054743037,0.09985447,-0.051627778,-0.08238454,-0.056169756,-0.030513301,0.0961977,-0.035959885,-0.10088819,0.10162002,0.13146107,-0.07769535,0.11945381,0.10928344,0.076970294,0.085293606,0.085641555,0.12723154,0.11016352,0.07577575,-0.1074175,0.09568269,-0.112903476,-0.09165899,0.120134495,-0.037159517,0.019682037,-0.04244885,-0.053371754,-0.14113641
Athena_Neurosciences,-0.14588696,-0.11932867,0.1526104,0.1404021,-0.14901388,-0.09437122,-0.116774455,-0.16742992,0.15898076,0.12738512,0.098280355,0.09402995,-0.14341092,-0.1522845,0.12428081,-0.12666757,0.03989491,-0.18280517,-0.19951938,-0.111513264,-0.09249137,0.060734577,-0.12827761,-0.092133895,-0.086759456,-0.0800147,0.19364096,-0.15304667,-0.15810573,0.16123053,0.11745747,-0.11687775,0.13653032,0.15352003,0.18552323,0.09325181,0.16443239,0.10192481,0.15639256,0.04815825,-0.17244819,0.13562556,-0.12157335,-0.184647,0.1651263,-0.046186496,0.16401052,-0.19235729,-0.01915063,0.0061946586
Atlanta,-0.053300273,-0.15715937,0.11689865,0.16486001,-0.083036475,-0.1105744,-0.044964943,-0.21021616,0.080466375,0.08897492,0.10018921,0.118046746,-0.15200153,-0.16304418,0.105427146,-0.15197346,0.10864378,-0.08492626,-0.19346127,-0.0441788,-0.16416535,0.062694766,-0.16693029,-0.1210593,-0.13168731,-0.12095435,0.1207131,-0.16341686,-0.15142228,0.13275719,0.092949934,-0.11025042,0.14703082,0.043237753,0.12946603,0.09525108,0.120482266,-0.023494288,0.04366423,0.008011372,-0.15899795,0.13440694,-0.12055536,-0.07704632,0.124597244,-0.063615374,0.12614205,-0.108608104,-0.16221018,-0.053261276
Atlanta_Hawks,-0.15971886,-0.0885481,0.13867624,0.11482969,0.020349346,-0.02094095,-0.18996564,-0.19828111,-0.02039456,0.13643022,0.067464285,0.10519272,-0.046615086,-0.14436463,0.09658246,-0.1056895,0.16146086,-0.13470784,-0.16206136,-0.08470495,-0.028522197,0.12819213,-0.11547018,-0.10831738,-0.12953499,-0.16941074,0.1035439,-0.1411205,-0.15027002,0.09352927,0.060823653,0.014649527,0.15857652,0.12738086,0.17794077,0.028145904,-0.021729812,0.16406062,0.11667101,0.073617846,-0.03691106,0.17615762,-0.09627017,-0.10362277,0.097334586,-0.11166118,0.038388398,-0.102672994,-0.15193544,-0.13451372
Attachmate,-0.052717052,-0.10286863,0.054907992,0.055325583,-0.023065139,-0.07232898,-0.13980043,-0.08846271,0.07239011,0.12684292,0.0794551,0.11518399,-0.10652672,-0.119848035,0.08664162,-0.06259788,0.09610264,-0.07238142,-0.10141437,-0.07794994,-0.05947405,0.05121647,-0.079338215,-0.064292625,-0.10132205,-0.13471523,0.08360405,-0.061983015,-0.087685786,0.06410375,0.11883605,-0.09467556,0.06613824,0.036262322,0.099739015,0.08346531,0.09283063,0.03127702,0.074546576,0.060686305,-0.03145152,0.10169376,-0.036741477,-0.06779404,0.10349698,-0.10940517,0.10403757,-0.036096208,-0.110758096,-0.044243157
Attensity,-0.05599326,-0.09905768,0.11531682,0.075476594,-0.044600464,-0.13686714,-0.13758336,-0.09623331,0.06603616,0.103862576,0.10774612,0.11894528,-0.11174974,-0.11920976,0.08155382,-0.02244557,0.06886384,-0.13081907,-0.11524631,-0.10685306,-0.07139528,0.067545556,-0.04999526,-0.111131296,-0.09028113,-0.09140239,0.097068466,-0.08157893,-0.05531763,0.09887385,0.123692326,-0.121637926,0.08408207,0.053917497,0.08254419,0.07644537,0.092324905,0.017145721,0.033411067,0.05716712,-0.033435173,0.12864013,-0.07600641,-0.10465315,0.08706423,-0.09665606,0.124566406,-0.123285346,-0.10375193,-0.064012684
Audiokinetic,-0.084950104,-0.10565761,0.05459349,0.07680143,-0.036745973,-0.13961276,-0.08766032,-0.0902853,0.089503996,0.064226255,0.114998326,0.055807818,-0.10525539,-0.12615699,0.09470521,-0.055336595,0.034014322,-0.121874936,-0.075366855,-0.12148439,-0.044907287,0.032293912,-0.08421343,-0.12583052,-0.030486643,-0.12967262,0.07233118,-0.09476341,-0.067311116,0.06161607,0.05410074,-0.14321657,0.09280468,0.062270593,0.09260386,0.048989616,0.11431336,0.03485958,0.06874537,0.033433836,-0.05410478,0.088375,-0.09514192,-0.11569607,0.052547652,-0.119481795,0.10903267,-0.098073766,-0.11290516,-0.03266352
Austin,-0.07863354,-0.17781961,0.16586034,0.11935184,-0.1197653,-0.16834971,-0.16481395,-0.15781702,0.040116925,0.17641677,0.10341062,0.156092,-0.16390978,-0.13672742,0.10586176,-0.12406762,0.16368969,-0.12235994,-0.16053204,-0.121218644,-0.18104318,0.14095071,-0.14576705,-0.12675929,-0.15959513,-0.14693075,0.103898756,-0.072524436,-0.15399647,0.033940636,0.0029388226,-0.14084841,0.14219512,0.077193916,0.10260882,0.15731281,0.13727225,0.018386167,0.11482493,0.05414016,-0.1432789,0.13533148,-0.15305626,-0.15157089,0.13621922,-0.13231665,0.13445124,-0.14164127,-0.11287284,-0.112468846
Austin_O'Brien,-0.18532373,-0.12060053,0.14924236,0.14297417,-0.16875294,-0.14937297,-0.13684084,-0.1528456,0.15656583,0.12985995,0.16490914,0.13604029,-0.13854457,-0.13123354,0.165182,-0.16631031,0.18077162,-0.21081108,-0.17818359,-0.19148935,-0.15506496,0.19496648,-0.1390987,-0.16213611,-0.17791165,-0.13604584,0.15726604,-0.113918595,-0.14071357,0.15976463,0.16806763,-0.13310647,0.12923764,0.18228036,0.14442368,0.12867476,0.11344833,0.16339181,0.10914235,0.17503086,-0.15895183,0.18532681,-0.16128664,-0.13427186,0.14014618,-0.1535742,0.14672403,-0.14949033,-0.100097224,-0.15470463
Austin_Powers:_The_Spy_Who_Shagged_Me,-0.04310194,-0.034120027,0.09522667,0.15928477,-0.061863422,-0.041627828,-0.090596184,-0.15172377,0.044224925,0.1307435,0.06390234,0.08476001,-0.07298956,-0.073834024,0.03589116,-0.06764992,0.0865077,-0.121630274,-0.017002149,-0.091550805,-0.09179148,0.104529366,-0.07057808,-0.029994354,-0.13142855,-0.014663906,0.13974033,-0.10096483,-0.06448274,0.031853136,0.060897235,-0.06584502,0.07566029,0.16754822,0.09979883,0.04989489,0.032494098,0.059162,0.011595095,0.047875457,-0.0748919,0.042962685,-0.076814115,-0.102893986,0.08179772,-0.07215805,0.014595757,-0.11761553,-0.017651312,-0.139825
Autodesk,-0.11066348,-0.04823987,0.05905486,0.047062345,-0.018483488,-0.05892615,-0.09444498,-0.12275862,0.1176561,0.060636695,0.068653226,0.1119744,-0.07161093,-0.11482774,0.038591873,-0.059575897,0.13928266,-0.067537434,-0.10876678,-0.066406295,-0.05612695,0.024290118,-0.10996256,-0.020770485,-0.083734244,-0.09716224,0.031327702,-0.06283471,-0.11899061,0.07173258,0.1374062,-0.10609454,0.033051115,0.055629317,0.07166268,0.12003418,0.048175983,0.0981167,0.06131655,0.13510425,-0.1042335,0.07846505,-0.040249594,-0.05218889,0.11758585,-0.121019475,0.123021506,-0.045966245,-0.052964192,-0.0625412
Avantopia,-0.062955506,-0.09849357,0.1170425,0.08156526,-0.05514821,-0.12176071,-0.13120657,-0.08437007,0.07934944,0.08633327,0.10225665,0.11447627,-0.10843425,-0.121602915,0.09910081,-0.021417925,0.07657142,-0.121511824,-0.11600907,-0.09991991,-0.079220556,0.07417478,-0.050670374,-0.1135485,-0.09110772,-0.10063809,0.08064947,-0.07848052,-0.047579836,0.08761041,0.11158617,-0.13039371,0.1058914,0.053715397,0.0928088,0.07946868,0.10179801,0.032360274,0.054422706,0.059889704,-0.03305784,0.1246056,-0.07375447,-0.12388058,0.08370562,-0.09664718,0.120296806,-0.12575279,-0.1059599,-0.06129383
Avast_Software_a._s.,-0.07335401,-0.0953538,0.11593796,0.0793731,-0.05233762,-0.12578608,-0.13609731,-0.08421323,0.07968955,0.09589418,0.10002735,0.10952631,-0.11769082,-0.11407519,0.107037716,-0.021752495,0.07073791,-0.14353342,-0.11600066,-0.10190569,-0.07857081,0.075999215,-0.050097544,-0.114714876,-0.09049343,-0.11130763,0.098420404,-0.082707144,-0.051055137,0.10227202,0.114944294,-0.12621488,0.10623238,0.06609842,0.088031285,0.08568023,0.10214505,0.0374496,0.042158373,0.05133218,-0.036211744,0.12844314,-0.07793804,-0.11279864,0.082752675,-0.095609695,0.117383376,-0.12057669,-0.09705896,-0.058267016
Avogadro,-0.14485344,-0.15132003,0.11984187,0.18993962,-0.17591639,-0.1769255,-0.17337681,-0.1595827,0.16515608,0.14289908,0.10181447,0.15172786,-0.18949871,-0.10476081,0.19529547,-0.13119897,0.20024528,-0.10570168,-0.17053272,-0.173724,-0.11369343,0.1526232,-0.18182561,-0.14392601,-0.16506958,-0.15160151,0.1285658,-0.1551628,-0.16912763,0.1995797,0.18194443,-0.18485655,0.14860287,0.12589203,0.12032766,0.14631179,0.18422946,0.16205844,0.122346856,0.16235168,-0.16905516,0.112981945,-0.17374578,-0.10276176,0.18121304,-0.089700475,0.14693181,-0.19191733,-0.17239335,-0.15612061
Avril_Lavigne,-0.071252204,-0.16030836,0.03384443,0.08950644,-0.07330528,-0.05841613,-0.11111253,-0.022543339,0.07199886,0.04176303,0.039556067,0.059696734,-0.061384514,-0.056424845,0.096515946,-0.08220369,0.06799573,-0.031807594,-0.1538091,0.01480523,-0.058982965,0.105106905,-0.1091032,-0.043080166,-0.09979175,-0.073676914,0.025504349,-0.05999584,-0.055690467,0.046604052,0.10138558,-0.05245242,0.031957686,0.055186007,0.05798867,0.1289419,0.13002393,0.11904616,0.15390204,0.14326821,-0.029015644,0.08837961,-0.029742302,-0.06852127,0.068763725,-0.058271006,0.06852145,-0.021544522,-0.11141698,-0.06173735
Awem,-0.08512991,-0.01932521,0.12600417,0.12921314,-0.101483606,-0.07310981,-0.12619303,-0.1279691,0.06141695,0.104233816,0.045161292,0.05490863,-0.12969506,-0.08047737,0.04312085,-0.08059973,0.1243624,-0.12386446,-0.05314941,-0.114819005,-0.11281213,0.10262785,-0.09097388,-0.07213114,-0.10918851,-0.06718893,0.09955874,-0.082515575,-0.09917871,0.04594102,0.11967775,-0.13380216,0.07887762,0.16323008,0.05846766,0.13544017,0.124804206,0.05479664,0.059384894,0.08942943,-0.10774085,0.07888579,-0.06755773,-0.13334624,0.08566376,-0.03356584,0.03503361,-0.12434538,-0.09609303,-0.10856756
Ayumi_Hamasaki,-0.1377877,-0.14808759,0.17099942,0.052261498,-0.087240666,-0.15076056,-0.03297338,-0.12496457,0.2134216,0.138297,0.03318204,0.119974166,-0.11064576,-0.10480669,0.11813166,-0.14362934,0.1418203,-0.086947,-0.047474466,-0.07416216,-0.05203425,0.11839832,-0.09053063,-0.10142647,-0.043592345,-0.01759746,0.15275772,-0.057101335,-0.1360203,0.09292585,0.0065756408,-0.14980115,0.18095697,0.18232429,0.13206214,0.10362656,0.173899,0.07666259,0.17592484,0.0943388,-0.10472107,0.05584711,-0.10937422,-0.11867007,0.18295816,-0.05945982,0.08738637,-0.14577557,-0.14588398,-0.1022713
BEA_Systems,-0.104467854,-0.103234,0.023187062,0.07069575,-0.03184216,-0.07243754,-0.090916954,-0.119346656,0.10360228,0.08775926,0.077052005,0.05712747,-0.10523412,-0.12657669,0.06880325,-0.11508687,0.08051883,-0.060719144,-0.07776599,-0.08705283,-0.033823002,0.027546773,-0.11108764,-0.06153665,-0.0772728,-0.10889554,0.056956675,-0.092412695,-0.124057986,0.033734694,0.04855493,-0.09053901,0.050627396,0.07133442,0.12952071,0.07307335,0.11075979,0.058075592,0.11565717,0.09323058,-0.103234194,0.060331013,-0.06758576,-0.06894464,0.07401371,-0.11431713,0.09805323,-0.033807963,-0.12239352,-0.028813958
BMC_Software,-0.13430913,-0.12861514,0.07017851,0.11892405,-0.03059956,-0.06967134,-0.07065051,-0.12626608,0.06330391,0.058276854,0.114490494,0.053769056,-0.08105578,-0.13353479,0.09540704,-0.048321053,0.05036608,-0.083643734,-0.066920444,-0.08344699,-0.026313696,0.064047836,-0.115446925,-0.09681172,-0.04012951,-0.07976941,0.071833916,-0.11557655,-0.046137303,0.048226852,-9.693904e-06,-0.07943771,0.10675549,0.15997289,0.13653737,0.031489838,0.05725562,0.06964164,0.08479658,0.04376118,-0.051353995,0.055837374,-0.13257544,-0.1270668,0.07863215,-0.108464934,0.04379633,-0.09113068,-0.07324119,-0.06272747
Baburam_Bhattarai,-0.0780228,-0.12983894,0.093193986,0.06591985,-0.060658872,-0.09132753,-0.13078085,-0.017575298,0.067413956,0.110103585,0.14182055,0.07090067,-0.07654042,-0.059611984,0.12646605,0.010377267,0.05956829,-0.09067693,-0.12259462,-0.059040263,-0.10578438,0.09134167,-0.062188596,-0.12077822,-0.05533521,-0.085833244,0.0344215,-0.088059455,0.009447737,0.08361553,0.07190142,-0.10427941,0.04945769,0.040081754,0.088002354,0.08171918,0.12504593,0.030621221,0.04261835,0.069234125,0.0046464717,0.13669921,-0.025656724,-0.082800835,0.027362771,-0.057912134,0.14174701,-0.14209786,-0.1218002,-0.05704518
BabyCenter,-0.108422935,-0.118666545,0.019584823,0.058350235,-0.026201524,-0.065109424,-0.0857616,-0.117483675,0.108675756,0.06885868,0.062232953,0.042728588,-0.10625469,-0.12778634,0.06935257,-0.12116887,0.068922065,-0.05575731,-0.07409251,-0.08095978,-0.032926608,0.015857464,-0.12374506,-0.061323974,-0.07510192,-0.11649898,0.05244378,-0.10338934,-0.09852612,0.035763226,0.05014063,-0.10309323,0.051141188,0.07359242,0.12420616,0.07440151,0.11290176,0.06564532,0.12496199,0.08901097,-0.103127435,0.05726734,-0.0729435,-0.054118432,0.08529126,-0.12096561,0.104795255,-0.029469626,-0.111266084,-0.036496755
Back_in_the_USSA,-0.13055225,-0.07610826,0.1095586,0.115562566,-0.17555344,-0.13606636,-0.15521231,-0.13069813,0.14718612,0.12913962,0.16537851,0.154181,-0.15208896,-0.14946067,0.050405897,-0.14187351,0.13508388,-0.10180721,-0.15698972,-0.113235876,-0.14267592,0.086067386,-0.02925154,-0.08775467,-0.19433218,-0.17052805,0.14157793,-0.09245116,-0.042982336,0.11048187,-0.017726952,-0.14468867,0.07848044,0.09614258,0.027124364,0.1173373,0.108262934,0.1548818,0.115353055,0.13501012,-0.11563161,0.09942699,-0.15824635,-0.09450462,0.077882454,-0.12610781,0.1250684,-0.11008592,-0.1411302,-0.1537421
Backbone_Entertainment,-0.046157382,-0.051160973,0.06925983,0.064682916,-0.021307923,-0.046224937,-0.15984096,-0.102234945,0.03280076,0.115376316,0.07276044,0.071113445,-0.120878324,-0.08448744,0.05378335,-0.063553855,0.09108605,-0.08581966,-0.06156667,-0.10971078,-0.0767754,0.07197176,-0.10032514,-0.048864827,-0.11686842,-0.110300034,0.080973804,-0.04247547,-0.10306684,0.061335355,0.14373203,-0.103563726,0.06795697,0.052999854,0.045785613,0.0812904,0.0803728,0.016418528,0.032211747,0.04645376,-0.038764432,0.063446715,-0.012960323,-0.088177405,0.10530947,-0.07864478,0.06049074,-0.043762583,-0.12752615,-0.023644065
Baghdad,-0.17359675,-0.11200109,0.11111354,0.13366887,-0.09665144,-0.15233003,-0.1176812,-0.15695125,0.12710719,0.093066335,0.076860085,0.17384537,-0.06871895,-0.16385241,0.17779571,-0.12430088,0.1180073,-0.18151134,-0.087283716,-0.044717353,-0.08296961,0.14383899,-0.14586753,-0.11656541,-0.16297497,-0.12740034,0.20189597,-0.09925022,-0.14135848,0.16240244,0.08189422,-0.08103429,0.119692735,0.10248478,0.102166034,0.17764571,0.18176651,0.101221636,0.16231222,0.1783143,-0.1517995,0.1216298,-0.09002204,-0.085306324,0.15025458,-0.10892652,0.04950115,-0.08213029,-0.1511996,-0.121571705
Bahamas,-0.14375149,-0.110277444,0.16400984,0.16704619,-0.17468181,-0.16563003,-0.18287985,-0.16025354,0.16605558,0.16242042,0.16360264,0.1688295,-0.15750715,-0.12141034,0.1482794,-0.16281955,0.17731845,-0.191453,-0.17138807,-0.13575229,-0.074165665,0.1430834,-0.14481364,-0.12761709,-0.17532381,-0.17427398,0.1420789,-0.13117404,-0.10331538,0.1435843,0.15066816,-0.17571335,0.15997335,0.15369794,0.12086311,0.15772884,0.15948771,0.15906774,0.15030095,0.15654005,-0.117632896,0.14999059,-0.16906002,-0.16520865,0.13938285,-0.12626669,0.1366624,-0.14011256,-0.1707194,-0.146402
Baltimore,-0.13663891,-0.1612675,0.065400966,0.12610483,-0.07328591,-0.12609163,-0.11934729,-0.1414448,0.13262719,0.033058982,0.1046244,0.169213,-0.07080326,-0.15130351,0.13986915,-0.044298697,0.14039339,-0.09273894,-0.113076076,-0.11085851,-0.107860535,0.084719785,-0.033385374,-0.04800048,-0.13718809,-0.124370605,0.1671505,-0.05164397,-0.044798445,0.13164844,0.043066595,-0.14312054,0.100418024,0.074995585,0.026272437,0.16200957,0.13920861,0.13515249,0.1473069,0.12931478,-0.12698178,0.051976405,-0.113807596,-0.080782674,0.090858355,-0.07965173,0.13046557,-0.02441467,-0.08015804,-0.113183394
Banja_Luka,-0.15652223,-0.08213197,0.14589201,0.15838638,-0.17588553,-0.12867902,-0.18543322,-0.1917993,0.20103754,0.15812588,0.17468116,0.17440796,-0.16178654,-0.18670951,0.17245658,-0.13760595,0.18690075,-0.12305101,-0.17018475,-0.18150069,-0.17393379,0.12877719,-0.13454917,-0.14883497,-0.16375272,-0.10145177,0.1281182,-0.16482247,-0.17845063,0.15062416,0.17343293,-0.16117802,0.17042105,0.12671113,0.13239579,0.16670021,0.19764374,0.14211527,0.17125088,0.13660626,-0.15533978,0.16223936,-0.14687288,-0.09120549,0.19226298,-0.14946373,0.14677949,-0.11311334,-0.12887648,-0.07565295
Barbara_Hershey,-0.068590604,-0.122966304,0.15677981,0.1984504,-0.15135683,-0.1705822,-0.039505616,-0.10875402,0.13310827,0.1038898,0.09744768,0.16953257,-0.16845909,-0.036839917,0.17902748,-0.15007518,0.14319466,-0.12178981,-0.06987473,-0.14168437,-0.078280464,0.124961585,-0.15417099,-0.15209194,-0.112704545,-0.119184576,0.1576997,-0.2046926,-0.16897516,0.18493553,0.12863666,-0.17843305,0.1363252,0.15722005,0.14690988,0.09191811,0.12266065,0.22533804,0.10558206,0.18185207,-0.16558835,0.1358697,-0.070264645,0.034713674,0.13372989,-0.12983069,0.15572307,-0.16581766,-0.18632674,-0.20156018
Barend_Biesheuvel,-0.15272532,-0.10932772,0.05368126,0.11594452,-0.06333887,-0.08315028,-0.06369287,-0.05640866,0.12809697,0.043701775,0.123156965,0.007879948,-0.111567706,-0.07456034,0.10920335,-0.0654353,0.033584703,-0.061756168,-0.08673915,-0.080168955,-0.061494134,0.060735814,-0.11453691,-0.11748052,-0.0408597,-0.10386444,-0.0038269125,-0.15593262,-0.025865624,0.020119125,-0.0039774836,-0.085574985,0.050896984,0.14689489,0.11550051,0.06698754,0.14984873,0.07464699,0.13406798,0.07090111,-0.053888038,0.08514133,-0.08093225,-0.08339252,-0.011052696,-0.063816726,0.118639134,-0.09396024,-0.12066622,-0.05367839
"Barnwell,_South_Carolina",-0.040533114,-0.10882085,0.08470652,0.07814645,-0.13633308,-0.12684253,-0.1518774,-0.13156998,0.15033999,0.09238104,0.14218114,0.13379055,-0.13493115,-0.1626878,0.12557143,-0.14467394,0.1873742,-0.11709239,-0.13330379,-0.123175,-0.15322305,0.16155219,-0.110670336,-0.08903458,-0.06473462,-0.10396483,0.0858679,-0.069696486,-0.14071669,0.11033599,-0.006565135,-0.122223586,0.110726915,0.07444438,0.17837709,0.12319021,0.15048131,0.13450344,0.13165599,0.18108344,-0.14210615,0.11508647,-0.05425438,-0.14198756,0.14126758,-0.09093183,0.13009527,-0.0904401,-0.15599276,-0.059896678
Barranquilla,-0.08022504,-0.12019265,0.061213773,0.13838337,-0.09886721,-0.14264296,-0.16387388,-0.17056942,0.12656699,0.16875638,0.14082795,0.15695007,-0.18880257,-0.14311339,0.16292666,-0.16348724,0.18597291,-0.14000113,-0.1553208,-0.16509277,-0.1442127,0.14219822,-0.12600188,-0.05851253,-0.10414224,-0.14012104,0.15048595,-0.069394454,-0.14459169,0.160484,0.098490715,-0.13246016,0.12888774,0.06759941,0.14506267,0.1718735,0.16013192,0.15323055,0.19079249,0.13043903,-0.12872666,0.14053625,-0.17190766,-0.13358372,0.129097,-0.06468754,0.16492008,-0.055724416,-0.14073959,-0.11643339
Barry_B._Longyear,-0.09812584,-0.107818715,0.037443463,0.06375698,-0.03163224,-0.055780087,-0.13995555,-0.1203976,0.103903696,0.120832235,0.060614794,0.11230777,-0.112311944,-0.12782343,0.06703182,-0.10367993,0.13567202,-0.053208917,-0.09841521,-0.06680987,-0.052556552,0.06374433,-0.10154006,-0.048542406,-0.11662315,-0.10446758,0.06834909,-0.08156049,-0.10720249,0.04600447,0.1171574,-0.08687955,0.05128123,0.07028651,0.122832775,0.11600435,0.11291782,0.08515413,0.1068699,0.1260549,-0.09635945,0.08506457,-0.05200651,-0.064263746,0.10707644,-0.10579911,0.10004717,-0.031342205,-0.056079175,-0.06331071
Barry_N._Malzberg,-0.13940918,-0.038513098,0.061006084,0.08248787,-0.037636902,-0.13223442,-0.04984821,-0.11579689,0.1300699,0.00583045,0.1078006,0.046630986,-0.057806235,-0.12969434,0.042752456,-0.06660735,0.061479293,-0.12872288,-0.086540386,-0.10366995,-0.048484806,0.002699415,-0.13585651,-0.07042731,-0.027483765,-0.08698783,0.016085686,-0.11440616,-0.12426214,0.05958341,0.070204645,-0.14335579,0.03945855,0.07576468,0.06015861,0.083458826,0.0642179,0.0951169,0.068393014,0.06720682,-0.115559526,0.050972264,-0.101986036,-0.066413805,0.060030837,-0.13033831,0.106450364,-0.10929846,-0.05974497,-0.07410509
Baruch_Spinoza,-0.04529695,-0.13131303,0.017959623,0.07243764,-0.044952534,-0.08230741,-0.09955047,-0.061392188,0.069659896,0.053805858,0.011738769,0.10892645,-0.06128219,-0.10492863,0.06493239,-0.11702974,0.070956685,-0.060345057,-0.1268698,-0.018802848,-0.030062396,0.073414944,-0.098661624,-0.040838957,-0.098925956,-0.09315258,0.06958025,-0.036326956,-0.10778452,0.059391484,0.13627777,-0.06442367,0.07095535,0.07525325,0.054651376,0.11621015,0.11347415,0.123235084,0.12959754,0.117762685,-0.09878383,0.06953534,-0.066135295,-0.08290797,0.12316796,-0.105475664,0.04328376,-0.014116434,-0.11570552,-0.051526725
Basel,-0.11069406,-0.13710067,0.15026674,0.14035797,-0.17728531,-0.17567681,-0.15869907,-0.08309429,-0.003471429,0.10516143,0.15657182,0.09228237,-0.18365046,-0.10237759,0.14452434,-0.16091762,0.1518663,-0.106394395,-0.11283124,-0.10743745,-0.13637231,0.15207128,-0.12847781,-0.1892955,-0.16596705,-0.16433464,0.008226491,-0.13364466,-0.11277137,0.12047884,0.09351321,-0.12550215,0.06135932,0.1009761,0.10853019,0.049797077,0.09385475,0.036549192,0.11296574,-0.008691615,-0.13728608,0.1535612,-0.17952107,-0.16678807,0.14176857,-0.15559278,0.1746455,-0.1357017,-0.099034905,-0.15230916
Battlefield_Earth,-0.13629746,-0.06836431,0.17149045,0.15570948,-0.19565843,-0.15654838,-0.11603049,-0.16874726,0.159575,0.19304565,0.13040328,0.1385244,-0.14688553,-0.20425038,0.15716997,-0.1640153,0.17138529,-0.15004168,-0.1625428,-0.14380723,-0.1278202,0.119287975,-0.14403376,-0.17333105,-0.18743762,-0.14627448,0.12053346,-0.14704743,-0.1187475,0.18156593,0.079940476,-0.20304756,0.18186747,0.15323062,0.16251428,0.18694061,0.13273083,0.18848713,0.13474989,0.16672647,-0.14466535,0.18013251,-0.17584936,-0.15211725,0.14546779,-0.1280356,0.13351907,-0.13383989,-0.13735853,-0.15724276
Beck,-0.030111916,-0.14204401,0.018188428,0.053229578,-0.026123827,-0.081125945,-0.1378345,-0.05707794,0.050922383,0.0808015,0.043779258,0.120090574,-0.060305383,-0.111141756,0.07957145,-0.08389357,0.063210554,-0.06792789,-0.12899628,-0.044146147,-0.027179878,0.06340557,-0.074932545,-0.052922398,-0.1276104,-0.114206955,0.106714025,-0.0364368,-0.09280853,0.07550945,0.14524727,-0.07050187,0.07803075,0.04047401,0.047306463,0.07420174,0.078850105,0.05139685,0.08005849,0.06541352,-0.052493364,0.08329844,-0.047554284,-0.09090449,0.13424385,-0.117842205,0.06305705,-0.027879892,-0.113784164,-0.050288703
