,0,1,2,3,4,5,6,7,8,9,10,11,12,13,14,15,16,17,18,19,20,21,22,23,24,25,26,27,28,29,30,31,32,33,34,35,36,37,38,39,40,41,42,43,44,45,46,47,48,49
1634:_The_Ram_Rebellion,0.026286766,0.04647505,-0.076220386,-0.029546203,0.027106302,-0.047041435,0.0065508196,0.02302284,0.08510449,-0.023103107,-0.06284094,-0.08545212,-0.048587874,-0.038835343,-0.03633269,0.008602793,0.035820976,0.053308107,-0.025329687,-0.03284241,-0.12050392,0.04027602,0.0062814383,0.010531974,0.059716918,-0.012467774,-0.029753909,0.017891772,-0.08469099,-0.043103557,0.06851981,-0.0751452,-0.10807385,0.020920504,-0.05491679,0.0093856165,0.023615817,-0.036995195,0.029618384,-0.08130483,-0.05242242,0.029521832,-0.02426153,-0.023090808,-0.03235858,0.068043634,0.0007531901,-0.068874344,0.014902178,-0.010095774
1635:_The_Cannon_Law,-0.05905648,-0.052173585,-0.110542715,-0.0011632357,0.13776141,-0.0023306145,-0.09747426,-0.007207207,0.08080291,-0.048463225,0.11912271,0.08572502,0.031255916,0.08538845,-0.09946219,-0.07165077,0.047648057,-0.013775658,-0.04554935,-0.07214699,0.010884503,-0.052593213,0.06882486,0.0002928796,-0.037290584,-0.08842533,0.04338492,0.06995022,0.09774322,0.03557574,-0.04528793,-0.0355454,0.033252217,-0.089030646,0.057773996,0.02766835,-0.036981795,0.057233803,-0.02912192,0.017135233,-0.017172383,-0.08332998,-0.06265871,-0.017094044,0.11119331,-0.057304084,0.04309394,-0.065756515,-0.0041933525,-0.06770349
2012_(film),9.796726e-05,0.0062957234,-0.014634352,-0.11571524,0.038427055,0.06587522,-0.032333124,-0.03754651,-0.11323239,-0.03520594,0.033471715,-0.06704954,0.0028572567,0.02314301,-0.047301225,-0.039460264,0.028686598,0.04956016,0.092954874,-0.05558263,-0.01134716,0.0029914086,-0.089724466,-0.05022177,0.05049064,0.018586922,0.056352373,-0.037036486,-0.003746811,-0.007770448,-0.056883115,-0.021656537,0.022024348,0.0022147964,-0.07134603,-0.07471066,-0.009758085,-0.012813295,-0.016381403,-0.027836138,0.049725164,0.02894334,-0.03485816,-0.03346604,-0.009860151,-0.012476024,-0.02080733,-0.1024314,0.06507929,0.0073728906
334,0.029560773,0.08820108,0.054024786,0.0710144,0.054105964,0.04066713,0.020603929,0.04042392,0.08278416,-0.029636329,0.01274333,0.07360827,-0.0008600853,-0.032095764,0.08417184,-0.07383434,0.053639103,-0.03693408,0.10820036,0.1313581,0.107231155,0.013222371,-0.06802945,-0.0065331417,-0.039757695,-0.03841607,-0.04916423,-0.0057597044,0.05233008,0.012541534,-0.045354605,0.0455745,-0.003656955,-0.013619638,0.05430637,0.08106573,0.009873254,0.0029183947,0.04374098,0.052997928,-0.035522643,-0.07940074,0.027127748,0.044442736,0.023223972,0.06541241,-0.00042545257,0.100083,-0.03641671,0.03715726
360Commerce,0.06702202,0.0059146793,0.07419176,0.008014755,0.067248315,0.09898965,0.053527918,-0.0057035526,-0.023552349,0.03750303,0.0526035,0.022048859,0.019958455,-0.0791344,-0.011584909,-0.020475604,0.047577463,0.05245448,0.06978678,0.043614246,0.06983817,-0.028586933,0.0063379416,-0.048322324,0.015773872,0.006056903,-0.037137635,0.01873627,-0.023688588,0.020112023,-0.013050451,0.066969655,-0.05986154,0.043098662,0.023219112,0.08401977,0.053181846,-0.049333606,0.09993136,0.075293064,-0.014944565,-0.048334435,0.0009030919,0.06805006,-0.060684737,-0.073346816,0.06889997,0.061352428,-0.1058223,0.0806201
A._E._van_Vogt,-0.018654274,-0.055635717,0.053581752,0.11344924,-0.07860984,-0.020127332,-0.023686633,-0.024966512,0.06017785,-0.019883484,0.043369614,-0.018779932,-0.019122634,0.06276273,0.022377051,-0.04085917,-0.01816696,-0.015450542,0.02249148,0.009208231,-0.039755836,-0.08963332,-0.04453487,0.017307453,-0.054266017,0.06994218,-0.016861696,0.0040432396,-0.0033050042,0.040549155,0.025476426,-0.04279582,0.045253158,-0.0892841,0.006381705,0.0074885697,-0.033700213,-0.12551877,0.026558401,-0.016396726,-0.01020184,0.00993931,-0.011720518,0.039177787,-0.025721721,-0.07290756,0.029979669,0.0599338,0.028660342,-0.007356202
ABC_Family_Worldwide_Inc.,0.08440883,-0.01091281,0.0072873184,0.017716888,0.0075812405,-0.027903782,-0.055336896,0.017084962,0.032180455,-0.01719013,-0.050308928,-0.051159356,0.10986203,-0.02022798,0.04781315,-0.015805526,-0.051333483,0.021976639,-0.021463286,-0.032531675,-0.033060648,-0.028981997,-0.003630335,0.017192941,0.00015298744,-0.030342905,0.046866182,0.05321458,-0.05252749,0.027371714,0.039754793,-0.023329964,-0.04191806,-0.014539332,-0.015655551,0.010415299,-0.0057931207,-0.005005431,-0.011693973,-0.02439845,0.022058947,-0.012731713,0.026630336,0.06879129,-0.0006078756,0.039139878,0.0021193663,-0.0018195843,0.05674039,0.06101246
ADC_Telecommunications,0.04016474,-0.023378996,0.033989258,0.091006696,-0.011531007,0.014734143,-0.031105293,0.0023402025,-0.039216932,0.044120904,0.004561925,0.03429477,-0.010970486,-0.01072012,0.0117497975,0.00090383476,0.014997186,0.0021330018,0.054146793,-0.054440323,0.077609405,0.017719395,0.10262216,0.017765287,-0.00071398163,0.04782605,0.050459545,-0.06720046,-0.041814458,0.023529645,-0.001806902,-0.07964154,0.03633224,0.025991917,-0.046626426,-0.012499844,-0.010523814,-0.042723972,0.0061330916,-0.020848682,-0.02421148,0.09776814,0.03752829,-0.0014516937,-0.0241132,0.09029747,-0.10238349,-0.04418811,0.07097576,0.019013634
AOL,0.074781135,0.022264922,-0.007176477,0.017548122,-0.017810948,0.083055764,-0.07973012,-0.0005999198,-0.06734142,-0.014199775,-0.042244684,0.0051984424,0.1311921,-0.023425661,-0.054301333,-0.02722144,-0.003279699,0.08516066,-0.013194746,-0.0075604618,-0.03151142,0.009277882,-0.012152866,-0.042681042,-0.009575964,-0.02053471,0.027210044,-0.054543905,-0.027914897,0.044772018,-0.010774441,-0.049449407,-0.014897342,-0.010678832,-0.08073611,-0.020305993,-0.009722694,-0.027069068,0.009214439,-0.08180374,0.03519804,-0.0035591451,-0.062841184,-0.03899892,0.012990618,0.03365993,0.024957856,-0.07814468,0.05808166,-0.06403167
A_Calculus_of_Angels,0.0042926176,0.025164863,0.04613702,0.015518772,-0.07044681,-0.07592876,0.035726093,0.008073289,0.0050130878,0.004377485,0.032150313,0.004794671,0.059723813,-0.054249797,0.04655343,0.03845224,0.015465451,-0.069436625,0.04349528,0.059110355,0.065176174,-0.031209342,-0.029076753,0.02028295,-0.05333352,0.0249979,-0.020142945,-0.024996605,0.032664068,0.03474677,-0.09531579,0.041054152,0.047602396,-0.026884884,0.07285922,0.00069864234,0.030890506,0.013252754,0.066178896,0.019757017,0.0030985337,-0.050141595,0.056698576,0.049948823,-0.012273742,-0.006118359,0.047464978,0.06453065,-0.06603572,0.009200393
A_Canticle_for_Leibowitz,-0.01208919,0.051691327,0.0714913,-0.0385261,-0.07774765,-0.046044108,0.01649066,-0.0480839,0.022695892,-0.032289766,0.018382574,-0.013411943,0.01803883,0.0048577935,0.0704738,-0.011988608,-0.049583506,-0.0053988914,-0.018907147,-0.041818254,0.03260363,0.01663421,-0.079495095,0.0057249907,-0.024891108,-0.09851553,0.026468784,0.057269804,0.03446276,-0.02380045,0.015719503,0.036893785,-0.017823143,0.0020936104,-0.0024819763,0.019921616,0.039240617,0.062431425,-0.038456153,0.0027678797,0.028463759,0.0048933504,-0.021658573,0.020835806,0.04277661,-0.056718167,-0.05375618,-0.061239507,0.0027025847,-0.026562313
A_Connecticut_Yankee_in_King_Arthur's_Court,-0.034043282,-0.022988051,0.0056227334,-0.0044558034,0.037127815,-0.028148139,-0.018579744,-0.05235497,0.0071494062,-0.10696041,0.085172206,0.034556974,0.07956878,-0.007009335,-0.0061509996,0.005739689,-0.05729926,-0.008521396,0.006845245,-0.055755727,0.055952977,0.044528846,-0.010705561,0.06542904,0.0045157,-0.0396693,0.09450181,-0.025068205,0.09458786,0.01344298,-0.04035973,0.08414565,0.05836579,-0.010641428,0.01628136,0.019613123,-0.033844806,0.07171048,-0.012096718,0.052604042,-0.012604439,-0.048785545,-0.0279152,-0.025579331,-0.040522613,0.020520806,-0.089755625,-0.05190434,-0.070782304,-0.01642195
A_Deepness_in_the_Sky,-0.03600067,0.03783554,-0.0045743464,0.025135538,0.060880855,0.012111278,-0.050814576,-0.12052319,-0.0027050085,-0.07968869,0.039369583,-0.009789873,0.033540994,0.06353234,0.02755332,-0.06560137,-0.053304084,-0.03887398,-0.05490997,-0.056298014,0.06370354,0.05188833,0.08848808,0.04728391,0.0146879675,-0.0684205,0.0017803751,0.04269072,0.040025678,0.018966516,-0.060051616,0.042912688,0.005989366,-0.058182552,0.019028854,0.04092246,0.041162252,-0.049123343,-0.059850033,0.07237292,0.016997546,-0.05078263,-0.0042690653,-0.02451876,-0.12265718,-0.033999454,-0.065001875,-0.02845297,-0.10052264,-0.006135391
A_Door_into_Ocean,-0.07137884,0.048978932,-0.02095742,-0.052697275,-0.07227819,-0.0123779,0.04712982,-0.04393933,-0.019654362,-0.022387877,0.043198034,-0.025559004,0.04994119,-0.007560526,-0.020954965,-0.009904476,-0.07319602,-0.024430702,0.037725765,-0.030597052,0.037424218,-0.024309551,-0.030011343,0.04645506,0.041802455,-0.00030566423,0.07061098,0.036045216,0.018533764,0.02123159,0.003971729,-0.020614889,0.011229673,0.00013149825,0.006277845,-0.038391057,0.028308017,-0.021993242,0.031634938,0.06011254,0.053488385,-0.022104258,-0.00853531,0.01981015,0.022596812,-0.088907145,-0.027881691,0.034959108,-0.0074971374,0.044181142
A_Hard_Day's_Night_(film),-0.0121266795,0.06878591,-0.001483406,-0.080808945,-0.017526235,-0.02732495,-0.04458628,-0.024168508,0.01283577,-0.013117284,0.012415988,0.050049473,0.009227462,0.09599766,-0.038257994,0.027523588,0.0012864132,0.037115734,0.043251608,0.03560678,-0.023694461,-0.006222745,-0.01707336,-0.0019200548,0.012555497,0.021065667,0.008245959,-0.034059256,-0.031798307,0.026506461,-0.023910178,-0.038934328,-0.03591539,-0.06073501,-0.032271463,-0.055521585,-0.037383433,0.009166464,0.01870434,0.02274075,0.06854714,-0.00553228,-0.091874935,-0.034604635,0.016594201,0.0071399347,0.035554495,0.002592343,0.04926484,-0.0048531992
A_Time_of_Changes,-0.056110322,-0.00024394531,0.04447547,0.0027317922,-0.11134367,-0.121401235,0.08928191,-0.011341148,0.056587506,-0.0023534107,0.09192883,0.05964895,-0.0072677345,-0.0686666,0.081285775,0.041872136,-0.057683922,-0.095831886,0.06876261,0.0624246,0.028877217,-0.078480706,-0.08569795,0.10717865,-0.051063903,0.020907322,0.010412489,0.0030692825,0.07643319,0.037396163,-0.009238685,0.036224723,-0.0046134386,0.0050124214,0.09885063,-0.050822213,0.04391483,0.06629478,0.06231605,0.07586985,0.03383558,-0.023316901,0.08051822,0.017449435,-0.0141015,-0.002137538,0.040540453,0.06314376,-0.057875387,-0.078617774
Aaryn_Doyle,-0.022405997,-0.058379263,0.0704734,-0.045958206,-0.09596564,-0.05323689,0.05011663,0.036644936,0.015543686,0.02408324,0.0022541333,0.013971549,-0.02225121,0.025866937,0.078025,0.02697055,0.005907124,0.013566975,0.023553677,0.038212284,-0.031173993,-0.031669263,-0.026226414,-0.004853694,0.013202787,0.08164789,-0.0065281815,-0.010571927,-0.021864513,0.024203932,-0.06981335,-0.02367332,-0.00934928,-0.046264958,0.039229937,-0.049691964,-0.054871615,0.0038947365,0.033037066,-0.018367365,-0.032714464,0.048160013,0.009003322,0.021079518,0.061957434,0.0048755324,0.017187612,0.029155629,-0.07932567,-0.108627394
Aarón_Díaz,0.007974269,-0.010096031,0.042621713,0.053629305,0.07435274,0.014634112,0.02327973,0.0852453,0.09015455,0.0097598685,0.054680657,0.019082278,0.003189776,0.008871247,0.055031296,-0.00055635587,0.0034228829,-0.004115634,-0.028956207,0.08538874,0.053534005,-0.046767097,0.022993188,0.024351805,0.036435563,-0.03291861,-0.07396987,0.07829306,0.032542925,0.016185366,-0.033408727,-0.06013843,0.018573288,0.041123126,0.010086668,-0.008166712,0.0030674953,-0.08975639,0.01772311,0.09744254,0.043120872,-0.03761157,0.003018016,-0.063245945,0.024600016,-0.003987767,-0.024101423,0.13347375,-0.032503836,-0.04540183
Abbie_Cornish,0.070782095,-0.027033642,0.0011038405,0.08309985,0.08171684,0.08741429,-0.028371157,-0.035228502,0.09972331,0.021846853,0.09227857,-0.08442139,0.012331357,-0.09993546,-0.12021766,-0.0012194271,0.042710062,-0.013518074,0.020567259,-0.045648273,-0.026304392,0.062676586,0.06633063,-0.0021847372,-0.03042187,-0.037211034,0.028922753,-0.023132458,0.074455515,0.02951932,-0.020512216,-0.0048680077,0.015343517,0.016618984,-0.0075524,-0.037711624,0.016017731,-0.007503572,0.08233817,0.05362956,-0.019589616,-0.093219705,-0.015217716,0.053202223,0.00035010782,-0.1274475,0.009891362,0.044490155,-0.044567585,0.008000894
"Abbott,_Texas",-0.020379374,-0.025850868,-0.076225504,-0.09986635,-0.027343508,0.023770971,-0.045282476,0.059297856,-0.07426509,-0.03206285,-0.07747401,0.032375373,-0.043297928,0.09072653,0.005212431,-0.015885737,-0.072998516,-0.0055125356,-0.10930072,-0.005852342,0.04630296,-0.012344401,-0.06693174,-0.045437545,0.027034469,-0.0021960237,-0.0058837268,0.061026953,-0.07138215,0.0047653867,0.002105068,-0.06291043,-0.040349275,-0.041270304,0.025659181,0.03695988,-0.012141847,-0.00013918665,-0.10488948,-0.047755633,0.020183325,0.06889888,0.040695425,0.039333846,-0.002903503,0.071738236,-0.036899563,-0.076293945,0.021440586,-0.0660741
Abd_Al-Rahman_Al-Gillani,0.045068033,0.091944166,0.012372188,-0.040440813,-0.0204865,0.016009936,-0.016267162,-0.0029569992,-0.017336458,0.020031596,-0.10397123,0.019189386,-0.041279476,0.015849195,-0.052138966,0.08484075,-0.014923763,0.06796553,-0.11179336,0.030379064,-0.007539277,0.11748103,0.0731225,-0.15213434,0.086202025,0.010209907,-0.07035207,-0.042118233,0.027735204,-0.036639236,0.07826282,-0.013406924,-0.097721905,0.026488611,-0.05758119,-0.02106696,0.043491196,0.12130999,0.07881892,-0.044636287,-0.029901516,0.068255365,0.003746939,0.005007172,-0.02117513,-0.044072777,0.072291486,-0.044809386,-0.044459853,-0.032412473
Abdul-Wahab_Mirjan,0.018701235,-0.03612122,-0.03386179,-0.003101693,-0.03454606,-0.02029353,0.02169759,-0.032061223,-0.0021756825,0.03768329,-0.03127485,-0.030928127,-0.0066963006,0.055731546,-0.027535327,0.07837885,0.030528868,0.019961871,0.019706875,0.0025792648,-0.006510916,-0.038888242,-0.0075468994,-0.01749022,0.0070364424,-0.018399298,0.04401352,-0.07461472,0.05019125,0.03861156,0.009706461,-0.05017972,-0.017698193,-0.08959868,0.027563332,-0.10244034,0.051296547,0.0130374,0.061932154,-0.010611408,-0.04401976,0.06639221,-0.004609184,0.06368313,-0.026836919,-0.018361207,0.04084855,-0.038649824,0.05511251,0.008565472
Abdul_Razak_Hussein,0.08494485,-0.0119102,0.0053583733,-0.04549749,0.041971795,-0.055985928,-0.0038240312,-0.025937218,-0.018359244,-0.032777354,0.0018504782,-0.022686332,-0.018403744,-0.007178226,-0.030231282,0.0313746,0.06336092,-0.051576067,-0.031280797,0.07150568,-0.012842057,0.019177193,-0.026957296,-0.06903144,-0.02846561,0.030899936,-0.036321424,-0.056355722,0.034162577,0.012103504,-0.0045416984,-0.04243578,-0.06831787,-0.05104977,0.007745203,-0.035388444,-0.021546334,0.08720982,0.031856943,-0.05704958,-0.010066425,-0.030394396,-0.034195855,-0.026705509,-0.057021014,-0.041600976,0.05586677,0.034201328,-0.0014128885,-0.0022503464
Abdullah_Ahmad_Badawi,0.0646816,-0.0302961,0.00976902,0.051333673,-0.055022266,-0.08814521,-0.010510852,-0.019845784,0.020448364,0.008136476,-0.019559264,-0.004212213,-0.023461897,0.0050850376,-0.045414712,0.09970991,0.024848953,0.017959509,-0.016662098,-0.05738019,0.044908293,0.008345831,0.023624904,0.03440096,-0.04051637,-0.019159336,0.051248055,-0.08085227,-0.053384732,0.009925855,0.009110747,0.0058144582,-0.0035011226,0.005367739,-0.021780878,0.048315283,0.017995827,0.016905803,-0.033506904,0.02061426,-0.040233973,0.08943891,0.020837357,0.034385003,-0.03660803,0.07990937,-0.07040019,-0.014598396,0.0049431515,0.045638856
Abigail_Spencer,0.04175459,-0.09679192,0.07245328,-0.031811208,-0.016228197,-0.0033191082,0.061077263,0.0068852846,0.002746956,0.040526073,0.07171161,0.05511601,-0.017567199,0.05910602,0.06991076,-0.071495764,0.015139796,0.052951295,0.04868931,0.041902848,0.044791076,0.02500533,0.011370674,-0.049181726,-0.062330965,-0.0014094801,-0.009521516,0.011266433,0.11386241,0.050827324,-0.00097557955,0.08420525,0.06747327,0.05222387,-0.021742523,0.040526077,-0.027330311,0.02324601,-0.037949946,0.05212176,-0.0018195322,0.054576576,-0.025314618,-0.0026521762,-0.025152814,-0.065266214,0.011685643,0.0310512,-0.016972154,-0.020417491
Abraham_Lincoln,0.00879773,0.019026753,-0.017934216,-0.009428721,0.0071199853,0.06774044,0.062313616,-0.07365403,-0.0532447,0.055059467,-0.04758776,0.044186838,0.01771576,0.024287421,-0.05777507,0.13138667,-0.055905726,0.016853984,-0.0027049768,-0.008469874,0.13662793,-0.028914709,0.014936608,0.006201897,-0.0073916153,-0.08122473,0.011320911,-0.06240073,-0.0043638954,-0.027414333,0.028347032,0.08578507,-0.005818892,0.042248245,-0.007862497,-0.0015250985,-0.041709606,0.10808792,-0.020746298,0.005092399,-0.06257348,0.0653419,0.06809359,0.0384197,0.10198018,-0.009212813,-0.020574505,-0.07114198,0.037653502,0.023420492
Aceva_Technologies,0.040453948,0.015038941,-0.0065734973,0.0028341447,0.062269032,0.08487151,0.018327786,-0.026615307,-0.055346653,0.014799968,-0.029983172,0.04607694,-0.006114817,0.004388755,-0.040784974,-0.06235966,0.053641587,-0.0018365806,0.07382371,0.052785005,0.048356544,0.008576134,-0.030208819,-0.045890305,0.023917198,-0.037807062,-0.0971245,0.014394626,-0.028492898,-0.05500279,-0.0009381035,0.04538287,-0.061021075,0.024225058,-0.048219223,0.07006372,-0.019489208,0.028404986,0.03366389,0.01754318,-0.02129954,-0.045636933,-0.038892988,0.030491062,0.041579124,-0.014227977,0.008504133,0.057061993,0.017623322,0.063546635
Acronis,-0.007746159,-0.0019284491,0.024230221,-0.003818359,0.03675357,0.0098485425,0.027931932,0.04898256,0.022476586,-0.03374418,0.015926996,-0.042413704,-0.050317593,0.025888007,0.035129767,0.055345066,-0.07395179,-0.040465884,0.07988454,0.0093317805,-0.024132518,-0.031446904,0.021682996,0.13359891,0.12464635,-0.0873053,-0.043193012,0.007442414,0.007622554,-0.048631985,-0.11547246,0.031409193,-0.0052254507,0.059036102,0.07087235,-0.015817795,0.053117923,0.0060935183,0.03842407,0.11285456,0.032120317,-0.05764827,0.08654418,-0.060029943,0.054072898,-0.01707025,-0.037129384,-0.022988789,0.049851462,-0.019096166
Acuson,0.05974221,-0.06452579,0.0081347,0.056503545,0.04998163,0.058861088,0.03924893,-0.029401625,-0.01183299,0.06566203,-0.0077633047,0.019836886,-0.028223254,0.011230446,0.08464694,-0.041400377,-0.0031268722,0.024015266,0.038030792,-0.001849375,0.03973967,0.07104192,0.049852476,-0.10032594,-0.023358852,-0.0672786,0.015790222,-0.0074476902,0.04031247,0.04019061,0.018329458,0.060253635,6.522388e-05,0.027965603,-0.026314659,0.087511666,0.054972444,-0.017240396,0.019931968,0.0403971,0.015352789,-0.01854649,0.005877321,0.02592049,-0.025921272,-0.05800697,-0.0037414688,-0.047514517,-0.029585112,0.0065334737
Adam_Kaufman,-0.015170382,-0.032856457,0.055336166,0.07882435,0.03833102,-0.049352806,0.036852937,-0.010057232,0.029663488,0.00028060953,0.03282419,0.010831725,-0.004444219,-0.05499952,-0.009336707,0.020474242,-0.014590014,-0.029804036,0.1052709,-0.04747358,0.051222455,0.07896329,0.04086433,0.07684329,0.03354543,-0.05244454,0.050575897,0.009087696,0.033588223,-0.026027428,-0.0625174,0.04452342,-0.010591574,0.022658344,-0.006604448,-0.014089899,0.012775504,0.0080145495,0.05258358,0.025192592,-0.056179766,-0.07108912,-0.041141603,0.006998509,-0.019598061,-0.03605321,0.002849021,0.047413047,-0.095422305,0.025573222
Adam_Smith,-0.018764602,0.041869733,0.0006107255,-0.04732482,-0.036501706,-0.005282048,0.06774393,-0.031239603,-0.056682527,0.045796026,0.014861037,-0.006273738,-0.0521828,0.09573996,-0.012321349,0.12344281,0.025067346,-0.027352056,-0.046930324,-0.057358876,-0.013432099,-0.0077339425,-0.055896457,-0.05082051,-0.054846816,0.024315579,0.061279938,-0.032770272,-0.10127007,-0.06358786,-0.031063078,0.0704288,-0.021809237,-0.029794514,-0.012806399,-0.060622644,-0.09157432,0.049096048,-0.030086605,-0.06783029,-0.013380215,0.014916696,-0.023914041,0.052339528,0.050747257,-0.03618505,0.046023548,-0.00853006,-0.08071396,0.055053454
Adelaide,-0.018820172,-0.02205735,-0.001346695,0.0024447858,-0.09124554,-0.07170878,0.06869866,-0.09835645,0.08719181,0.0063440604,-0.01595073,0.08286729,-0.0472789,0.014064786,0.16524877,0.0063845757,-0.022135796,-0.053526685,-0.038550638,0.03256872,-0.0018202411,0.029052446,-0.005372184,0.03613754,0.030897425,-0.10754876,0.024822257,0.08662363,-0.0023898536,0.03306847,0.050026175,0.08299915,-0.05402881,0.014875997,-0.084770605,0.029928533,0.14242727,0.02515472,-0.058619432,0.011922022,0.036662072,0.012584862,-0.009856685,0.060471784,-0.026471214,-0.08199697,-0.028997278,-0.034385473,0.023366395,0.020823844
Adjowa_Hayes,0.0042017167,0.05863622,0.005614463,0.08589535,-0.029932458,0.030904429,0.07468463,0.031934064,0.0677293,-0.040531054,-0.018428376,0.030569632,-0.035005324,-0.028768886,0.058643486,0.010571446,-0.06067447,-0.01993823,-0.09578772,0.120209284,0.069926634,0.03313257,0.0497229,0.1023726,0.026830131,-0.04874088,-0.09550038,0.08258577,0.07595121,-0.096360035,0.020605126,-0.06316133,0.06816426,0.04284683,0.028429106,0.044233013,0.0062356424,-0.043169856,-0.015375684,0.058049686,0.06061523,-0.058767434,-0.011679573,-0.08352131,0.020753048,-0.023059454,0.07018007,0.074538514,-0.1328149,-0.09664277
Adobe_Systems,0.00768158,-0.052757695,-0.025118334,0.02757553,0.012949744,0.031060977,-0.025396354,-0.0025019874,0.03688124,-0.016271526,-0.020919498,-0.016940722,0.019336801,-0.041441258,0.00059154036,-0.012583452,-0.053564668,0.026120257,-0.071601614,0.00265929,-0.0030725892,-0.022644162,0.0036484695,0.050448004,-0.004798444,-0.034154695,-0.005156621,0.0127419755,-0.024723085,0.025592605,-0.053104725,0.013533813,0.02597131,0.0070452434,0.024133753,0.010471431,-0.011313912,-0.053488493,0.018831206,-0.021822458,0.020657757,-0.019298911,0.046707656,-0.024338584,0.013445991,0.012540366,0.022589434,-0.018242707,-0.011283826,-0.03094003
Adolphe_Thiers,0.05121776,0.09947681,0.023922773,-0.034841567,-0.05343283,0.03955346,-0.048160914,0.034698945,-0.00466766,-0.030502653,-0.070393935,0.017701441,0.03559832,-0.030080104,-0.055761904,0.10895152,-0.00770587,0.045167163,-0.1248405,0.035145685,-0.021512028,0.058722146,0.10181154,-0.082010746,0.1031116,-0.027690917,-0.040157318,0.006243785,0.04606273,-0.04514942,0.03479147,-0.019501338,-0.046378333,0.06588211,-0.01748089,0.036347453,0.05404004,0.073546976,0.07231081,-0.035961136,-0.022841448,0.04585107,0.037534583,-0.026813306,-0.017730663,-0.0020275475,0.033462428,-0.01813624,0.0047505163,-0.06809383
Adrianne_Curry,0.04513165,-0.044653356,0.051511206,-0.014909313,-0.06986151,0.01592294,0.0760826,0.0976331,0.02518054,0.041916277,0.03283073,-0.07788643,-0.02920481,-0.044710994,-0.044851627,0.06417914,0.010618463,0.042600997,0.06307058,-0.0008968365,0.008971331,0.005815655,-0.04032414,0.06078593,-0.07466449,0.07429457,-0.027306994,-0.063712575,0.005395745,0.030948058,0.013152137,-0.043666277,0.007547875,0.041104373,0.005103629,-0.09374864,-0.056637235,0.03797923,0.0759377,-0.121031106,-0.051374502,0.04504308,0.030689903,0.0012700816,-0.03638922,0.005295727,0.007668292,0.10096456,-0.06124081,-0.03868314
Adrien_Brody,0.0038488475,-0.029497018,0.02234338,0.016165933,0.033651154,0.042154755,-0.02209461,-0.053230435,0.082528934,-0.03262803,0.034066174,-0.065688185,-0.007853308,0.024935022,-0.049774855,2.9809598e-06,-0.02796017,0.086925544,-0.015017724,-0.054191574,-0.024515724,0.030308533,0.11829187,0.07339536,-0.0007542639,-0.056163225,0.10914884,0.00026204746,0.09125453,0.01793273,0.0120660765,-0.03104218,0.09351691,0.03137453,0.018821096,-0.069062546,0.025195928,0.026860734,0.05371225,-0.030092273,-0.015508276,-0.038668763,-0.08686894,-0.054928526,-0.08887992,-0.02334356,-0.09240114,-0.015867881,-0.009534148,-0.047334645
"Again,_Dangerous_Visions",-0.017890386,-0.023973634,-0.02015291,-0.012668945,0.060235027,-0.018397866,0.019782914,-0.021306792,-0.02972272,-0.07821906,0.013158182,0.013202433,0.0785809,0.01348456,-0.031161731,0.036479555,0.0024420987,-0.026916271,0.033582952,0.033161253,0.022451578,0.010919444,-0.038905896,0.00014117961,0.08871894,-0.015736813,-0.0049092546,0.03840901,0.0022791428,-0.014419875,-0.030159114,0.00913309,-0.012368886,-0.052554265,-0.011358901,0.039571468,0.018353721,0.028715057,0.057700038,-0.017549193,-0.029098172,-0.037574757,0.0007839436,0.028021418,0.008706129,0.028833823,-0.0072436295,-0.019246217,-0.001093307,0.01929842
Agile,0.07318177,-0.095311604,0.07772443,-0.0071019027,0.00041904702,0.06495504,0.03375041,0.033271287,0.011906266,0.105063945,0.025736978,0.013364086,-0.05305797,-0.013378936,0.031574473,-0.1163941,0.034105703,0.05877675,0.037940938,0.07774179,-0.060659427,0.05543872,0.048108395,-0.086794555,-0.08302313,0.014522287,-0.0675955,-0.029850462,-0.03934491,0.041535486,0.0365612,0.09708622,0.011831466,0.02495606,0.027888775,0.08350679,0.057291623,-0.09739398,-0.0637957,0.07003641,0.013018809,0.050349444,-0.013905053,0.0046375925,0.0047906237,-0.11423411,0.06373814,0.064938046,-0.011241345,0.022719238
Agra,-0.010023481,-0.008037011,0.019499952,-0.0028039443,0.01116153,0.021509105,-0.0660374,-0.0556031,-0.02945776,0.062552266,0.15232816,0.06139752,0.010706548,0.03926314,0.023333324,0.071493395,-0.012754002,-0.07330919,-0.068896525,-0.022829052,0.0542174,-0.040985685,-0.00060210016,0.05254641,-0.09072518,0.011474225,0.016826654,0.02230836,0.036743272,0.03637509,-0.057185587,0.08294477,0.10443307,-0.02793104,0.087675825,0.07859874,0.027837005,0.0022557792,-0.04031426,0.0050783805,-0.011756749,-0.061202884,0.017312998,-0.08798981,-0.0825659,-0.0004989189,-0.019022737,-0.020744575,-0.046228006,-0.052210692
Ahmed_Ouyahia,-0.048465293,-0.05743667,0.06195903,-0.00180389,-0.059316806,-0.07677416,-0.039262094,-0.07232094,-0.004603449,0.026437428,0.031611007,-0.07748877,-0.03193981,0.036175653,-0.030226523,-0.0668831,0.032680344,-0.042765494,-0.060491588,0.055572055,-0.00028430953,-0.047254663,-0.036542352,-0.05494622,-0.022985574,0.064490326,-0.044229846,0.034562714,0.002803565,0.073437326,0.096672915,-0.008092823,0.0066276444,-0.08504881,-0.015398328,-0.01678626,0.010995185,-0.028618706,0.0072516934,-0.008270967,-0.048234317,0.061999038,0.010535936,0.022959935,-0.016479736,-0.00023207393,0.0632924,0.0153048895,0.037132967,-0.096549496
Ahmed_Zewail,0.05699495,0.0012116062,0.05729292,0.012989326,0.01598682,0.015636068,-0.05359423,0.071077056,-0.017687192,-0.009480159,-0.023012914,0.012795798,0.02927665,0.026862117,0.037538003,0.09688248,-0.066292845,0.07415132,0.009296147,0.06637836,0.044325594,-0.00066028046,0.023139916,0.06548083,0.051423658,-0.046241432,-0.029751562,0.0013985817,0.0010999489,0.024348188,-0.09215516,-0.04257497,0.014784509,0.008607689,-0.011472549,0.0074558947,-0.059982598,-0.03589363,0.048977025,0.03420399,0.06172687,-0.01845021,0.036940377,-0.114469565,0.0053930203,0.03437961,0.027339632,-0.024944324,0.0071521266,0.009735114
Ahna_O'Reilly,-0.017602026,0.042264175,-0.055701986,0.04974416,0.037414204,0.13135158,0.07340939,-0.0064154267,-0.017777909,-0.05541572,0.11145314,-0.017839499,-0.05945634,-0.051391393,-0.05808717,-0.026819302,0.06560686,-0.09894971,0.0072531193,0.041400123,0.097417906,0.09772327,0.018060997,-0.03324874,-0.04169875,-0.016470997,0.032934126,0.05242275,0.008135295,-0.083339415,-0.026428264,0.03940685,0.07159129,0.09265113,0.05216825,-0.093283586,0.065859415,-0.013938759,-0.10252084,-0.038334586,-0.059407547,0.016651955,0.10443502,-0.04316206,0.09125931,-0.101026416,-0.011190044,-0.038733684,-0.08135973,-0.065269515
Ai_Sugiyama,0.026833637,0.08809351,0.008163814,-0.0016103368,0.04165172,0.09082719,0.020616578,0.06437681,-0.096086934,-0.01058337,-0.09384028,0.05136573,0.07871197,0.036867872,-0.024141612,0.042486675,-0.10811031,0.089364916,0.014864247,0.008107506,0.012207423,0.008185163,0.08840204,0.016974289,-0.08169628,-0.010519423,0.012264985,-0.07784304,0.04515779,-0.044077184,-0.032524128,0.035170015,0.049019735,0.06555088,-0.07969809,0.07273887,0.066734985,0.062124502,-0.020399397,-0.07586091,0.062308997,0.0130611025,-0.04111982,-0.031205362,0.06066092,-0.0362805,-0.0338891,-0.06440411,0.0093470095,-0.08783117
Aimo_Cajander,0.070131734,0.010851565,0.07280632,0.059791356,0.037366826,0.03675216,0.010787183,-0.014701216,0.028728992,0.042706087,-0.019478051,-0.03773822,-0.019186417,0.0006603576,-0.076725066,-0.0072847903,0.04060873,-0.074405015,-0.0036897294,-0.03233804,0.053241998,0.09848402,-0.0005105559,-0.006725933,0.09615269,0.06809693,-0.050207578,0.06405783,-0.058241826,-0.031816635,-0.010991595,-0.14282404,0.06837094,0.06809972,-0.032130532,-0.027795563,0.02186231,-0.02342798,0.06367209,0.07296503,-0.03664428,0.045741618,0.061177988,-0.012667305,-0.049318094,0.005600401,-0.051885072,-0.018854408,0.031242097,-0.03871226
Akbar,0.0045360676,0.020823276,0.08721729,-0.026924847,0.006595018,-0.07492078,-0.04617073,0.06873005,0.05154411,0.020053968,0.036566205,0.050160863,-0.13479485,0.054892067,0.06427217,0.046705924,0.072273254,-0.036191925,0.06143302,-0.05348762,0.0023116637,-0.006840387,0.056327734,0.043973014,0.016880548,0.0055545243,0.016796922,-0.060271583,-0.088661864,-0.02941736,-0.024153847,-0.028174493,-0.025718104,-0.08894256,0.08063763,-0.059381116,-0.0047240993,-0.040544387,-0.01077612,0.0065496685,-0.038001038,-0.019585947,-0.002175218,0.017212976,-0.023226853,0.012531931,-0.04524582,-0.024746317,-0.016872339,0.04900388
Akira_Kurosawa,0.060928952,0.088723816,0.07512816,0.01673654,-0.06529781,0.021074211,-0.0710292,0.054457355,-0.0643975,0.02253711,-0.14597532,0.058416743,0.085615724,0.070399836,0.08450161,0.05692645,-0.06536744,0.063114315,-0.12707277,0.07419288,0.019479541,0.023855502,0.115017325,0.038653634,-0.023290299,-0.021772895,-0.049345847,-0.12979794,0.14075011,0.02136792,0.023322254,-0.040332604,-0.06433123,-0.0348367,-0.12617245,0.12897858,0.074003965,0.018426286,0.102343574,-0.014483731,0.09595605,-0.017664855,-0.042451918,-0.09195447,0.03093879,0.061327234,-0.017852336,0.12605977,0.0040242653,-0.11282727
"Akron,_Ohio",-0.06716083,0.0005829826,-0.091678895,-0.06544873,0.030411415,-0.002718124,-0.09349652,-0.09288636,-0.014569652,0.048535407,-0.035333797,-0.030250702,-0.028656105,0.035164252,0.106785,-0.029392166,0.13031997,-0.05256101,-0.07803147,-0.050175816,-0.029105902,-0.0030190542,0.077132344,-0.056709137,-0.15537316,-0.030799221,-0.0126180425,0.06243261,0.01101524,-0.08200702,-0.082396254,-0.006516586,0.008871614,-0.10728972,0.0037733905,0.12404836,0.026973087,-0.004514737,0.023497166,-0.0799237,0.019110385,0.032048482,0.06781356,-0.029365588,0.055681285,0.048969004,0.08924406,-0.00045049097,0.05070862,0.0035508573
Al_Jefferson,-0.048995048,-0.06459232,-0.0016116743,-0.012435212,0.08490272,0.032736726,-0.0024046076,-0.038713083,0.041575946,-0.075544186,-0.057618264,-0.05097008,0.004351167,-0.045049712,-0.02870874,-0.026093956,-0.027080048,-0.05793147,-0.033062153,0.014463702,-0.018758213,0.027373876,-0.061132614,0.032306366,0.015894905,-0.06471024,-0.033932857,0.11979611,0.012612991,-0.07795524,0.049717028,0.05755644,0.001828207,-0.0062870774,0.103974275,-0.014329209,0.022750162,0.027759096,0.06320929,0.057249673,0.009555909,-0.031722866,0.051167406,-0.02754604,0.04969274,-0.0042589796,0.057226025,0.021396384,-0.06269973,-0.013884606
Alan_Arkin,-0.10356674,0.034375913,-0.020605346,-0.0806158,-0.05490211,0.024931274,-0.015603552,-0.008083651,0.038122427,0.06340675,0.082729794,-0.031335037,0.01388803,-0.040634524,-0.005053713,0.07790669,0.036568686,-0.055587705,0.00805218,-0.008182973,-0.08161918,-0.13280448,0.006721605,0.052563533,-0.032247957,0.07681532,-0.09574894,-0.015208683,-0.03068015,-0.0258415,-0.09909974,-0.037343204,-0.020375898,-0.07826209,0.043363173,-0.02697786,-0.03633721,0.013308695,0.0113089,0.0194512,-0.14823426,0.047701232,0.07374287,0.023262309,-0.00022710764,0.014177991,0.06984389,0.10321217,0.021424687,0.0061047943
Alan_E._Nourse,-0.020020038,0.05923673,-0.04870263,0.011445552,-0.011896062,0.001984485,0.0399301,-0.13170393,-0.06939921,-0.015916279,0.13818024,-0.05539805,-0.018998623,0.020497276,-0.13199629,0.05364949,0.034596037,-0.10946748,-0.055582546,-0.0018645881,-0.05805093,-5.159287e-05,-0.13008176,-0.14051443,-0.077566445,-0.015942799,0.06609502,-0.025955968,-0.0076928665,-0.0041073547,0.060981106,0.09736947,-0.045647163,-0.041294713,-0.057151627,-0.10596645,0.038140777,0.043451607,-0.081522,-0.09399533,-0.11614315,0.111477815,0.03750241,0.040736068,0.050619703,-0.094707675,0.060604345,-0.08039849,-0.0368564,-0.046368618
Alan_Rickman,0.038622655,-0.006007683,0.0657884,0.016822338,-0.058851644,-0.017953254,-0.017344337,0.043530934,0.060696438,0.014708363,0.03496998,-0.009703599,-0.027783405,-0.045737613,0.0009817394,0.08049814,-0.059036933,0.047144786,-0.021360183,0.010777283,0.07724546,-0.025241842,0.015098809,0.05497992,-0.04458424,0.020927599,0.047226917,-0.016071644,0.050505362,0.028827673,-0.047174923,-0.042009555,0.045147702,-0.0111451335,0.07006656,-0.04218695,-0.073133424,0.052074086,0.061479874,-0.021063551,-0.08782241,-0.060444057,0.019328736,-0.029558305,-0.03883905,-0.012647,0.022268837,0.020367593,-0.05508018,-0.053408064
"Albany,_Georgia",-0.027529968,-0.09458573,0.042012345,-0.03925993,-0.061639193,-0.051659726,0.016000869,-0.038767874,0.03400898,0.08389845,-0.017673662,-0.010544356,-0.10646093,0.017461153,0.10183645,-0.064755216,-0.022298131,-0.034491353,-0.010459513,0.01963693,-0.06665793,0.022200031,0.02821788,-0.010036281,-0.06480444,-0.015103363,0.07091322,-0.01657831,0.018359272,0.038964618,0.058335762,0.035989337,-0.016614454,0.08076973,0.012435445,-0.0017543865,0.060290538,0.014332055,-0.025549572,0.0068879537,0.056565564,0.027364124,-0.021265399,0.03551695,0.017613137,-0.023398135,0.062546365,-0.038271952,0.022983063,-0.02205558
Albert_Camus,-0.06585944,0.081157885,-0.05261902,0.017255906,-0.017620316,0.090614274,0.028655352,-0.006865842,0.01087911,-0.0068850983,-0.008341035,0.05781207,0.13066843,0.029398764,-0.016345914,-0.053337038,-0.028355667,0.036288645,0.038056303,0.079823114,-0.033568513,0.046221368,0.04069956,0.029519025,-0.027627418,-0.014687767,-0.030545186,-0.0048205056,0.09669742,0.030289957,-0.052459892,-0.024456535,-0.02432172,0.046577834,0.026573567,-0.040267684,-0.021668622,-0.008857918,-0.0020852073,0.015192404,0.052716907,-0.06437691,-0.03775072,-0.09005178,0.04187248,-0.11115303,0.030876644,0.0054676775,0.0063846023,-0.07760869
Albert_Einstein,-0.043914195,-0.008096559,-0.11179176,-0.08919689,-0.13360418,0.07325033,0.12188295,-0.031862166,-0.048261393,-0.02451584,0.013337824,-0.0033245927,0.010671902,-0.06905093,0.04026379,0.10920648,0.03435912,0.056766193,-0.037898954,-0.017895853,0.11736382,0.11239967,0.068180665,-0.0053702937,-0.09355235,0.008417673,-0.029872486,-0.08448,0.094033405,-0.06783603,-0.03346634,-0.08017017,-0.009233936,-0.016192427,-0.005819365,0.17031986,-0.051765136,0.01122366,-0.022946306,0.011220343,-0.015048749,-0.03899265,-0.014139079,0.04011993,0.05662359,0.13393462,0.009253541,0.049770888,-0.020918963,0.040302515
Albuquerque,0.03343233,0.05204248,0.014480794,-0.06340952,0.08148432,0.020840488,0.064045586,0.034242425,-0.024818325,-0.08417753,-0.046468507,-0.0427817,-0.012569114,0.022613753,-0.095859565,0.05515974,-0.0055205943,-0.08792672,-0.019976728,-0.04826203,0.053541366,-0.03120719,0.008175309,-0.009956753,0.100452445,-0.045149006,-0.053646177,-0.017055683,-0.07045923,-0.10568301,0.021737093,-0.062032606,-0.079078674,-0.0066840285,-0.050708484,0.00058047,-0.041343402,-0.026315384,0.060140215,-0.039909586,-0.0071852608,-0.027561324,-0.048197694,0.09273165,-0.013820302,0.0038684122,-0.01788148,-0.00069635396,-0.058245447,0.07067465
Alcalá_de_Henares,0.04885784,0.04086115,-0.0050486657,-0.035380907,0.010947842,0.012690209,-0.017744953,0.028767854,-0.02757642,-0.014603629,-0.05717117,-0.0587402,0.026695285,0.027075063,0.0049709924,0.087236315,-0.08352857,0.099695444,-0.013026802,-0.03979303,0.032895405,0.0048059775,-0.013521707,-0.03257699,0.04861077,0.028765913,0.0102493,-0.0518014,-0.088729694,-0.022495633,0.019181369,0.031393807,0.020748574,0.0013789418,0.040436845,0.049911253,0.03067939,-0.043583315,0.054757975,-0.05403066,0.051934965,0.048506595,0.01457748,-0.02448601,-0.095717035,0.014501545,-0.035993557,-0.0946026,-0.07145479,0.048313547
Alec_Douglas-Home,0.05966723,0.007929976,-0.031658486,0.014072374,-0.050636925,-0.011262148,-0.0349928,0.014955486,0.048543394,0.08660802,-0.07962299,0.00071113574,0.012580333,0.019295596,-0.065747336,-0.0035313328,0.033326514,0.0379712,-0.06254754,-0.009429796,0.08527546,0.02135598,0.07155379,-0.043815505,-0.011706916,0.08015092,0.028510941,-0.09846043,0.027579278,0.062282007,0.016580401,-0.001769211,0.03475544,0.01649099,-0.011436614,-0.0046016984,-0.021936022,0.0006829761,0.00082065025,-0.06394456,-0.04391346,0.12722804,0.0029821247,0.01898319,-0.045862697,0.036371287,-0.038443252,0.0041676434,-0.039600722,-0.04776301
Aleksandr_Solzhenitsyn,0.028930515,0.056716334,-0.06459562,-0.036249086,-0.047500897,0.029187188,-0.089802004,-0.0070616957,0.0036422363,-0.11297211,0.047111712,0.08650802,0.08404214,0.0302054,-0.05699019,-0.078937925,0.07507253,0.09707173,0.024001615,0.026132988,-0.04103386,0.07000583,-0.04731809,-0.11454396,-0.075966425,0.0985175,0.08234955,-0.011926185,-0.0472457,-0.013398801,-0.02928763,-0.0037926794,-0.09047654,-0.07659753,-0.13201614,-0.015962427,-0.018535135,0.04796733,-0.08606231,-0.08660243,0.002217828,-0.052043673,-0.07781944,0.027153471,-0.110215954,0.011405007,0.103720464,-0.07469385,0.058259685,-0.059681892
Alexa_Internet,-0.0033608684,-0.087804124,-0.00021136945,-0.012337894,-0.053319022,-0.04269212,0.03256201,0.034278885,0.019524053,0.06388949,0.034767926,-0.01242049,-0.11205909,-0.03817145,0.08118891,-0.0051968335,-0.013894128,0.039818123,0.055102758,0.050616946,-0.0619252,0.0038987326,0.0402837,-0.031853836,-0.03249297,0.049594965,0.065260984,-0.015472146,0.04916105,0.049065765,0.07059179,0.07886761,0.017280484,-0.019257678,-0.0019792875,-0.002521404,0.05550603,-0.016394895,0.030798612,0.028690245,-0.04991067,0.019463237,0.013618596,0.00048491778,0.007566303,-0.052635826,0.0446687,0.029022727,0.01736489,-0.09691307
Alexander_Jablokov,-0.046905704,-0.039041217,0.031807475,0.0016868248,-0.028380224,0.000115203205,-0.022961471,-0.0066562034,-0.05947633,0.0105876215,0.015600326,0.0031600012,0.012204576,0.0045061326,-0.05097072,-0.011790115,0.008676679,0.022941489,-0.018938279,-0.028148036,-0.056627322,0.011323466,-0.037730664,-0.021499306,-0.060411967,0.054285202,0.000416126,0.03250822,0.009599773,0.05547332,0.012643801,0.015729371,0.047816843,-0.005385345,-0.052502498,-0.040752426,0.00071802986,-0.04943333,0.021215042,-0.05015996,0.014192389,0.015636088,0.03154921,0.0320572,0.023930095,-0.03556204,0.011355802,-0.015963335,-0.017678307,-0.024410604
Alexandre_Pato,0.054228436,0.06426526,0.015678138,0.007737751,0.012766397,0.060811613,-0.009782605,0.05034767,0.009753895,-0.05246831,-0.0732732,0.016517458,0.006708773,-0.049526714,0.017545767,0.039696474,-0.07554008,0.0068357657,-0.04808234,0.11799586,-0.036674112,0.04668267,0.08382318,0.0020847272,0.05350316,-0.07349928,-0.05571387,0.072257265,0.09897235,-0.06672464,-0.072632454,-0.0547984,0.039274428,0.0798358,0.021820985,0.05426975,0.04146014,-0.04180017,0.055346925,0.056384183,0.096091345,-0.06852389,0.05964296,-0.059518866,0.009425264,0.00571915,-0.07806324,-0.0054930304,-0.11677266,-0.11980811
Alexis_Valdés,0.091809645,-0.031652663,0.0028938036,0.00094616134,-0.041572,0.026674736,-0.049338225,-0.017068293,-0.002229958,0.001498241,0.0016254241,-0.06757457,0.022900911,-0.05369973,0.027794346,-0.0444048,-0.03284713,0.04428745,-0.075571164,-0.095799185,-0.0031914455,0.0130177215,0.017903682,-0.0977682,-0.08290349,-0.001109351,0.04813457,-0.030342758,-0.07399159,0.04494242,-0.0041848957,0.07050527,-0.029110039,-0.0069315773,-0.032750823,0.04036986,0.045371857,0.0036005587,0.019281335,-0.024252117,0.022170339,0.017352695,0.0071822023,-0.033973277,-0.028556688,0.013974943,0.031970225,-0.03930773,0.058195487,0.018543478
Alexondra_Lee,0.016011417,-0.027076732,-0.050097745,-0.017036263,-0.0033615746,0.09162642,0.037164845,0.07924874,-0.025960952,-0.08217622,-0.04233796,0.04146986,0.008733378,-0.02516777,-0.051093344,0.027376374,-0.0011493615,0.056607317,-0.013085743,-0.034978177,-0.009457221,0.046113547,-0.019210652,-0.038386963,0.0736662,-0.0013277458,-0.066531114,0.021939788,-0.018662382,-0.036019668,0.026912002,-0.08044915,0.0081929425,0.0056643,0.070273235,-0.012376627,-0.09556751,0.120270334,0.07964431,-0.02475073,0.0015445629,-0.06930666,-0.06291459,0.040756818,0.0437169,0.0024860937,-0.12641828,0.033529226,0.002395772,-0.015376565
Alfred_Bester,0.052192528,-0.042055164,0.03826963,0.047393356,0.022395229,-0.012288811,-0.041212115,-0.03217783,-0.01226012,0.080117345,0.00080271333,0.002915846,-0.010021709,0.028078407,0.017950803,-0.027849404,0.042878598,-0.013429155,-0.06407044,-0.021930022,0.0312617,-0.0023442782,-0.022065174,-0.03227049,-0.00071551464,0.036467854,0.0066887457,0.055337146,0.025556024,0.020879988,0.105334245,-0.0074582333,0.044715654,0.0021360512,-0.0031138137,0.016167067,0.012915428,-0.037473153,0.0390097,-0.0023458952,-0.033743214,0.04156759,0.008187313,-0.036650717,-0.04558682,0.047254562,0.008921138,0.008655374,-0.008411885,-0.07142112
Algeria,-0.018244285,0.0151602635,-0.018648844,0.043987773,0.014918924,0.06339014,-0.07355853,-0.014099267,0.094424315,-0.016867464,-0.03900839,-0.022536986,-0.023764037,0.07621373,-0.0011470286,0.027967727,0.010223145,-0.091880016,-0.11391386,-0.027013032,8.944815e-05,-0.055054367,0.0064535127,-0.05543384,0.004542354,-0.054593887,0.010229132,0.05176445,0.035499483,0.023425447,-0.05974787,-0.030300869,0.07711407,-0.02341582,-0.027178464,0.09069011,0.056957353,0.039519835,-0.003866851,-0.034020334,-0.048706487,-0.08294779,-0.05582299,-0.033951756,-0.048522934,0.07189869,0.031294104,0.0061038975,0.05225472,-0.0021388286
Ali_Landry,-0.057965767,-0.016347446,-0.035189115,0.114435874,-0.014717708,0.12093072,0.060721885,0.0017984409,0.042867333,-0.032772712,0.0075264517,0.03286126,-0.024393411,-0.04895362,0.05075225,-0.036847062,0.059242256,-0.0043128976,-0.017190238,0.030257303,0.05014333,0.036205336,0.050438426,0.006906647,-0.01778849,0.050552655,-0.058596935,0.0942181,-0.0024816594,-0.02193343,-0.08507061,-0.054103795,0.1361097,0.101493046,0.00161541,-0.0048512537,-0.012405737,-0.13635053,-0.068244785,-0.04444431,-0.044349894,0.0045813555,0.068883136,-0.07833166,-0.033851404,0.010227524,-0.057615686,0.0048520975,-0.1116924,-0.09520817
Alicante,0.0127174985,-0.1618234,0.035999987,-0.054557867,-0.09816767,-0.06112494,0.047547195,0.008740207,0.06540894,0.012137175,0.04008886,-0.03001273,-0.03638744,-0.025792986,-0.039184906,0.045430336,-0.03534914,0.014518306,0.04124782,0.026010992,0.06320127,0.047165476,0.026134344,0.09850066,0.031831603,-0.06439171,0.109114334,-0.035559427,0.111734286,0.07129264,0.0652237,0.050949402,-0.024132174,0.10204957,-0.033966087,-0.094328776,-0.021457052,0.06216872,0.025912106,0.027424539,0.04098147,-0.029640837,0.0048960974,0.034745947,-0.05596801,-0.11405072,-0.08483995,0.03117205,0.0034602527,-0.049126502
Alki_David,0.006509008,-0.033424303,0.012237266,0.027244994,-0.010626659,0.031434417,0.065799095,-0.0054714098,0.020442301,-0.037844073,0.08415925,0.042261183,0.050196387,-0.036607683,-0.048956003,0.068839855,-0.01924899,0.043578092,0.04338698,0.023023307,0.09099378,0.07906508,0.008769153,0.10787232,0.010459666,0.029755747,0.033048067,-0.03915265,0.10420863,-0.0036264518,-0.052351683,0.0569115,0.042952824,0.026546136,0.050598036,-0.03821446,-0.018371437,0.030493699,0.1267142,0.009375281,0.04208429,-0.050963096,0.003991701,0.002079752,-0.05517651,-0.03759464,-0.034595788,0.041293796,-0.07183819,0.011983249
Alyson_Stoner,0.03170082,0.042564806,-0.05963392,-0.02773197,0.004511041,0.011357597,-0.008042074,0.08190175,-0.023978256,0.08812625,0.08029561,0.006146512,0.05886677,-0.07738425,-0.019971587,0.04628721,-0.021909717,0.035086185,-0.016030665,-0.0057467576,0.071024895,-0.062397208,-0.07047831,0.008132684,-0.08104733,0.048129864,-0.026668236,-0.115890585,-0.05394833,0.036156617,-0.008592357,0.0032027583,0.035652,0.03181177,0.07826571,0.029445142,-0.04131599,-0.045793165,0.054968137,-0.03245248,0.0070489976,0.002754266,0.0543186,0.0024676018,-0.05928218,-0.004295813,-0.039789185,-0.0042845905,-0.061886713,0.016672634
Amanda_Peet,0.0308193,-0.06545417,-0.01137435,-0.037306957,0.012810787,0.018317774,0.094422445,0.10050268,0.0029036952,0.064657316,0.05100333,0.037283275,0.06296826,-0.06991101,0.05632803,0.0012396981,0.1411806,0.0298117,0.049414642,0.030355379,0.055672366,0.016396584,0.0048272777,-0.04794024,0.0071289237,0.010084439,-0.022105915,-0.08750639,0.10507606,0.079614595,-0.020902025,0.054984085,0.07534719,-0.029899731,-0.032871526,-0.009416622,-0.009799372,0.01570307,0.036722787,-0.00044748557,0.013840364,0.003764324,-0.047229998,-0.14474952,0.05057223,0.058959045,0.07282613,0.11358731,0.03695738,-0.00040587163
Amanda_Seyfried,0.04804105,-0.015703388,-0.01689217,0.039509553,-0.018733446,-0.095624916,0.014829134,-0.006874501,-0.06875087,-0.0046210233,-0.024530737,-0.022549147,-0.0122261485,-0.0059301555,-0.02948568,0.026358867,-0.06930829,0.07261578,0.033026416,-0.0019557679,0.007430337,0.0013756867,-0.0044680107,0.04372209,-0.0062594363,0.014886105,0.0191946,-0.06885634,-0.052566342,-0.04811648,0.013678145,-0.014323328,-0.037475716,0.039104406,-0.02847677,-0.010895833,0.07664916,-0.04783719,-0.025361938,-0.03677261,0.021508506,0.031131092,0.05638175,-0.00035086018,-0.06647356,0.07759303,0.048285007,-0.0652324,-0.07193426,-0.046944257
Amazon.com,0.027076684,-0.0032084114,0.0006357074,0.09545839,-0.080246866,0.05287478,0.011998244,0.008270312,-0.038323253,-0.0006787449,-0.002231906,-0.023646941,0.03345461,-0.029582817,0.038514357,-0.01340145,-0.008692284,-0.0041834246,-0.043453798,-0.052682176,0.008000615,0.02076058,0.006618952,-0.034128055,-0.04802286,0.029300574,0.018166946,0.041313678,-0.022739764,-0.007871142,-0.040107563,-0.019625016,0.047732674,0.00064787,-0.06750095,0.05373829,0.0675516,-0.033219367,-0.062414046,-0.07980813,0.015575484,0.059243497,0.05540005,-0.011418809,-0.031114046,0.04595994,0.015162813,-0.0118302675,-0.008496056,-0.036555387
Amir_Johnson,0.04918642,0.02264895,-0.041096404,0.029688971,-0.017553048,0.010104338,-0.009632291,0.023049451,-0.00059661677,-0.07341636,-0.003483968,-0.0659134,0.058306374,-0.067759715,-0.03145216,-0.088014364,-0.10212811,0.012034083,-0.05377656,0.012421604,-0.038390413,-0.008136056,-0.070489824,0.0079125175,-0.0425485,-0.02765611,0.024378778,0.049509443,-0.07016179,0.017679134,0.04426763,0.06802491,0.019921495,-0.062310684,-0.012465514,0.0347279,0.057792567,0.0031151713,0.015013615,-0.11050815,0.021845667,0.0010535739,-0.05954766,-0.030898282,-0.035694353,-0.038098823,0.065785214,0.021460962,0.016694102,-0.04022112
Amnesia_Moon,0.0021873624,-0.048694406,0.017018268,0.008637781,-0.027202109,-0.012356802,0.020369677,-0.037490945,-0.007868897,-0.05323162,0.024514409,0.053434826,0.025454149,0.0443883,0.012730136,-0.007043189,-0.05058981,-0.009192066,-0.0007250557,0.022696722,0.0787832,0.058609523,-0.02962273,0.0061512776,-0.007975538,0.04790163,0.0015784709,0.024207143,0.020158386,0.00823968,-0.0044763247,0.04147751,0.060660392,-0.047244016,0.049723655,0.06653749,0.03448943,0.06979707,-0.023288915,-0.019117672,0.009908186,-0.011421067,-0.008761001,0.042195544,-0.039700415,0.010289381,0.008289906,-0.02759165,-0.025354695,-0.03271577
Amy_Poehler,0.05121538,-0.08595976,0.07347652,-0.007868894,-0.027134962,0.009186573,0.026574895,0.08497618,0.05785611,0.052109413,0.0028032376,-0.08168735,-0.05692156,-0.01751335,-0.014461967,0.086042434,-0.0029056668,0.08381555,0.0615739,-0.018014092,-0.019911164,0.005877235,0.05055496,0.0536386,0.008480283,0.057006128,-0.0067551667,-0.0912806,0.027077705,0.058209922,0.06654387,-0.08894288,0.0085887965,0.0146000255,-0.0062311087,-0.097666584,-0.048889764,0.00814787,0.079490945,-0.057294346,-0.071982294,0.02670963,-0.01469824,0.02872679,-0.0026742746,-0.04296005,-0.01120474,0.039134018,-0.053782795,-0.055363633
Amy_Spanger,-0.00033185366,-0.0021890604,-0.054876413,0.0036223913,-0.03584587,0.0019907022,-0.014075765,0.0018769323,-0.028145665,-0.027099287,0.04031393,-0.04638105,0.05881505,0.005360565,0.03400561,0.015065319,-0.08281134,0.047392998,0.018030947,0.049670495,-0.08772745,-0.026768925,-0.049654484,0.0058904933,0.017317137,-0.035048444,0.015936906,-0.0026307066,0.071127035,0.04177674,0.042043567,0.02706402,-0.0022220197,-0.0073023224,0.036092978,0.068376616,0.04168233,0.065791234,0.025767317,-0.0033852735,0.030082054,-0.03057127,0.007361508,0.020766987,0.10322521,-0.081405275,0.06061834,0.07692255,-0.08385003,0.016063536
Anatole_France,0.051391933,-0.006825751,-0.015466317,0.051552363,0.020113071,-0.00037416277,0.019091079,0.0598016,-0.017475486,-0.00826836,-0.07542029,-0.015597506,0.08324172,-0.04481977,0.033922736,0.002062083,-0.103633806,0.04882461,-0.052828528,0.0478229,-0.008915475,-0.0044760294,-0.012235862,0.03520453,-0.020597693,-0.06253117,0.011792922,0.014829174,-0.002773722,0.004325962,0.07185764,0.00065252755,-0.124331236,0.011466659,0.014451795,-0.0056671067,0.14504273,0.032777548,0.055718943,0.020271398,0.003605064,-0.007870318,-0.028851163,-0.022385808,0.021680366,-0.06717536,0.041828517,-0.04357766,-0.0022119244,-0.06426494
Anders_Fogh_Rasmussen,0.028966319,0.040768676,0.023916807,0.062104966,0.006503145,-0.02565792,-0.027283011,0.0030294806,0.04586906,0.08048791,0.0019454956,0.07173786,-0.014859449,0.032870088,-0.041242886,0.010500363,0.02722495,-0.00079403876,-0.044653516,0.037802838,0.0491505,0.03068178,0.005458759,-0.081494875,-0.009473691,-0.06519639,0.016797014,-0.0007203736,-0.01571544,0.019272972,0.033926476,-0.0041213674,0.016977465,0.005106343,0.0058022775,-0.0064066094,0.07902772,0.04837268,0.012018507,-0.06815123,-0.076680765,0.058660652,0.009818596,0.044504613,-0.05588983,-0.025350276,0.024398327,0.0025338577,0.015794523,-0.044733565
Andre_Agassi,0.03660308,0.016832214,0.04236576,0.048446074,0.0022063574,0.027524004,0.09326508,0.03958923,0.07334279,-0.024605451,-0.048409052,-0.0025601475,-0.019505765,0.030037023,0.0070655462,0.15709919,0.0811731,-0.10183068,-0.0543977,-0.034559686,0.088296175,0.045572072,-0.015522927,-0.01872148,-0.06522024,-0.009505411,-0.0053420635,-0.025670243,-0.11771064,-0.07570526,-0.10088556,0.056421675,0.0030218125,-0.050698858,0.045067824,-0.042336587,-0.03989218,0.013338142,-0.09757368,-0.031009007,-0.051435083,-0.029776147,0.011400666,0.02255095,0.030272916,0.05530432,0.05903349,-0.011900776,-0.036885925,0.056302197
Andrei_Kirilenko,0.02723845,-0.046570648,0.054522548,0.035619248,0.029933833,-0.02752935,-0.068658285,0.022217564,0.00076018414,-0.012675139,-0.005876883,-0.11935017,0.080606095,-0.025580345,0.026595004,-0.031337157,-0.06434754,0.07625793,-0.032154776,-0.025833385,-0.026223745,-0.051840298,-0.058783833,0.09477977,-0.009637632,-0.013070067,0.03347069,-0.011173348,-0.05899292,0.028208409,0.025754161,0.016865546,0.01676177,-0.031091768,-0.016404673,0.007782445,-0.015121336,-0.0030110246,-0.0065805465,-0.053946983,0.024311226,0.024743939,0.057290796,0.045970716,-0.032368544,0.007321253,0.027641386,-0.014396865,0.06868415,0.06917396
Andrew_Bynum,-0.016457194,-0.109287776,-0.016657224,0.016224246,0.087856285,-0.0011796681,-0.059644166,0.014754808,0.11763914,-0.08612769,0.054585688,-0.0064728116,0.02683023,-0.08548068,0.0557841,-0.08358643,-0.014210121,-0.03166671,0.042482108,-0.027367687,-0.013148331,0.06394355,-0.061898835,0.102353014,0.017988615,-0.01389236,0.03371669,0.075838104,-0.019303372,-0.09984196,-0.025264168,0.012870593,-0.03709842,-0.030532174,0.043614604,-0.0039195186,0.09382741,-0.013816238,-0.02109667,0.06578421,-0.026052391,-0.07515933,0.021995716,0.012138177,-0.05126047,0.017226167,-0.041482348,0.013375649,-0.033428174,-0.004139727
Andrew_Huxley,0.05897103,0.07320484,0.035962388,0.03149603,0.033877872,0.04970586,-0.06295641,0.04292016,-0.08924724,-0.038225926,-0.07005095,0.06821804,0.018012969,0.011739787,-0.0027609565,0.030826367,-0.07257206,0.04982784,-0.051172987,0.04933586,0.048705786,-0.010249878,0.031226505,0.033756748,0.012832515,-0.048044622,0.0026825694,-0.04701887,0.041071206,-0.0073262635,-0.018885402,-0.011702487,0.05818754,0.011215772,-0.016995836,0.054399718,0.058988553,0.011236083,0.005383764,-0.022304712,0.019623533,-0.0054015713,0.014484578,-0.021411601,0.0019212809,-0.03716206,0.037305,0.00029761362,-0.0047877342,-0.06246034
Andrew_Johnson,0.03714315,0.09397483,0.039700113,-0.048873253,-0.054881625,0.019511223,0.005271973,0.027297819,0.040915094,-0.0032816883,0.019285394,0.11051761,0.030259982,0.048944972,-0.0070823436,-0.048299383,0.12995082,0.013698286,0.047459375,-0.04009484,0.1134284,0.02880649,0.0887117,0.0071653286,-0.0576336,0.02342168,-0.023187712,-0.049901243,0.024195183,-0.029695742,-0.03403615,0.002548977,0.01603588,0.01272962,-0.056301057,-0.03151564,-0.017775305,-0.034707826,-0.061593853,-0.027705908,0.01048191,0.014908536,-0.01838023,0.05877553,-0.01688399,0.021990336,0.009775317,-0.02874916,0.0015477526,-0.027914874
Andrew_Pruett,-0.012871364,0.079760924,0.05446324,0.030471839,0.081905305,-0.020403244,-0.030861508,0.061155587,0.054988082,-0.054024998,0.057525057,0.058246605,-0.053825837,0.014899133,-0.011627514,0.07336047,-0.025020551,-0.08592523,-0.02436417,0.025418492,0.04333074,0.015957221,0.053717475,0.06348948,0.09331419,-0.042483866,-0.024317488,-0.0025018794,-0.020870142,-0.063056596,-0.036961626,0.0070683216,-0.013180362,-0.005534463,0.08054813,-0.07920025,0.061410215,-0.005792493,0.010421793,0.06341706,-0.026308563,-0.025330618,0.06419896,-0.089045025,0.017391473,-0.04149952,0.05169129,-0.012371281,0.0260644,-0.0040761265
Andrew_Schally,0.019544384,0.060810577,0.053344227,0.012577587,0.023869755,0.034167208,-0.044651836,0.084597714,-0.024021097,-0.03131649,-0.07358053,0.07135715,0.054071892,0.014753603,-0.018065752,0.036418036,-0.06274725,0.029440714,-0.027792478,0.06267816,-0.020211134,-0.02299376,0.030084914,0.03940116,0.05585246,-0.040800884,-0.011167019,-0.04319111,-0.007460096,-0.007905155,0.01731228,0.039532118,0.05284928,0.06727597,-0.029212471,0.012438154,0.11475825,0.01367218,-0.005463565,-0.021807179,0.014418771,-0.0016430704,-0.025195803,-0.088701,0.022905923,0.01752454,0.039502688,0.0019502714,-0.0022867688,-0.08020708
Andris_Biedriņš,-0.09093069,0.05830263,-0.021963423,-0.0035648544,-0.049349625,-0.09061982,-0.005897808,-0.008460232,0.040875405,-0.014760212,0.016964959,0.012139989,0.027970761,0.018963924,0.0620516,0.04374051,0.03668669,0.02428633,-0.04179297,0.033554994,-0.02623825,-0.023716081,-0.069606036,0.06927343,-0.024655368,0.005680574,0.03849394,-0.014531801,0.0024841344,-0.018487355,-0.049555615,0.051809378,-0.08646366,-0.06293527,0.0012907134,0.049805593,0.018064303,0.01644054,-0.035775136,-0.035646312,0.008808584,-0.07731698,-0.025505282,0.066944204,0.003443284,-0.0013931979,0.079383425,0.1211706,-0.070872836,0.03950949
André_Gide,0.086898066,0.042251755,0.058500256,0.043348037,-0.09840366,0.008649636,-0.009126955,0.053241815,-0.00085203943,0.0042129904,-0.09393377,0.037417628,-0.005520863,-0.0050297566,0.032497536,0.038372744,0.033771798,0.00308737,-0.07477509,0.036108475,-0.026692037,-0.030467505,0.033692084,-0.040004723,0.059155814,0.024016922,-0.06532754,0.007376117,0.013700053,0.030886844,0.00472097,-0.06048537,-0.050306,0.012605549,-0.005295332,-0.0557114,0.06702719,-0.0026231385,0.065062225,0.003796494,-0.03252049,0.030501409,0.037182227,-0.05845301,0.0031311833,-0.007429133,0.0010465366,-0.022286113,0.051307485,-0.10040128
Andrés_Calamaro,-0.0006086271,-0.08159566,-0.047625184,0.08196362,-0.017730044,0.085956335,0.11485095,0.038618386,0.032728437,-0.002186082,0.077969484,-0.10661082,-0.08525577,-0.08683866,0.026385108,-0.11649124,-0.0192297,-0.07025288,0.080108576,0.033343535,-0.0013416336,0.049650896,0.060877707,0.0543571,-0.041649334,0.025310926,-0.04223606,0.100454375,0.07482406,0.0065497886,-0.046669263,0.0012069375,0.07870916,0.047608748,0.09253103,0.014819973,0.031344913,-0.04718217,-0.0711935,0.02629601,-0.02757386,-0.062911466,0.06626816,-0.020317413,0.00806682,-0.0064820945,0.042224385,0.04255509,-0.033239607,-0.031290065
Andy_Roddick,-0.06328558,-0.057896502,-0.081637844,-0.025891745,-0.034700584,0.08512981,0.09897319,0.0059904554,-0.03430407,-0.03440076,0.0915507,-0.011582326,-0.0804718,-0.015213829,0.020460844,0.05665372,-0.039959442,-0.052301995,0.017819125,-0.11900889,-0.03574996,0.029106509,-0.050449412,-0.024971275,-0.068040214,-0.031236196,0.050774116,0.032197237,-0.12449672,0.032974683,-0.12520969,0.079372525,0.020831967,0.047112226,-0.0076194243,0.029011425,-0.02194556,0.009253751,-0.08111525,-0.016009199,0.025849838,-0.027262086,-0.0052929646,0.017620845,0.044489887,-0.08027944,0.0041399957,-0.07495836,-0.07395886,0.068760544
Andy_Williams,-0.039712507,0.09240232,0.07085083,-0.056830727,-0.0005762269,-0.08463042,0.034633487,-0.041100796,0.0008416022,-0.039497055,0.086788185,0.11477942,-0.10382224,0.0826182,0.023776803,0.04908127,0.032995556,-0.041264746,-0.06718255,0.033354975,0.018198589,0.02604365,-0.046303328,-0.0017304198,-0.0046036523,-0.030837784,0.014943191,-0.029440867,-0.046420094,-0.037786026,-0.07568002,0.060741886,-0.048744164,-0.10304928,0.015995383,-0.021372925,-0.041099895,0.08035646,-0.05403433,-0.08630869,-0.10758949,0.0043492555,-0.045357015,0.008261894,0.017850084,-0.019692983,0.12849966,0.11265412,-0.047918297,0.06521736
Angela_Carter,0.01295895,0.024840917,0.03037234,-0.03367956,-0.0056846365,0.027181111,-0.048213355,0.025413826,-0.07677641,0.04762769,-0.040741168,0.015506588,0.060967818,0.04254128,-0.017122652,0.0016516935,-0.09731771,0.04548933,-0.035427094,0.041051865,-0.011869948,-0.04321985,0.02395083,0.02114384,-0.017125541,-0.0076057143,0.016937817,-0.054670755,0.031396933,-0.01641489,0.021377672,-0.024917182,0.0069170347,0.054445453,-0.08210546,0.03642235,0.015637847,0.029485883,0.04686797,-0.043425113,0.0259955,0.034681264,6.0377213e-05,-0.051436536,0.07205241,-0.031172574,-0.043580804,-0.01489869,-0.018630909,-0.028037691
Angham_Mohammad_Ali_Suleiman,0.080674365,-0.011780506,-0.02041149,-0.013302758,0.11322093,0.12601562,-0.068414554,0.111078404,-0.056205593,-0.03672232,0.0029598894,0.0010635055,0.06826602,-0.025743224,-0.057908256,0.033709478,0.04670128,0.04112169,-0.023219459,-0.064590134,0.04817697,-0.012345979,0.037944306,-0.049139574,-0.002837474,0.07562085,-0.07524568,-0.05744239,-0.0143805435,-0.012725867,-0.022754746,-0.111281574,0.019264733,-0.030307498,0.059665427,0.013570075,-0.110320896,-0.012353012,0.09915225,-0.0505617,0.037694063,0.0021882036,-0.010508126,-0.041139424,0.03866369,-0.013719145,-0.046759244,-0.0019955006,-0.03796566,-0.07683201
Angoss,-0.019756533,-0.037028994,0.06776087,-0.0037093714,0.025903746,-0.067114145,-0.05247371,-0.0076779644,0.024001716,0.08858112,0.053442914,-0.052858464,-0.03314391,0.026884237,0.01216687,-0.00018018318,0.050906014,-0.06372156,0.032893978,-0.046532057,-0.0065991674,-0.052979417,-0.010454693,0.039976858,0.022542035,-0.029959587,0.00912633,-0.06196771,-0.03819768,0.069003955,0.0049482486,0.0033272707,0.0115810195,-0.11968134,0.061252218,-0.07032501,0.06840879,-0.022684956,0.041705433,0.04914334,-0.023261113,0.03097571,0.106884435,0.008872695,-0.007639559,0.019932708,-0.0141162025,0.040554192,0.09669639,0.03739744
Anna_Faris,0.03497194,-0.011786344,0.00023169251,0.08114932,0.06523491,0.02002442,-0.05670511,0.0627834,-0.023001203,-0.0714943,0.040794548,-0.044297665,0.03117803,-0.03785971,-0.10360101,-0.029433595,-0.008791306,0.048889063,-0.0038788782,-0.07986909,0.00076223083,0.06139592,0.028654167,0.07290987,-0.017506551,0.0064574135,-0.03668514,-0.022714466,0.0016424808,-0.020411082,-0.04003376,0.019239202,0.048533317,0.0094374465,0.05641557,-0.03352236,-0.008117015,-0.03659637,0.03724238,-0.027461518,-0.018951312,-0.022721298,0.015495187,-0.028852975,-0.045604996,-0.008859678,-0.068808526,0.017625205,-0.017161313,-0.015705582
Anna_Maria_Perez_de_Taglé,0.070866644,-0.09116943,0.052504044,-0.04109397,-0.029839387,-0.06566707,0.054938693,0.04498847,-0.047904942,0.0070046512,-0.048030477,0.08798663,0.026400616,0.07093808,0.07413037,0.08727173,-0.061663885,-0.041628122,0.020076409,0.023145687,0.047655586,-0.021935094,-0.07033055,-0.015630549,0.014364923,0.04062805,0.0003712349,-0.02410491,-0.022173408,-0.10223449,0.015374158,0.0026208137,0.018024655,0.002156256,-0.00018426747,0.030990802,-0.040992085,-0.00245445,0.0040543783,-0.0731429,-0.017960303,-0.0092260195,0.08717879,-0.0635494,-0.057163157,0.0051987306,0.0009991816,-0.04230984,-0.11856239,-0.0749732
Anna_Nicole_Smith,-0.008616395,-0.050021194,0.0059797107,0.038548466,0.04606612,0.004512281,0.01570699,0.035250634,0.030271415,-0.071845934,0.07384166,-0.011296391,0.053928476,0.0012319264,-0.050293602,0.011419062,-0.034586243,0.024336636,0.010787201,-0.037146334,-0.015000894,0.05947909,0.0023361833,0.050037317,0.021805555,-0.0042614224,0.08802093,-0.019292936,0.0037793282,0.030063882,-0.036589526,0.022912985,0.06878071,0.02832993,0.012692769,-0.04043634,-0.054410264,0.065466076,0.042837877,0.01997078,-0.02674542,-0.0311078,-0.046001844,-0.011497511,-0.028895924,-0.009823851,-0.07472125,-0.06943041,-0.06985634,-0.030550653
Anna_Tsuchiya,0.028552474,-0.04576377,0.065512285,0.0065927706,0.010424686,-0.007960826,0.06170216,0.040857412,0.06418785,-0.044213805,0.005480832,-0.007569697,-0.020413546,-0.018374605,-0.03811038,0.054154616,-0.033406373,0.030672628,0.030031316,-0.081975035,-0.014426588,0.020639177,0.03714081,0.04928302,0.047816705,0.0015884549,0.08042164,-0.07859161,0.06513585,-0.039734982,0.034436665,-0.0066235424,0.04282646,0.05250594,-0.044313453,-0.11061669,-0.054302655,0.0820378,0.06087078,-0.005439706,-0.034202214,-0.020045543,-0.051814295,-0.0132437,-0.029725643,0.024560263,0.021744482,0.02681549,-0.043492258,-0.03556641
Anne_McCaffrey,-0.060684506,-0.00539253,0.056579817,-0.0392883,-0.04777836,-0.03255255,-0.0044112382,-0.099481784,-0.08647962,0.04640776,0.084753804,-0.03608773,-0.023455532,0.069121905,-0.0035098796,-0.072547324,-0.019101748,-0.05515069,0.054475933,0.0770766,-0.0075341784,-0.040828437,-0.024708595,-0.054479912,0.031190101,0.064680636,-0.07371362,-0.007253598,0.09486866,0.050433498,0.08412297,0.099161625,-0.045382682,-0.0562177,0.025315221,0.029089915,0.02051935,0.09880717,0.05691881,-0.012544664,0.00095595693,0.0076420144,0.009196336,-0.00835051,-0.033881936,-0.06427825,0.06996583,0.08611756,-0.062196057,-0.09132539
Ansoft,-0.0055915476,-0.079192996,0.04029787,0.036819577,-0.0043743677,0.021607742,0.041107394,0.055529386,0.050117765,-0.00048029405,0.024474796,-0.08251911,-0.04166974,0.024239473,0.07692565,-0.013453222,-0.06769581,-0.030006729,0.020919908,0.055338435,-0.03206384,-0.051227253,0.02673555,0.06218751,0.09335488,0.013181468,-0.08656463,-0.002286971,0.029854767,0.03133839,-0.089195415,-0.033784237,-0.001508497,0.023564966,0.10343162,0.0037873772,0.0264065,-0.061577503,0.070320845,0.06200092,0.07931548,-0.03247475,0.06280809,-0.11745066,-0.015055987,0.007309523,-0.00054296706,-0.0017881802,0.028073592,-0.007423841
Ansys,-0.048846904,-0.028311307,0.109134905,-0.09632652,0.10044292,0.044897623,-0.016501023,0.0060326327,-0.12592563,0.056951907,0.033168074,0.0772089,-0.1282114,0.09245991,0.009474721,0.07115725,0.030731915,-0.042761132,0.10683599,0.02681637,0.07426492,-0.08614724,-0.053329233,0.028588522,0.05821635,0.0035755134,-0.012401434,-0.08474884,-0.035795227,0.09478041,-0.07139619,-0.048783608,0.044830658,0.03502298,-0.058320522,-0.022885518,0.011049387,-0.0276454,0.10712532,0.06623718,0.016127082,0.04450747,0.013164021,-0.099855945,0.07621985,0.018060805,-0.08928643,-0.0877443,0.060919892,-0.013647988
Anthem,-0.077958524,0.0067582587,-0.015664114,0.023660898,0.022675227,0.012749875,-0.029743701,-0.069058746,-0.0063355956,-0.039434534,0.055781703,-0.008965182,-0.008195251,0.043621097,0.0031197213,-0.067908995,-0.055828847,-0.015147793,-0.011197656,-0.074280836,0.034800455,0.03919277,0.08551871,-0.0066515873,0.07212736,-0.062186323,0.07405549,0.03178061,0.025642904,0.04113805,-0.044630066,0.059627444,0.064189404,-0.07499821,-0.034668997,0.07035194,0.053468924,-0.024467053,-0.027844531,0.054057993,0.012330497,-0.08761475,-0.04566259,0.025783071,-0.06981665,-0.08240281,-0.10008446,-0.028977906,-0.05145878,0.019621497
Anthony_Michael_Hall,-0.0040053395,-0.03779758,-0.02850232,0.033881843,-0.04574988,0.0048655034,-0.023067582,0.056095827,0.0013026885,0.014787046,0.06734523,-0.03895316,0.014188839,0.034348156,0.030311916,0.056779854,-0.0072659757,0.015730735,0.027031837,-0.00051340525,0.030393569,-0.07581105,0.039769422,-0.009715056,-0.06100694,0.107319415,-0.05669067,-0.022092044,0.009994984,-0.042247027,-0.069127895,-0.0043649436,0.046490625,-0.026035113,0.07790596,-0.03343282,-0.11875177,0.02082563,0.056370344,-0.0008540097,-0.039588455,0.042183388,0.056759473,0.01986491,0.047987778,0.043895047,0.006783896,-0.008137552,-0.026606446,-0.04937031
Anthony_Quinn,-0.095507205,0.051972866,0.014297904,0.047191005,-0.03277745,-0.083838396,0.055620693,-0.046934336,0.024846204,-0.013465549,0.007797934,-0.005508002,-0.006288474,0.101168975,0.023215843,0.04037027,-0.032295123,-0.008848529,-0.024550242,-0.00066136685,0.01570867,-0.12276883,-0.0077464944,-0.008957004,-0.06226433,0.09654495,0.011093054,-0.07714388,0.031366326,0.0071155936,0.02624445,-0.045781616,-0.09824547,-0.0581067,-0.055358898,0.017734662,-0.07895412,-0.05933586,0.01048419,-0.07480277,0.06698613,0.016350605,-0.054735746,0.068221465,-0.073114686,0.082251936,0.09284145,0.052150637,-0.07664067,0.06384335
Antoine_Henri_Becquerel,0.09284136,0.048080314,0.08211159,0.016742053,-0.035607964,0.05727018,0.1321268,-0.06656738,0.007443799,-0.04488263,-0.112231165,-0.05658165,0.013942651,-0.028167948,0.12734637,-0.07387921,-0.02150191,0.048163593,-0.042741753,0.0014539971,0.09492828,0.026284486,0.05044203,0.049675893,-0.057367403,-0.00019083332,-0.016993407,-0.00257101,0.018063432,-0.022779655,-0.012726797,-0.056120943,0.019568734,0.031153876,-0.018365346,0.076271914,-0.1153318,-0.0052389735,-0.08155509,-0.09286894,0.08823143,0.041298598,0.0841816,-0.0047511244,0.036232363,0.104184285,0.035236124,-0.039600622,0.10244539,-0.03665155
Anton_Rop,0.029216276,0.091458976,-0.0019487856,0.002226038,-0.037492547,-0.06531867,-0.11775774,0.005221771,0.026406953,-0.008889659,-0.0054898295,0.0191632,0.004331522,0.08665763,-0.08054333,0.034373283,0.02990571,-0.006545376,-0.03131806,0.080909446,0.025551643,0.009742931,0.0224464,-0.05972877,0.013960585,-0.0072871465,-0.028890403,-0.022076445,0.077147126,0.002248641,0.0728938,0.013881682,-0.01256832,0.0024053687,-0.014292383,0.005220725,0.050244153,0.04923977,0.04566395,-0.043611523,-0.074493915,0.07759109,-0.008160562,-0.0087233195,-0.03197415,-0.035902195,0.054713096,0.030401876,0.009702312,-0.081011705
Anwar_Sadat,-0.052162725,0.02730688,0.065345325,-0.009799024,0.057074077,0.00453647,-0.034965456,-0.023154153,0.007595036,0.082366884,0.06961194,-0.030339284,-0.04078983,0.035787847,-0.008570962,0.0628369,0.01913245,-0.057085037,0.02475195,0.022668477,-0.04546757,-0.008685056,-0.027223632,0.006411266,0.12305217,-0.062222514,-0.025636133,0.0037002573,-0.0170026,0.056869075,0.005703253,0.0037151808,-0.017265769,-0.00016699519,0.11219758,-0.06652987,0.009529702,-0.04369208,0.08571359,0.11110642,0.026989412,-0.047843497,0.057284273,-0.118183285,0.022826971,-0.048885677,-0.029951962,0.023783335,0.025074959,0.011614313
"Apago,_Inc.",-0.06688177,0.0275315,-0.019919831,-0.0015176403,0.026590006,0.025424547,-0.022179535,0.051317416,0.036071,0.005582759,0.027726471,-0.072550096,-0.09473722,0.026534643,-0.0019383492,0.03611287,-0.091743454,-0.028229477,0.0016276608,0.020409985,0.020490713,-0.041643873,0.0091801295,0.07622437,0.11914593,-0.027315166,-0.06997264,-0.00868174,-0.026477197,-0.015682856,-0.014968966,0.014720037,0.010500322,0.054953676,0.0880121,-0.026297433,0.060166612,-0.016949903,0.10118376,0.045212127,0.073410474,-0.011400245,0.016331792,-0.055906992,-0.017177725,-0.07656908,0.033287335,-0.0063920906,0.016311327,0.0067393193
AppForge,0.036744803,-0.054023575,0.016719453,0.034582827,-0.023543287,0.03926778,0.009496527,0.0087136105,-0.023857914,0.05714322,0.100787215,0.03625256,-0.025919663,-0.034330178,0.0650382,-0.050134186,0.029396392,0.011374059,0.02462629,0.0398501,0.049709402,0.055222422,0.018497737,-0.04574203,-0.08819893,-0.007869168,-0.005720148,-0.028809415,-0.022723507,0.017290417,-0.008314219,0.08666866,0.017892769,0.038497806,0.022864597,0.038900383,0.03652942,-0.013837486,0.020171948,0.018651243,-0.0041405824,-0.011067776,0.035432093,-0.0015231955,-0.036870457,-0.061952107,0.05418287,0.015894718,-0.028023897,-0.015994327
Apple_Inc.,0.027433012,-0.04325316,0.022054985,0.021265252,-0.03155365,-0.036656123,0.037223343,0.038091626,0.02009458,0.028348008,0.0036833894,-0.009041708,-0.049125325,0.02459493,0.07676383,0.016237503,-0.037414454,0.03844762,0.023071874,-0.05014059,0.045464594,-0.023349598,-0.025924308,0.07505147,-0.0018133363,-0.004003187,0.0617396,0.027537715,-0.014860557,0.0514416,-0.05980413,-0.06886786,0.026830617,-0.074018575,-0.0024771811,0.029066944,0.053956866,-0.054050356,-0.05890883,0.013363206,0.10342894,0.03373276,-0.021560313,-0.018175064,0.05915084,0.040876728,-0.06606157,0.026002226,0.03232857,-0.0043945597
Applied_HealthCare,0.10858712,-0.016767066,-0.014220347,0.036388595,-0.0007133269,-0.020385083,-0.06262677,0.021949986,0.036514297,-0.026588371,-0.04358202,-0.1004742,0.059861474,-0.03520878,0.010589384,-0.012145731,-0.08273665,0.04613048,-0.0022851652,-0.040514983,-0.009609039,0.017460281,-0.015213833,0.018263524,0.019367872,-0.08141438,0.044747557,0.035059728,-0.038370002,0.0012798783,0.040429,0.0010491884,-0.0030899313,-0.0071420074,-0.020882705,0.014305293,0.01428775,0.039131783,0.002063977,-0.035824876,0.04189122,-0.019343352,0.009178291,0.07196674,0.00530502,-0.014389451,0.03825419,0.005088072,0.049631793,0.05343915
Applied_Minds,-0.015550069,-0.07911818,0.07532012,-0.0023129622,0.0679707,0.0076327175,-0.006713039,-0.020366456,0.016377412,0.0070062852,-0.0042117,0.035601765,-0.01797854,0.035319727,0.014846863,0.033067577,-0.064305894,-0.02701601,-0.0037354794,0.025764074,0.062456746,-0.05220005,-0.046588812,0.13044994,0.09744788,-0.04421865,-0.05542101,0.03809076,-0.03617532,-0.00798023,-0.021538796,0.01716477,-0.008261844,0.021586558,0.07283637,-0.027075894,0.022277294,0.031105202,0.03621177,0.07247341,-0.00752596,-0.036560245,0.06727346,-0.04893779,0.045601383,-0.0674239,0.031210313,-0.03137891,0.034333687,0.010709252
"Archer,_Florida",-0.00071696105,0.06124254,0.044315197,0.0068013947,0.015271131,0.19477117,-0.07137913,-0.03063895,-0.052816648,0.014297067,0.12683356,0.049021076,0.06555797,0.050874047,0.10274282,0.11463992,0.023037052,0.03393635,-0.047887195,-0.018690104,0.06285352,-0.0055452115,0.107633024,0.010959935,-0.1504339,0.026929151,-0.059414234,0.022653982,-0.08783494,0.069616444,-0.08420539,-0.044177968,0.052327037,0.0038292685,0.08137441,-0.009810199,-0.029390913,-0.06619183,0.00045982155,0.042160217,0.079872124,0.052092228,-0.11172679,-0.0041119517,-0.07548785,-0.04744454,-0.028468346,-0.013241666,0.07193515,0.06843966
Ariel_Sharon,0.056381322,-0.049241006,0.05729782,0.01248512,-0.08931875,-0.039453268,0.022973007,0.0080255605,0.06550743,-0.016014963,0.007441339,0.08781107,-0.12704144,0.086724915,0.042970035,0.029079352,0.08234414,-0.076737255,-0.04377234,-0.022322038,0.08357131,0.04373705,0.07079143,0.021502955,-0.042809363,0.10465358,-0.06886385,0.019350024,-0.029863458,-0.059540227,-0.0019489344,-0.060690373,-0.06495291,-0.045373924,-0.0030964282,0.03514735,-0.013444204,-0.032328486,-0.015958294,-0.091282584,-0.03133962,0.00998912,-0.04039066,0.06082642,-0.05985624,0.025988577,0.022220762,0.0972763,-0.089645684,0.015119969
Aristoi,0.016518828,0.022457533,0.0047411346,0.020225924,-0.018468102,-0.0061332067,0.015365024,-0.0010873672,0.075086795,0.023767374,0.024360929,0.025374109,-0.027051613,-0.015530997,0.09854607,-0.08421613,0.022293203,-0.03695133,0.08723383,0.04440118,0.029934056,0.03591762,-0.014345758,0.03543953,0.0060808854,-0.043429364,-0.050704937,0.0522663,0.035663594,0.03560534,0.009757609,0.062296953,0.0113872215,0.029135106,-0.036542833,-0.014472215,0.059432358,-0.0641969,-0.0017863034,0.042553358,0.013129694,-0.038908653,0.007910576,0.027892714,0.008106812,-0.025344305,0.032295637,0.056825433,0.049908414,0.08353107
Arjun_Rampal,-0.0030161217,0.017672345,0.03119845,-0.044711895,-0.043947626,-0.022406183,0.047344908,0.067037374,0.015766568,0.016617104,0.009805937,0.0052276333,0.035771076,-0.009060321,-0.016862083,0.0694966,0.024030723,0.026790267,0.09300938,0.015645005,0.012369494,0.0334569,0.022242887,-0.021379298,0.015141458,0.04212198,0.030481175,-0.020135803,0.025671218,0.00477985,-0.0160869,0.03805468,-0.012655649,-0.009384085,-0.031653143,0.043320004,-0.010743353,-0.006232892,0.09197413,0.022965945,-0.013566459,0.011005759,-0.0018913922,0.059638347,-0.01428789,-0.024739796,0.03743897,0.054152362,-0.06021142,0.0013685357
Armenia,0.016557284,0.008428158,0.046469945,0.050423633,0.0692851,-0.053708356,-0.055662394,-0.05022745,0.048426375,-0.00015263798,-0.035370693,-0.0005524874,-0.015313663,0.009577607,-0.02763627,0.0009504609,-0.0019214973,-0.054921024,-0.04142232,-0.04991022,-0.053965837,0.02755838,0.032151904,-0.0061770813,-0.00037898505,-0.052174237,0.007344794,-0.009766069,-0.020702453,-0.068570964,-0.042335708,-0.016190758,-0.012315993,-0.08155835,-0.017844379,0.07765464,0.044891514,0.000992825,0.017716942,-0.054025706,-0.03305683,-0.08655915,0.04287727,0.0018736984,-0.027760994,0.09331574,0.090081066,-0.015150579,-0.002738968,0.0046663983
Arno_Allan_Penzias,-0.04420628,0.0019719019,-0.053495325,-0.050749194,-0.13226783,-0.022285445,0.11440223,-0.00018804244,0.0030223709,-0.01879985,0.00881973,-0.03413118,-0.048995428,-0.092713505,0.013780411,0.13258255,0.0005896272,0.07173646,-0.026769273,-0.0070774416,0.109085806,0.110878915,0.020997804,-0.040275242,-0.11102791,0.0054796403,-0.08261227,-0.084317796,0.07900206,-0.12639816,-0.059566937,-0.008015082,-0.037962664,-0.018769318,-0.039405324,0.16917782,-0.028668987,-0.009489167,-0.06659715,0.020817604,-0.031172995,-0.007597633,-0.053809643,0.02236768,0.0569123,0.1068801,0.031494223,0.033603873,-0.0388418,0.00081138
Arnold_Schwarzenegger,0.03776341,-0.095573045,0.04633771,-0.004741911,-0.025722494,-0.04954658,0.0036820436,0.0052580074,-0.035597835,0.056172486,-0.029091666,0.028464278,0.012724902,0.0045822095,0.022968028,-0.026938044,0.007304239,-0.035600036,0.06799508,0.07397332,0.05105178,0.04903154,-0.0075605274,-0.035969887,-0.06601518,0.030241221,0.033793356,-0.12366914,0.07604322,-0.03489114,0.01763516,0.07238498,0.041591436,0.06872897,-0.049329136,0.05620872,0.033244293,0.054424394,-0.09090412,0.000674189,0.008342389,-0.004153108,0.047690418,-0.057502728,-0.0011508237,0.06043295,0.023755409,0.001802116,-0.04173077,-0.04435871
Art_Carney,-0.09187771,0.039484143,-0.016622495,-0.08089601,-0.03759447,-0.012609127,0.018711453,0.10959986,-0.020062698,-0.005533947,0.02442835,0.06558747,0.05763901,0.010463643,-0.029879164,0.017946418,0.044924535,-0.017899513,0.047614396,0.045678325,0.101265974,-0.035378296,-0.090221204,-0.026509337,-0.011896227,0.03566225,-0.017245648,-0.02005319,0.048490595,0.0054476187,-0.081598684,-0.0071183555,-0.040486537,-0.06650363,-0.0078101084,-0.031031799,-0.13638651,0.0519327,0.04754522,-0.023601405,-0.0035103506,0.046393074,-0.044062488,0.02429728,0.070185095,0.02517487,-0.037545368,0.015410112,0.054215755,-0.018696472
Art_Technology_Group,0.020554049,0.017977474,0.04729875,-0.020647977,0.09252868,-0.031368535,-0.019675951,0.031676833,0.019470295,0.058436476,0.02312805,0.0069500166,-0.09262522,0.07055701,0.0051623313,0.061623067,-0.0145705715,-0.012679229,0.043031093,0.013913599,-0.016284047,-0.032869846,-0.01546151,0.07165315,0.080517516,-0.09587777,0.03483794,-0.057580847,-0.06849927,-0.014492926,-0.040218513,0.02316672,-0.019029684,-0.045249052,0.021860166,-0.062335428,0.058441285,1.26177765e-05,0.03397833,0.0695757,-0.022877214,-0.0457485,0.058993887,-0.029331403,0.08307875,0.005241439,-0.029829526,-0.040452957,0.062399726,0.073928334
Arthur_Ashe,-0.0043998067,0.021698205,0.012159507,-0.033421822,-0.038812757,-0.03133606,-0.028993823,-0.04373828,0.020594694,-0.045789592,-0.027477512,-0.018494336,0.024590077,-0.034010507,0.04100894,0.0058074463,-0.014487322,-0.06934148,-0.032024667,-0.04065242,-0.00373522,0.03797664,0.001270677,0.010629739,-0.047363862,-0.05585217,0.11239695,-0.05778412,0.056184758,-0.070152126,0.016347472,0.027459292,-0.064017914,-0.03495484,0.008814313,0.049012665,0.020998769,0.037127484,-0.0435307,-0.0519531,-0.0650024,-0.042513486,0.0016397267,0.038373735,-0.0053923586,0.05457931,0.069817774,0.04712579,-0.09067217,0.011938127
Arthur_C._Clarke,-0.07456043,0.065637894,0.036797,-0.0011674212,-0.029799584,-0.119957276,0.012968577,-0.030777862,-0.032451067,-0.017827738,0.09658496,0.010768769,-0.07552342,0.11346039,0.006733048,0.026222454,0.023129648,-0.030121893,-0.06883284,0.096860856,0.034874033,-0.0031020707,-0.023145178,-0.014067167,-0.039936695,0.035394493,-0.017582431,-0.028661782,0.07934391,0.026783083,0.04412323,0.029410291,-0.0013787692,-0.09634157,-0.001490162,0.083093725,-0.031435043,0.05580772,-0.009951978,-0.04346877,-0.026774764,0.00051991816,-0.027792823,0.054329053,0.016851766,-0.075040504,0.09721972,0.09658608,-0.076832466,-0.03671141
Arthur_Conan_Doyle,0.005445521,-0.039543886,0.011497066,0.013994653,-0.022214115,0.02666289,-0.019283652,-0.012788701,-0.0055260276,0.040855274,-0.022394547,-0.0060760267,0.0062459377,-0.071693726,-0.09478967,-0.064129926,0.08100264,-0.023662442,0.019890768,-0.021066854,0.05940381,-0.012419223,-0.020335004,-0.11516599,0.005766572,0.050446466,0.035880197,0.046367742,-0.05103638,-0.0050893934,0.029395524,-0.014699812,0.043037646,-0.014030029,-0.04563423,-0.061154768,0.058711443,0.0012706519,-0.016801316,-0.048623625,0.008873575,0.0611051,0.0028319084,0.026654243,-0.042927112,0.00060825475,-0.08968155,-0.04864236,0.0036617834,-0.034561846
"Arthur_Wellesley,_1st_Duke_of_Wellington",-0.014961519,0.06260634,-0.084502794,-0.042059287,-0.026848266,0.052032255,0.09831801,-0.030870821,-0.01383534,-0.0050312844,0.08982063,-0.023852024,-0.10380662,-0.006702275,-0.029578496,0.022743626,0.07064513,-0.08231296,0.0018799967,-0.08533836,0.04377476,0.07436188,-0.055772115,-0.04787538,-0.055240687,0.023160702,0.09169854,0.01119505,-0.09724281,-0.04521665,-0.08305827,0.07515598,0.028487166,0.015459397,0.008354235,-0.02858422,-0.022787437,0.06468607,-0.061048217,0.017926496,0.04541792,0.061204553,0.014852725,0.04912464,0.08920056,-0.13243572,-0.023864808,-0.009641793,-0.10954562,0.025885468
Arun_Nayar,0.00640764,0.01981057,-0.06767976,0.026136635,-0.021497283,0.0034529383,0.032197405,0.050439794,-0.09795612,0.00084640505,-0.04267119,-0.02171847,0.03149248,-0.0019911847,0.09576594,0.051777706,-0.07045318,0.038021352,-0.04388943,-0.019395215,-0.04906868,0.070877306,0.043599006,0.03469161,-0.04716903,0.0052244645,0.05990045,-0.021321284,0.015512081,-0.06253285,-0.04754342,-0.033454824,-0.0039219283,0.017689882,0.007103703,0.09662844,-0.0022646745,0.020400684,0.052489534,-0.026317026,0.07723475,-0.066762574,-0.059956126,-0.07663177,0.051300827,0.019412858,-0.008956609,0.034858134,0.001726782,-0.022601295
Ascend_Communications,0.014062481,-0.070199676,-0.023949206,-0.0004046954,0.063141875,0.11600646,-0.0027354273,-0.0012561628,-0.08968783,0.026855074,0.036228523,0.04452878,0.008721346,-0.012532461,0.06496522,-0.098620474,0.0627443,0.06121383,0.10247207,0.013807072,0.0092284735,0.06061553,-0.012570016,-0.050558377,-0.054292165,0.049742635,0.02503823,-0.034928404,0.026550353,0.05929882,-0.07522858,0.029812133,0.055319034,0.074756555,-0.08874534,0.025828373,0.007541704,-0.088091165,-0.013685201,-0.0011194899,0.10956462,-0.055909514,-0.0899438,0.0022873166,-0.06600802,0.034448266,-0.0068741995,-0.037121333,0.03157059,0.030861413
Ashlee_Simpson-Wentz,-0.03610683,0.019021524,-0.022292648,0.0017268212,-0.08250151,0.0008798276,-0.019648938,-0.017070942,-0.010097435,-0.032279264,0.043291934,-0.0036816797,0.0157441,0.047195666,-0.0026515815,-0.06460091,-0.033006705,-0.014327523,0.021724097,-0.018902186,-0.01077438,-0.051532194,-0.04015227,0.0050542667,0.030946458,0.023931017,0.0123912,0.04278005,-0.04584062,0.009722354,-0.0033977998,0.007411777,0.01337625,-0.030118085,0.009320815,-0.030618109,0.002148749,-0.022000551,-0.0056361314,0.029326469,0.027041655,-0.036793504,0.025324924,0.06852936,-0.04041612,-0.06016726,-0.03255162,0.0041878605,-0.015167776,0.010635143
Ashley_Tisdale,-0.024916707,0.01075198,-0.012655021,-0.07919662,0.0016507678,0.013947961,0.00015556303,0.094949126,-0.042350594,0.010666138,-0.018274853,0.018972782,0.040850617,-0.036555305,0.049051423,0.034023717,0.035656046,0.034948718,0.07790859,0.047316536,0.026015824,0.00508285,-0.06821032,-0.017571619,0.021501973,0.011842212,-0.029348942,-0.0750963,0.0005925109,-0.020503784,-0.024991995,0.038791392,-0.05224502,-0.03368841,-0.060419075,-0.026682451,-0.07356084,0.026407229,0.05721515,-0.019571953,0.0070599443,0.03984521,0.015224003,0.024121214,0.038690004,0.021073112,0.049226772,0.018014854,-0.001316053,0.021995587
Ashton_Kutcher,0.031820595,-0.056659658,0.033380862,0.1318485,0.0501776,0.02764525,-0.025219187,0.120767005,0.06921144,0.0075392392,0.0061347354,0.075121455,-0.0010053372,-0.077599406,-0.00048767502,-0.12862681,0.0053532114,-0.044643063,0.005214181,-0.015076841,0.07741003,0.051011536,0.15852866,-0.026156256,-0.03660068,0.06187739,-0.04311829,0.008335837,0.09068652,-0.035850514,-0.018553587,-0.0281759,0.019626373,0.031861886,0.047538437,-0.004515602,0.00041901987,-0.08304881,-0.0412294,0.042125594,-0.115562595,-0.045332454,0.026870446,-0.04971167,0.0036631036,-0.012430284,0.045624197,0.06398011,0.017702878,-0.015097508
Athena_Neurosciences,0.034925535,0.009145271,0.028208928,0.030986328,-0.019923497,0.018643307,0.04152667,-0.03549468,0.023894567,0.044106778,-0.047715206,0.009786001,-0.048505004,-0.004210397,0.036843203,-0.03204673,-0.014961174,-0.014746346,-0.005560865,-0.01812369,-0.029677814,0.06100547,0.03219857,-0.06828697,-0.0021951182,-0.092535056,-0.0021272188,-0.0064328336,0.003033145,0.04255211,0.031653557,0.010738902,0.00033823831,-0.014398541,-0.0042054094,0.024859117,0.057502963,-0.035663225,0.037671737,0.01991759,-0.0014964074,0.004638122,0.00093264785,0.0865085,-0.02778126,0.016775278,0.03693363,0.010299027,-0.022833843,0.031569928
Atlanta,0.13064967,0.0015792531,0.050466396,0.06192318,0.039609537,-0.0046664127,0.06057037,-0.008783732,0.040294006,0.08034691,-0.07950606,0.017841058,-0.043186802,-0.07817731,-0.0017531776,0.030245662,0.023903895,-0.02402995,0.0019070182,-0.012169101,-0.05375794,-0.00038816262,0.11195404,-0.075054035,0.04382591,0.041020498,-0.04198352,-0.027341565,-0.045865744,0.021867355,0.05846682,-0.013535942,-0.056118857,0.015965804,-0.05283457,0.022137502,0.087844945,-0.09968808,0.043970946,-0.04850492,-0.01995693,-0.0058376146,0.046785336,-0.107211806,-0.03719508,0.07753362,0.106788404,-0.010188738,-0.08796556,0.012120334
Atlanta_Hawks,-0.04150761,0.04390246,-0.06444706,-0.07486527,-0.0026758811,0.021358162,0.061034743,0.027957764,-0.04955461,-0.060470294,-0.052625723,0.07558903,0.043410942,0.023933277,-0.0301703,-0.0075348504,-0.02018339,-0.028840315,0.0135131255,0.0764131,0.03219674,0.042142563,-0.087952025,-0.0056833704,-0.005688256,0.016540932,-0.070767954,0.065537736,0.041976962,0.0013212735,-0.0186925,-0.0066802087,0.025418075,-0.012271873,0.036345877,-0.058266167,-0.050093092,0.029554239,-0.021405522,0.022248516,0.04147623,-0.0075985924,-0.03644932,0.075505756,0.06786395,-0.06505489,-0.062450953,0.049721215,0.048839964,0.01962012
Attachmate,0.018318577,0.006457652,0.030532598,-0.09970291,0.08543746,0.043735832,0.02442403,-0.09302546,-0.1676572,0.07898079,-0.016385294,0.008130047,-0.11774518,0.10543602,-0.059705336,0.051824424,0.036200058,-0.05200574,0.043405652,0.03591538,0.048052814,-0.03693,-0.051154483,-0.0033878621,0.00018596127,-0.06719789,-0.0035268187,-0.052424274,-0.026824981,0.024388865,-0.0606943,0.018874194,0.006112194,0.019021917,-0.02710469,0.034671105,-0.039466657,0.04226571,-0.021190783,0.073040895,0.0075747133,0.11400165,0.04430792,-0.039677802,0.100484766,-0.005340229,0.01881171,-0.1266799,-0.0114663085,0.032439303
Attensity,-0.0005345143,0.000109173125,0.013508099,0.0070785163,0.017677331,-0.021461805,-0.011723922,0.030874921,0.029081248,0.013016572,0.06632118,0.018445741,-0.05791437,0.057630118,-0.015597886,0.037589904,0.026199145,-0.0540009,0.029955551,-0.015981346,0.036526687,-0.033453573,-0.0487253,0.087860554,0.035670996,-0.011728311,0.035584174,-0.044654455,-0.10120903,-0.0101161515,-0.11244333,0.04218334,0.07901648,-0.035961766,0.07837982,-0.02729487,0.050388668,-0.0813173,-0.043014314,0.009701596,0.064884104,-0.02279309,0.012101075,-0.022391308,0.03816037,0.02899877,-0.01480372,-0.01751032,0.027122606,0.04709174
Audiokinetic,0.01674463,-0.05984947,0.03430286,0.0038926352,0.02795061,-0.014867322,-0.046722636,0.045841705,0.006196147,0.09675582,0.021588784,-0.07703225,0.007543918,0.030908968,0.028947122,-0.015770763,0.034144692,-0.0107671805,0.023844212,-0.085603945,0.0016596882,-0.073805206,-0.028030181,0.10950345,-0.0006963139,0.0236553,0.052421916,-0.041615672,-0.012508147,0.07150892,0.036400937,-0.017535953,0.02356675,-0.011425386,0.01000788,0.05182958,0.0033840423,-0.08754993,0.09948568,0.008519652,0.056054596,0.11096292,-0.029502356,-0.0068118204,-0.0019332904,0.04967111,-0.09314979,-0.05704764,0.08380408,0.027848385
Austin,0.0043766405,-0.00027256075,-0.03950026,0.014272609,0.049398266,-0.018235603,0.062060304,-0.046554957,0.0668619,-0.046656415,-0.01951304,-0.010793867,-0.035163477,0.0012890826,-0.010686456,-0.060584888,0.0053411056,0.0017271342,0.08067316,-0.032709885,-0.050869633,0.015987644,-0.015100927,0.0053462805,0.07419924,-0.06628433,0.04115198,0.020151068,-0.05582463,-0.03848701,0.01522715,-0.0083647575,-0.068013966,-0.058824174,-0.0860838,-0.017914968,0.06070052,-0.03922479,0.00531948,-0.0380646,-0.0671243,-0.046758752,0.040238988,0.07793094,-0.031706143,0.010179631,0.060079884,-0.019064419,-0.008338567,0.051415194
Austin_O'Brien,-0.08004945,-0.012661177,0.086393654,-0.00177784,-0.058892973,-0.058839954,-0.022899482,0.04366041,0.030039338,0.05233534,-0.0039080363,-0.022451304,0.00025784827,-0.06965351,0.06050213,0.008550888,-0.03976012,0.037299436,0.029786304,-0.028404953,0.06538222,-0.03569272,-0.036052905,0.004253942,0.022276752,0.10066085,0.00045930065,-0.060917947,-0.060272697,0.005517458,0.031018825,-0.0025580036,-0.0050791497,-0.0043097325,-0.012216194,-0.044935398,0.01735477,-0.057615973,0.025866348,-0.0256491,0.011449094,0.08305083,0.019076886,-0.0215811,-0.030164147,0.0046425234,0.032826982,-0.061185364,-0.08793162,-0.017337753
Austin_Powers:_The_Spy_Who_Shagged_Me,0.03546229,0.109712556,-0.035108443,-0.012457592,-0.05115081,0.0009999514,-0.09712392,0.030998427,0.006109589,-0.075029455,-0.033440884,0.011026146,0.099225044,-0.009297332,-0.044533394,-0.027441256,-0.003968191,0.081241116,-0.04730051,0.047849976,-0.05501102,0.023747725,0.03764375,0.012548358,0.029806098,0.009320774,-0.017354619,-0.1444528,0.007470368,0.08223458,-0.0059521887,-0.029264195,-0.061720733,-0.08674401,0.03972051,-0.01648815,-0.011295247,0.03236208,0.031132167,0.034807548,0.03241266,-0.102749884,-0.08589386,-0.07941555,-0.08151335,0.02541146,0.09989281,0.05300481,0.083012775,-0.046118334
Autodesk,0.034677178,0.0039118715,-0.007925769,0.06092129,-0.01606033,0.001504245,0.022561219,0.011876521,-0.08343093,0.033886958,0.026601395,-0.08301245,0.040564165,-0.026126806,-0.06675417,-0.021198513,-0.007139885,-0.04404431,-0.036542375,-0.031666752,-0.059998736,0.007574783,-0.046970982,-0.055252627,-0.0744022,-0.002847215,0.023696411,0.04225973,0.011762863,0.035248872,0.015483861,0.027100358,0.040037557,-0.0028365005,-0.027071439,0.058662,0.09030585,0.032712195,-0.05571448,-0.10506596,-0.060734928,0.07113333,0.039195746,-0.0012579379,0.04327852,-0.062458076,0.0056673326,0.024471078,0.028655292,-0.05482416
Avantopia,-0.0734062,-0.019632697,0.052731972,-0.05817718,0.05640704,0.018770149,-0.047607616,-0.008693623,-0.011273933,0.066066585,0.12980434,-0.059508655,-0.003328943,0.08182611,0.028694035,0.04928833,-0.04096719,-0.059146624,0.1692697,-0.018635616,0.0026354303,-0.0024531498,-0.07960887,0.028284794,0.08502021,-0.009903375,-0.035193995,-0.0045570587,-0.03840601,0.09036205,-0.06965233,0.024730535,0.021734908,-0.04529306,-0.0015236343,-0.022697322,0.031910338,-0.009607814,0.03963521,0.056254562,0.018075613,0.013987458,0.024742452,-0.07310893,0.04711542,-0.061267305,-0.04264909,-0.0433039,0.10054756,0.07681455
Avast_Software_a._s.,0.000768141,0.0047108517,0.038613155,-0.03455065,0.058459777,-0.030083707,-0.018552467,0.033957005,-0.00258166,0.038395613,0.03268015,-0.03414971,-0.016186383,-0.0032350381,-0.010392125,0.01961524,0.0688517,-0.03855385,0.07556042,-0.011819741,0.016084308,-0.030484358,0.008800158,0.08000587,0.026923424,-0.06276752,0.021645792,0.030348437,-0.07114747,-0.014185335,-0.0690732,0.0047008493,0.038755927,0.0012695349,-0.027853945,-0.062453393,0.051644582,-0.09235467,-0.064614475,0.010199368,0.002461454,0.012412757,0.07754861,-0.010709077,0.053199362,0.023492793,0.009190012,-0.0025077623,0.026590927,0.051826604
Avogadro,-0.06634993,-0.038811598,-0.09149542,0.019713152,0.051977623,-0.018059455,-0.058977686,-0.015845545,0.0066492762,0.07613348,0.014052485,0.054572005,-0.071061485,0.094002575,0.10449137,-0.09565992,0.07142596,-0.04745232,-0.041445497,-0.070435345,-0.081802286,-0.036094397,0.036148597,-0.0717758,-0.032655757,0.004854091,-0.08498803,0.08003517,0.0069781686,-0.10690893,-0.103642054,-0.09567874,-0.06494429,-0.11153626,-0.081616916,0.07022574,0.012081728,-0.06731513,-0.109646484,-0.0057790834,-0.060219437,0.011798847,0.013829506,-0.06770257,0.06378799,0.05454039,0.096464895,-0.0113975275,0.067680456,-0.044821866
Avril_Lavigne,0.019631429,0.05700393,0.021288171,0.02273089,0.022038454,-0.04624531,0.0036747614,-0.014894937,0.048409622,-0.020930843,0.048318587,0.032513317,-0.020036988,-0.015967261,-0.003282481,-0.018757585,0.06311415,-0.048586503,-0.07625822,-0.08150608,-0.036280103,0.12570588,0.013818768,-0.024563,-0.020682724,-0.013061829,0.05917493,0.058567185,0.00010093325,-0.14260702,0.038347695,-0.031023353,-0.036440384,-0.021553356,0.024686752,-0.010956442,0.0010763181,0.07211493,-0.056420345,-0.030657392,-0.07425566,0.0029963444,0.0076880306,0.08468026,0.003615941,-0.037152417,-0.043233916,0.01465607,-0.06311878,0.01960395
Awem,0.07121366,0.11192476,0.11103316,0.02563656,-0.06834759,0.020815063,-0.048006114,0.06454699,-0.096537374,0.0077133095,-0.13713767,0.07318022,0.10649023,0.09000611,-0.042749688,0.023273492,-0.08602938,0.10700465,-0.08734997,0.061230958,0.065531276,0.040993366,0.10051048,-0.035285395,0.00663023,-0.060303237,-0.058170337,-0.13287489,0.121446006,-0.060646057,0.013413728,0.032677844,0.04212975,0.06736219,-0.0858468,0.10400254,0.058031738,0.07409349,0.11260546,-0.04661002,-0.019804373,-0.0013362666,-0.016232286,-0.09213067,0.04834329,0.02054995,-0.02723074,-0.040316626,0.019797701,-0.092357874
Ayumi_Hamasaki,0.05998152,-0.028970366,0.0389087,-0.032666404,-0.035649084,0.076097146,0.0006645153,0.04654466,-0.07565164,0.057621744,0.024376199,0.016042285,-0.048808206,-0.010621189,0.0029137724,0.016112443,0.03968634,0.03566142,0.0430063,0.064036205,0.034301408,0.07111468,0.019857371,-0.0452314,-0.071720034,0.032113187,-0.026525132,-0.035698976,0.018522233,0.087818995,0.05820158,0.01438939,-0.0037960205,0.024989113,0.041328173,-0.008863805,-0.010008363,-0.03570586,0.009895178,0.033076044,0.06259256,0.08675343,-0.036717027,-0.01781701,-0.06099777,-0.021534001,0.0073164636,0.039625008,-0.033842202,0.04333647
BEA_Systems,0.0017982755,-0.009563375,0.0150997015,0.0469114,0.0076195667,0.036314636,0.03175649,0.059973978,-0.013113093,-0.0019266467,-0.0054466594,-0.0017685553,0.007169503,-0.04577748,-0.01584334,0.014001211,-0.015361732,-0.022235814,-0.025899602,-0.06288541,0.07645785,-0.024776729,0.0073217736,-0.03192982,0.02649567,-0.051374715,0.05042154,0.0653671,-0.015658017,-0.004667926,-0.03865646,0.037923932,0.020810256,0.056959026,-0.009808896,0.016031075,0.049363397,0.054493506,-0.064849,-0.0748914,-0.061578847,0.035847258,0.021840304,0.008444226,0.0018987166,0.026958544,-0.06984323,-0.073326156,-0.049200494,-0.0059518795
BMC_Software,0.045164473,-0.033307597,0.030993586,0.05627184,-0.0030703607,-0.0114138955,-0.013414925,0.020647176,0.037951224,0.005848447,-0.009238453,-0.014720443,0.04087897,-0.012947414,0.023964236,-0.053134505,-0.008617619,-0.014335333,-0.0045050243,-0.011128192,-0.019336663,-0.027379166,-0.022547511,0.011453738,0.0054817037,-0.031249711,0.053133436,0.039804038,-0.05723251,0.046875734,-0.010894856,-0.01868092,0.01871256,-0.022097511,-0.038853493,0.0266734,-0.0123225,0.010770549,-0.022333868,-0.036186397,0.06557355,-0.016272621,0.02451043,0.012865859,-0.022251831,0.035721764,0.00092475256,0.0018168872,0.030497614,0.023807727
Baburam_Bhattarai,-0.051718984,-0.022431372,-0.015061314,-0.034007218,0.046985634,0.014238127,-0.07547091,-0.016114177,-0.005934412,0.040142953,0.010360894,0.006671372,-0.004142309,0.05830591,-0.019202087,0.046782825,-0.027855182,-0.024514122,0.015565291,-0.028214887,-0.020305045,-0.06942115,-0.04433776,-0.010770177,0.032841463,-0.014000524,0.009614388,-0.058794245,0.045984793,-0.029404294,-0.01933914,-0.059683945,-0.03194878,-0.04516185,0.06385212,-0.026103418,0.036359396,-0.042367905,0.06841126,0.067194186,0.027508954,-0.0069427923,0.016628554,-0.005636174,-0.028799718,0.044693675,0.040093582,-0.05581608,0.03145777,0.0007130581
BabyCenter,0.017644238,0.023868408,-0.040946886,-0.00013134483,0.05018109,0.010628877,0.05808544,0.048766635,-0.05104862,0.037182372,0.024893327,-0.044937406,-0.015234198,-0.046198383,-0.04918208,0.020422181,0.0017139445,-0.033857547,0.02393595,-0.03939628,0.021548973,-0.011340264,0.04557076,-0.03830256,0.0018941488,-0.009826394,-0.0025916798,0.008985258,-0.049089633,-0.054610197,-0.015462152,0.034315072,0.012404936,0.106353745,-0.011515024,-0.056268327,0.034758255,0.004478646,-0.046980504,-0.04301475,-0.046565108,0.069776475,0.049666375,0.06371369,-0.0022407286,0.010867288,-0.04265518,-0.09700677,-0.015165719,0.00064192625
Back_in_the_USSA,-0.09828048,0.019457998,-0.021934353,-0.042275134,-0.03143626,0.0064424453,0.0021631038,-0.033733446,-0.03524003,-0.04254878,0.0020068658,0.014138216,0.031192603,0.018320577,0.02181884,-0.07303795,-0.05398303,-0.06218671,-0.008280785,-0.0032894935,0.007344088,-0.025644952,-0.017390732,0.02196666,0.007778526,0.003044414,-0.0028412698,0.034439713,-0.022583773,0.02719991,0.019514639,0.01949727,-0.012376239,-0.06556437,0.016365914,0.016586877,0.08521647,-0.06469784,0.019646047,0.04877988,0.05497276,0.0019358562,0.0613462,0.01071246,-0.007281789,-0.0052397936,-0.026689395,0.016128328,0.0069176247,0.08681288
Backbone_Entertainment,0.0623996,0.06651025,0.040145934,-0.08557765,-0.014613921,0.000957296,-0.01647691,-0.0755577,-0.14168921,-0.063726954,-0.016183358,0.0065665212,-0.0023724195,0.10290087,-0.09424736,0.025191436,0.006938873,0.017758584,-0.04762495,-0.018873721,0.090096496,0.05373657,-0.015257048,-0.03384821,0.03016343,0.05151719,0.013732342,-0.020735146,0.036116943,-0.10069418,-0.015993848,0.038364813,-0.025326317,-0.046129376,-0.118181996,-0.010124926,0.043414246,0.0626674,0.0012581769,-0.06789254,-0.013229335,0.07904485,-0.008837346,0.038528506,0.037454356,-0.012384203,-0.015755542,-0.033936422,0.05885094,-0.053056877
Baghdad,-0.048960492,-0.02253299,-0.027044263,-0.08556501,-0.028374538,-0.010507059,0.0102406535,0.063430816,-0.019166103,0.020989336,0.004054398,-0.004881363,-0.014654065,0.12473472,0.07222687,-0.019088179,-0.10246511,0.07735791,-0.041622173,-0.026696686,0.0017025938,-0.044859465,-0.047363456,-0.026081774,-0.019640582,0.027992075,-0.00834864,0.029705212,-0.0058203144,-0.013324758,0.011501275,-0.014735404,0.02403001,0.017041493,-0.006513742,-0.008750544,-0.049067173,-0.042976644,-0.039654393,-0.06023841,0.065779135,0.08114545,0.01187445,-0.052446257,-0.021410998,0.019084346,-0.0480871,-0.05524781,0.06476902,-0.07570696
Bahamas,-0.0024275552,0.00019778677,-0.04688863,0.04646861,0.020535031,-0.018942965,-0.0010894604,0.028691823,0.04176474,0.015382667,0.012296688,0.011676172,-0.028068943,-0.026119592,0.008244961,-0.043566752,0.044611435,0.030129878,-0.010717074,-0.029265279,-0.027402809,0.004829441,0.06013121,-0.0041345996,-0.0338208,-0.026597854,0.011695491,0.041549344,-0.0054019177,-0.036820944,-0.06769009,-0.009961904,-0.0385995,0.00652254,-0.01658511,0.038653705,-0.04948233,-0.038331,2.2739314e-05,-0.0045137294,-0.043934695,-0.04335053,0.021091618,-0.05459693,0.026359506,0.0135978265,0.07095295,-0.022088813,0.008387243,-0.08431876
Baltimore,-0.04147249,0.029685646,-0.023495555,0.0031754319,-0.07028616,0.003030006,0.029118346,-0.02865478,-0.030485779,-0.019174518,0.014574347,0.08684327,0.021695422,0.039462402,0.100027606,-0.015318574,-0.039593525,-0.053554162,-0.0078086695,-0.034823447,0.058357283,-0.0023861057,-0.020633275,0.042992745,0.0020546746,-0.043458693,0.037075125,0.019615255,0.02492275,-0.0378605,0.016638717,0.0016161457,0.0361248,-0.010707813,0.029211422,0.022546707,0.02262987,0.053760506,-0.08440468,0.025914121,0.06980675,0.015108589,-0.02066322,-0.021218346,-0.039803293,-0.013135411,-0.09984844,-0.055753604,-0.007184584,-0.0073163267
Banja_Luka,-0.0810807,0.02894103,-0.037976317,-0.13319801,-0.08988449,-0.02950908,0.03974819,0.012998214,-0.039033215,-0.11990589,-0.05699546,-0.03722825,-0.056557987,0.06634298,0.047982536,0.006768435,-0.07819649,0.048197616,-0.0072172317,-0.0016762823,0.042505946,0.020766139,-0.11628975,0.07324271,0.08363766,-0.0698309,0.042673867,-0.00870248,-0.07444319,-0.026970554,0.09882526,-0.046266127,0.028315572,0.019944886,-0.019002965,-0.03670788,0.031524885,0.060982797,0.009727545,-0.031829428,0.05518404,0.08214453,-0.014755174,0.09576704,0.031837814,-0.09642179,-0.09213302,-0.1249772,-0.0078121196,0.05960091
Barbara_Hershey,-0.0032734906,-0.029562194,0.0014330463,0.0643622,-0.0074958145,0.043117248,-0.035553344,0.03466039,-0.049531307,0.040352672,0.04611928,-0.002634349,-0.055387568,0.0044691153,0.019269323,0.008681099,0.026513675,0.022724112,-0.037553582,-0.03052436,0.021952363,-0.0029921248,-0.03300357,0.0074137785,-0.04947162,0.030476917,-0.04097117,0.060767442,0.047421943,0.022424782,-0.072088964,-0.027271446,0.058199473,0.0091985455,0.11364186,0.008426853,-0.061640482,0.04177939,0.0006096934,-0.016789548,-0.02931856,0.006547573,-0.033397358,-0.035741895,0.014289108,0.00845633,-0.01093457,0.024252372,0.033446956,-0.057417504
Barend_Biesheuvel,0.06416381,-0.02561307,0.034833506,0.08113804,-0.11315783,-0.027677787,0.01152044,-0.019684352,0.050072856,0.025815532,0.0030368976,-0.012921424,0.021162815,-0.03657885,-0.0048787454,-0.021954687,0.040226556,0.027865933,-0.03303633,-0.009588791,0.0094492845,-0.017689813,0.041009333,-0.0064334027,-0.033200014,0.11099577,-0.015746186,0.007113307,-0.055661716,0.0014379541,0.042155858,-0.020940017,0.04859645,-0.01753765,-0.042887315,0.0025502003,-0.02071261,-0.07428715,-0.04721971,-0.047737896,-0.006222333,0.0890486,0.020579068,0.025914147,-0.064229645,0.07735244,-0.0011337062,-0.024046263,-0.009034284,-0.045665704
"Barnwell,_South_Carolina",-0.029331302,-0.012169735,-0.02760199,-0.03977867,-0.051783655,-0.0055814483,0.0827659,0.008326392,0.05776801,0.02330958,0.04083731,0.004052273,0.012961064,-0.034346458,-0.032968167,-0.031119695,-0.034196667,-0.009115603,0.050941087,-0.0452212,-0.08691685,-0.05676376,-0.016165178,0.042907957,0.004606439,0.012725142,-0.0005866354,0.013240484,0.016447801,0.09389392,0.05293251,-0.040621623,0.0034291688,0.012950588,0.033465464,-0.110819615,-0.056989137,0.03338959,-0.00649689,0.04829954,-0.011768997,0.05429076,0.014016362,0.025111843,0.14116298,-0.057439707,-0.032788455,0.06455885,0.061589174,-0.012659513
