,0,1,2,3,4,5,6,7,8,9,10,11,12,13,14,15,16,17,18,19,20,21,22,23,24,25,26,27,28,29,30,31,32,33,34,35,36,37,38,39,40,41,42,43,44,45,46,47,48,49,50,51,52,53,54,55,56,57,58,59,60,61,62,63,64,65,66,67,68,69,70,71,72,73,74,75,76,77,78,79,80,81,82,83,84,85,86,87,88,89,90,91,92,93,94,95,96,97,98,99,100,101,102,103,104,105,106,107,108,109,110,111,112,113,114,115,116,117,118,119,120,121,122,123,124,125,126,127,128,129,130,131,132,133,134,135,136,137,138,139,140,141,142,143,144,145,146,147,148,149,150,151,152,153,154,155,156,157,158,159,160,161,162,163,164,165,166,167,168,169,170,171,172,173,174,175,176,177,178,179,180,181,182,183,184,185,186,187,188,189,190,191,192,193,194,195,196,197,198,199,200,201,202,203,204,205,206,207,208,209,210,211,212,213,214,215,216,217,218,219,220,221,222,223,224,225,226,227,228,229,230,231,232,233,234,235,236,237,238,239,240,241,242,243,244,245,246,247,248,249,250,251,252,253,254,255,256,257,258,259,260,261,262,263,264,265,266,267,268,269,270,271,272,273,274,275,276,277,278,279,280,281,282,283,284,285,286,287,288,289,290,291,292,293,294,295,296,297,298,299,300,301,302,303,304,305,306,307,308,309,310,311,312,313,314,315,316,317,318,319,320,321,322,323,324,325,326,327,328,329,330,331,332,333,334,335,336,337,338,339,340,341,342,343,344,345,346,347,348,349,350,351,352,353,354,355,356,357,358,359,360,361,362,363,364,365,366,367,368,369,370,371,372,373,374,375,376,377,378,379,380,381,382,383,384,385,386,387,388,389,390,391,392,393,394,395,396,397,398,399
author,0.029712204,-0.08900574,0.21355505,0.17324936,0.38903236,0.048138022,0.19663069,-0.489103,-0.4605556,-0.030813493,-0.054024912,-0.09069471,-0.053644784,0.0034573781,0.08216717,-0.08402261,0.08630935,-0.016855633,-0.18382727,0.12571305,-0.21879238,0.16751158,-0.23194197,0.059301015,-0.1684587,-0.042147413,0.07203718,-0.31200975,0.000559525,-0.0845276,-0.1122241,-0.18265785,0.19722119,0.0037207624,0.1228553,-0.039036375,-0.01957403,0.19212268,-0.18416397,-0.24014863,-0.022040011,0.18248923,-0.15342417,0.09328916,0.20340332,0.20062059,-0.18650469,-0.082530275,-0.28244326,0.14045946,0.1157905,-0.08752113,-0.03603771,0.006464463,0.09206028,-0.060969934,0.11838853,-0.23817937,-0.26790366,-0.08323731,-0.281297,0.060746,0.007436321,0.23113196,0.11871554,0.13727681,0.1594239,-0.018056624,-0.2191506,-0.028209925,0.08672955,-0.067176625,-0.013500597,0.32485497,-0.33146936,-0.080371544,0.062549666,0.01256966,0.035149492,0.55946773,-0.116303556,-0.25384954,-0.25673956,0.07987347,0.10650706,0.009837228,-0.014975795,-0.36210775,0.23218495,0.057407103,-0.008313647,0.05580947,0.004116645,0.028700015,0.07787746,0.21254422,0.049875736,0.04807223,-0.18841727,-0.12125839,0.17018025,-0.1467757,0.051476873,0.18691917,-0.016418645,-0.12837286,-0.23021862,0.03800255,0.31862438,-0.25219384,-0.20708999,0.02603365,-0.16626827,0.16411875,0.013314258,0.042282805,0.05326253,-0.08710794,-0.012755305,0.16016793,-0.09857498,-0.25767967,-0.05811626,-0.0033265443,0.19069427,-0.07430046,0.25932997,-0.21356963,0.05508064,0.08519021,-0.19982523,0.054076098,-0.08007202,-0.26174513,-0.026393332,0.15033835,0.051339526,-0.18625356,-0.23529749,-0.021379605,-0.017285174,0.32750082,-0.24896732,0.035422508,-0.06749801,0.0057120817,0.08969247,-0.14769301,0.33105484,-0.11572441,0.16453478,-0.02075331,-0.30015334,-0.0021500727,0.32810652,-0.03010479,-0.18798184,0.14045732,-0.067364514,-0.065883934,0.09143861,0.10164635,-0.31354827,0.34762388,0.14826608,-0.08495758,0.016476465,0.033082597,-0.12893479,0.1341404,-0.16091922,0.3063414,0.05113432,0.05464729,0.34519613,0.2923709,0.15070735,0.018937761,0.077122375,-0.0062657893,0.17315327,-0.21461084,0.121781446,-0.0629913,-0.06886305,0.030923693,-0.3501259,0.12417404,0.008251809,-0.20516954,-0.014565115,-0.1634555,-0.038436327,-0.049165834,0.048938386,0.095415235,0.33245942,-0.12242509,-0.2060041,-0.002740278,0.25033772,0.07020266,0.12952515,0.2734051,-0.04090075,0.20649059,-0.12320329,0.13320056,0.15225977,-0.32186893,0.030718222,0.2542495,0.065198794,0.14588456,-0.14275452,-0.2181807,0.056804057,0.2767821,-0.037072264,-0.6487209,0.3484788,-0.23187979,0.09675139,0.0386438,0.06881506,-0.15790628,0.10034839,-0.119178884,0.06757228,-0.23910688,0.15501466,-0.13419673,-0.043846887,-0.2100292,0.04946215,-0.35672125,0.11165443,0.010389318,-0.38776103,-0.45513833,0.27395937,0.13111448,0.02254882,0.24603362,0.17202155,0.087353684,0.06259324,0.31376737,-0.114118695,-0.077337354,-0.05442702,0.2615901,0.05097446,-0.007213855,-0.18261042,-0.1004602,-0.30262375,0.23168774,-0.11528665,-0.21776213,0.19038872,-0.06793846,-0.09666779,0.2531633,0.13972044,0.06581494,0.15930057,-0.14925864,0.31709322,0.26670945,-0.04549186,0.021364408,-0.12001673,0.025230123,-0.029494552,0.32311362,-0.28490648,0.38263455,0.19751152,-0.09967572,-0.13845015,0.24416977,0.12390497,0.0015210717,-0.2983431,0.2779581,0.46939158,0.08023445,-0.021585152,0.21086513,0.4638829,0.07804129,0.25393286,-0.17622164,-0.04049052,0.006405874,-0.026032306,-0.18434063,-0.03003935,0.3347563,-0.057506997,-0.12655851,0.28483915,-0.10167861,0.034034476,-0.056624256,-0.03611507,0.27436036,0.24408387,-0.3642583,0.09641779,0.009745305,0.09803923,0.020365862,-0.24733134,0.008559002,0.07462559,0.06088081,0.041633677,-0.24318041,-0.10808022,0.1245634,0.007793284,0.02145466,-0.0899285,-0.022526313,0.51377434,0.25733608,-0.17348447,0.0148414,0.11130052,0.10242457,-0.09091803,0.13012408,-0.08079832,0.015830856,-0.27146047,0.07702076,-0.11505057,-0.103094295,-0.007965254,-0.059599463,-0.11584316,0.092413865,0.20070025,-0.12486896,-0.20890264,-0.03471265,-0.046202432,-0.20819518,-0.15604682,-0.31505585,-0.012977178,-0.19064535,-0.17728546,0.0037913537,-0.42925194,0.08790102,0.29143688,0.15176019,-0.38117263,-0.23935749,-0.16228853,-0.09140469,0.07227871,-0.19282784,0.19750224,0.14792447,0.052662127,0.072456844,0.014831563,-0.3692091,0.03808585,-0.09643107,-0.048990056,0.3121455,0.10340511,-0.21236947,0.22300664,0.039840396,-0.22761878,-0.053886022,-0.168296,-0.3383565,0.31968895,0.095702596,0.2001639,-0.16668601,-0.04108495,-0.040541403,-0.20409186,-0.026248857,0.1418394,-0.050575506,0.028841116,0.1744263,0.16706432,-0.1267896,0.043757148,-0.09886296
award,0.072068915,-0.18480846,0.0854873,-0.17906587,-0.14391738,-0.026535604,0.18120658,0.19868414,-0.13788009,0.05572452,-0.030590208,-0.040842146,-0.06456117,0.16092254,-0.09770587,-0.09705915,-0.061496478,-0.15474774,0.08710976,-0.27165285,0.018930065,-0.22490424,-0.016048439,0.2440261,0.26415747,0.041463528,-0.13496988,0.121869385,-0.089885615,-0.08595551,0.1862678,-0.1592413,0.040154234,0.17361283,0.12796544,0.19785203,0.025580736,0.33189994,0.016368803,0.20560116,0.27356708,-0.04682854,0.3166477,0.13606603,-0.18584178,0.13125817,0.07561994,-0.116578124,0.23523428,-0.39863405,0.11898909,-0.018259786,0.3698485,0.24981184,0.050615337,0.03032114,0.04815975,-0.006496507,0.16246453,-0.2486373,0.065891795,0.25220484,-0.021787228,-0.12413265,-0.03906647,0.1241828,0.05893031,0.11302678,0.33992973,-0.25648165,-0.19388893,-0.12555523,0.25766167,0.06800863,-0.49957627,-0.36627722,0.34783712,-0.13887212,0.22075364,0.13258041,0.012850637,0.23665926,0.0315445,-0.20949888,0.03932933,-0.1118352,0.008859539,0.15300788,-0.038783852,-0.121821724,-0.10194425,-0.12299822,-0.10949373,0.13320504,-0.10341342,-0.09638579,0.21078028,-0.014440043,0.17097138,-0.10906781,0.286313,0.11671876,-0.15181239,-0.33167112,-0.09532231,-0.13494655,-0.03084879,-0.111991845,0.15890816,-0.25069568,-0.12458752,-0.1883894,0.22688305,0.07868329,0.025897384,-0.12986448,-0.045997787,0.1406415,-0.18633336,-0.19752635,0.27953008,0.035351466,0.1695123,-0.23134527,0.19158928,0.18586096,-0.2566001,0.18478717,-0.20587471,0.29334813,-0.09915407,0.23688897,0.24160099,0.06682789,-0.11544972,-0.17227666,-0.10006933,0.011805545,0.0030588883,0.16704364,0.19258656,0.2301746,-0.025471114,0.21427089,-0.23226444,-0.095647596,0.10479744,0.02918583,-0.177738,-0.04440945,0.1680788,0.12576842,-0.16402717,0.20721687,-0.12685159,0.03980505,-0.11076261,-0.026026828,0.0968797,-0.029816143,0.32510406,-0.20000002,-0.04916367,-0.020975659,-0.0707917,-0.06646817,-0.15093124,0.53217024,0.5081739,0.02572124,0.111376315,0.14516592,0.16323695,-0.28078192,-0.075694695,-0.016135283,0.13358644,0.16012625,0.200397,0.08767258,0.25890326,-0.22911076,0.092507504,0.39367887,0.067217536,0.08867291,-0.22039713,-0.12711239,-0.07051812,0.246766,0.1954301,-0.22572155,0.16907082,-0.07698952,0.17497341,0.084360324,0.08001421,-0.26055926,-0.020311542,0.061865464,-0.19892389,0.29299915,-0.020229004,-0.22147852,0.06224269,0.014098234,-0.011874531,0.1759979,0.33710408,-0.051940735,-0.13187653,0.170063,0.012175649,-0.20889977,-0.04593842,0.032897625,-0.10392294,0.1433277,-0.041550383,-0.32152888,0.34131238,-0.0037204917,-0.114239804,-0.02285114,-0.19477631,-0.33725083,-0.06983169,0.0724347,0.07478706,0.16290809,-0.04954194,0.2197911,0.2865888,-0.30177513,0.021767903,0.15064023,0.14963867,0.053354356,-0.12620233,0.0610211,-0.26073405,-0.23318121,-0.19152732,0.02215698,0.02155053,0.23931716,0.044685345,0.028401518,0.06847434,-0.0068251076,0.14250116,-0.063216686,-0.0584006,-0.12051595,-0.009729719,-0.030479312,-0.048310295,-0.20666769,0.11095457,-0.18668915,-0.15902223,0.2282121,-0.08050885,-0.15440948,-0.0227334,0.27372745,-0.06553203,0.08021082,-0.20926408,0.2579698,0.26428595,0.13863918,0.333941,0.104540005,-0.22375302,-0.13176554,-0.14339569,0.0035051003,-0.10761541,0.02634519,0.31666952,0.008765122,0.005522618,-0.16817574,0.19994578,0.032096267,0.30367222,-0.1733468,-0.36861375,-0.022866182,-0.015376938,-0.12347644,-0.08243723,-0.19644201,-0.2674543,-0.33212858,-0.13045691,0.10449457,-0.10802546,0.026101697,-0.06820736,0.0039120493,0.1603451,0.112186946,-0.15331383,-0.07030723,0.16522638,-0.13037977,-0.0869202,0.22115591,-0.08399646,-0.34118512,0.12518336,-0.16524284,0.01384572,0.006849642,0.23506068,0.079809815,0.0091401525,-0.33781454,0.2382963,0.06666502,-0.19283237,-0.40919182,-0.09907224,-0.1026998,-0.22715227,-0.014154431,-0.008884224,-0.10904515,0.0845466,0.13406354,-0.2118904,0.082992636,0.062006522,0.08838568,-0.16998209,0.017099826,0.09171511,0.10654242,0.05534231,-0.24463508,0.31087404,0.13546951,0.2666414,0.09446621,0.13152505,0.041732285,-0.12878549,0.35077488,0.046488237,0.11239204,0.17655957,0.054808427,0.2819336,-0.14400372,-0.078741156,-0.3210675,0.08251665,-0.10060351,0.12123125,0.20641996,-0.34079316,0.008410573,0.11567511,-0.32881263,-0.11483777,0.0033596614,0.098780945,0.050235987,-0.0837278,-0.04787032,-0.0016072405,0.01591173,-0.019966198,-0.04438361,-0.021972407,-0.29378664,-0.004065743,-0.14907013,-0.17579947,0.077317335,0.18858087,0.2832498,-0.1251939,-0.22201815,0.22148417,-0.31052402,-0.07962496,-0.16639741,-0.21121924,0.046570532,0.30648056,0.06648045,0.14238371,0.0807659,-0.09592581,0.02204011,0.26360625,0.021761723
birthPlace,0.2344972,-0.028171008,-0.088636965,-0.01754629,-0.315501,0.26553327,0.11068634,0.23623012,-0.21426095,0.32044742,-0.09607797,0.1469104,0.14106038,-0.21242458,-0.09565537,0.023089083,0.060185965,-0.0023320522,-0.22045864,-0.4627525,0.37112644,0.006722133,0.14446585,0.021904571,-0.17977059,-0.23996086,-0.0009310201,0.18679604,0.16478531,0.047562063,-0.28921872,-0.03061531,-0.0139488205,0.035075296,0.24484205,-0.12615962,-0.18881534,-0.022193044,0.07559406,-0.08651635,0.20042373,0.013072945,0.023849769,-0.15511905,0.03696611,-0.026038282,-0.2398861,-0.057921015,0.0990315,0.2639186,0.31283146,-0.168238,0.36639267,-0.18314904,-0.08823121,0.08719492,-0.31903985,-0.051259935,0.023756562,-0.20035751,-0.20554069,-0.06394773,0.09721682,0.1125523,0.26349387,-0.06387679,-0.19887719,-0.044841874,0.06381184,-0.23845592,0.26664937,0.37137964,0.02337149,-0.2847751,-0.2370062,-0.02882093,-0.30813104,-0.04118736,0.5717799,-0.09569011,-0.013078016,-0.3618005,-0.011741186,0.03247305,0.16410644,0.111454435,0.08741875,0.065766826,-0.010854391,0.043664165,0.038737763,0.006924556,0.24048409,-0.2010317,-0.32104376,0.05414662,-0.16275778,-0.24386378,-0.11900103,0.06758921,-0.06402788,0.32534993,0.19510256,0.13049354,0.0036621247,0.08806069,-0.03588515,0.08811455,0.084535085,0.04299364,-0.1442374,-0.21609484,0.07278917,0.14486706,0.17323047,-0.13180314,0.035993468,0.3797637,-0.10517724,0.15318651,0.23024175,-0.04367274,-0.037195683,0.24885164,-0.061982468,-0.04053671,-0.074818686,-0.022813544,0.09322631,0.12945043,-0.03684377,-0.39009562,-0.032061733,0.09985222,-0.20168261,-0.11028317,-0.029645748,-0.00806546,0.11511234,0.037590604,0.0062926756,-0.085220456,-0.017682293,-0.001558073,0.02866746,0.14705026,0.15791914,-0.08874905,-0.03860612,-0.24502918,-0.22718458,0.038044736,0.29385933,-0.35315534,-0.017726619,0.19567236,0.026304724,-0.31491625,-0.024287155,0.005500351,0.02472269,0.12600121,0.059036642,0.17271258,-0.17178738,-0.19668166,-0.12144388,0.15418024,0.014014007,0.08317609,-0.013617822,0.27984855,-0.087483615,0.010302665,0.3009291,-0.06279508,0.20792606,-0.029358255,0.07200115,-0.1608545,-0.08513055,0.11801474,0.052221704,-0.5569858,0.1678912,0.18481317,0.31113085,-0.048240725,0.1653178,0.1113992,0.0064236657,0.09410165,-0.025913866,0.019100996,0.1495678,-0.3151263,0.019015554,0.07463796,0.047511697,-0.09931424,0.06866983,0.13346511,0.30145207,0.16119237,-0.061501764,0.036678758,-0.027524555,0.19538303,0.07235353,0.073563956,0.11679342,0.14363809,0.1438333,-0.30538496,0.08791209,-0.40498468,-0.28793794,-0.33969104,0.20025052,0.44858748,-0.2704188,-0.12611152,-0.09131783,-0.3354958,-0.24199712,-0.13491753,0.08609047,-0.37310487,-0.31409732,-0.22480306,0.008359207,0.1213192,-0.18425696,-0.038790643,0.1181113,-0.18679786,0.29589117,0.08344582,-0.05374091,-0.14795108,-0.29278165,0.15731083,-0.2684138,-0.01792318,-0.094918594,-0.14293113,0.14567707,-0.2709252,-0.08258407,-0.12810054,-0.16200487,0.06805458,-0.001176151,0.1740257,-0.22118388,-0.27490777,-0.064008474,0.25078398,0.08059425,0.0029680918,0.29321998,0.03507827,-0.14630823,0.26969647,-0.16117623,0.0820746,-0.05869836,0.03756758,0.33112535,0.19379167,0.3025902,-0.08125025,0.008833344,0.035513237,0.19357622,-0.043077428,-0.18316518,0.1834748,-0.1725259,0.22214122,-0.0056866487,-0.076045655,-0.0879923,0.07962842,0.17197812,0.21977738,0.017617937,0.084996335,-0.2186739,0.13631935,-0.028075382,-0.0027975433,-0.06456665,0.13274337,0.23352633,-0.1716586,-0.15890548,0.52152467,0.060575526,0.28408274,-0.2048665,0.00032369955,-0.12311639,0.03371854,0.24659976,-0.31342638,0.17705798,-0.21041074,-8.7087064e-05,0.059716336,-0.177341,0.17929459,0.03422764,0.035212923,-0.18484206,0.11062578,-0.055209313,0.2099485,0.11078476,0.004538185,0.37244162,0.32034373,0.08398267,0.0054609263,-0.25730523,0.16663493,-0.35888633,0.1250198,0.06316175,0.14419772,0.109918706,0.068117835,-0.007076377,0.049542286,0.10782609,0.15871844,-0.023674713,0.17461379,-0.10860173,0.012938594,-0.23332891,0.13940413,-0.16788176,-0.11090801,0.11718368,0.079296745,-0.037634272,-0.053551532,-0.27876702,0.46125376,0.12738612,0.38007444,-0.30055586,0.36651537,-0.038529,-0.31776044,-0.17707263,0.034677386,0.06508981,-0.029506426,0.16452885,-0.3929796,0.044980347,0.17417985,0.17480963,0.16878845,-0.34009486,-0.034582213,0.07451268,0.101815015,0.16020752,-0.11368024,-0.01694295,-0.04221248,-0.2356434,-0.018537337,-0.0325375,0.066769496,0.34376624,0.06171363,0.12220941,0.04532486,0.029814659,-0.10856357,-0.04186313,-0.02340416,0.07063805,-0.17520794,0.10060059,0.052070044,0.024483219,0.019221578,0.087678775,0.080765404,0.42683992,-0.056089677,0.06494113,-0.006622054,-0.09847284,-0.15076177
deathPlace,-0.34883326,0.13271736,-0.24796821,-0.12497131,-0.007913903,-0.17068459,-0.088376574,0.3828323,-0.07029258,-0.12804912,-0.033236504,0.24166015,-0.25905964,0.08939814,0.13047217,-0.030191692,-0.22293997,-0.10701874,-0.23422328,-0.1976169,0.063977696,-0.17612964,0.38632515,-0.04645345,0.0014190241,0.12428787,0.099199645,-0.34721002,-0.15339746,-0.17377539,-0.05239978,0.016779052,-0.17359576,-0.2600286,-0.14990361,0.060177926,-0.3774725,-0.21834327,-0.0072152154,0.36108896,0.045155227,0.16633171,0.11017454,-0.029698279,0.26111937,-0.15911074,0.21630923,-0.18148293,-0.20703527,0.06816385,-0.0996997,0.06738365,-0.016674768,-0.25260007,-0.031499743,0.012367719,-0.01877216,0.03496142,-0.075165175,0.2900496,-0.13958627,-0.05386939,0.093234874,-0.08443958,-0.15297921,0.078710474,0.0021229356,-0.19165897,-0.18554564,-0.15028112,0.058066346,-0.23607203,-0.030221786,0.051270537,0.18326752,-0.1748208,-0.030455766,0.18560523,-0.08883847,-0.11325877,0.08127678,0.026673965,-0.2047965,-0.01825883,0.059051897,0.035465464,-0.17138958,-0.1334732,-0.04646051,-0.074433945,0.1151175,0.4867976,0.14477342,-0.0038971554,0.110265665,0.11060417,0.016400713,-0.104809396,-0.19015872,-0.03288185,0.121376045,0.018462215,0.20911,-0.22709069,0.070068374,0.07358638,-0.17181894,0.16995427,0.11515275,-0.16296752,-0.05519685,0.10289645,-0.050140094,0.2422521,0.079367585,-0.11754606,-0.028818926,-0.17470145,-0.049823955,-0.19062394,-0.17621294,-0.039793305,0.3050312,0.065105565,-0.04056669,-0.0065490566,0.16979203,-0.16243444,0.011704502,0.19958884,-0.12844649,0.15489121,-0.021526104,0.03927515,-0.07747571,0.1407472,-0.1817519,-0.33153656,0.12680942,0.08088197,0.015656354,0.23843955,-0.03314604,-0.19865254,0.22680391,-0.07236314,0.06620298,-0.17881079,-0.23101714,0.010967248,0.056258418,-0.00019701988,0.23155455,-0.16827196,0.002890683,-0.37360233,-0.22061233,0.04958462,-0.34251517,0.30554873,0.15630732,0.06420638,-0.25230846,0.17857625,0.16157337,0.087558255,0.044117864,0.17206192,-0.32251897,0.0016172191,-0.08421315,-0.20405504,0.021610927,0.0012499593,0.1685177,0.1641963,-0.27352056,0.1707613,-0.25576374,-0.16135433,-0.17541893,-0.06841417,0.19350861,-0.16385211,-0.0500012,-0.08084302,-0.022782927,0.15623164,-0.052668165,-0.095558666,-0.16892698,-0.25000513,-0.21120664,0.093047656,-0.21697873,-0.1898896,0.092315376,-0.0032563587,0.0014943486,-0.22797671,0.27601686,-0.12622422,-0.06641566,0.19930542,-0.0847395,-0.26339948,-0.05051125,0.16779505,-0.23810366,0.087279156,-0.018467534,-0.13301444,-0.08518231,-0.063084,-0.037130125,0.1027845,-0.013406383,-0.14970429,-0.110134326,0.013158627,0.47181138,0.29027712,0.31568715,-0.14007749,0.30277202,-0.0069416096,0.15149604,-0.014555026,0.08551621,-0.21541044,0.10958283,-0.1523284,-0.012288918,-0.08406211,0.15124972,-0.21506055,0.10128799,0.019605841,-0.10804975,-0.27742165,0.5098121,0.06773577,-0.0709619,0.26732922,-0.10019673,0.17539382,0.14913206,-0.18392742,0.18913731,0.25209513,0.21191105,-0.03266079,-0.08148022,0.10989363,0.15500782,0.0032057506,-0.1462288,-0.21401118,0.17796709,0.05317819,-0.091612704,-0.13754883,-0.34987187,0.058789663,0.026893998,0.03595848,-0.045321483,0.089171395,-0.14509647,0.117732435,-0.118688904,0.19328555,-0.035929244,0.001445426,0.042898703,0.16863266,0.17276445,-0.06795451,-0.09885309,0.37225685,0.054073166,-0.0076720184,0.31620887,-0.2014146,-0.17011859,0.06813819,-0.17813183,-0.103637084,-0.24748272,-0.12969933,-0.15626533,0.18524997,0.014901888,0.16955139,-0.15723005,-0.03473567,-0.17491558,0.37968725,0.366891,0.14137842,0.08154715,0.12746863,0.059292484,-0.090377666,-0.20847383,0.0013714868,0.16164039,-0.019506609,0.17974567,-0.011261466,-0.21064699,0.05404542,0.21858473,0.054197185,0.14854486,0.21106252,0.0015620742,0.0117736915,-0.166031,-0.03442575,-0.10362911,0.25457555,-0.12298296,-0.38960722,-0.15697293,-0.26158413,0.2681977,-0.21840063,0.080964856,0.1458937,0.17119017,0.13639697,0.3517934,-0.09361759,-0.35275006,-0.13438281,0.34072012,-0.035663925,0.26668358,-0.20161387,-0.16116276,0.19753645,0.07792803,0.31694856,-0.23590983,0.0010863696,0.131953,0.11315883,0.20122956,0.015989123,0.14114115,0.10809956,-0.048438005,0.1749645,0.26420313,0.016536111,0.047340587,-0.08667436,-0.23556386,0.14548929,0.18979135,-0.36100784,-0.18430766,-0.07240739,0.14903194,0.0064918413,0.12176976,0.23726805,0.16826756,-0.21122107,0.06105952,-0.20369193,-0.32617623,0.34339318,-0.19373316,0.2532247,0.33626336,0.14934571,0.025285797,0.083081305,0.035898007,0.055277362,0.25843585,-0.1668984,-0.03418165,-0.13685484,-0.052174672,0.1826032,-0.021711245,-0.04737786,0.09222581,0.053881112,0.06550884,0.07396982,-0.07476433,0.095781654,-0.19285914,-0.25922596,0.15325497,-0.26001844
foundationPlace,0.0133926505,-0.09896983,-0.22738327,-0.15375943,0.05147078,0.14827584,0.14061607,-0.4527531,0.18141985,-0.10138407,-0.0068639666,0.0042957203,-0.048819717,0.027167628,-0.19283539,0.01773595,0.11294624,0.14611483,0.03431845,-0.05629351,0.01256555,-0.026827363,-0.09876306,-0.2888371,-0.045565866,-0.14146942,-0.1090563,0.5997435,-0.036577493,-0.037760913,0.008803718,0.078565285,-0.0029466262,0.024495902,0.0026647497,-0.24015722,-0.0031436281,0.10538198,-0.14727801,-0.31472328,0.005950716,-0.24344246,-0.15542208,0.08202623,0.12703995,0.059256658,0.4305625,-0.043687224,-0.17947981,0.059134733,-0.30819124,0.030837165,0.22324704,0.10168913,-0.053263944,0.2581374,-0.32952103,-0.10334672,0.12046453,0.16682573,0.087581806,-0.015696853,0.009822865,-0.0026097249,0.1902312,-0.20828795,-0.081009455,0.06690354,0.18546344,0.015011272,0.051180683,-0.020577779,-0.02393922,-0.015998336,-0.122776285,0.21586415,-0.15048724,0.025445404,0.22118916,-0.12680319,-0.08661726,-0.07524697,0.12720636,0.17649046,-0.07968161,0.3167354,-0.15534385,-0.08798432,-0.26778468,0.018071655,0.035343744,-0.101545036,0.065328665,-0.21550305,0.0015020852,-0.07468674,-0.086129755,-0.34622598,0.119674824,0.13851234,0.23714112,-0.062446382,0.2258148,-0.1032602,-0.20454279,0.059700374,-0.03602209,-0.35317436,-0.020627469,-0.10338054,0.28377572,0.0054184906,-0.007350809,0.22783531,0.11851231,-0.03802305,0.25422987,-0.116495326,0.18782017,0.17693797,0.048469983,0.012592699,-0.05735591,-0.13933372,0.016905615,-0.26378062,-0.36573464,0.21692501,-0.11726085,0.2235151,0.100596644,0.017439967,0.17351666,0.26104334,0.047592144,0.002037837,-0.04572679,0.033209544,-0.28451276,-0.5269438,0.03777092,-0.015370448,0.19538333,0.08484031,-0.056709386,-0.035447042,0.017719323,0.060286377,0.11165561,0.39704278,0.09616565,-0.026833018,0.0650065,-0.013560257,-0.24302296,-0.25551996,-0.091998935,0.25465333,0.2733018,0.03168225,0.023486935,-0.031925365,0.27891767,-0.0958741,0.21744172,0.26662147,-0.12053956,0.08656228,0.0017347287,-0.114334844,-0.11748232,-0.020462537,0.26408854,-0.07456063,-0.0810389,0.05973327,0.027061598,-0.046025667,-0.022024231,-0.013736602,0.18632509,0.0364292,-0.004752049,-0.028035881,-0.24901493,0.10210743,-0.22409512,-0.09070157,-0.16515285,0.12739995,0.04789108,-0.10542427,0.07521168,-0.028962582,-0.13211708,0.04967848,-0.13192803,0.14588358,-0.29452428,0.14270546,-0.0647763,0.019598706,0.11065877,0.036472958,-0.14738202,0.19864954,-0.1637635,-0.35941622,0.06117946,-0.008501059,0.015513893,0.03882079,0.16308294,-0.075419396,-0.23684634,0.13131867,0.15889172,0.26130027,0.2367232,-0.13921617,-0.12613519,0.13814074,-0.61849236,-0.020910507,0.03693014,-0.0066119437,0.16248138,0.17000937,0.14571714,0.18541422,0.029627118,-0.2173288,0.014165232,-0.04496934,-0.06274884,-0.097569056,0.0005434762,-0.12607926,0.16906166,-0.19753772,0.23487172,-0.16405918,0.2072176,0.059024215,0.3500615,0.20993598,0.33696982,-0.55942273,-0.118102275,0.18009336,0.017313797,0.19245611,-0.0768359,0.10185406,0.11686875,0.1110931,0.17664623,0.050671227,-0.31272027,-0.049108114,0.095295876,0.10837415,-0.39612514,-0.056829818,0.25542262,0.072323464,-0.28195652,-0.43064356,-0.047204986,-0.055025313,0.15171656,-0.22752321,-0.034447763,0.17908399,0.07858819,0.28458038,0.27147976,-0.43738207,-0.030623555,0.16260223,0.10678837,0.019124202,-0.18913588,0.06121486,0.0349655,-0.13059638,-0.24852021,0.1102447,0.15635405,0.25758412,0.38950926,0.22808887,-0.19316737,0.09469476,-0.02804237,0.07642346,0.038803533,0.4168401,0.1813286,-0.010114636,0.11204281,0.019788513,0.13896807,0.044979997,0.022263635,-0.0049034487,0.2651202,0.051066738,-0.05247554,0.009591167,-0.19143376,-0.06425109,-0.17459837,-0.059290893,-0.0030057277,-0.24909127,-0.084872834,-0.10407712,-0.2657646,-0.32982197,-0.17199431,0.12428349,0.18426831,0.14053926,-0.12677915,-0.040185764,-0.23763056,0.14449257,-0.15594497,0.15839747,-0.030481102,0.21750277,0.24191205,-0.28859356,0.1114844,-0.11993974,0.065799005,-0.01156757,0.13844457,0.1712552,-0.024826529,-0.056694705,0.2878018,-0.08549336,0.047876704,0.06736124,0.45357728,0.11536759,0.0851555,0.23093311,0.06277617,0.15679839,-0.108362205,0.10877819,-0.09854746,-0.11629095,-0.008353524,-0.22563796,0.24573544,-0.071181245,0.2254631,0.16970634,-0.04295711,0.024294049,0.15849179,-0.15586202,0.12152794,0.05438324,-0.19025448,-0.21477379,0.15668328,-0.027620468,0.07880246,-0.005890466,0.049960174,-0.10238901,0.067193605,0.15906931,0.075158246,-0.038766086,-0.18993136,-0.117393434,0.24501142,-0.006058604,0.06121904,-0.2566309,-0.2483921,-0.18423852,0.05882957,-0.0153358,0.06516826,0.15653254,-0.049009852,0.22759444,0.019115904,0.1308671,0.45165846,-0.029676154,0.006820395,-0.22899507
office,-0.064223334,-0.24430753,-0.004329858,-0.23541182,0.36415625,-0.037180267,-0.16697745,0.13051362,0.14469987,-0.0514042,0.14366318,0.05235807,0.09098206,-0.14472203,-0.12570624,0.099413626,0.21949945,-0.15578113,-0.25348037,-0.26180264,-0.0068527143,-0.10309259,-0.24806987,-0.1467652,-0.18011813,0.15192068,0.06788394,-0.23661314,0.008442393,-0.043088775,-0.21051717,-0.1482152,-0.24715623,-0.23542851,0.104024306,0.033629667,-0.2744231,0.050962448,-0.1440908,-0.092808,-0.29795957,0.22978874,0.0016364943,-0.045043707,-0.054335695,-0.12333894,-0.13387114,-0.107900105,-0.1561884,-0.06448173,0.15806669,0.1082609,-0.13495903,-0.011169826,-0.0023086458,-0.073975906,-0.1709222,0.13815373,-0.0059121293,-0.17869674,-0.24151774,0.066626675,0.006537271,0.18256561,0.20526244,0.018933766,-0.010617644,0.03028418,-0.038083337,0.0054724882,-0.0738045,-0.03386522,-0.3811412,-0.06755942,0.14257571,0.09742243,-0.035716224,0.056697022,0.011091068,-0.018557632,-0.045063175,-0.016699795,-0.19991219,0.015828706,-0.0033926489,0.05527334,-0.51072663,-0.30185962,0.01683709,-0.0074086343,0.20104931,0.15492818,0.09615952,-0.25922173,0.17299925,-0.18988948,0.058579493,-0.0042366628,0.0059802225,-0.30860028,-0.12899129,-0.35681033,0.096754216,0.2187135,0.054243684,-0.033317048,0.18386713,-0.1045033,0.15522794,-0.10647649,0.035793256,-0.02127659,-0.15898749,-0.17152722,-0.17955041,-0.022721065,0.010609999,-0.0826384,-0.050876603,0.1640302,0.18665141,0.009777447,-0.106272265,0.0569911,0.030334173,0.07184524,-0.06683775,0.017093467,-0.24763305,-0.034252685,0.32696098,0.084679455,0.019192668,-0.12870806,-0.2873222,-0.26105532,-0.18817869,-0.1194986,0.15254258,-0.25530404,0.1338299,-0.01669891,-0.11835982,0.1255108,0.11053953,-0.11140115,0.30242756,-0.1695227,-0.30607483,-0.10620032,-0.25593448,-0.36005875,0.09008309,0.101174384,0.19069125,0.27784595,-0.09114548,-0.28570047,-0.14214937,-0.12497669,-0.084584326,-0.25382808,-0.15503028,-0.15905401,0.27197006,-0.27419633,-0.096473746,0.053534232,0.18633044,0.050905216,-0.07803643,0.09604734,0.0539971,-0.10853387,-0.23512897,0.11449039,0.13508698,0.08119727,-0.16546609,-0.20029853,0.03575503,-0.15751395,-0.28194213,0.16846515,0.025073616,0.07795709,-0.08739995,0.041068487,-0.1361281,-0.011291921,0.13416843,-0.14934778,0.102296665,0.14383306,0.26613018,0.20930025,-0.058259055,-0.040716954,0.1703169,0.19799861,0.03742097,-0.007171122,-0.028274678,0.2229512,0.11212659,0.41879869,0.112331584,0.09666242,-0.23941858,-0.036358237,-0.10686835,-0.15303619,-0.19902717,-0.10222267,-0.07186248,-0.013640771,0.08138454,-0.3485381,-0.09448399,-0.05455537,0.17734487,0.15030007,-0.07701633,0.05706663,0.14042234,-0.06186454,0.19362062,0.0765733,-0.34516388,-0.15434502,0.051757213,0.17655288,0.09729461,-0.03267297,-0.016842676,-0.027497606,0.5105697,-0.3363945,0.09600888,0.01693778,-0.017213786,-0.0381421,0.093133494,0.01514547,-0.34138352,-0.054461017,-0.087364376,0.1162267,-0.14449923,0.043739628,0.02089751,0.16584417,-0.049757414,-0.008803058,0.13233888,-0.062910594,0.028225236,-0.16896643,0.1123563,-0.31648755,0.058225527,-0.28245288,-0.3631372,-0.13928773,0.08402248,0.025430894,-0.22930335,-0.16107431,-0.078286454,0.09754398,-0.3019998,0.17030469,0.09226633,0.1123773,-0.10200932,-0.3003912,0.101767436,0.21654402,0.19761829,0.48441333,-0.17134167,-0.4609514,-0.35359606,-0.28533506,0.07196872,-0.22391935,-0.04466276,0.094528496,0.052179996,0.16102661,0.17333344,-0.035315536,-0.11780632,0.17459626,-0.110401675,0.14783509,0.07401837,0.06719061,-0.11821881,0.08597146,0.22885692,-0.05889471,0.2018612,-0.33558944,-0.4717864,0.020551028,0.13520747,0.06954943,0.2393808,-0.022067282,-0.07440049,0.113191284,-0.042286523,0.039734747,0.16596031,-0.31710553,0.03258788,0.06268312,0.2458747,0.13807668,-0.15750743,-0.010807173,0.008981757,0.47186556,-0.36741152,0.19459759,0.15812798,0.013652735,0.18738423,-0.046528097,0.24258134,0.25382203,-0.357023,-0.014290388,-0.029135047,0.05180486,0.25193885,0.08005856,0.14224264,-0.25193834,-0.23876688,0.24384785,0.08846242,-0.15510243,-0.018000877,0.18775268,-0.07228079,-0.04055167,-0.3305658,-0.040836245,-0.09982886,0.08956525,-0.018862924,-0.22393696,0.08854054,0.27135947,0.3681901,0.35116863,0.0022828307,-0.14097404,-0.022953033,0.24508838,0.014397195,0.17821024,0.14174728,0.18593906,0.22906396,0.041511763,-0.12026198,-0.20855072,0.101450875,0.035126176,0.17727193,-0.114215195,0.030748943,0.033670723,-0.29286546,0.09447861,-0.11113701,0.39319804,0.13892461,-0.07434407,0.116369754,0.057095002,-0.16371919,0.2635712,0.24713111,-0.004139068,0.06899036,0.37366354,0.11825,0.32537583,-0.0015649115,0.15859637,-0.23603053,-0.09830197,0.16205539,-0.08353844,-0.17292708,-0.275078
spouse,0.11129763,0.19059063,0.26994044,0.1851656,0.20809884,-0.108087316,0.37707,-0.16881387,-0.29117072,-0.04210083,-0.13032413,-0.013261781,0.06620374,0.034480035,-0.15296412,-0.017401375,-0.023065394,0.18352853,-0.03052534,-0.092293926,0.11497744,-0.107021086,-0.09536016,0.12528794,-0.17574699,0.13105072,-0.014383791,-0.2704561,0.041659456,0.36150253,-0.22187075,-0.11458738,0.33693627,0.043747958,0.01762455,0.11019467,0.075865805,0.060046464,0.21440507,0.12692343,-0.12636705,-0.031155469,-0.019947894,0.015750524,0.13132033,-0.2712777,0.35038337,0.407431,-0.06378411,0.1376994,-0.18937913,0.18655363,-0.12733042,-0.06966824,0.24912988,0.22461593,0.14317288,0.20154232,-0.2380772,-0.076422974,0.25562137,0.06502324,-0.10246559,-0.2409487,-0.09167349,0.0767469,0.052426286,-0.050780028,-0.00722558,0.19160031,-0.025853394,-0.05324711,0.18212041,-0.15655494,-0.04264647,0.30775875,0.105071254,-0.047170833,0.11518601,-0.00035555835,0.16733104,-0.19981813,-0.13396406,-0.065024994,0.15919802,0.1011483,0.13901637,0.2046466,-0.15994988,0.006914971,-0.038859278,0.036281224,-0.31110778,0.27793813,-0.049452286,0.10212723,0.1375491,-0.31988814,0.070912495,-0.21004581,-0.16914585,0.19543016,0.16752294,-0.17705534,0.12409292,-0.19672185,-0.21671496,-0.22274901,-0.33022767,-0.0777052,0.26696834,-0.16836478,-0.12336604,-0.12631924,-0.24435021,0.17176706,-0.3906946,0.06780363,0.063366525,-0.013794303,-0.098413594,0.2314533,0.2865375,0.020993315,-0.25501096,0.060346317,-0.059132125,-0.06569045,0.032361943,0.0124327075,-0.11418665,-0.24347028,-0.13261935,0.31209606,0.028942076,0.3473987,-0.30274853,-0.08483445,-0.024274401,-0.040291663,0.13689506,0.12256875,0.057776604,-0.071902536,-0.018881317,-0.13127905,0.051023517,-0.08692479,0.24924119,0.19994736,0.07188561,0.22995907,-0.19935052,0.29521722,-0.1686032,-0.038798388,0.0318925,0.27921453,-0.19066393,0.07602303,-0.2062838,0.09153228,-0.06997803,0.1594076,-0.19736388,-0.16933186,-0.19695841,0.058755446,-0.17756754,0.1289124,-0.102298744,0.005330771,-0.49776173,0.17542702,-0.020662038,-0.21959436,-0.14348547,-0.12268163,0.05223435,-0.052423064,-0.00072320923,0.060104404,0.010973409,0.3850902,0.08567986,-0.21053253,-0.13934693,-0.020101944,-0.15554227,-0.32855383,-0.05939701,0.03641847,0.26250383,-0.026929997,0.08339789,0.18649055,0.047202077,-0.119595274,-0.3461905,0.08360332,0.07373432,-0.049828514,-0.24377275,-0.1397137,0.106326036,-0.36441934,0.017977582,0.2210855,0.0742046,0.01525216,-0.07212254,0.17122035,-0.2379135,-0.035844907,0.3300222,-0.21889575,0.039878815,0.012549931,0.11055607,0.015133933,0.049301,-0.12488643,0.11967953,-0.16171208,0.10267598,-0.080231905,-0.24563661,0.006279324,-0.08024541,0.119963564,-0.0016641935,0.16062094,-0.1609874,-0.19114697,0.033453688,-0.07095,0.00044144306,0.18399645,0.19988935,-0.076362364,0.0026026797,-0.14412853,0.007666336,-0.19086584,0.1762546,0.018279837,0.05694786,0.12974769,0.30075976,0.06922291,-0.17176366,0.12781627,-0.09068447,-0.11936273,-0.2214813,0.15531164,-0.25321934,0.21819401,0.05093056,-0.081265286,-0.0021692442,0.31650105,0.022266245,-0.11823521,0.3132757,0.12077928,-0.025542276,-0.28349367,0.10365408,-0.08208646,-0.017934764,-0.1896878,0.12719348,-0.05068545,-0.18184866,-0.028078761,-0.6102706,-0.20973681,-0.025403345,0.20951378,-0.120295145,0.11113454,-0.14700389,0.12482238,-0.04776876,-0.12777296,-0.24639672,0.21620642,0.0477042,-0.022181509,0.28516933,-0.003764081,-0.13377225,0.16626345,0.039785884,0.031411476,-0.2798027,0.2726466,0.099803686,0.36180377,-0.4205829,-0.01967902,-0.04414065,0.0028800422,0.033576436,0.062577754,-6.184728e-05,0.036262758,0.20423865,-0.047475576,0.01169879,-0.016064223,-0.06961975,-0.22364853,0.12626122,-0.13948596,-0.24908468,-0.025403365,0.33136222,-0.13943656,0.030561447,0.08992932,0.3181357,0.48725447,0.18632813,-0.27833176,-0.088425145,-0.015104713,0.24687661,-0.039633743,0.12928443,-0.041307174,-0.14041492,-0.1034651,-0.22727177,-0.35862327,0.036297437,0.03193109,-0.10888488,0.14615169,0.14413227,0.028946564,-0.13010065,-0.1555099,0.16911155,-0.13428181,-0.08781461,-0.18439502,-0.110879235,-0.13854383,-0.09755607,-0.15785313,0.11047476,0.38430324,-0.16539936,0.156828,0.1596638,-0.04874428,-0.091798775,0.22313946,0.031032715,-0.028110282,0.3905425,-0.027993169,0.41395074,0.024565073,-0.030727157,0.14036448,0.027927471,0.07782396,0.019626051,-0.12277177,-0.3739539,-0.38987103,0.35390094,0.079481214,0.23872434,0.00549761,0.062817916,0.10396226,0.24634452,-0.055608112,0.0020848662,0.08632252,0.09769262,0.025895173,-0.1742173,0.14514516,-0.01258039,0.07146782,0.11983974,0.024363235,0.20784569,0.10518438,0.053547654,-0.06866308,0.06471439,-0.06997917,-0.12651907,0.010227463
starring,-0.15350737,-0.030570522,-0.06513935,0.0710119,-0.20885533,-0.39429826,0.04685887,0.052680038,-0.0010672824,-0.074004605,-0.088670075,0.4189342,-0.25800294,-0.14381137,-0.019004973,0.47091755,-0.18565671,-0.15362774,-0.017027073,-0.25136158,0.007932081,-0.14771983,0.29348853,0.029226217,-0.108754784,0.11038297,-0.19073933,-0.2221384,0.14495593,-0.05673681,0.20577346,-0.20552482,0.068934396,0.097618125,-0.119331956,0.013382439,0.067599125,0.096097246,0.085097484,0.26250416,-0.12222009,-0.07179111,-0.027973054,0.1638239,0.11907317,-0.17761032,-0.030457359,-0.23044983,-0.11030121,-0.1444227,0.047021665,0.0073464983,0.22102296,0.058225434,-0.08788368,-0.2761858,0.05244821,-0.08799844,0.08148511,0.123557776,-0.008237749,-0.04570312,0.15714292,0.03958411,-0.027354375,-0.3556565,-0.009909319,-0.060615648,0.0030977014,-0.06623902,0.10338511,-0.15869999,0.0003607426,0.042598933,0.08906331,0.2865568,0.057857584,0.32207358,-0.09770889,0.16648977,0.02955289,-0.096067406,0.027523877,-0.20709923,0.20602235,0.053196054,0.21012053,-0.068404205,0.1449661,-0.12127805,0.15227036,-0.09116696,-0.076008804,-0.46819556,-0.17763944,0.06756051,-0.018795796,0.033338953,-0.10572817,-0.023509817,-0.12754668,-0.040051427,-0.09236651,0.001921443,-0.16399561,0.087679684,0.12528427,-0.16012296,-0.41595522,-0.059465952,0.23381104,0.3441514,0.24524361,0.098460026,-0.27920225,-0.15618415,-0.15841016,-0.0028520948,0.27073213,-0.14987259,-0.012281068,0.0036353457,0.15460297,0.11967232,-0.06855236,0.09865282,-0.13575198,-0.01793102,-0.16553973,-0.3131689,0.054609206,0.08578841,-0.06310213,-0.01963632,-0.04506607,0.14929728,0.02996522,-0.08480758,-0.10001929,-0.07530246,0.07929217,-0.0065143974,-0.321032,-0.19994469,0.28724685,-0.2747894,-0.017108114,0.011963567,-0.0285294,0.114216395,0.033392522,-0.020112677,0.1618495,0.2579289,0.11450494,0.30942276,0.36230502,-0.27275178,0.04554989,0.23391593,0.024984295,-0.06971425,-0.23512435,0.13188128,0.15493658,-0.1379674,0.19029972,-0.0035411555,-0.19354537,0.06652187,0.14408983,-0.10899205,-0.3081656,0.2943885,-0.039945867,0.025707547,0.29308495,0.21350251,-0.43584433,-0.016129227,0.13601369,-0.19156466,-0.10705573,-0.13540296,-0.07167222,0.059934158,0.033356298,0.021121614,0.19698206,0.09921792,0.066369385,-0.25205255,0.11298978,-0.13447711,-0.19286096,-0.17880453,-0.31500202,-0.10566949,-0.056842938,0.036762886,0.15365705,-0.2079746,0.036964495,-0.118077785,-0.28310707,-0.1042817,-0.20620185,0.122361556,0.17407343,0.15191764,0.097077586,0.07519808,0.017367406,0.029190103,0.1929303,-0.2155846,-0.16094652,-0.21731354,0.09326572,-0.0047234814,0.044591647,-0.09257889,-0.020551829,0.026321582,0.0050244955,0.09697648,0.007710488,-0.107471325,-0.07485273,0.19403347,-0.17696282,-0.108720936,-0.40126064,0.020347686,-0.19652963,-0.08810663,-0.32959267,-0.06587224,0.33003455,0.10047698,-0.07991534,-0.058176007,0.16764106,-0.43940127,-0.07565028,-0.010511078,0.12599759,0.22278938,0.002592894,-0.25212654,0.10329571,-0.05935556,0.3027679,0.4047514,0.1299936,-0.0136199985,-0.011077567,0.1414031,0.0631516,-0.051996894,-0.05141089,0.007354202,-0.0040247175,-0.16823182,-0.31465048,0.2263748,0.059021603,-0.26094654,-0.032377344,0.030172361,-0.10159248,-0.22338064,0.116796926,-0.29169443,-0.010775405,0.20742942,0.0143123595,0.111198835,0.05792368,0.2408564,-0.19353208,-0.22622818,0.041942082,-0.18251331,0.17608117,0.14056884,-0.0086058695,-0.12448749,0.0356971,-0.25121555,-0.2676185,-0.080383144,0.28779763,0.19638982,0.1510068,-0.047793664,-0.1397513,0.23195945,-0.18050951,-0.12645017,0.022143202,0.017378256,0.4379352,-0.038919948,0.027294224,0.06628181,0.30986494,0.14571358,-0.4259922,0.310438,0.2917455,-0.39942545,-0.17563261,-0.2772957,0.12035058,0.21848834,-0.34277853,0.061959136,0.31327334,0.10418194,0.15408954,0.112240165,0.11075184,0.1542408,0.23736921,0.001678037,-0.0679004,-0.14188091,0.09691936,-0.11561556,-0.35546726,-0.023676915,-0.32002386,-0.01839113,0.23945476,0.048789922,-0.3398432,-0.36548403,-0.21209794,0.16979042,-0.17223303,0.17675157,0.25797886,0.09959185,0.046792146,-0.104122445,-0.12614717,-0.013805389,0.0041394155,0.053597096,0.079474695,0.10915804,0.13755241,0.00059888134,0.010612892,-0.27344012,0.19733253,0.20062704,0.017832628,0.012545356,0.01848147,0.1501256,-0.061979715,0.15449522,0.02233159,-0.16907786,0.2251024,0.2531758,0.16136125,-0.028344993,-0.33847326,0.06362348,-0.18473431,-0.09782658,-0.16061196,0.06348515,-0.14343448,0.12393999,0.104539685,0.053702664,-0.20588697,-0.022719648,0.0073450734,0.038210396,-0.2503813,-0.1573611,-0.25891766,-0.037138235,0.30549523,-0.034488324,0.1234658,-0.0392001,0.044384282,0.107759915,0.11204792,-0.12219043,-0.0021829205,0.0017959625,-0.02241177,-0.022814525
subsidiary,-0.110796995,0.05382849,0.16948502,0.03593354,-0.11386562,0.23614497,-0.16445242,-0.069655195,-0.275705,-0.045289326,0.046673354,0.43690586,0.12589557,0.05543387,0.013739258,-0.04572934,-0.09824225,0.42998925,-0.03528341,-0.0625662,0.23760678,-0.4641296,0.22241394,0.05741814,-0.34894508,-0.16193189,0.15038441,0.0641752,0.12817685,0.039350476,-0.082317464,-0.13686234,-0.38748372,-0.020486297,-0.047391854,0.02609134,0.019816536,-0.109974734,0.13549525,-0.18311009,0.16889977,0.19410546,-0.058747247,-0.080933675,0.01844589,0.36296713,0.042262208,0.25305146,-0.27472058,0.061914705,0.21542996,0.2228089,-0.003971439,-0.30620077,-0.11791024,-0.14376928,-0.10530775,-0.1493153,-0.08268114,0.17345506,-0.09997737,-0.144604,0.09909593,0.0053527495,-0.036177877,-0.006147794,-0.42623574,-0.24245708,0.14071167,0.11445457,0.033546437,0.027204137,-0.034980766,-0.06403582,0.07979349,0.10789504,-0.09096962,0.09936292,0.20077139,0.06485417,-0.05466241,-0.21047886,0.06327955,0.0143086,0.24930997,-0.09834497,0.29573464,-0.008640745,-0.14368634,0.14317903,0.20786363,0.08327459,0.1762236,-0.08300543,0.060524926,-0.06594091,0.17143638,-0.022985382,0.024126846,0.27463663,-0.09281421,-0.19851696,0.021201242,-0.05196106,-0.19459261,-0.101069815,-0.121268004,-0.22713539,0.05783665,0.005781937,0.18196543,0.24463703,-0.2743157,0.17112483,-0.123763636,0.03619269,-0.05399636,0.0063827625,-0.15599808,-0.033664152,-0.12442976,-0.17708798,-0.13185924,0.097378336,-0.036258787,-0.06357936,-0.13290475,-0.054695796,0.04229862,0.14930986,0.07467538,0.14778028,0.054719158,-0.034602236,-0.43764645,0.22547436,0.040080704,-0.17525874,0.24461448,0.014280029,-0.081057034,0.01906974,-0.093978174,-0.10308711,-0.28829628,-0.33912474,0.26711047,0.13050134,-0.23662865,-0.16296668,-0.24526894,-0.17253274,0.3908903,0.17343716,-0.013640372,0.20125647,0.20031394,0.1027239,0.1175429,0.1501843,-0.007225797,0.040071417,-0.25247306,-0.06887175,0.015213745,-0.06257324,0.22695138,-0.04232763,0.18835406,-0.19139253,-0.23042591,0.09547434,0.0067802486,-0.16639888,-0.09891161,0.05782949,0.083448276,-0.014996939,-0.0017235497,0.074194185,-0.05377796,-0.026469778,0.015977329,0.38703772,-0.104710326,0.03909183,0.041158736,-0.2550347,-0.06567324,-0.060783483,-0.29501057,0.24529044,-0.03355864,-0.1811266,-0.01667718,0.3365146,0.13076521,0.2088363,0.15102337,-0.1312455,0.4065713,0.057907768,0.059209086,-0.44777465,-0.36055925,0.08124557,-0.23354061,0.10183973,-0.16057424,0.04231013,0.0472842,-0.22589104,0.08233521,0.31552956,-0.18476555,-0.38788855,-0.21139613,0.37881714,0.3234225,-0.30970865,-0.16570458,-0.13247654,0.15557648,-0.10911484,-0.0162115,0.10799507,0.37571615,-0.17322513,0.3200112,-0.08728709,0.09260591,-0.018651873,0.08514956,-0.22999878,-0.2066017,0.33881953,0.12959051,0.018513262,-0.013905448,0.11097459,0.015573395,0.12645051,0.20165429,-0.0062684286,0.5119018,-0.120957635,0.4881313,0.012466164,0.029489692,0.17451966,0.14199997,-0.010180265,0.08962664,-0.15288353,-0.14376973,0.05082263,-0.13370529,0.001677148,0.19133268,0.23736124,-0.31740725,-0.18108639,-0.11792718,0.14638555,0.26520708,-0.028156612,0.07592652,-0.18436046,0.04065408,0.051270973,0.18079902,-0.03796498,-0.18920061,0.20513046,0.3424046,-0.28425795,-0.2806119,0.405345,-0.05231386,-0.050163157,-0.06332051,-0.20212136,-0.122498386,0.037523255,0.0025597257,-0.057815406,0.09718941,0.48264575,0.20509632,0.32613853,0.29184523,0.2637149,-0.14319447,0.2082469,-0.11990618,-0.26518533,-0.16164117,0.4006068,-0.08950936,0.048938233,-0.44027096,0.03549766,-0.15269518,-0.23562701,0.18576363,0.104792155,-0.008083248,-0.024660751,0.06729518,-0.041597523,0.13794453,-0.10498284,-0.0712074,-0.12787935,-0.038870707,-0.1481551,-0.0993777,-0.01679358,-0.36750308,0.26799944,-0.077639446,0.17232133,-0.2178448,0.14308292,-0.087457456,-0.33742636,0.024681333,0.123941906,0.09850915,-0.3764714,-0.28327075,0.09436408,0.0630401,-0.01671772,-0.37702286,0.26986745,-0.19215982,-0.2471553,0.09246877,0.26161492,-0.29904065,0.20043801,0.14725572,-0.27762017,-0.27493346,0.3730088,0.005656829,-0.060073644,0.11414172,0.0297934,-0.05399124,-0.0026070322,-0.10527474,0.2549459,-0.0701635,0.24965052,-0.10526531,0.3805319,0.013165476,0.13926591,0.16647932,-0.12686957,-0.05225191,0.010878969,0.008543038,0.030163014,0.10007796,0.20385493,-0.06789513,-0.1068674,-0.096316256,-0.18311729,-0.15980867,0.05361905,0.15360668,0.34488693,0.18820398,-0.06517393,0.016556721,0.08436197,-0.004004799,0.0032933992,0.13472681,0.1325974,-0.35900095,0.32624996,-0.27001435,-0.054786447,0.14935458,-0.093552634,-0.2295955,-0.035876364,-0.09926012,0.28046757,-0.024166912,-0.20742352,0.28011933,0.011305354,0.00019513757,-0.36048383
team,-0.060149692,0.13832973,-0.112768024,0.2920517,0.21725118,0.0066798558,-0.067357235,-0.11002152,-0.051875986,-0.14433758,-0.13493562,-0.001223248,-0.37278292,0.2107681,-0.19021577,-0.33050877,-0.2070771,0.094092436,0.47065976,-0.1488689,0.0816713,0.093380086,0.074514836,-0.28843638,0.24686497,0.16847318,-0.11870243,0.1709902,-0.07617432,0.26928028,0.15264243,0.18217048,-0.019762553,0.06139509,0.030861435,-0.029092422,0.07126179,-0.24140407,-0.13686883,-0.06554951,0.03988719,-0.014498697,0.04659827,-0.14156987,0.01705549,-0.033081092,-0.0724421,0.06170626,-0.14130028,-0.12896557,0.033630583,0.39037246,0.013798464,-0.12751336,0.20606005,0.054349117,-0.3362366,0.2156564,-0.3824263,0.16068621,-0.27412903,0.26948562,0.035090823,0.008428513,-0.15275724,0.07226014,0.08825643,0.08403429,-0.028942138,-0.07897357,0.49528205,0.19138297,-0.10293601,0.17004211,0.25521377,0.076472,-0.07112754,-0.0067612515,-0.1761423,0.14258221,-0.14181025,0.1412483,-0.28943092,-0.02824629,-0.14952116,0.036246173,-0.08209799,-0.0985499,-0.27291188,0.016330002,0.46524087,-0.0672794,0.035621583,0.06141289,-0.21947505,0.27411488,0.18147616,0.24714251,-0.051100522,-0.13668987,0.46380687,0.21743742,0.1348511,0.028833954,-0.10692663,-0.19858004,0.0897091,0.06785019,0.009427961,0.43479034,0.29527816,-0.28542078,0.104837544,-0.14485525,-0.22434394,-0.10803379,0.1412786,-0.0862838,-0.09306832,0.23581225,0.16330647,0.09691655,0.07396042,0.0010080731,0.20672464,0.15464745,-0.027920308,-0.11284717,-0.34920517,-0.02114633,0.0025748233,0.27262932,0.054069433,0.13430199,0.0056709168,-0.009691933,-0.036415935,0.16807674,0.17580253,-0.015767166,-0.10810929,0.2334605,-0.050554875,0.112775,-0.08170543,-0.1421199,-0.13636711,-0.028100237,-0.013885352,-0.27199376,0.048670553,0.09237563,0.1832049,0.095085,0.21477567,0.26625484,0.29838458,-0.3770083,-0.156312,0.076654874,0.09341489,0.084834404,0.02617627,0.039300468,-0.3140351,-0.08138198,0.30842644,-0.09200113,0.2916213,0.12816702,-0.36585373,-0.102765016,-0.25644264,0.026798364,-0.18631014,0.10727374,0.06894271,-0.2336998,-0.010820799,0.14509967,-0.32238215,-0.15526354,-0.19446082,0.17852032,0.14937137,0.0812002,0.063775145,-0.18427247,-0.090297714,0.073035754,-0.08809425,-0.015647968,0.023736602,-0.16163445,0.27911824,0.045771223,-0.22064626,-0.10255231,0.22548226,-0.25124252,-0.020391459,0.009385729,0.051042892,0.2940136,-0.11834403,-0.19050467,0.11331683,0.017051471,-0.1286165,0.23278277,0.27123857,0.07516977,0.13368379,0.08126817,-0.26851076,0.08918149,0.026295105,0.19926071,0.11525012,-0.033419117,-0.13240379,-0.06472273,-0.049818225,0.05665605,-0.008800625,-0.09214743,-0.18873186,0.031171199,0.42120498,0.3592266,0.16684349,-0.2112612,-0.05534866,-0.13778467,0.085815795,-0.0615565,0.15780272,-0.12611608,-0.38889816,-0.1023325,0.17242476,0.06967366,0.103211455,-0.04580415,-0.049308695,-0.51151067,0.046253573,0.27115783,0.12420039,0.058440715,0.14398253,0.041053154,0.2949103,0.076773986,-0.20773451,-0.15977259,0.14318785,0.09399485,0.15835159,-0.34464484,-0.015039881,-0.011449071,-0.027898243,0.06242922,0.07961009,-0.06395313,0.21009552,0.013024728,0.17759544,0.008050874,-0.14763092,-0.09623915,0.37901303,0.29676846,0.029377023,0.13395457,-0.3608791,-0.18502024,0.06718139,0.026890608,-0.2823766,-0.1828472,-0.11112859,-0.08892071,0.31998876,-0.21328026,0.13724007,0.08274822,-0.28852016,-0.0041842195,0.29042304,-0.1361828,0.090829976,-0.034121487,-0.127104,0.0053694397,0.23879582,0.35684863,-0.13245158,-0.29631555,-0.024428416,-0.02339985,0.17150033,-0.28522837,0.12572514,-0.14882867,0.13462456,0.45220304,0.18106021,-0.37337267,-0.1147922,-0.043974124,0.0028281882,-0.11274092,0.17595601,-0.16124362,-0.23767313,0.07778113,0.25341162,-0.18054326,-0.3678247,-0.19874842,-0.0017415258,0.23314224,-0.0011305426,0.0691754,-0.14278644,-0.03222539,0.25918913,0.037287526,0.15215841,0.121295005,0.55999565,0.013968485,-0.08540221,0.029647993,0.2610089,0.090667985,-0.072627164,-0.112491876,0.07375718,0.049415417,-0.10702916,-0.12464553,-0.06495108,-0.052907154,-0.25074664,-0.1661101,0.03005684,-0.047239996,0.09147346,-0.05349769,0.26030383,-0.14767803,0.17242636,-0.124511346,-0.2036674,-0.153921,-0.0058133705,0.16712636,0.3502954,-0.10585411,-0.17720467,-0.15649928,0.0900914,0.12915859,0.22085541,0.3520411,-0.020359036,0.024471302,0.05057953,0.10683617,0.2425854,0.2653556,-0.11375979,-0.03306973,-0.06736913,0.055225816,0.26656806,-0.052039087,0.06990102,-0.07273179,0.11388487,0.08206525,-0.09405527,0.25280207,-0.020599209,-0.040342625,-0.32117137,0.030634463,-0.04043912,-0.3811627,-0.009171609,0.104485594,-0.20693596,-0.22325252,-0.17479633,-0.13282244,-0.028784614,-0.11859071
