,0,1,2,3,4,5,6,7,8,9,10,11,12,13,14,15,16,17,18,19,20,21,22,23,24,25,26,27,28,29,30,31,32,33,34,35,36,37,38,39,40,41,42,43,44,45,46,47,48,49,50,51,52,53,54,55,56,57,58,59,60,61,62,63,64,65,66,67,68,69,70,71,72,73,74,75,76,77,78,79,80,81,82,83,84,85,86,87,88,89,90,91,92,93,94,95,96,97,98,99
1634:_The_Ram_Rebellion,0.0013800982,0.095090665,0.053460676,-0.027677381,0.052294683,-0.07715254,0.013298188,-0.09442588,0.055575494,0.09002835,0.08870722,-0.08142909,0.12570791,0.03479964,0.10932377,-0.06644526,-0.031329423,0.060037214,-0.026766531,0.06814621,0.014339345,-0.09283634,-0.113809854,0.11942294,-0.026649825,-0.06853574,0.14337532,0.074349105,-0.08120577,0.050896447,0.006461189,-0.06921045,-0.017926296,-0.07624154,0.06463315,-0.12828158,0.08863736,-0.112295784,-0.11565622,0.12176877,0.05355349,-0.012141066,-0.03682045,0.036504086,-0.08963504,-0.12018266,-0.012238107,-0.12528123,-0.10212196,-0.12610532,-0.036739126,0.096147574,0.09880433,-0.099959455,-0.028255245,0.04752676,-0.038122486,0.044887718,-0.090740025,0.08916393,0.09505221,-0.14980294,0.08503857,0.04067652,-0.051084515,-0.08038319,-0.020922203,0.11530391,-0.09547679,-0.08734942,-0.059099574,-0.08303863,0.048424847,-0.093586855,0.022251857,-0.1747815,0.061799295,-0.07172767,0.10501021,0.12775876,0.02077002,0.08620499,-0.08107822,0.10329195,0.0722383,0.12368511,0.01816414,-0.1501582,-0.032325987,0.110876605,0.085669376,-0.040844895,-0.07708169,-0.12284922,0.1376732,0.022569306,0.056916494,-0.024672028,-0.1253443,0.10596823
1635:_The_Cannon_Law,0.054352503,0.07756487,-0.019194916,0.030863851,0.129612,-0.018252252,0.08232124,-0.014405789,0.114411145,0.11450421,-0.046246592,-0.116541535,0.08616808,0.11385834,0.008825157,0.039094698,-0.10083297,0.010761118,-0.023640685,0.086595625,0.08756694,-0.14229278,-0.10555062,-0.020888634,0.124275446,-0.09180889,0.098148875,0.105704606,-0.10424091,0.010724409,0.12321966,-0.10179487,-0.10139358,0.0053921617,0.07965064,0.025925364,-0.05265318,-0.05788017,-0.08247292,0.0131094465,0.022704499,-0.08601266,0.0024243835,0.05647363,-0.037093572,-0.07583722,0.0060568843,-0.094808504,-0.12649527,-0.17520264,-0.04725664,0.05933216,-0.0006920018,0.037940055,-0.07025385,0.014179488,-0.072259896,0.006957791,-0.07016245,0.088413686,0.013668798,-0.07727818,0.034963664,0.07334329,-0.06717082,-0.09438858,-0.08231739,-0.014353253,0.002612852,-0.06724002,0.023020359,-0.10190257,0.007614669,0.0084356675,0.07751228,-0.06259586,0.096670434,-0.06018233,0.110173024,0.1304423,0.106000364,0.045950152,-0.17515695,0.006713828,0.042936645,0.040013567,0.102981284,-0.06817566,0.008420653,0.043746904,0.015362984,-0.21106645,-0.100581266,-0.120359816,0.12362089,0.043672126,0.022407813,-0.04348557,-0.09669127,0.053652264
2012_(film),0.023327552,0.038861714,0.02592584,0.06329781,0.018793836,-0.013425596,0.12581773,-0.0342027,0.06338318,0.0061029396,0.020645099,-0.022534387,0.09673386,0.095239714,0.060645927,-0.002506023,-0.0008403041,-0.016582973,-0.11928055,0.021468144,0.030534906,-0.014108172,-0.012615824,0.06980884,0.03877511,0.0121581005,0.05860966,0.02885667,-0.058449935,0.014161666,0.017480507,-0.012642289,0.032095812,-0.03992785,0.06890405,-0.05040182,0.0019276298,-0.013322416,-0.011869208,0.09298829,0.08903899,0.006353766,-0.017538084,-8.415744e-06,-0.05599056,-0.08597708,0.022963792,-0.08047008,-0.009195261,-0.07809944,-0.03271315,0.014324502,0.07504153,-0.009725625,-0.039460905,0.09806222,-0.040991385,0.0181943,-0.08738008,0.08788707,0.025687544,-0.052195396,0.05773264,0.05421787,-0.09722533,-0.061935134,-0.052525017,0.106217586,-0.02320844,-0.08028463,0.05990117,-0.06796204,-0.0026617001,-0.03230298,0.078542896,-0.049490064,-0.01224807,0.013326978,0.024980225,0.021581147,0.055669595,0.014006605,-0.07387852,0.044328045,0.040601596,-0.039289072,0.080823936,-0.076916575,0.022406489,0.021339733,-0.0062185284,-0.04834113,-0.053148754,-0.03849249,0.021291457,0.028298447,-0.037311397,-0.015835403,-0.09067932,0.07886382
334,-0.033340733,0.09284584,0.15932362,0.07120659,0.0780483,-0.0012139659,0.11414026,-0.081766255,0.02306257,0.119231746,0.0070952857,-0.12901299,-0.0016013079,0.085491985,0.017509893,0.037913654,-0.105337866,0.023480088,-0.083088264,0.019776992,0.09437134,-0.092537805,-0.014902007,0.017923279,0.0022303332,-0.055188198,0.012503682,0.070317395,0.0005302711,0.12782851,0.14824182,-0.08322364,-0.012251514,-0.040958703,-0.010657655,-0.11096926,-0.04754424,-0.117386185,-0.12891372,0.08735151,0.10250351,-0.1214428,-0.019385898,0.09840699,-0.03261949,-0.1852801,0.11674265,-0.005928017,-0.08556006,-0.06346463,0.02805582,0.045113046,0.18842301,-0.13995935,-0.09806398,-0.026218403,-0.17518382,0.15932795,-0.0807954,0.0631253,-0.013150093,-0.040205304,0.04555749,0.08754887,-0.008902354,-0.027667752,-0.100008175,0.03930009,-0.123341195,0.0013103076,-0.012825901,-0.13167441,0.01906584,-0.015114634,0.061743133,-0.15234269,0.07904102,-0.058324534,0.004800923,0.13108718,0.0880146,0.11165828,0.046036817,0.06717902,0.00012780508,0.14906988,0.10546282,-0.039335284,-0.0063414914,-0.011590329,0.055981584,0.00011673386,-0.01792579,-0.048014432,0.094832405,0.070192985,0.00925544,0.040320743,0.033072677,0.098099515
360Commerce,0.043318536,0.1277412,0.021203268,0.1519107,-0.060064524,-0.015448888,0.081877455,-0.17417999,0.0709527,0.06381436,0.019539993,-0.07474,0.013753929,0.10470568,0.097991906,0.036506634,-0.11261575,0.06603542,-0.13925463,0.06904965,0.05192066,-0.08973371,-0.101603776,0.08466391,0.101300344,-0.06534074,0.11763914,0.029369794,-0.06690183,-0.05971447,0.07745033,0.003387648,0.02736989,-0.11046438,0.0701654,-0.08766172,0.082926385,-0.05450631,-0.04774214,0.086692855,0.07940553,-0.04259239,-0.025435172,0.0138398325,0.05301301,-0.060904697,0.12363851,-0.09062705,-0.11289178,-0.066387035,-0.15905504,0.075978,0.005132375,-0.045360483,-0.022158131,0.07555455,-0.075927526,-0.009909327,-0.080100745,0.13199398,0.06081931,-0.041844014,0.1462004,0.030583523,-0.09761981,0.005643133,-0.1301934,0.10187323,-0.08583664,0.017723553,-0.000948541,-0.12514113,-0.05394655,-0.033562638,0.0871273,-0.10828341,0.02413103,-0.0857814,0.0007688941,0.0382049,0.029396482,0.039539788,-0.0037581325,0.11134839,0.085603304,0.08939817,-0.0005165591,-0.041404273,0.05496888,0.10767017,0.08118917,-0.09980702,-0.1247997,-0.09044763,0.052581847,0.14899114,0.101067536,0.05889033,-0.116542354,0.07384185
A._E._van_Vogt,0.038217433,0.04250257,0.070794486,0.053709578,-0.029546175,-0.08901855,0.105259426,-0.0089749945,0.07380009,0.018861407,-0.0053750826,-0.04847832,0.055776928,0.0690849,0.035558216,0.0228043,-0.07190823,0.08832013,-0.054640915,0.05687723,-0.012737192,-0.08331121,-0.0636855,0.056726813,0.030705012,0.007608582,0.03049223,0.051820222,-0.097020276,-0.013287585,0.0916681,-0.008633107,0.0041831485,-0.009546162,0.09544242,-0.045019332,-0.026834924,-0.07476961,-0.13730825,0.07569582,0.066971265,-0.04816974,-0.049816817,-0.01868125,-0.021309482,-0.051284265,0.092836544,-0.07287183,-0.11470717,-0.104967035,-0.053950008,0.06387203,0.02807889,-0.042429402,-0.075140715,-0.0077592707,-0.018651094,0.0450998,-0.013737833,0.0862855,0.0878193,-0.046213433,-0.020551031,0.012273479,-0.09914559,-0.055327132,-0.09867231,-0.006015819,-0.014102416,-0.073701024,-0.041173678,0.02122471,-0.00054150773,-0.03844734,0.102998935,-0.012995679,0.013839978,0.003288105,0.061658066,0.07012358,0.024149869,0.09885972,-0.005406915,0.031933576,0.091826454,0.08562179,0.054148875,-0.0026846942,0.04011074,0.034109946,0.044395093,-0.03889354,-0.06962418,-0.03763265,0.037691724,-0.015518472,0.023899263,-0.04888375,-0.09248933,0.042210862
ABC_Family_Worldwide_Inc.,0.056276478,0.08766702,0.054233294,0.05534335,-0.055469,-0.06943303,0.059250657,-0.06648101,0.07403048,0.024169309,-0.04537765,-0.010621008,0.069636226,0.1008641,0.13207492,0.01691829,-0.08204767,0.10128888,0.0032094982,0.055550806,0.105482005,-0.090738475,-0.10432289,0.011302265,0.09311727,-0.024765294,0.03273954,0.09094587,-0.05605929,0.040424343,0.009964169,-0.079302914,-0.056482926,-0.038389172,0.04313076,-0.03289587,-0.006770071,-0.037921403,-0.13117346,0.069546446,0.052131712,0.0016900833,0.018977204,0.06284896,0.0137196,-0.06696335,0.043313522,-0.046035107,-0.11510437,-0.07151442,-0.073401935,0.008707404,0.060731243,-0.061152633,-0.048973273,0.08648167,-0.050710615,-0.004166742,-0.00036344593,0.09136891,0.037249476,-0.03465423,0.05644054,0.008720717,-0.016139643,-0.07971855,-0.09532429,0.039000165,-0.019867696,-0.01812347,-0.016714016,-0.083872914,0.04805164,-0.040905807,0.038890377,-0.11689194,0.024401931,-0.0048838756,0.029110761,0.09256369,0.051366456,0.103268586,-0.0010183481,0.038018215,0.018349824,0.096058115,0.06878782,0.013873126,-0.011924827,0.03838276,0.015011594,-0.031824507,-0.056359023,-0.049771883,0.03549742,-0.030298281,0.045176003,-0.053134285,-0.054538757,0.048169162
ADC_Telecommunications,0.04000992,0.047262523,0.07955979,0.086850196,-0.028938293,-0.07121042,0.094291255,-0.08549398,0.049673557,0.017657617,0.043903578,-0.040650073,0.033269204,0.09812866,0.029070627,0.028509477,-0.06806376,0.098731205,-0.07325958,0.055950265,0.1030192,-0.09617967,-0.060116872,0.06879481,-0.012493069,0.011740253,0.02884492,0.086994685,-0.06960877,0.0009241019,0.109668285,-0.00059832085,0.015492896,-0.106473505,0.08385017,-0.06689451,0.005180141,0.018573599,-0.1175375,0.06516842,0.07826678,0.017125133,0.01595962,0.0061263167,-0.02092452,-0.060289744,0.073635474,-0.05524071,-0.052673515,-0.09999616,-0.06338305,0.055797406,-0.0100311395,-0.039497957,-0.033053193,0.09086177,-0.08659291,0.015119206,-0.009058195,0.09530876,0.08740642,-0.040240634,0.08274325,0.035895884,-0.05163611,-0.09417552,-0.051396865,0.06378276,-0.012160996,-0.03761874,-0.022477444,-0.07003165,0.048805423,-0.03230237,0.08970598,-0.06673132,0.019211302,0.0048785964,0.045269504,0.1116339,0.060762152,0.058295555,-0.007223522,0.066538505,-0.0077287527,0.07293374,0.04779809,-0.048838954,-0.068976514,0.035197128,-0.008645647,-0.03578134,-0.076997384,-0.051050328,0.03338892,-0.009383049,-0.06882764,-0.035179455,-0.09815382,0.040827118
AOL,0.03889067,0.049331337,0.07123947,0.09598182,-0.04825588,-0.041497994,0.031757,-0.06953678,0.011826571,0.017601313,0.076217,-0.027481457,0.07323764,0.042124208,0.13927509,0.005768952,-0.11338109,0.08099152,-0.13099371,0.061094824,0.0430951,-0.050197586,-0.02752006,0.06688817,-0.014489338,0.007962738,0.040944062,0.072851405,-0.042054165,0.06529582,0.048441533,-0.050634418,0.014181441,-0.060945123,0.107876055,-0.03633258,-0.021518774,-0.006117214,-0.040861975,0.09666075,0.05710056,-0.007837494,0.030851232,-0.003036998,-0.0046948553,-0.08130367,0.08271897,-0.039712697,-0.04257782,-0.09853184,-0.018828442,-0.008019446,0.09229822,-0.030312186,-0.048676513,0.0906644,-0.033855963,0.018151466,-0.10100266,0.02378472,0.02190027,-0.023069488,0.073737614,0.000759089,0.024361204,-0.079316124,-0.09298356,0.06585881,-0.04932068,0.03462666,-0.056695458,-0.013536077,0.0365576,-0.05962988,0.09088217,-0.08586043,-0.045572367,-0.00017602404,0.062280815,0.022159208,0.018073114,0.019976584,-0.020063369,0.03716229,-0.022847876,0.02460548,0.051321223,-0.027634135,-0.028318454,0.07171089,0.037847806,-0.04529432,-0.05168325,-0.067876704,0.037114657,-0.030974437,0.036749825,-0.029028494,0.0038943547,0.007054569
A_Calculus_of_Angels,0.12756291,0.14296393,0.07885588,0.03173026,0.11827554,-0.013537595,0.11180112,-0.058930557,0.06002424,0.1319521,0.025123164,-0.07630572,0.1549511,0.036004502,-0.013819508,-0.06459939,-0.11275247,0.07657404,-0.10262296,0.115859784,0.04515232,-0.10218043,-0.027226148,-0.045494486,0.050488144,-0.11634983,0.009049625,0.04114846,-0.10995313,0.09911856,0.05790377,-0.049496178,-0.019585365,0.024679333,0.12291012,-0.06453568,-0.097773865,-0.10614415,-0.0696542,-0.022695232,0.10445382,-0.12968126,-0.013069316,0.055541936,-0.013930908,-0.071606584,0.16918185,-0.1233544,-0.078173675,-0.14618482,-0.08948069,0.058354735,0.12337653,0.017905977,-0.12990025,-0.0015473652,-0.11166311,0.029399518,-0.1346585,0.06789527,0.015481587,-0.13855608,0.088787146,0.014081538,-0.0079026325,-0.073940046,-0.041100282,0.11874545,-0.15503544,-0.04954155,-0.06626288,-0.01714588,0.027684068,0.01817948,0.0021726652,-0.05187326,0.0051937466,-0.059465807,0.12371934,0.08345234,0.08645762,0.056021784,-0.1774867,0.050205898,0.07328173,0.0051784758,0.12659512,-0.05977382,0.02125171,-0.033614498,0.09713259,0.04197908,-0.0054349815,-0.13312589,0.073473774,-0.045023896,-0.047289334,-0.14438803,-0.04179762,0.1092341
A_Canticle_for_Leibowitz,0.06650937,0.09324435,0.13575618,0.16578254,0.08637983,-0.0073445044,0.09089664,0.006782047,0.06865638,0.07144467,0.12084108,0.026594289,-0.0036938046,0.0044747507,0.07432362,-0.023835555,-0.058283392,-0.02067239,-0.07352987,0.11015202,0.013573962,-0.099559605,-0.14344977,-0.05501893,0.08649664,-0.0024597228,0.1013778,0.07773287,-0.09111182,0.05336988,0.07669286,-0.022546377,0.023249472,-0.06890669,0.09100103,-0.06379311,0.01203138,-0.08255737,-0.008786098,0.12949511,0.049261853,-0.061053067,0.029838512,0.071397655,-0.06368758,0.025764886,-0.005033642,-0.11980263,-0.1115838,-0.102217294,-0.072467156,0.05544,0.14707819,-0.09108812,-0.06797984,-0.010779065,-0.056466617,-0.036614608,-0.10937899,0.051266637,0.11780011,0.04437624,0.06315702,0.14439936,-0.04948915,-0.057956167,-0.06753863,0.027995113,0.0060384395,-0.059580676,0.12203653,-0.064437464,0.04992769,-0.003064582,0.12778866,-0.13363574,0.1230862,-0.08595454,0.052312642,0.0915781,0.10530978,0.08487008,-0.18347414,0.08170711,0.14661406,0.12919831,0.09155421,-0.1441431,-0.04277391,0.07322592,0.042288583,0.019491885,-0.071688004,-0.07443745,0.10600484,0.02466691,0.039692346,-0.049307186,-0.07415933,0.09932444
A_Connecticut_Yankee_in_King_Arthur's_Court,-0.011262322,0.11460633,0.08393339,0.02501213,-0.009485973,0.016183935,0.10245731,0.026919378,0.14159434,0.00922439,0.028961334,-0.10555604,0.17190252,0.11132476,0.029613411,-0.010486687,-0.075628266,0.01610346,-0.013837067,0.05143769,0.06490638,-0.1060126,-0.1105749,0.119920656,0.06351161,0.051375885,0.1567862,0.09449125,-0.13363224,0.031792555,0.13395019,-0.038155332,0.028760394,-0.05205543,0.05438329,-0.14553125,-0.06536932,-0.13531397,-0.12654449,0.09827887,-0.018246692,-0.07519383,0.019941494,-0.05893199,0.0006760651,0.00639347,0.05128689,-0.11091482,-0.10612914,0.0036187787,-0.013354992,0.061662335,0.09932952,-0.038061637,-0.0073826797,-0.023042828,-0.1087699,-0.0046041207,-0.12732151,0.048525326,-0.02893299,-0.12541024,0.25237307,0.080623895,0.008234381,-0.107840724,-0.10033582,0.0058649518,-0.005075399,-0.031056581,-0.037580714,-0.10183733,0.03444345,-0.065360986,0.16585279,-0.0747003,0.1439648,-0.039934155,0.09149774,-0.021401579,0.08725867,0.09865591,-0.11747532,0.07513051,0.106462955,0.06752263,0.0858948,-0.045695562,-0.026714096,0.111141056,0.038429335,-0.19062376,-0.06989053,-0.029954638,0.1413,-0.09684434,0.020922353,-0.046724673,-0.002965938,-0.021145446
A_Deepness_in_the_Sky,-0.01061964,0.15069051,0.12944947,0.051040996,0.10424429,0.0058037904,0.0703773,0.0075113936,0.06547634,0.10089283,0.028296648,-0.08516401,-0.0132886,0.079916835,0.027525797,0.0027460856,-0.13805309,0.037041754,-0.0874687,0.11182285,0.05620256,-0.08968784,-0.10135743,0.13869059,0.08665459,-0.05305,0.10914501,0.07642346,-0.009989062,0.003304619,0.07071145,-0.069381185,0.034970522,-0.12450947,0.09988824,-0.100707754,-0.06772747,-0.13229628,-0.122312106,0.045898445,0.048519608,-0.070367925,0.051959645,-0.012954853,-0.0678548,-0.08140095,0.08849669,-0.07676966,-0.061040778,-0.09172532,-0.030470727,0.09847609,0.11458836,-0.011257956,-0.11569347,0.0024460475,-0.033824395,-0.042643856,-0.092103064,0.084044375,-0.021415634,-0.09834412,0.053090643,0.11898795,0.0012817028,-0.088906735,-0.1047771,0.080443844,-0.07489211,-0.11488503,0.05940876,-0.052638583,0.05463961,-0.08302099,0.07315037,-0.06140802,0.055767268,-0.052514184,0.12694447,0.08392308,0.09631968,0.05255071,-0.11769759,0.04382197,0.06933874,0.12373417,0.05510271,-0.033538207,-0.044038605,0.16785932,0.1376917,-0.097427286,-0.13125671,-0.062555306,0.11870044,0.046103306,0.02274165,-0.03914982,-0.0381084,0.0587366
A_Door_into_Ocean,-0.015347545,0.119384356,0.11945909,0.017372308,0.038654696,-0.03532559,0.047278624,0.019456657,0.050151303,0.006516359,0.09340194,-0.10754711,0.031578418,0.09335363,0.0011604121,-0.021969318,-0.13002385,0.017638074,-0.023655899,0.10310393,0.0248455,-0.06788505,-0.03376312,0.09747093,0.15312855,-0.14791404,-0.009543531,0.06109066,-0.076822415,0.028393662,0.063029006,-0.07957229,0.023291346,0.01847157,0.12103294,-0.102380484,-0.049154278,-0.027532473,-0.09272634,0.03601074,-0.0082361195,-0.061948616,-0.0018792122,-0.0011600773,-0.01849849,-0.098748,0.0073080687,-0.15855539,-0.03810601,-0.07859797,-0.008562742,0.121245846,0.12217621,0.023281585,-0.06662939,0.01593546,-0.12644093,-0.016099973,-0.14279559,0.007567427,0.13073616,-0.0022912805,0.04689736,0.06597565,-0.0070248777,-0.066525936,-0.092052035,0.07950259,-0.027221583,-0.07044537,0.12253478,-0.14962877,0.003295477,-0.08875443,0.12953645,-0.026315419,0.044855833,-0.025039531,0.04233044,0.101228304,0.04442535,0.049760625,-0.1465816,0.038347308,0.08283133,0.121172935,0.0048725,-0.0007898047,0.030825727,-6.211793e-05,-0.07629947,-0.082935564,-0.09864361,-0.044361398,0.01489635,0.07972085,0.10407229,-0.04293172,-0.093389705,0.0061979746
A_Hard_Day's_Night_(film),0.04980038,0.0433864,0.02807513,0.060780015,0.0768903,-0.03671453,0.12018539,-0.05627208,-0.010657791,0.015105884,0.106629506,-0.024658319,0.095950015,0.083059885,0.10968788,-0.0137600275,-0.045183524,0.0893785,-0.11030338,0.018021446,0.025670247,-0.06998001,-0.03570958,0.11769638,0.017864453,-0.030861562,0.02710058,0.0007810138,-0.049346913,-0.00961601,0.073453285,-0.0053389873,-0.045662984,-0.072341844,0.031553727,-0.030537618,-0.00093354797,-0.09787865,0.02061941,0.027953833,0.051914092,-0.010086103,-0.0063867904,0.044539686,-0.04461108,-0.07337677,0.037356537,-0.06266838,-0.04899271,-0.08541491,-0.088618435,0.018827243,0.08718715,-0.050769314,-0.03677349,0.10334,-0.0018957731,0.0150893945,-0.087901965,0.042111646,0.002184195,-0.018999524,0.026170895,0.033910494,0.009506998,-0.04035363,-0.0066471254,0.0956612,-0.021978926,-0.07241163,0.0126596615,-0.09804152,0.059504043,-0.032731187,0.004398357,-0.109388575,0.02949769,-0.06511261,0.038429253,-0.005622293,-0.0068114237,0.10726786,-0.006532669,0.034696713,0.09782533,-0.033811647,0.06439257,0.043127913,0.026469203,0.03395182,0.039544318,-0.06187026,-0.05322011,-0.08744076,0.032981515,-0.021770492,-0.021566622,-0.009638797,0.026500106,0.0044156834
A_Time_of_Changes,0.025574481,0.08842357,0.13137051,0.1434678,0.09254013,0.00925947,0.077333584,-0.02558406,0.06962383,0.08808104,0.022598581,-0.059751008,0.06943348,0.011006862,0.017740196,0.026644066,-0.10769404,0.034890093,-0.08843082,0.019913092,0.08343942,-0.10224121,-0.0049817604,0.02967542,0.029753806,-0.033264313,0.20146748,0.071583495,-0.09524118,-0.032222554,0.094645634,-0.027762527,0.054375526,-0.047730647,0.050392207,-0.1126599,-0.025429547,-0.04544111,-0.019463755,-0.020154381,0.029556258,-0.08968196,-0.0345488,0.01548381,-0.15066548,-0.13506755,0.06086165,-0.07609183,-0.10056744,-0.11239637,-0.04571257,0.09950258,0.11614297,-0.09641864,-0.113700025,-0.009815345,-0.016214764,-0.008167006,-0.059128195,0.0899409,0.020917932,-0.113124505,0.077120006,-0.041394718,-0.029661577,-0.013643018,-0.09345474,0.075059615,-0.020716593,-0.020470938,0.014817041,-0.14863437,-0.03330691,-0.041842643,0.047821302,-0.108367585,0.2118624,-0.03720926,0.069169,0.034235757,0.09772941,0.055456214,-0.16542031,0.082573004,0.13778336,0.1533238,-0.056890022,-0.124803424,-0.0061080493,-0.031718925,0.06258434,-0.008087676,-0.0056288606,-0.12128422,0.01284988,0.095561095,0.08770652,-0.04061425,-0.08967233,0.0646006
Aaryn_Doyle,0.124520585,0.09189163,0.11692118,0.15405606,0.050580077,-0.10490598,-0.016270196,-0.107895605,0.044026643,0.0858051,0.031532343,-0.071213715,0.059683602,0.04518568,0.061701432,-0.010243902,-0.08682712,0.038316574,-0.04256576,0.1277457,-0.0019672427,-0.017355105,-0.08027522,0.11632527,0.105793335,-0.033758335,0.027957855,0.034872543,-0.07237227,0.103367664,0.0591551,0.031253405,0.09475994,-0.01219426,0.03714343,-0.021793218,-0.12965465,-0.11207861,-0.035776626,0.034497302,0.035223607,-0.035487793,-0.0069078053,0.05185487,0.0056949332,-0.12283403,0.10443949,-0.108804286,-0.11220993,-0.065186135,-0.10930316,0.042072594,0.08644004,-0.014917242,-0.11805695,0.041251514,-0.04151051,0.078225926,-0.0550148,0.105570346,0.04552471,-0.13432243,0.14329007,0.15282565,-0.07599695,-0.1274833,-0.054917905,0.049157582,-0.058255143,-0.10967137,-0.21080446,-0.10387324,0.043947678,-0.17248961,0.051957536,-0.10525541,0.049879048,0.038686022,0.11059917,0.06734443,0.08561772,-0.010825374,0.00653693,0.033045396,0.08276543,-0.011961143,0.04004346,-0.1116193,-0.045104615,0.026702628,0.037945203,-0.09774499,-0.11425448,-0.033713065,0.0755724,-0.0017001025,0.010333776,-0.09380093,-0.09938991,0.047585495
Aarón_Díaz,0.0315766,0.03898859,0.042189527,0.05809696,0.021518322,-0.06484473,0.13160697,-0.10896351,2.7013675e-05,0.015170233,-0.0015406411,-0.053463977,0.030656781,0.11038841,-0.014994957,0.014281028,-0.05133684,-0.03814006,-0.116758026,0.07425903,0.083420835,-0.080282554,0.008326789,0.100695856,0.12407308,0.018634189,0.089138694,0.08793032,-0.045924664,-0.015166395,0.11385363,-0.046009272,0.049452186,-0.039677184,0.0055306978,-0.05050593,-0.0026236228,-0.11515132,-0.083389625,0.08380878,0.053773135,-0.00094167265,0.025666373,-0.02352534,-0.030596668,-0.048518654,0.092151195,-0.06908567,-0.04194558,-0.0703113,-0.103162326,0.055949267,0.07064692,0.023296619,-0.07518303,0.078061424,-0.022291726,0.016395636,0.008222892,0.07983013,0.09976098,-0.028870933,-0.009148206,0.036997024,-0.099425815,-0.053151336,-0.068929374,0.06769339,-0.015473441,-0.06738937,-0.05701913,-0.08705609,0.043431547,-0.033882804,-0.002865505,0.009060339,0.03979273,0.009601228,0.073999934,0.11598335,0.006146886,0.062307257,-0.059445262,0.03789749,0.07740564,0.08565483,0.050315365,-0.0014254592,0.02944004,0.060805865,-0.010235338,-0.046925224,-0.0781683,-0.055103723,0.03019292,-0.016929429,0.0016385186,-0.049740344,-0.10158016,0.043688938
Abbie_Cornish,0.15257956,0.011447503,0.043741487,0.005733385,0.041134045,-0.105013,0.04888806,-0.22566365,0.059039403,0.036226768,-0.050989892,-0.10317134,0.112242036,0.112573676,-0.056882087,0.06393331,-0.09513746,0.0766622,-0.02710732,0.10650065,0.10151803,-0.1301118,-0.13709769,0.0059197946,0.063041,-0.0022147372,0.17271467,0.06820898,-0.06638159,0.0020786796,0.056596182,0.032138407,0.12105548,-0.12864977,-0.044920236,-0.11075044,0.0025076163,-0.10989357,-0.16826807,0.012043694,0.08166075,-0.07719234,0.05316966,-0.005898146,-0.15418877,0.016863799,0.054299396,-0.06999433,-0.091697134,-0.058184084,-0.10323453,0.009151646,0.18739463,0.010140513,-0.020377468,0.07432864,-0.033521704,0.06356858,-0.097400375,0.0023762255,0.15076998,-0.08968194,0.06259357,0.03578753,-0.013864315,-0.019880574,-0.045986332,0.11690927,-0.0725171,-0.045894418,0.03775026,-0.11777634,0.043203156,0.0068360427,0.1363761,-0.00800285,0.23451875,0.0471131,-0.004282486,0.079102986,0.085842654,0.025613692,0.010142234,0.058926933,0.0027723967,0.06949099,0.050934978,-0.05656806,0.010749645,-0.018675514,0.051641405,-0.13068154,0.004733256,-0.020045655,-0.011005071,-0.0443256,-0.018683398,-0.16790967,-0.11153465,0.05080874
"Abbott,_Texas",0.09216179,0.03778814,0.09886223,-0.04261085,0.18435684,-0.10559171,0.119869746,-0.10779852,0.077277295,0.033601664,0.101109006,-0.034803472,0.13640526,0.050251164,0.158117,0.025700796,-0.10752475,0.06480875,-0.10229748,0.09341172,0.067716636,-0.03819024,-0.079031006,0.024688343,0.13351679,-0.040456947,0.14423259,0.07639157,-0.089925386,0.18193801,0.1452286,-8.458401e-05,-0.05303498,-0.1216213,0.103133604,-0.0790483,-0.021306777,-0.08187745,0.004078547,0.10502778,0.10073368,-0.030528175,0.020044431,0.115538776,-0.036693927,-0.033399504,0.06354285,0.05776755,-0.0038131922,-0.09152362,-0.10773685,0.0601604,0.11502172,-0.004059437,-0.04887539,0.100201026,-0.11312547,0.06679419,-0.09867498,0.10934665,0.11921011,-0.0035211577,0.021854592,0.055271383,-0.121596575,-0.0003341563,-0.06286133,0.09128054,-0.058815565,-0.086774066,-0.00032332592,-0.03372444,0.03590356,0.0004943808,0.1378511,-0.10989736,0.14062755,-0.04056766,0.076671466,0.038705353,0.07940385,0.02585185,-0.1346339,0.10039236,0.12672606,0.14325272,0.036199994,-0.121277094,-0.018109681,0.11254594,-0.017012652,-0.0695387,-0.13499731,-0.048839234,0.048294663,0.030283583,0.016469318,-0.09276811,-0.032966018,0.055612877
Abd_Al-Rahman_Al-Gillani,0.050000496,0.0512091,0.061517924,0.0854329,0.07652895,-0.04963131,0.06345628,-0.041586824,-0.031092435,0.014406129,0.08018864,-0.007557047,0.07842337,0.11116004,0.031078046,0.01831654,-0.032497,0.04914373,-0.10750643,0.054295443,0.118154,-0.07636753,-0.13256602,0.07647815,0.00918049,0.001197402,0.025774943,0.05449706,-0.06973167,-0.0068284287,0.0008202208,-0.016197322,9.8342935e-05,-0.06814299,0.11205662,-0.07651967,0.004994302,-0.00075263146,-0.08709941,0.061365932,0.070753165,-0.00040955408,0.024362177,-0.016549623,0.029317804,-0.07978568,0.060995936,-0.06047611,-0.09194529,-0.08049043,-0.063366376,0.06632109,-0.005620597,-0.051188897,-0.044455435,0.077078685,-0.06589144,0.07779672,-0.099897705,0.023839146,0.108245455,-0.01977189,-0.011189788,0.044021938,-0.079169855,-0.05023583,-0.07937855,0.063523225,0.00042017983,0.003967124,-0.028918762,-0.08700612,0.038137894,-0.025693437,0.076254115,-0.02637093,0.08504065,-0.05170912,0.032491215,0.11114855,0.051164404,0.105835095,-0.08106775,0.02411413,0.08443766,0.07310639,0.054167636,0.022856165,0.04610933,-0.005062022,0.038803715,-0.0654748,-0.04819356,-0.05725241,0.030482091,0.02224493,0.01841476,-0.027238091,0.03415648,0.036739573
Abdul-Wahab_Mirjan,0.028570542,0.0443735,0.022154305,0.04898043,0.047283206,-0.00901779,0.06676764,-0.02691639,0.07787833,0.042290613,0.09891066,-0.053600643,0.0850477,0.14571072,0.040006105,0.009701887,0.0108786775,0.022930156,-0.132806,0.042162128,0.10266979,-0.09358839,-0.11509633,0.06571559,-0.0019220692,-0.015965344,0.039239127,0.0646357,-0.09084024,-0.007344138,0.056959983,-0.008628326,0.0026756455,-0.040311288,0.036657464,-0.063946806,-0.0015190603,-0.12983145,-0.11070714,0.104489736,0.06675483,-0.0036194802,0.0322873,-0.011631458,-0.040900335,-0.087660894,0.083585754,-0.07545598,0.0102013275,-0.06667064,-0.07070953,0.012187688,-0.005477116,-0.04349257,-0.04417018,0.10886057,-0.027710544,0.027432144,-0.015123445,0.08284008,0.0618461,-0.029837532,0.088420495,0.0660421,-0.097345024,-0.04132904,-0.091887884,0.05725746,-0.0135384565,-0.06826876,-0.004101441,-0.04005604,0.04162073,-0.035089016,-0.0032971695,-0.015370257,0.06036216,0.0020089033,0.05132474,0.099841826,0.044257395,0.09603796,-0.06687853,0.028468587,0.095173456,0.018228749,0.040287714,0.037822463,-0.044010382,0.032800183,0.0014415995,-0.06262988,-0.053930108,-0.047359373,0.042952366,-0.004508273,0.018426588,-0.024194159,-0.09153418,0.038669094
Abdul_Razak_Hussein,0.041907664,0.0443619,0.040093742,0.11202562,0.03785407,-0.048786208,0.047673494,-0.0017197889,0.07028771,0.030841565,0.08175025,-0.061604463,0.027272744,0.007593181,0.104827434,0.027413629,-0.060423903,0.0028291193,-0.07422544,0.046943914,0.07835482,-0.023840118,-0.012119817,0.07305669,-0.056670226,0.01841507,0.038378153,0.04325776,-0.080027364,-0.011031527,0.057585027,-0.018019348,-0.030705608,-0.06205942,0.10537318,-0.04125983,0.0074583427,-0.13925104,-0.08523079,0.111815155,0.06570942,-0.0019942976,0.013638728,-0.008892818,-0.025961585,-0.07630964,0.07430637,-0.06383719,-0.11966076,-0.13252889,-0.07241262,0.041050676,0.016859641,-0.0062034354,-0.03781222,0.06548913,-0.06603342,0.033149354,-0.001344624,0.0933206,0.0740364,-0.046519913,0.028329924,-0.00070831226,-0.0063482225,-0.049677882,-0.0789415,0.10549551,-0.04019608,-0.009362742,0.024128271,-0.061205998,0.044920176,-0.04168575,0.11651846,-0.039980873,-0.013537974,-0.042554155,0.05431751,0.016745685,0.043559626,0.024870157,-0.06611794,0.035958443,0.09086778,0.111279674,0.062671185,0.0071396143,0.018229883,0.040412914,-0.0045190393,-0.044109624,-0.051068228,-0.038718157,0.07730933,-0.02961088,0.023671683,-0.047619402,-0.08934234,-0.027283473
Abdullah_Ahmad_Badawi,0.062011432,0.04031712,0.081739835,0.084495395,-0.042610187,-0.03671054,0.10895004,-0.045423068,0.0743185,0.027425103,0.0852428,-0.018278155,0.09722126,0.08408625,-0.000853488,0.0060577807,-0.016672622,-0.0018368982,-0.12968291,0.058134377,0.0711505,-0.10527866,-0.11496703,0.08376442,0.023821633,0.007453003,0.033936817,0.009349965,-0.040895157,-0.0005698173,0.09630378,-0.018466447,0.05941766,-0.06844546,0.12338129,-0.038690075,-0.002012627,-0.035296634,-0.08694914,0.10126542,0.05042296,0.015206451,0.019955073,-0.010411841,-0.05142148,-0.08301251,0.09693143,-0.0854427,-0.039454922,-0.10394713,-0.054693755,0.042236585,-0.016451951,-0.01661957,-0.042852737,0.09294549,-0.036095083,0.026103465,-0.016252266,0.076550275,-0.0010329942,-0.03764701,-0.02694468,-0.0065801246,-0.06332032,-0.06536885,-0.07674293,0.06746429,-0.019274078,0.019883355,0.030539708,-0.019770773,0.050689615,-0.039919056,0.100314245,-0.08075559,-0.012117402,0.003407797,0.049706,0.09824575,0.040376414,0.10358377,-0.03914842,0.042826593,0.0039190655,0.065755315,0.09153976,-0.08059251,-0.03740661,0.029360142,-0.0046471017,-0.042111605,-0.076948375,-0.05199432,0.03754646,0.028854933,-0.042962283,-0.05322554,-0.07191247,0.008396804
Abigail_Spencer,0.00079907966,0.1005391,0.010651144,0.026585203,-0.0023879455,-0.13183086,0.07393595,-0.15020452,0.103246875,0.08084894,0.059670165,-0.07852941,0.02490484,0.07458444,-0.0014870074,0.021858947,-0.0804039,0.055204492,-0.10083493,0.13354301,0.10176891,-0.12755612,-0.11002314,0.12155249,0.09345522,-0.09451322,0.06295658,0.10057835,-0.04901044,0.014915874,0.097183034,-0.09961049,0.008819958,-0.13322206,-0.0062937886,-0.09379043,-0.026119174,-0.11296143,-0.08535055,0.013336332,0.07433353,-0.070763394,-0.033228084,-0.05150189,-0.047663648,-0.02131359,0.012379809,-0.07079909,-0.043653872,-0.03667968,-0.06676575,0.107518315,-0.011893825,0.037182104,0.0036150985,0.11055114,-0.014380007,0.08274047,-0.06882452,0.09636683,0.06123153,-0.1257861,0.010100034,0.109139055,-0.102474004,-0.015221251,-0.057847116,0.07899885,-0.033781487,-0.07095201,-0.084643885,-0.1331853,-0.08800324,-0.08911584,0.091375895,-0.11178083,-0.030377842,-0.08354189,0.11181452,0.09262701,0.07798263,0.05640336,-0.075042784,0.0865075,0.021760043,0.07647459,0.09132759,-0.034156524,-0.027109647,-0.031697787,0.09801218,-0.09413666,-0.107175075,-0.02253896,0.12036848,0.1605153,-0.088264585,-0.098374985,-0.031979445,-0.011311518
Abraham_Lincoln,-0.004240638,0.06432857,0.036880273,0.015775224,0.0266144,-0.014773581,0.010789127,-0.09271766,0.057669345,0.0256522,0.09896016,-0.025974216,-0.00024686832,0.056300875,0.09494864,-0.021010013,-0.008905947,0.094856806,-0.026955074,0.055604216,0.077624485,-0.008553401,-0.122760706,0.0780519,0.08550603,0.023901656,0.058681864,0.11827209,-0.10851069,-0.0044271145,0.1045074,-0.06316592,0.009627922,-0.08234047,0.066063724,-0.03483349,-0.008867656,-0.036751565,-0.05258853,0.045953587,0.043900274,-0.002623832,-0.026775377,-0.026669014,0.08255146,-0.071702525,0.0385318,-0.0559279,-0.11883635,-0.10708982,-0.09496863,0.014244453,0.06258728,0.020467795,-0.03249467,0.09141917,-0.02959595,0.01323211,-0.105778344,0.0120760705,0.09733301,-0.018747522,0.050532673,0.02646694,-0.04252071,-0.05037614,-0.04309936,0.06373009,-0.017874185,-0.014283977,0.029655056,0.008438736,0.048782643,-0.03416638,0.020189047,-0.12805963,0.076859154,0.0068401936,0.04234853,0.099537246,-0.009043736,0.080861494,-0.063909024,0.04913424,-0.0061018025,-5.03791e-05,0.04756197,-0.08946545,0.014209029,0.019434785,-0.022895966,-0.041165177,-0.048767664,-0.077814475,0.037106764,-0.017907238,-0.050575845,-0.050978392,0.059150275,0.023729717
Aceva_Technologies,0.013055614,-0.028296787,0.07808173,0.11038572,-0.011754942,-0.119959205,0.05602968,-0.005218432,-0.01915374,0.06645624,0.12160838,-0.10292382,0.18160927,0.121318065,0.064126976,-0.017820781,-0.11308619,0.15145074,-0.12688468,0.08012756,0.026438417,-0.100402996,-0.12998831,0.0028738533,0.09033638,-0.07750966,-0.017946253,0.02156402,-0.058391187,0.063933425,0.09050234,-0.11113659,-0.022673108,-0.0921418,0.06364458,-0.06632776,-0.052252583,-0.07053576,0.02216074,0.08584329,0.098101445,-0.08063307,-0.030088352,-0.04117944,-0.032999307,-0.02265696,0.06689916,-0.10992435,-0.08812991,-0.15310784,-0.09275048,0.046631694,0.057652827,-0.07455009,0.030804645,0.11895454,-0.0034937742,-0.06159095,-0.04944514,0.12227374,0.06046686,-0.14329259,0.09673536,0.10026445,-0.077603094,-0.07480018,-0.092178315,0.11406191,-0.12181146,-0.021635,0.022562303,-0.08611225,0.014885554,-0.018221123,0.07591355,-0.11650683,0.08927998,0.06550818,0.030747335,0.12860733,0.11829642,0.11871378,0.028876927,0.101647936,0.082160786,0.064304724,0.108848765,-0.11452655,0.14010099,0.12676905,0.08321714,-0.09897243,-0.1157637,-0.0032884148,0.0731718,-0.080451876,-0.02238031,-0.019408137,-0.13345358,0.11418627
Acronis,0.0099110445,0.028840376,0.042161472,0.04126936,0.08675199,0.001008307,-0.015199506,-0.069002144,0.045212403,0.07907875,0.08434372,-0.026730737,0.021538366,0.09734244,0.14553845,0.002589888,-0.022153482,-0.017734034,-0.079872526,0.058019936,0.12212111,-0.10313186,-0.01799361,0.024592463,0.09121284,-0.032477923,0.066010416,0.113949485,-0.040619176,0.009024624,0.08392549,-0.033092663,-0.055779226,-0.057483494,0.011791712,-0.034937892,-0.008776322,-0.11132758,-0.08670485,0.072811626,0.02679813,0.0077155204,-0.031832602,-0.018325971,-0.019193595,-0.03524039,0.13877621,-0.06887263,-0.092214465,0.011385877,-0.070877776,0.023351401,0.095609106,-0.014056279,-0.03798359,0.08965824,-0.029311158,0.049798947,-0.066362284,0.08535802,0.07299602,-0.036680754,0.08338397,0.0076595005,0.026829593,-0.05544297,-0.08474248,0.07289066,-0.04763362,0.005594559,-0.06456645,-0.094564624,0.04311673,-0.06578054,0.061276488,0.00906544,0.067688,-0.004311189,0.022349829,0.057902835,0.027093794,0.082584985,-0.060776643,0.03118792,0.10811271,0.041736577,0.05295626,-0.06572897,0.01129997,0.034465007,-0.0007029888,-0.03515438,-0.06905144,-0.05191017,0.047347873,-0.030111821,-0.06249561,-0.010764793,-0.037558425,0.07824309
Acuson,-0.0067325486,0.15483065,0.0257169,0.10037959,-0.045885753,-0.12155245,0.097767636,-0.12944213,0.087896094,0.118381105,0.096436225,-0.09229688,0.012706872,0.08476684,0.09066485,-0.004623383,-0.030168545,0.08003404,-0.09183422,0.004787528,0.09270666,-0.08262019,-0.13571852,0.087077886,0.09438454,-0.08741361,0.11693904,0.083555356,-0.055020195,-0.016615551,0.13226868,-0.012441776,-0.049283583,-0.07013491,0.015925394,-0.09035995,-0.083157875,-0.01856339,-0.027947932,0.106065296,0.10773502,-0.110427625,-0.019891374,0.03878903,-0.051163014,-0.14054549,0.00796283,-0.13087457,-0.07519033,-0.07403925,-0.086457916,0.04240216,0.03739353,-0.030443817,0.016374229,0.08684585,-0.12617743,0.0724187,-0.1310895,0.049451407,0.02656071,-0.13284515,0.048001345,0.038264215,-0.10885168,-0.023298,-0.11108481,0.09184499,-0.08717109,0.023621535,-0.057217456,-0.10051854,-0.025127865,-0.049294997,0.14885958,-0.07933055,0.18524231,-0.04518509,0.10788617,-0.0049139285,0.07830485,0.06967213,0.0322336,0.08402021,-0.009422078,0.13659438,0.11907569,-0.047665283,0.05943854,0.07667294,0.048345655,-0.13503295,-0.0963649,-0.113745056,0.07314797,0.07017671,0.0028773062,-0.03515478,-0.01405645,0.09473744
Adam_Kaufman,0.085679814,0.11935338,0.04829373,-0.017876692,0.021357106,0.008152235,0.029570589,-0.18684006,0.03949132,0.016562333,-0.02012685,-0.0873916,0.08571911,0.17126548,0.11052545,0.05465567,-0.14622194,-0.022522915,-0.061404813,0.12172087,0.073121265,-0.06547645,0.028270494,0.052707717,0.018581584,0.020677606,0.020794863,0.03318492,-0.08162143,0.12644319,0.10682731,-0.052126754,0.055004194,-0.06922523,-0.008294947,-0.1433913,0.035018586,-0.12032718,-0.06276414,0.01195753,0.16711034,-0.09335799,-0.0056417226,-0.027031064,-0.033322796,-0.102688394,0.0038757657,-0.013925074,-0.020173833,-0.036698326,-0.08270067,0.1328992,0.012982342,-0.07303536,0.029744394,0.012230132,0.019142276,-0.0068502626,-0.08938,-0.007695246,0.03531998,-0.05581861,0.022370255,0.091040656,-0.07904232,-0.051516134,-0.15409225,0.028107861,-0.057227332,-0.065636426,-0.022750726,-0.12767263,-0.045979783,-0.026867952,0.051419724,-0.058873225,-0.029907206,-0.10056276,0.012457373,0.06816963,0.124897316,-0.011322695,-0.0016090368,0.11369727,-0.009710492,0.2018967,0.03333186,-0.10849152,0.07591705,-0.0009069226,0.043654274,-0.097597525,-0.13212943,-0.016332624,0.033700984,-0.04671903,0.0796793,-0.059637856,-0.059842665,0.058778632
Adam_Smith,0.036550697,0.039140493,0.017098738,0.06748464,0.059869308,-0.027998008,0.03574343,-0.06302539,0.033901077,0.07023245,0.08846427,-0.025797699,0.06342592,0.08585727,0.041857492,0.00683289,-0.093368925,0.1064386,-0.008066462,0.0454705,-0.009230423,-0.0072124065,-0.11508549,0.07487822,0.040176347,-0.035602927,0.029789086,0.08753154,-0.11142402,-0.0014504944,0.10236993,-0.025301838,0.021441266,-0.031221218,0.0061511975,-0.080535024,-0.0257898,-0.13425013,-0.0010477676,0.08725263,0.07617798,-0.0115634175,-0.05721144,0.048591502,-0.018607695,-0.05583616,0.039090294,-0.08448254,-0.12245309,-0.06709663,-0.07141087,0.018242428,0.06397382,-0.066147946,-0.041355804,0.09733375,-0.0035298658,0.031733118,-0.101874754,0.08585998,0.022605512,-0.07261753,0.0065880856,0.0010072553,-0.09652087,-0.040890824,-0.0014536651,0.04242468,-0.015340432,-0.084455654,-0.0648425,-0.094081104,-0.02946967,-0.027315829,0.11274561,-0.10063183,0.025649248,-0.0077428063,0.006372689,0.037680686,0.035831053,0.080782026,0.003536817,0.05233133,0.12235797,0.055463128,0.059416533,-0.0804471,-0.049756028,0.029694755,0.006378347,-0.036626037,-0.051706273,-0.071976386,0.04548996,-0.018275991,-0.007843137,0.033688437,0.0014747396,0.050120056
Adelaide,-0.028776383,0.033834398,-0.017960638,0.036853407,0.04857035,-0.007569343,0.094295114,-0.071157396,0.13543269,0.09704419,0.044391166,-0.028846344,0.08590375,0.0054510916,0.011357534,0.003735641,-0.019666962,0.0052710874,-0.04122405,0.1471453,0.04435661,-0.014529662,0.041339844,0.02869832,0.11338927,-0.07737055,0.15691744,-0.03220221,-0.028373739,-0.029609174,0.040338594,-0.07147144,-0.06924592,-0.03977324,0.05416392,-0.11633927,-0.052721232,-0.101250716,-0.009944959,0.08189265,0.023498086,-0.07520076,-0.022352532,0.026850093,0.09388929,-0.0791296,0.007601302,-0.08511287,-0.13922015,0.0147582665,-0.091338895,-0.008596331,0.020970576,-0.02571892,-0.007411996,-0.0012867576,-0.1295694,0.097910695,-0.120478325,0.083921,0.052143008,0.017413419,0.020190628,0.100672916,-0.00077142584,-0.025001906,-0.095497444,0.115394086,-0.061707474,-0.08100426,0.035308696,-0.045633513,0.09749479,-0.04091896,0.11845462,-0.13361782,0.11134801,0.022116352,0.06701469,0.00038889103,0.028674856,0.06944201,-0.064115345,0.06941043,0.03215136,0.1702474,0.03974674,-0.118603766,-0.01968656,0.05507102,0.05603432,-0.06158254,-0.028227374,-0.09753025,0.03304887,0.012126455,0.07589696,-0.041110557,-0.12082563,0.05028023
Adjowa_Hayes,0.042165164,0.043876432,0.03444557,0.11375301,0.06676368,-0.057294644,0.0995306,-0.070873216,0.0035390896,0.02283029,0.08914464,-0.020033516,0.044122927,0.08549196,0.13962115,0.016208593,-0.071682364,0.060989074,-0.1309069,0.043961868,0.05358198,-0.10313107,-0.09339431,0.070887886,0.10110993,-0.031224357,0.05060529,0.117772974,-0.045586575,0.03832157,0.10651698,-0.0301279,0.07036671,-0.078540705,0.024334926,-0.029037068,0.0066727684,-0.0120204585,-0.118472636,0.10025572,0.046682633,-0.0067065107,0.020469442,-0.012801994,-0.029677013,-0.05444121,0.031930793,-0.06659685,-0.09504921,-0.015038573,-0.0726561,0.01318014,0.10836876,0.021472462,-0.06827344,0.07008359,-0.036207326,0.027103107,-0.07380327,0.012554912,0.052333493,-0.026325734,0.053791918,-0.010191255,0.022641482,-0.041181102,-0.07756275,0.052749783,-0.0027592566,-0.06362934,-0.045469213,-0.07324992,0.05002763,-0.031570006,0.067993104,-0.022292629,0.06414213,-0.04005115,0.065227605,0.0184322,0.029993419,0.10292234,-0.0551739,0.03622619,-0.017860016,0.03128949,0.052215185,-0.099987686,-0.0034632375,0.08008047,0.038670864,-0.031328417,-0.05599707,-0.08596776,0.04419232,0.064122684,-0.00040948184,-0.06778216,0.027738702,0.029270481
Adobe_Systems,0.011471767,0.056221206,0.08681047,0.10797352,-0.05362404,-0.0025081257,0.027482426,-0.09414786,0.07682585,0.038785003,-0.0045128544,-0.027144413,0.034962118,0.10537308,0.11753423,-0.042653818,-0.014885987,0.019799748,-0.07703309,0.03476774,0.090799965,-0.104952805,-0.035415366,-0.00033577636,0.09655683,0.012081448,0.066238604,0.05936242,-0.029222293,0.021490613,0.053641066,-0.07018869,-0.007590233,-0.03496981,0.09229506,-0.041078053,0.00087594613,-0.091376215,-0.096440576,0.09563309,0.03681165,0.0068946397,0.032523733,0.027195126,-0.045126725,-0.03795174,0.05340254,-0.039138522,0.009084509,-0.011764466,-0.068016656,0.006661183,0.039664764,0.02968183,-0.06172674,0.09274773,-0.056682833,-0.013707109,-0.0268581,0.08039327,0.095659114,-0.028880075,0.05667278,-0.008074639,-0.022730952,-0.06666252,-0.105769396,0.053870182,-0.029854072,0.010587295,0.029450446,-0.073946156,0.050152183,-0.034997594,-0.03801085,-0.093887754,0.033447187,-0.05198057,0.029466838,0.10866296,0.040826946,0.050372895,-0.043109704,0.028457142,0.026269976,0.025813667,0.07611967,-0.008733126,-0.04606037,0.049953476,0.0043750713,-0.04076669,-0.074643366,-0.060851775,0.0532478,0.027466835,-0.046429183,0.010828205,-0.042877823,0.05384565
Adolphe_Thiers,0.06995797,0.04024635,0.07956254,0.09556275,0.008218293,-0.096424356,0.08322219,-0.011110315,0.07614437,0.029645784,0.09299391,-0.0032338966,0.05446131,0.07951918,0.12105859,-0.05182232,-0.08979966,0.06738199,-0.09093579,0.052449286,0.09166741,-0.09324656,-0.040699076,0.07007255,0.1132486,0.0043090433,0.020209799,0.10124466,-0.101034835,-0.0070912354,0.06355088,-0.016909812,0.01181555,-0.0711535,0.10313771,-0.056662217,0.0034869222,0.008470876,-0.119254,0.104270674,0.08757397,-0.009908612,0.019631056,-0.0050864597,-0.02623489,-0.06921419,0.07334424,-0.06508175,-0.091476664,-0.10588999,-0.090327695,0.028321968,-0.010080156,-0.039382666,-0.052375395,0.079581924,-0.017948272,0.085149065,-0.034176517,0.03767642,0.052980714,-0.027454386,0.015024948,-0.015019312,-0.040445164,-0.048438948,-0.098492995,0.06911474,-0.008476225,0.013838956,-0.011951405,0.013122424,0.034139007,-0.0340997,0.09430718,-0.04805349,0.009156987,-0.0066161114,0.07911409,0.019083425,0.058937617,0.087998256,0.019461265,0.07728526,0.013288476,0.09586774,0.051804136,-0.09078022,-0.024612553,0.035877787,0.031743344,-0.0420604,-0.07044071,-0.048652064,0.034733467,-0.023908868,0.02602604,-0.04157301,-0.078761965,-0.03052527
Adrianne_Curry,0.0007893366,0.1225958,-0.04699599,0.046185218,0.028491639,-0.1162833,0.09350111,-0.19738638,0.018722815,0.036780674,0.04265213,-0.11555084,0.14141646,0.030540355,0.15749829,0.099442765,-0.12886348,-0.019730588,-0.022771232,0.047078326,0.12805185,-0.097089805,-0.06862672,-0.017582277,0.0066855224,-0.07274431,0.012851072,0.05046276,0.029373199,-0.020617269,0.071777955,-0.0440229,0.09407226,-0.15276784,0.039256975,-0.10144651,-0.041385405,-0.043238826,-0.07961758,0.04894328,0.12327453,-0.09447429,-0.098188505,-0.013860668,0.022256957,-0.014299708,0.029805604,-0.18777591,-0.11003197,0.005721581,-0.07732439,0.058383074,0.03476943,-0.0043509235,-0.01472701,0.12422279,-0.0903898,-0.005985024,-0.080304846,0.028230198,0.117023274,0.046990197,0.10606381,0.06857052,-0.17338553,0.0058174743,-0.12241135,-0.014584707,0.039785568,0.035036642,-0.05239799,-0.06374172,-0.11894442,-0.07531732,0.003777966,-0.06657226,0.042398002,-0.02187029,0.037854627,0.030165048,0.058670025,-0.03327643,-0.09853199,0.12572457,0.065955885,0.19704504,0.096331246,-0.1239904,-0.094106995,0.029279629,0.09110316,-0.12375487,-0.17997739,-0.012508454,0.119440846,-0.07599813,0.052722067,-0.113584,-0.067716256,-0.008986141
Adrien_Brody,0.12351366,0.107709765,0.1203186,-0.013427916,0.023173602,-0.09312907,0.021051837,-0.0872492,0.13595425,-0.016597867,0.07588914,-0.11771944,0.12002547,0.023621723,0.061418083,-0.018658757,-0.05560863,0.10257196,-0.014809669,0.12154834,0.0954788,-0.011285978,-0.05796737,0.006631839,0.121182926,-0.05968086,0.16551034,0.025923422,-0.09035334,0.04147337,0.0714402,-0.01786978,0.07474332,0.002767531,0.065888405,-0.0171627,-0.07466662,-0.11983854,-0.121612,0.07566885,0.14227597,-0.10839837,0.05394301,-0.030607799,-0.087836966,0.008942096,0.12087183,-0.081000924,-0.0569235,-0.019506669,-0.11984102,0.10718947,0.085292965,0.032141168,-0.023725497,0.0890788,-0.036399484,0.1398061,-0.10726341,-0.0059605828,0.09187623,-0.10100803,0.04858399,0.10835535,-0.07053664,-0.114965804,-0.11135916,0.23076653,-0.022706125,-0.024795795,-0.035304178,0.0064456835,0.07759753,0.037292544,0.08494245,-0.0451021,0.18159711,-0.030158537,0.0014914055,0.13192324,0.13063478,-0.03189401,-0.12667923,-0.014082277,0.026648479,0.02663877,0.07927137,-0.07965448,0.0029138073,0.056992147,0.031398892,-0.08523173,-0.06849286,0.010619994,-0.021607868,-0.033367798,-0.03898639,-0.14112978,-0.08670251,0.031480618
"Again,_Dangerous_Visions",0.029975938,0.11602537,0.15808007,0.07214261,0.13406794,-0.039063454,0.010908142,-0.0059473678,0.039625667,0.15192747,-0.018285792,-0.03165281,0.046038646,0.061505895,0.08931572,-0.08693323,-0.0905614,0.10389121,-0.11912294,0.053843137,0.027848594,-0.11456151,-0.00047336676,0.00085989595,0.0938156,-0.10919043,-0.023908723,0.11450137,-0.12325371,-0.038198534,0.03326405,-0.118277624,0.022644773,-0.027934313,0.052577592,-0.14995295,-0.092633724,-0.082967564,-0.076354824,-0.057473592,0.029007895,0.07053463,-0.009834418,-0.06160403,-0.04855535,-0.047737632,0.195018,-0.04927227,0.04629842,-0.1007365,0.026013643,0.10203881,0.14368041,-0.07682975,-0.054672692,0.041176707,0.022278307,-0.02139976,-0.09568038,0.08223532,-0.0031164174,-0.13803688,0.17277944,0.001010271,0.016340034,-0.06971458,-0.01135842,0.086039245,-0.09886681,-0.11382926,0.023349676,-0.13561551,-0.14811407,-0.024524981,0.09096209,-0.07814792,0.12731601,-0.050900463,0.12638694,0.089086086,0.03147387,0.0521821,-0.16990927,0.030068863,0.024722045,0.15311511,0.15119416,-0.0975713,0.059836775,-0.014580456,0.09218474,-0.014976214,-0.05954119,-0.04228698,0.12626435,-0.0062319017,0.10092912,-0.01790223,0.06508963,0.119960465
Agile,-0.040835317,0.00877941,0.016433593,0.106618725,-0.017782485,-0.15058462,-0.0011920851,-0.0005356148,0.126987,0.09535811,0.020307077,-0.03242253,0.05552863,0.040266242,0.119886614,-0.024859622,-0.09427522,0.010995908,-0.09605536,0.089752756,-0.0023454705,-0.11877693,-0.15795484,0.10587217,0.10104508,-0.06971151,0.08495197,0.1285823,-0.07687466,0.11604165,0.0036147053,-0.0917747,-0.022545004,-0.09263964,0.04105244,-0.14931154,-0.062373593,-0.1643491,0.0007204844,0.11632354,0.08975352,-0.042054348,-0.10585605,0.0008751309,-0.08897874,-0.09486835,-0.011947006,-0.13768403,-0.12624946,-0.13332306,-0.04579931,0.029899996,0.059020147,-0.041189477,0.02189597,0.10068354,0.04794486,-0.013223504,-0.107219204,0.029260397,0.057535287,-0.11918238,0.019332603,0.111179136,-0.07567822,-0.078605376,-0.13712367,0.07966881,-0.07507235,-0.06570858,-0.018293237,-0.14284962,-0.07591996,-0.08239439,0.102968246,-0.11337142,0.040260624,0.03380628,0.025373034,0.1284967,0.017298272,0.14759114,-0.020995408,0.0574422,0.048658114,0.07169513,0.10341924,-0.043739796,0.06865989,0.08452239,0.0993448,-0.09576003,-0.13016905,-0.105113894,0.107004456,-0.035521623,-0.094831236,-0.0061253,-0.13368462,0.1218303
Agra,0.10094627,-0.020647664,0.009482038,0.03816515,0.09259115,0.009544311,0.035851758,-0.09400211,0.016063135,-0.042833187,0.03180066,-0.13549182,0.01517369,0.12004775,0.072341196,-0.0012459924,-0.018031199,-0.05952303,-0.0690009,0.041515958,0.11766487,-0.034518722,-0.047930118,0.1077257,0.15731204,0.006392883,0.024094453,0.07431761,-0.07070879,0.1221211,0.1133818,-0.051420588,0.033398017,-0.03282094,0.097973235,0.032422516,-0.09624921,-0.024644133,-0.06704731,-0.019643214,0.07238731,-0.18564932,0.0143745225,-0.04334249,0.076951854,-0.07526194,0.06395452,0.0020360956,-0.09235547,-0.13581474,-0.121218786,-0.024018606,-0.021008585,-0.002146078,-0.14015858,0.027620208,-0.16935977,0.054278772,-0.012226472,0.029447427,0.051121324,-0.20114493,-0.004459965,0.09584266,0.017528728,-0.12274393,-0.013956338,0.00817712,-0.13392076,-0.08644901,-0.105420366,-0.051903095,0.12244557,-0.095162325,0.15041207,-0.06984337,0.07300247,-0.14039059,0.017401105,0.15956588,0.12275625,0.09443118,-0.03598515,0.06425057,0.1276733,0.013485693,0.07020517,-0.03980919,-0.072478384,-0.013828447,0.021161335,-0.16778105,-0.08605275,-0.13145122,0.02998524,-0.023314456,0.046617523,0.023807662,-0.045944575,0.112105995
Ahmed_Ouyahia,0.041942157,0.043352116,0.033416733,0.08432512,0.032280684,-0.05787925,0.10719831,-0.06394111,-0.029044975,0.018146323,0.1032867,-0.033849012,0.02441205,0.10120433,-0.02029062,-0.013244696,-0.04130741,-0.0068389075,-0.08448906,0.064206,0.11112408,-0.08383547,-0.043714102,0.0722654,-0.029334545,0.018245123,0.03498456,0.104799956,-0.09357811,-0.0046791453,-0.0063162027,-0.010671555,-0.04111166,-0.0065535516,0.08503238,-0.032353833,-0.02946137,-0.12697336,-0.09439373,0.04500947,0.06138367,-0.04662508,0.027409427,-0.011627771,-0.03075582,-0.0611473,0.0785376,-0.07134732,-0.03677567,-0.063151695,-0.041733216,0.052859396,0.101565234,-0.03827322,-0.082439266,0.0006485807,-0.034267344,0.075236894,-0.05821148,0.09663747,0.08921362,-0.030580733,-0.034275,0.04713497,-0.09826834,-0.0647782,-0.07647494,0.008381703,-0.064756244,-0.06512575,-0.058334824,-0.07936661,-0.033805285,-0.041663706,0.11503761,-0.02917522,0.022135505,-0.0058501484,0.015903221,0.08500936,0.037339803,0.088106,-0.026561216,0.047959402,0.09261154,0.08408099,0.047674853,-0.052026615,-0.08259879,0.04831303,-0.02411028,-0.0512608,-0.08269687,-0.04020609,0.03637307,-0.005365468,0.014047374,-0.025479043,-0.025234118,0.0047995695
Ahmed_Zewail,0.007533662,0.038552612,0.02839854,0.08497508,0.020070745,0.0045860484,0.0035056956,-0.083598204,-0.03785692,0.034791447,0.10208357,-0.024657419,0.0675479,0.10961787,0.10446989,0.021628208,-0.003135279,0.08424772,-0.09930643,0.04854739,0.10437732,-0.10586679,-0.047056727,0.038542524,0.09528208,-0.009437108,0.03374369,0.10855052,-0.07659034,-0.006017147,0.12510478,-0.014516192,-0.0138993105,-0.056762088,0.10539246,-0.036221292,0.0014849275,-0.031341746,-0.050762523,0.05693796,0.047837123,-0.009899574,0.039449457,-0.008654147,0.05819377,-0.09035413,0.09472971,-0.026095172,-0.054266233,-0.1136699,-0.069550104,0.014461552,0.08276527,-0.04104967,-0.031849373,0.107091725,-0.03219649,0.033321656,-0.10256686,0.010370137,0.036327556,-0.03272453,0.047861967,0.009635746,-0.097751535,-0.058203403,-0.09607008,0.05424015,-0.018846147,-0.056024622,0.020590411,0.011819033,0.04438894,-0.035083115,-0.01000629,-0.11752193,0.045623552,-0.039486,0.06276435,0.11574022,0.004079652,0.09739328,-0.06291175,0.04224897,0.09408717,0.03542956,0.061129145,-0.054887477,0.005082131,0.029185109,0.036861528,-0.07091085,-0.040949155,-0.034120943,0.040522825,-0.0048045903,0.03738782,-0.0050889137,0.022459885,0.0041524954
Ahna_O'Reilly,0.04104699,0.053859502,0.04222582,0.09030312,0.06999101,-0.056385484,-0.01244098,-0.035198458,0.06829473,0.030233802,0.07580476,-0.022107938,0.067205735,0.03817218,0.10029739,0.011547757,-0.048754826,0.034006223,-0.07069351,0.05852275,0.00064537884,-0.008047132,-0.10963036,0.09108301,0.07932696,0.009200775,0.06710264,0.10776119,-0.035869475,0.015752947,0.11032116,-0.025401263,-0.003998372,-0.052266344,0.0034395312,-0.03281274,-0.005345342,-0.07415363,-0.11279516,0.12026976,0.031595286,0.009989016,-0.019154886,-0.018094406,-0.022699455,-0.047483977,0.033149112,-0.07129488,-0.06437733,-0.017004604,-0.09879467,0.016172001,0.05272646,0.045727685,-0.029932782,0.111552626,-0.04177773,0.0722579,0.009231015,0.05006796,0.021824023,-0.05339816,0.04174943,-0.00041049108,0.00536381,-0.047863822,-0.089569315,0.06749491,-0.0064127618,-0.08163134,-0.056618977,-0.07628985,-0.021910837,-0.06934468,0.10078726,-0.0013924679,0.039377227,0.006051143,0.028308935,0.005261488,0.035382412,0.07222206,-0.052967217,0.031040471,0.108579494,0.093291044,0.090732604,-0.07103662,0.01765717,0.0289785,0.02299058,-0.044123273,-0.03973157,-0.100351274,0.033701144,-0.014185244,0.0029490923,0.0034940958,-0.017472507,0.046373546
Ai_Sugiyama,0.060829442,0.051389527,0.02091134,0.09735147,0.07811359,-0.042513695,0.103896484,-0.07941694,-0.0040388126,0.030918732,0.06551926,-0.018235162,0.06196447,0.124912426,0.1130495,-0.057014134,-0.09397462,0.11966815,-0.1015847,0.05548772,0.07346535,-0.107727826,-0.07586384,0.082204804,0.1045422,-0.0148971155,0.037545707,0.09261153,-0.079104796,-0.00079009566,0.026916657,-0.020269888,0.04391524,-0.062220495,0.082843326,-0.038003873,-0.0039222217,-0.039215583,-0.09615556,0.11499193,0.06345367,-0.003914772,0.027067138,-0.002251809,-0.037886668,-0.056429684,0.041491996,-0.07591982,-0.09227762,-0.1146165,-0.06432207,0.008513259,0.08361807,-0.002234937,-0.039009318,0.044728085,-0.03938725,0.010288121,-0.089729264,0.028300902,0.105697535,-0.025378108,0.062306453,-0.004377289,-0.10332112,-0.040819906,-0.09881643,0.037326716,-0.014195048,0.017447636,-0.061568476,0.010274469,0.022479773,-0.021236936,0.08912871,-0.11840758,0.062012438,-0.032719422,0.095266305,0.0243919,0.047634788,0.066810906,-0.021343146,0.04935424,0.08377293,0.07718291,0.045611788,-0.08278191,-0.020487128,0.026354048,0.04978919,-0.03815845,-0.043318808,-0.03759116,0.04133741,-0.040916108,-0.0015835658,-0.048262294,-0.08981253,-0.034111112
Aimo_Cajander,0.022982495,0.038157765,0.041715376,0.0935966,0.043499086,-0.061091844,0.09586545,-0.041705273,0.069523916,0.029226523,0.09814908,-0.076479994,0.057478778,0.07531415,0.07843284,0.019107206,-0.041553073,0.09739527,-0.091765866,0.09766993,0.07233884,-0.05776729,-0.0058277636,0.06352219,0.032009907,0.018687045,0.07393503,0.12531808,-0.07997354,0.013433083,0.107457496,-0.028078672,0.020695867,-0.04946784,-0.04191318,-0.050545283,-0.0005909527,-0.043419316,-0.10467034,0.0998096,0.028461687,0.0013821902,0.020632405,-0.024083199,-0.02923067,-0.049329333,0.10039712,-0.06650696,-0.08977733,-0.05042413,-0.055052377,0.045855924,-0.005317259,-0.03266514,-0.040851496,0.08535426,-0.0289511,0.056758367,0.014479364,0.08008987,0.08841193,-0.0367036,-0.0061452193,0.014424296,-5.7772082e-05,-0.058939613,-0.0949134,0.05267058,-0.059153397,-0.068106614,-0.049873225,-0.071508884,0.038985364,-0.056467827,0.028017178,-0.103054546,-0.012581797,-0.0031117965,0.021512527,0.048608977,0.04112899,0.067516744,-0.053574327,0.04483919,0.081054166,0.074398845,0.049502224,0.01030574,-0.036511842,0.015162563,0.0023712062,-0.03275286,-0.08941845,-0.09792834,0.019777138,-0.0324122,0.010106015,-0.045218274,-0.09146848,0.03949241
Akbar,0.026899742,0.04260835,0.03210271,0.066409394,0.061696086,-0.06982222,-0.005102902,-0.11483894,-0.004386762,0.060622104,0.058436427,-0.02129661,0.01189047,0.13846746,0.09421659,0.022799853,0.002092994,0.0015810933,-0.011136171,-0.0020212256,0.059489213,-0.08418206,-0.12284707,0.08219076,0.09905362,-0.023627492,0.028137624,0.02202978,-0.09323954,0.0030009348,0.078934215,-0.010557161,0.03741495,-0.03430197,0.07067389,-0.07976666,-0.010242802,-0.07788361,-0.035859168,0.025013361,0.07287381,0.0027918888,0.008946116,-0.018467925,-0.0447905,-0.0777321,0.07993056,-0.07629256,-0.11416448,-0.0714833,-0.06853773,0.065912925,-0.005583466,-0.020072209,-0.0437493,0.0752918,-0.025222,0.029808171,-0.018828783,0.07765245,0.08882061,-0.039509293,0.0044462224,0.035365652,-0.09859738,-0.04491913,-0.013527228,0.08336654,-0.030290283,-0.0739925,0.0045671295,-0.0627854,0.0094964355,-0.023928832,-0.007716453,-0.004466109,0.048200753,0.0041142707,0.055126492,0.10974208,0.034458354,0.083419174,-0.0019854764,0.0363624,0.0800904,0.050965283,0.041986756,0.022031538,0.0017536196,0.0084270695,-0.007508043,-0.06994088,-0.06168078,-0.04965697,0.06326235,-0.008432007,-0.053443946,0.04894796,-0.08114289,0.026195018
Akira_Kurosawa,0.03873042,0.059027623,0.05125035,0.083606765,-0.021042364,-0.059711013,0.05618648,-0.081056,-0.0054956065,0.008926637,0.09583451,-0.025715845,0.06898714,0.117835805,0.11908541,-0.040484875,-0.10570539,0.06792253,-0.038357288,0.06482035,0.0850709,-0.11583779,-0.114934295,0.07853814,0.08743707,-0.0017975541,0.041387536,0.08281376,-0.0808127,-0.011781688,0.041263983,-0.024426976,0.005731858,-0.047765765,0.11883655,-0.026737347,-0.006569854,0.021916267,-0.13709834,0.07085437,0.049821354,-0.02941638,0.038064156,-0.04975797,0.019506704,-0.05924197,0.073143385,-0.012685511,-0.11433303,-0.079056054,-0.087729014,0.0017753484,0.07289512,-0.034790568,-0.048822273,0.081236005,-0.068675525,0.04216176,-0.11574866,0.029088486,-0.039690644,-0.032158274,0.040880572,-0.0019052831,-0.09115125,-0.053962424,-0.09475489,0.04568589,-0.016013876,-0.08296263,-0.059110206,0.0021615517,0.022381917,-0.021035511,0.10670549,-0.12131678,0.032113872,-0.022240547,0.017116515,0.119888306,0.03664478,0.11258332,-0.026113853,0.017684603,0.04009073,0.106182486,0.049476452,-0.08456759,0.028311828,0.020671103,0.027770275,-0.046510693,-0.054987963,-0.08923971,0.042449415,0.0976096,0.018542178,-0.036163386,0.016658958,0.039244886
"Akron,_Ohio",-0.025431335,0.03885173,0.13885352,0.1270342,0.1913739,0.0062780874,0.033659097,0.00072492624,-0.06631242,0.035334975,0.022506988,-0.07761865,0.03985635,0.12000915,0.13278031,-0.031650864,-0.031920537,0.06601712,-0.048879825,0.13448791,0.11632843,-0.10846422,-0.082764,0.07145164,0.05563071,-0.0011756249,0.10357906,0.13996801,-0.08071309,-0.08129871,0.082406715,-0.094977446,-0.18835287,-0.012338561,0.12160073,-0.062419593,-0.022554489,-0.020971006,-0.084148765,0.045274578,0.07023678,-0.059972484,0.06037184,0.026224783,0.06286262,-0.104234144,0.10588802,-0.016193999,-0.120463215,-0.046919618,0.020565111,0.026800504,0.12884085,-0.049230397,-0.10057067,0.0027141357,-0.09595835,-0.023362556,-0.045070097,0.038013235,0.07365191,-0.079707086,-0.010397428,0.13292591,-0.1317265,-0.06889295,-0.06005103,0.07407698,-0.004708439,-0.030411417,-0.06583659,-0.09547732,0.047776222,-0.10930157,0.01822964,-0.07340512,0.05813725,-0.00046946545,0.012056501,0.029955756,0.11215584,0.12392503,-0.17219459,0.011361245,0.04937816,0.064925425,0.07204254,-0.04000552,-0.03862419,0.053344447,0.06898484,-0.09629943,-0.10390654,-0.1314566,0.037372295,-0.005336127,0.052196205,0.028144317,-0.11460586,0.1131836
Al_Jefferson,0.050671782,0.07388825,0.05098621,0.101067975,-0.018428659,-0.056448415,0.110868335,-0.0865849,0.085684374,0.019250263,-0.025405493,-0.03134494,0.025124457,0.09565355,0.081652425,-0.036531962,-0.0650484,0.010770938,-0.049288727,0.032749258,0.08346138,-0.09428269,-0.09241505,-0.006859471,0.10205074,-0.024363741,0.108183295,0.055685036,-0.067871496,0.0383664,0.012003413,-0.026174372,0.031289935,-0.044062674,-0.045961,-0.035549175,-0.0053376504,-0.10404398,-0.079447426,0.09206548,0.034154803,0.014977963,0.019747607,0.0017311076,-0.035848692,-0.030549012,0.09673753,-0.026435066,-0.041015666,-0.014433004,-0.08481158,0.011366442,0.06257342,-0.022288486,-0.08124888,0.08029077,-0.022234932,-0.016398687,-0.025033616,0.08440975,0.09330983,-0.025158878,0.06880084,-0.0063067465,-0.10570862,-0.043023676,-0.07725988,0.060720414,-0.009505314,-0.04459518,-0.05415518,-0.09598292,0.031358317,-0.07823701,0.0007114001,-0.009726093,0.01997846,0.002598295,0.032939956,0.111993864,0.05209498,0.10920311,-0.08008396,0.012646685,0.112245694,0.06740852,0.040094282,-0.042128198,-0.006875665,0.0487131,0.0073955087,-0.03983636,-0.07878068,-0.083498694,0.058038194,-0.018067824,0.023703162,-0.007516031,-0.08457979,0.05002905
Alan_Arkin,0.077262565,0.11981067,-0.042435564,0.14472905,0.111324415,-0.08906776,-0.007203006,-0.082449816,-0.02504045,0.052996926,0.15840088,-0.119102396,-0.01612791,0.015340389,0.067239806,-0.069166355,-0.1230073,0.13714656,-0.11083842,0.07090808,0.02019529,-0.008782013,-0.10020195,0.107004374,0.07945565,-0.105339885,0.07263169,0.051731825,-0.09403743,0.08878207,0.101846,-0.0073866625,-0.019191008,0.009005223,0.058871984,-0.033548135,-0.054152716,-0.098587684,-0.10333548,0.0020230864,0.096071765,-0.069633916,-0.0048578815,0.061270244,-0.008894593,-0.087442584,0.12691389,-0.089291334,0.030818537,-0.124178,-0.08445321,0.09719042,0.08997016,-0.06345195,-0.12904073,0.09626217,-0.014302179,0.10022813,-0.0016755579,0.023254048,0.08405871,-0.16694641,0.0049701184,0.089516185,-0.10351848,-0.0005923336,-0.09059155,0.17194965,-0.12090035,-0.04014995,-0.10997345,-0.12263822,-0.1299182,-0.0883257,0.13373919,0.011133026,0.088337496,0.012829972,0.101115584,0.015555301,0.095659725,-0.01774677,-0.02108542,0.01753469,0.031645656,-0.007051508,0.1435117,-0.028973171,-0.012761568,0.004493271,0.0755555,-0.108924225,-0.060672045,-0.019905416,0.006140652,0.04943304,-0.03441208,-0.061949603,-0.010308402,0.107507296
Alan_E._Nourse,0.05325995,0.050061278,0.03218673,0.09707582,0.04431418,-0.059730098,0.02608314,-0.09052808,0.06447943,0.017714346,0.06809168,-0.016730249,0.023145387,0.039424554,-0.035473708,0.010107248,-0.114054464,0.10960779,-0.036700945,0.06888668,-0.014325052,-0.03649908,-0.12049557,0.081091926,0.10152728,0.01873586,0.06847162,0.07483053,-0.07411923,0.049235687,0.112685196,-0.008154075,0.0010830181,-0.015487871,0.0768975,-0.029212616,-0.037022866,-0.11453379,-0.1084436,0.047492974,0.06330523,-0.038166665,-0.06968357,-0.009837177,-0.019447349,-0.06645781,0.06180315,-0.0666225,-0.048185106,-0.09556568,-0.01809634,0.008000177,0.082822934,0.02789045,-0.050167687,0.00092734344,-0.061451286,0.01821008,-0.07724158,0.07355752,0.09173278,-0.06901389,0.073007695,-0.0032366368,-0.09979762,-0.04615038,-0.042852957,-0.004773873,-0.034442306,-0.06395523,-0.06583282,-0.10075692,-0.056294616,-0.030918589,0.09937451,-0.14000781,0.041572705,-0.019047154,0.010503702,0.118564114,0.040805414,0.111837946,-0.06581138,0.046803955,0.0339855,0.04348819,0.04965361,-0.054901622,0.013475622,0.01775265,-0.009309673,-0.041463222,-0.04518173,-0.078781985,0.032303274,0.070980884,0.008880801,-0.049163777,0.036661223,0.07770197
Alan_Rickman,0.030928586,0.05857546,0.12141501,0.12394998,0.12937388,-0.097440645,0.06649208,-0.084438525,0.119241476,0.029529136,0.1499991,-0.1605298,0.08492842,0.082384974,0.08668679,-0.0867328,-0.14038265,-0.0056665353,-0.10166258,0.121675104,0.11075667,-0.121522725,-0.119331904,0.02566842,0.038219046,-0.08242974,0.046480894,0.0045363163,-0.030518904,-0.0643194,0.10843093,-0.057206966,-0.020268047,-0.05336229,0.014430843,-0.023027584,-0.025539113,-0.09471159,-0.0022618454,0.101804756,0.06626497,-0.08861132,-0.005459895,0.07754358,-0.0033642948,-0.13532162,0.13659367,-0.018465674,-0.104897976,-0.0049999366,-0.06981456,0.10951931,0.081169896,-0.03877197,-0.09933255,0.08273724,-0.047792435,0.06887769,-0.08347121,0.031450763,0.09033391,-0.14201242,0.07624269,0.050962128,-0.0071514584,-0.011671114,-0.09051677,0.015735107,-0.08307922,-0.032758366,-0.029048126,-0.1440008,0.06728852,-0.110994965,0.090315565,-0.057057135,0.025537744,0.08045449,0.0029458364,0.016787214,0.019925322,-0.032114897,0.028996792,0.00934947,-0.013837899,-0.008589828,0.11922799,-0.12989481,-0.12225816,0.036610685,0.09454219,-0.0683415,-0.109922364,-0.030114725,0.13436887,0.122807056,-0.0066570444,0.07090344,-0.055863187,0.022861948
"Albany,_Georgia",0.117814794,0.03844427,0.13443129,-0.03168492,0.08641655,-0.14252816,0.058931813,0.015112964,0.0608618,0.015525811,0.115715615,-0.14398974,0.009349817,-0.03098861,0.1343358,-0.014284365,-0.014038475,0.056622677,-0.050948784,0.09725015,0.046803538,-0.0150886625,0.033397365,0.11554104,0.089153364,-0.06874702,0.09014728,0.054964866,-0.17596504,-0.04210751,0.056989156,-0.042760346,-0.002406355,0.00061058474,0.07412854,-0.05157268,-0.14690037,-0.048796456,-0.042919308,0.028012915,0.08744374,-0.1781738,-0.06927572,0.103449054,-0.060073886,0.0018108081,0.008496063,-0.076507635,-0.051372837,-0.0467932,-0.14880875,0.001126327,0.11899119,-0.0059361663,-0.062574215,0.13533835,-0.053673666,0.22266276,-0.109914765,0.104441285,0.096058704,-0.0705899,0.06763689,0.17310429,-0.11800479,0.015976075,-0.045348305,0.061976034,-0.033723667,-0.027933236,-0.08330819,-0.007503704,0.014896255,-0.07606688,0.12830982,-0.06437241,0.040560238,0.047401827,0.11832977,0.058705863,0.070136696,0.031485107,-0.027677242,0.018056044,0.03454338,0.0626007,-0.013072218,-0.08566387,0.08330122,0.0037588424,0.030907497,-0.12069055,-0.050899863,-0.061028805,0.049202837,-0.07907134,-0.049774364,-0.19805995,-0.07469469,0.0745115
Albert_Camus,0.036976643,0.05577092,0.02807534,0.09197229,0.080748685,-0.061611686,0.028944578,-0.053659897,0.07008212,0.022862656,0.09807123,-0.021711037,0.049262233,0.030355861,0.12515698,-0.06812865,-0.096563734,-0.014107276,-0.031969495,0.100729115,0.096974075,-0.06985934,-0.111562714,0.08893447,-0.01408275,0.012676857,0.032180563,0.13491803,-0.09421819,0.0144244,0.04197826,-0.018839126,-0.021905856,-0.06739616,0.10712927,-0.032752268,-0.015262349,-0.02886393,-0.08737446,0.08412652,0.023836434,0.0017710465,0.028575119,-0.016392542,-0.016693713,-0.037760004,0.09252563,-0.038780965,-0.10373859,-0.027613243,-0.045271423,0.009071264,0.07317787,-0.030303264,-0.036077183,0.028896784,-0.032269448,0.060277365,-0.094438866,-0.0057370164,0.091255486,-0.029341081,0.08200741,-0.0014219087,0.033074584,-0.052072033,-0.07409944,0.07176197,-0.06772916,-0.06527778,-0.044271994,-0.109323904,0.029650833,-0.041599933,0.12145235,0.0051658796,-0.002597077,-0.062322825,0.015910732,0.03504707,0.022672154,0.019515542,-0.039106354,0.02868992,0.039819203,0.041561276,0.03753979,-0.06488056,0.036478393,0.07071821,0.04276091,-0.051626492,-0.062328313,-0.084897935,0.04165603,-0.026115034,0.035209186,-0.014646917,-0.071018815,0.029500272
Albert_Einstein,0.06935949,0.040593147,0.03057387,0.07738132,0.061081436,-0.07057611,0.09739013,-0.08515346,-0.051177476,0.062393732,0.093434796,-0.023683598,0.025025396,0.052204452,0.13488932,-0.049611647,-0.12566584,0.06859669,-0.0030725063,0.039254468,0.095714815,-0.09217777,-0.093354374,0.063417464,0.09658998,-0.042204827,0.038202066,0.014311486,-0.095483385,0.02028761,-0.008549541,-0.01944551,0.0038426332,-0.03346676,0.057958115,-0.056616068,0.00018748772,-0.0074583036,-0.054708943,0.026803201,0.045946565,-0.00026177123,0.049779736,0.01570471,-0.015802136,-0.052657295,0.0861033,-0.055843744,-0.10285431,-0.0708228,-0.06898498,0.047508053,0.07702325,-0.043711886,-0.036782023,0.048742026,-0.02511913,0.0070447605,-0.10669928,0.025054287,-0.025584396,-0.0682734,0.0588982,-0.002321162,-0.009409577,-0.05544548,0.013831216,0.07416999,-0.01800804,-0.07405391,-0.049608935,-0.024983332,0.03148454,-0.03231713,0.09474364,-0.095528975,0.04183659,0.0006502001,0.02495144,0.020108221,0.04640431,0.09722033,-0.04967265,0.042688884,0.10604534,0.08847193,0.044107694,-0.08179286,0.023567917,0.03651374,0.045983493,-0.05589385,-0.04361331,-0.07962296,0.059939183,0.019440904,0.007544007,0.04016222,-0.016519783,-0.0069997413
Albuquerque,0.013438621,0.039411336,0.119587824,0.065214545,0.109024696,-0.0086996285,0.031221507,-0.1465426,0.10503348,0.036348328,0.0434832,-0.18047662,0.037983686,0.03817694,0.1301121,-0.032916147,-0.029067269,0.13353767,-0.079176106,0.0003363368,-0.009006721,-0.042264022,-0.08051738,-0.0022084652,0.018545803,-0.026728159,-0.00965586,0.06992526,0.0047833007,0.1048994,0.0015644475,-0.09030887,-0.08334108,-0.11467608,-0.006435157,-0.14445598,-0.031218695,-0.10359031,-0.12351422,0.1270174,0.019996967,-0.12747289,0.10655037,0.023919145,-0.016603231,-0.0057232464,0.038257197,-0.19828267,0.0011039984,-0.050274063,0.017416392,0.11101614,0.12094716,0.027115699,-0.045923594,-0.0019412708,-0.042920675,0.06668148,-0.08801647,0.024801316,0.10528989,-0.11728795,0.057525527,0.02035294,-0.09030892,-0.13402277,0.007799783,0.124375604,-0.13143624,-0.06166157,-0.08984371,-0.072121516,0.04577627,-0.0036908195,0.044729937,-0.024661792,-0.021256547,-0.041700803,-0.036696203,0.14856002,0.0028793525,0.094745345,0.018668402,0.09067166,-0.0018072978,0.08685042,0.07234735,-0.11132205,-0.053500354,0.016392497,0.019672737,0.01492453,-0.07282513,-0.0049116677,0.0876343,-0.08866243,-0.0062143435,-0.122459054,0.04007238,0.035091333
Alcalá_de_Henares,0.02141307,0.10262829,0.08599644,0.07160222,0.09044245,-0.013548908,-0.046094395,-0.19663927,0.04183078,0.0065110093,-0.025797773,-0.075869456,0.124422394,0.022941746,0.12388567,-0.050330255,0.019289272,0.052267887,-0.121557005,0.08536934,0.0051873447,-0.15059806,-0.055770647,0.11127218,0.0067653395,0.0043232753,-0.024368389,0.17373984,-0.114853114,0.07080538,0.11950141,-0.053564023,0.14334491,-0.13119641,0.0941612,-0.031005062,-0.0460955,-0.114184804,-0.1053311,-0.05908088,0.17361835,-0.09827716,-0.019775266,0.096741796,-0.036618322,-0.01813323,0.07355034,0.01980946,-0.06019184,-0.006883893,-0.007832711,0.09209627,-0.013832621,0.024015352,-0.07075677,0.011460266,-0.034157243,0.07631388,-0.044974215,0.043052576,-0.0136035485,-0.096822746,0.15115723,-0.012460509,-0.10017509,-0.09426363,-0.0024919147,0.0046324492,-0.09648138,-0.043252062,-0.042108264,-0.1046896,0.008511481,-0.12000553,0.04490576,-0.03763051,0.014790218,-0.0869504,0.07815845,0.10207426,0.09488127,0.10680954,-0.15161014,0.0913982,0.11651192,0.061638173,0.12176565,-0.098196514,0.003212681,0.008498434,0.067758046,-0.07992571,-0.090502776,-0.09014426,0.057435505,-0.044210855,-0.0112718735,0.055903584,-0.15294205,0.031963743
Alec_Douglas-Home,0.06573501,0.04642563,0.05926233,0.09369627,0.08406737,-0.081873484,0.055725556,-0.03165747,0.030394303,0.017049681,0.025528818,-0.045485593,0.080912344,0.104261726,0.09479001,0.003428901,-0.05716008,-0.057309303,-0.10390923,0.063924834,0.09151036,-0.11026816,-0.100793086,0.069524944,-0.019009832,0.0029573683,0.03701947,0.05307165,-0.009686654,0.020500032,0.09762708,-0.051390264,0.037255187,-0.04564792,0.07356791,-0.04339623,0.002153229,-0.048493754,-0.12092993,0.088574395,0.076230094,-0.0028958267,0.01363795,0.008606551,0.0012808521,-0.08411317,0.07309545,-0.07265293,-0.028726317,-0.08911462,-0.044280462,0.013561279,0.017649453,-0.022747556,-0.03705881,0.078907005,-0.08750711,0.01729834,-0.09549862,0.080123015,0.0062919236,-0.010101791,0.07702526,0.035651293,-0.09496711,-0.050440248,-0.081725635,0.07121868,-0.012920769,0.047567096,0.022579309,-0.015119307,0.043606132,-0.036474098,0.04645336,-0.030273894,0.024710368,-0.0012077951,0.027589448,0.0750156,0.053216517,0.08521012,-0.04161354,0.0791651,0.0028103779,0.07182211,0.051408578,-0.087555766,-0.04514125,0.044913013,-0.014863706,-0.040123478,-0.057893936,-0.04022768,0.038209565,0.013748922,0.027658552,-0.03397954,-0.05214806,0.043417845
Aleksandr_Solzhenitsyn,0.052103348,0.041713424,0.038820054,0.09030549,0.08404297,-0.04620849,0.090673015,-0.03502125,0.06830755,0.01684748,0.09726239,-0.025973069,0.05213031,-0.011941679,0.017689135,-0.022432514,-0.06726187,0.06679773,-0.0391872,0.06005852,0.13422719,-0.0047211135,-0.07594863,0.07950139,-0.005302712,0.008704688,0.04393561,0.122304775,-0.08504791,0.00631244,0.037625115,-0.027484728,0.044852518,-0.040898286,0.080337584,-0.05447872,-0.059697248,-0.113366246,-0.11083444,0.10211875,0.056430932,-0.014122442,0.004523366,0.041655347,-3.7423848e-05,-0.05636426,0.07711657,-0.07711642,-0.11047333,-0.112249605,-0.06911465,0.037270185,0.0666761,-0.016074222,-0.030355543,0.09358184,-0.055857692,0.016969124,-0.070506305,0.10533243,0.08798645,-0.044206373,0.058818072,0.009336864,-0.10473769,-0.036321074,-0.08369157,0.06370338,-0.06486304,-0.05890386,0.016368167,-0.11944548,0.038797297,-0.07255714,0.11731684,-0.009575679,-0.036137074,-0.040163916,0.028480144,-0.0072802226,0.04743991,0.063210115,-0.030959431,0.046523683,0.112113245,-0.025757244,0.057322457,-0.055664517,0.027010096,0.063350044,0.0126207825,-0.045036342,-0.049097367,-0.046732742,0.0611883,0.00259009,0.02284321,-0.01668317,-0.021812435,0.042834237
Alexa_Internet,0.07754781,0.12476506,0.08662026,0.105348475,0.060847457,-0.07910492,0.08472297,-0.08417086,0.051070847,0.041607626,0.0064242873,-0.10055777,0.07914126,0.08717117,0.08681601,-0.07126841,-0.07657818,0.100280344,-0.121051766,0.017326413,0.06447896,-0.08104825,-0.10003291,0.10583236,0.06545506,-0.07463396,0.099146426,0.068385534,-0.07408024,-0.005122382,0.08769839,-0.10501286,0.006457965,-0.0698829,-0.058761023,-0.059860718,0.0733149,-0.12673444,-0.101542786,0.104738824,0.062011242,-0.114725135,-0.029878028,0.029383749,-0.047329843,-0.015424207,0.09910166,-0.051898606,-0.026832283,-0.08437308,-0.13819915,0.057922445,0.08322967,-0.017575342,-0.096649624,0.08298656,-0.06935769,-0.05165676,-0.07631189,0.1085713,0.070476025,-0.09645769,0.055552185,0.09272043,-0.057475243,-0.099964194,-0.07021645,0.08210661,-0.10156773,0.021275252,0.01534045,-0.088656746,0.050716627,-0.086566165,0.11346312,-0.07635355,0.08008868,0.027698578,0.09523851,0.07550398,0.13723917,0.110947564,-0.06630022,0.0681855,-0.05409337,0.069068566,0.11905274,-0.08392221,-0.02096324,0.06013526,0.06679233,-0.10231023,-0.09972058,-0.10929083,0.09259827,-0.01140169,0.02475084,-0.1812282,-0.072215736,0.11431769
Alexander_Jablokov,0.037087608,0.039155655,0.0432089,0.092984915,0.0023159096,-0.06660161,0.07196073,-0.029139424,0.056224532,0.011944647,0.04706862,-0.024159214,0.058142986,0.118697695,-0.0075164367,0.013337906,-0.061374392,0.07091254,-0.107480474,0.07914333,-0.010061299,-0.09754324,-0.096653245,0.079362445,0.111076444,0.019907882,0.043607704,0.02938106,-0.04251817,0.06447108,0.0791825,-0.03840602,0.012745873,-0.024857573,0.11981218,-0.035099886,-0.012880071,-0.03398514,-0.08195118,0.058254458,0.045690063,-0.001560301,-0.0140762115,-0.013526888,-0.016013514,-0.093739346,0.080386594,-0.12111196,-0.12291019,-0.091477394,-0.009399832,0.009030497,0.065062,-0.029470727,-0.051756565,-0.02374344,-0.08757708,0.025468085,-0.07463082,0.069852844,0.049024813,-0.035173934,0.07550274,-0.005935015,-0.097184725,-0.08382738,-0.09886135,0.02430312,-0.01372772,0.042012118,-0.053517263,-0.077103,-0.012608199,-0.03440887,0.051075846,-0.120169,0.01663808,0.0042740023,0.025092892,0.11655656,0.015797697,0.045762513,-0.02492686,0.033125453,0.0069842413,0.081607185,0.044389248,-0.052952487,0.036791325,0.03751782,0.032240923,-0.04371708,-0.04379196,-0.046019852,0.040405087,0.054127224,-0.019714607,-0.02358743,-0.07637054,0.06172778
Alexandre_Pato,0.04456646,0.04187782,0.022730546,0.08839267,0.07192853,-0.0583005,0.108513154,-0.08197432,-0.016533451,0.090248026,0.07321671,-0.031545263,0.085338205,0.0849896,0.08525898,0.013133087,-0.09293461,0.048407376,-0.12310664,0.07755614,0.11098817,-0.09975083,-0.0826704,0.09812662,0.09138491,-0.005139689,0.0755046,0.060146183,-0.085135736,0.036169432,0.013735801,0.0021423704,0.06309178,-0.08413256,0.018393202,-0.025170386,-0.001850013,-0.09972625,-0.09117324,0.059216484,0.022779781,0.011709028,0.026623162,-0.022848308,0.012371906,-0.03568634,0.10181051,-0.048142254,-0.10910086,0.008213519,-0.067227386,0.024619253,0.07846926,0.03512406,-0.054948147,0.06827097,-0.03197284,0.014487877,-0.11932079,-0.0043753157,0.02054116,-0.028130785,0.06774943,-0.005433257,-0.09775364,-0.045830432,-0.098820545,0.07233525,-0.010777014,0.054331016,-0.059606336,0.0107889185,0.04149111,-0.026963228,0.08488976,-0.001170667,0.0048220283,-0.049643595,0.008900263,0.052448433,0.034361936,0.09160421,-0.05975989,0.031477276,0.1094359,0.042377245,0.040318437,-0.04789964,0.021312833,0.054267664,0.09345347,-0.06539355,-0.037605587,-0.042946044,0.059916068,0.07566736,0.036857363,-0.05122155,-0.0006898717,0.027236331
Alexis_Valdés,0.056070544,0.08807488,0.028425252,0.04843254,-0.04196911,-0.06389544,0.07221617,-0.074775994,0.082795374,0.01963815,-0.044316754,-0.028682208,0.035558023,0.11527361,0.044828795,-0.013458736,-0.0044301464,0.10035005,-0.058535974,0.0454758,0.08130311,-0.08781059,-0.09776066,0.0101312315,0.08152502,0.006300703,0.06209292,0.0032795966,-0.033303335,0.05014765,0.0038000809,-0.072387084,-0.031284425,-0.041525934,0.010014296,-0.031066326,-0.02326685,-0.13659972,-0.11225582,0.04776295,0.057997014,0.0069328165,0.019481933,0.040024076,-0.023509715,-0.07096578,0.08235674,-0.04310713,-0.05257688,-0.117784254,-0.06260348,0.0078497855,0.08379997,-0.035553604,-0.04152348,0.08047647,-0.05776299,0.011780272,-0.01938063,0.09134478,0.083685815,-0.030612515,0.072270505,-0.0048871706,-0.08604767,-0.08095984,-0.06794571,0.064261995,-0.018818002,-0.07284419,0.028457139,-0.073989995,0.047572795,-0.03893726,0.02683758,-0.11526598,0.026656495,-0.0047892607,0.03415834,0.06960995,0.04363593,0.09133406,-0.054479465,0.03585844,0.01362611,0.0665783,0.07078057,-0.07814748,0.026460359,0.0454895,-0.012125857,-0.059836205,-0.037598155,-0.04891339,0.040292572,0.043065432,0.033079594,0.0044939597,-0.080308765,0.014692984
Alexondra_Lee,0.13406718,0.070739284,0.006693958,-0.02015368,0.00079154526,-0.11915325,0.0962774,-0.16334663,-0.010216135,0.080728255,0.06933921,-0.107225254,0.13727154,0.08616285,8.843694e-06,-0.101692006,-0.032256514,0.12985937,-0.10822729,-0.007941408,0.083369315,-0.028679831,-0.066625714,0.03178666,0.13095185,-0.02351635,0.01789983,0.0955816,0.019412508,0.06599076,0.114840135,-0.13489012,0.018145474,0.009616087,0.05998503,-0.028544726,-0.051801972,-0.13366932,-0.039708935,0.08996174,0.06287374,-0.1163604,0.03972754,0.016177962,0.0027882056,-0.06475229,0.09249743,0.015954962,-0.14418368,-0.020436302,-0.1178794,0.11056585,0.11713689,-0.0013856373,-0.016605813,0.09002678,-0.059469026,0.07977298,-0.0630413,0.06957516,0.084876575,0.05638529,0.015147527,0.070330285,-0.059519574,-0.08685786,-0.06660311,0.052954286,-0.05970652,0.024201076,-0.07925624,0.03123079,0.0106922295,-0.0216593,0.10444207,-0.04780621,0.08291552,-0.11499567,0.17869516,0.027966613,0.06664913,0.04141486,-0.18928513,-0.0024404202,0.06427837,0.06101993,0.070661984,-0.056982834,0.08034663,0.13402316,0.052842613,-0.12010389,0.012669754,0.0054424815,-0.025656708,-0.07764394,-0.1473647,0.04536262,-0.14074723,0.024903214
Alfred_Bester,0.046029057,0.04494244,0.052683964,0.07592248,0.05960539,-0.080122225,0.10710907,-0.021701984,0.018631998,0.02322947,-0.0068019964,-0.0871403,0.037333287,0.12413119,0.05271109,0.017685713,-0.11793289,-0.0046517174,-0.12113039,0.05356862,0.06326693,-0.08573161,-0.021126693,0.07913715,0.0073711015,0.018380357,0.037908893,0.12179798,-0.074568115,0.01742791,0.0319656,-0.015692227,0.016631158,-0.0025225123,0.09685229,-0.035706963,0.0025455481,-0.09872974,-0.10847459,0.011952072,0.05136798,0.008855356,0.035292074,-0.0051854695,-0.031925585,-0.090155765,0.05907707,-0.07198085,-0.037653994,-0.0392555,-0.0026254605,0.010751593,0.019894993,-0.013980471,-0.073833264,-0.017433684,-0.08161987,0.072171,-0.06296715,0.081497595,0.09815995,-0.044035327,0.033014964,0.012291655,-0.08957295,-0.059972044,-0.08294928,0.055363238,-0.01779419,-0.03959189,-0.05966483,0.03791283,0.057156246,-0.037810754,0.07818555,0.027162567,0.017330447,0.0078099,0.01990291,0.09342787,0.04986121,0.09503878,-0.040391263,0.07397011,0.09573578,0.09670823,0.056561954,0.008214825,-0.04581103,0.033959944,0.0015025415,-0.0382807,-0.047730867,-0.044638775,0.047690056,-0.004131571,0.014469893,-0.05916828,-0.028120121,0.08682781
Algeria,0.111507,0.05415566,0.055317856,0.12587416,-0.04174108,-0.033153374,0.14888296,-0.011695722,-0.027342506,0.12598024,0.07534457,-0.07924333,-0.054625478,0.041163042,-0.0006664007,-0.058717698,-0.092521444,0.01918983,-0.08464289,0.08292868,0.11680019,-0.16563575,-0.038803842,0.09968004,0.031075308,0.03926095,0.07461899,0.11705808,-0.028711658,0.078463726,0.110099114,-0.033520635,0.063603766,-0.037847202,0.07863612,-0.12407867,-0.030618347,-0.18358631,0.04637022,0.099579915,0.08012467,-0.07357317,0.02575107,0.025304757,-0.03499982,-0.14354604,0.1360173,-0.10782506,-0.11793898,-0.12265392,-0.12485986,0.059684873,0.063889325,-0.05064556,-0.041629348,0.014500354,-0.083831124,-0.010572678,-0.13139759,0.10985548,0.09002611,-0.113560654,-0.043158162,0.026426835,-0.0041096616,-0.0371768,-0.07793443,0.075035416,0.0018792338,-0.0637383,-0.12864451,-0.1269406,-0.021142252,-0.09318552,0.03100881,-0.028099386,0.050501324,-0.039590325,-2.3384317e-05,0.070184946,0.08659631,0.16134544,-0.13844395,-0.007580205,0.121354304,0.16297324,0.08999981,-0.1837132,0.10510025,0.100261316,0.053889263,-0.019715792,-0.028281951,-0.07752932,0.09388383,0.06839701,-0.028612936,-0.026454544,-0.06984992,0.12236997
Ali_Landry,0.051987235,0.053442158,0.05304258,0.09912286,0.008720627,-0.06060874,0.06589625,-0.08235247,0.07929273,-0.00863104,0.09011485,-0.015154053,0.04355367,0.11339987,0.10238059,-0.005587668,-0.11125168,-0.050997894,-0.109573595,0.08802998,0.09924517,-0.09875646,-0.08444177,0.06936135,0.093578935,0.008841396,0.051159896,0.06249519,0.027762583,0.07048696,0.086695686,-0.001960473,0.013050685,-0.04366227,-0.027503734,-0.037013385,-0.0020640048,0.004660595,-0.06574007,0.10533045,0.031906005,0.0020651473,0.026542058,-0.025175089,-0.015035525,-0.049964797,0.07697404,-0.076943755,-0.11544024,-0.031160904,-0.06948947,0.0148903895,0.09715331,0.05426377,-0.05412719,0.10334471,-0.09240107,0.018151347,-0.04311762,0.07857294,0.01453801,-0.03370585,0.05657567,-0.015787542,-0.01881334,-0.032208603,-0.084793255,0.066556275,-0.008851671,0.029120412,-0.06330891,-0.045516863,0.031755973,-0.057639893,0.08549211,-0.10162027,0.00663488,-0.009122344,0.024922524,0.09418019,0.06420447,0.07328921,-0.016298862,0.0407291,0.0607913,0.08901719,0.045841172,-0.08176724,-0.030574342,0.02650185,0.03439991,-0.038575556,-0.049767137,-0.04336663,0.07132424,0.039433092,-0.032824654,-0.025288148,-0.071113266,0.04410004
Alicante,0.01045928,0.13731535,-0.019509986,0.0843337,0.14947249,0.010584027,0.085807435,-0.177234,0.052065507,0.02091977,0.11169219,0.00436387,0.0076829195,0.02768794,0.067832224,-0.035268333,-0.16040197,0.021477051,-0.04173513,0.029072665,0.12813178,-0.13947831,0.0012473733,0.029008182,0.08424073,0.06393878,0.123844355,0.13769615,-0.028897692,-0.040565185,0.05158449,-0.080586776,0.100668274,-0.045398824,0.13069522,-0.06998855,-0.015510107,-0.110556364,-0.023949081,0.008645703,-0.00873097,-0.12179873,0.018542862,0.023217767,0.037458707,-0.03874277,0.0064860145,-0.13375054,-0.046675447,0.0037736616,-0.072224855,0.014888398,0.1737224,-0.12670036,-0.0923768,-0.0074467594,-0.1486284,0.076289654,-0.067305155,0.033160046,0.1063077,0.002505092,0.19343825,0.04984158,-0.032301046,-0.06419802,-0.09003814,-0.06189501,-0.021727879,0.0035143767,-0.029818062,-0.078303434,-0.017382083,-0.072700456,0.059315007,-0.053603314,0.064117715,-0.058960915,0.093166955,0.12845746,0.11005991,0.044982545,-0.08474245,0.043433633,0.0632545,0.07697525,0.055102997,-0.07039666,0.087873384,-0.010559664,0.12775713,-0.13904725,-0.019727552,-0.0028242555,0.004923592,0.049694993,0.0377322,-0.016441386,-0.022731574,-0.011185799
Alki_David,0.0708102,0.119567946,0.13365175,0.018674495,0.118264094,-0.0019194371,0.11369236,-0.05718173,0.0069386843,0.0738538,0.06472732,-0.11286055,0.12222564,0.13148823,-0.01612054,-0.07476925,-0.1351392,0.010064225,-0.047812082,0.057298355,0.11789695,-0.091146894,-0.1165325,0.12919551,0.05312058,0.03140532,0.026844097,0.05537916,0.004173866,-0.02827903,0.12472212,-0.09021626,0.0074268742,-0.04128589,0.024904635,-0.122676805,-0.046903472,-0.1298635,-0.110782765,0.050346922,0.050360188,-0.076680526,-0.081097916,0.093891926,-0.0076787705,-0.020684075,0.041360054,-0.11817332,-0.08292741,0.03091785,0.02770296,0.08678372,0.074545085,-0.035843953,-0.09834481,0.008072716,-0.13588192,-0.04044334,-0.14173923,0.052150197,0.050794933,-0.05493133,0.12807675,0.099736586,-0.0022207429,-0.030021664,-0.07984951,-0.02714054,-0.016614519,0.021053243,-0.0478221,-0.16752207,0.018597642,-0.10454325,0.12116932,-0.078465246,0.07356792,0.005870531,0.06487405,0.1792617,0.061601974,0.12510757,-0.106242165,0.062350415,-0.0344419,0.1356895,0.095428534,-0.07040668,-0.05522551,0.06108351,0.17419794,-0.0369674,0.025997654,-0.104785964,0.0865923,-0.081144884,0.045438834,-0.03852559,-0.08171971,-0.018677084
Alyson_Stoner,0.13502441,0.023063874,0.11482104,0.097825855,0.03759823,-0.004286655,0.03399103,-0.13138616,0.013942461,0.07703665,-0.016509801,-0.012301408,0.14107643,0.07396745,0.13933279,-0.040732715,-0.08585373,0.08779501,-0.13232388,0.0833765,0.057252582,-0.033250388,-0.036367003,0.05218815,0.030319897,-0.022660162,0.047795475,0.054764014,-0.1021917,0.076006055,0.07318246,0.02187361,0.1635802,-0.10986683,0.11791157,0.012219759,-0.11978888,-0.09164313,0.052528434,0.096900456,0.07195566,-0.027745264,-0.04532298,0.051925607,0.005285182,-0.103189215,0.07039592,-0.09439126,-0.06659967,-0.1029871,-0.11017364,0.035747614,0.048774943,-0.051711217,-0.12040765,0.0048906915,-0.057005223,0.06426082,0.008265874,0.085109755,-0.0058825715,-0.010581823,0.17896482,0.10695957,-0.10908398,-0.13732621,-0.04045961,0.04876553,-0.06285933,-0.02919121,-0.13597685,-0.042964555,-0.01629104,-0.11154522,0.011937611,-0.08112374,0.0477976,-0.091632865,0.09416702,0.016395014,0.06813987,-0.0039097695,-0.066479996,0.0715978,0.072099574,-0.012651193,0.09842804,-0.066401266,-0.06291757,0.0942626,-0.030385317,-0.045986895,-0.16074255,-0.1180793,0.11255346,0.028215747,-0.08828299,-0.052312102,-0.12741572,0.10121247
Amanda_Peet,0.015252004,0.059894353,0.070325725,0.16022219,0.0069214026,-0.14267091,0.03832456,0.013826095,0.047186233,0.07806134,0.025732951,-0.09931014,-0.037507135,0.059060328,0.08826118,-0.04240753,-0.07002167,0.008140319,-0.08997207,0.06524642,-0.045446407,-0.040656973,-0.06775137,0.11949712,-0.00250336,-0.02597282,0.03765211,0.09806475,-0.10562154,0.12125235,0.039295696,0.017125962,0.20086014,-0.019997874,0.051309958,-0.047653634,-0.0362382,-0.02563136,-0.05003664,0.1555531,0.039280597,-0.05369601,-0.0337681,-0.04232774,-0.082669735,-0.038651027,0.0053070243,-0.071373634,-0.07284779,-0.09480101,-0.09995834,0.10238306,0.10630492,-0.02448137,-0.11127784,0.10372442,-0.039368965,0.13721472,-0.13567324,0.07704218,0.006225479,-0.1153314,0.007958137,0.10213438,-0.007811793,-0.10005833,-0.09735976,0.08512225,-0.077095576,-0.11287779,-0.05500966,-0.12141008,0.008794987,-0.11292369,0.019727726,-0.03736608,0.06878504,0.04449038,0.09507029,0.032429963,0.083915286,-0.01726039,-0.06424536,-0.018250916,0.062405426,-0.009712072,0.025180219,-0.14486304,-0.037837736,0.18442199,0.0030711235,-0.13263212,-0.11673306,-0.10627341,0.04668469,0.034424428,0.057073496,-0.028453628,-0.035495676,0.10096092
Amanda_Seyfried,-0.010840246,0.11098308,0.02107536,0.06330864,0.06577277,-0.07354575,0.12062135,-0.10997879,0.051313635,0.07123257,0.08527176,-0.08308506,0.09234582,0.07594422,0.07934393,-0.104430355,-0.051873464,0.077638075,-0.10777375,0.12781431,0.04956994,-0.09670786,-0.057921614,0.07233196,-0.015291222,-0.06447016,-0.034119572,0.08417145,-0.05359969,0.08077536,0.074086964,-0.02845769,-0.09494688,-0.131872,0.042593777,-0.095020205,-0.0861559,-0.08911012,-0.11318024,-0.01695719,0.044536266,0.022788538,-0.0154919075,0.036707003,0.044090983,-0.10663853,0.15309788,-0.07926598,-0.03873366,-0.097906865,0.02507351,0.114692725,-0.032192376,-0.07033894,-0.10484661,0.02149642,-0.124930315,0.07517044,-0.110724986,0.066157795,0.09892429,-0.10686204,0.0891119,0.055614904,-0.08445743,0.010758853,-0.03965991,0.114916466,-0.10518093,-0.12059323,-0.05645211,-0.13549386,0.0066233785,-0.0937555,-0.0005739673,-0.09599276,-0.036141634,-0.04890919,0.09329608,0.13375427,0.09066693,-0.010252924,0.01241535,0.10446304,0.11661927,0.08275656,0.047059525,-0.110630885,0.015053001,0.06203707,-0.0255466,-0.03053621,-0.0875249,-0.061457578,0.116436675,0.022727134,-0.058791324,-0.04434264,-0.09679674,0.16610453
Amazon.com,0.06055726,0.066287,0.01892287,0.10017457,-0.050705977,-0.0336837,0.048111327,-0.07946212,0.0814133,0.029932113,-0.0014889082,-0.030017458,0.10288994,0.14949629,0.09534897,0.016771125,-0.034631535,0.07409754,-0.120538734,0.068512045,0.07740943,-0.09803224,-0.03928992,0.05993042,0.06273717,0.00697862,0.03686953,-0.0013281906,-0.085882254,0.04812948,0.09994513,-0.011467669,0.005765247,-0.057949103,0.070813745,-0.036048744,-0.0018793284,-0.005095444,-0.099536836,0.053152923,0.044099897,0.0101633975,0.018553942,-0.00092385855,-0.05837557,-0.08836198,0.09282191,-0.12510572,-0.016828818,-0.100484625,-0.055454466,0.01725017,0.08559401,-0.022796683,-0.050601307,0.085161746,-0.059689377,0.045451175,-0.10384988,0.08304492,0.014899298,-0.029552765,0.076656826,-0.0033116518,-0.09996673,-0.08173799,-0.05190104,0.04656555,-0.012754949,0.015763788,-0.0025955064,-0.08619902,0.016247356,-0.040044323,0.10867593,-0.12384338,0.022223234,0.0017873583,0.04132233,0.07727482,0.012571148,0.08354482,-0.057627358,0.035793945,-0.024685368,0.07685588,0.07404014,-0.076983675,-0.04106817,0.044059027,-0.0039526764,-0.048888147,-0.04691028,-0.06289056,0.037530515,-0.015205258,-0.065818645,-0.037647694,-0.05700182,0.04763926
Amir_Johnson,0.058449976,0.04499708,0.027450861,0.031057447,0.017401073,-0.049660284,0.13090481,-0.07220974,0.06861927,0.012437581,0.037898667,-0.067025304,0.030680275,0.1358256,0.12243734,0.022180725,-0.0910164,0.107934125,-0.049695067,0.045951985,0.07581945,-0.11457576,-0.08706958,-0.0029945055,0.105235025,-0.013999821,0.083862275,0.038182814,-0.0853751,0.008662271,0.09106199,-0.015625132,0.019885434,-0.05408283,-0.011144973,-0.053253762,-0.03007069,-0.048358656,-0.07814058,0.073211774,0.049585763,-0.001727239,0.029403932,0.05846975,-0.035026982,-0.065059915,0.052880887,-0.003151007,-0.09249532,-0.06487135,-0.08895862,0.053179134,0.057250146,0.03353195,-0.08016316,0.10479751,-0.018308097,-0.0011079429,-0.059594706,0.06839273,0.102767,-0.034161024,0.039790433,-0.0007283982,0.0073736324,-0.049881596,-0.07542963,0.053589247,-0.022543129,-0.0685742,-0.04408055,-0.023643356,-0.02499151,-0.038110595,-0.03898219,-0.08081419,0.013782061,-0.020135682,0.04608735,0.11370484,0.052356906,0.08609028,-0.038831465,0.030951757,0.073406555,0.09073158,0.040899146,-0.04959081,-0.025792722,0.04363283,0.009157399,-0.068144254,-0.05452788,-0.080233954,0.06748357,-0.0022650454,0.029731546,-0.020953696,-0.073641986,0.048392124
Amnesia_Moon,0.016887318,0.070854895,-0.03259935,0.17534567,0.10639628,0.015442832,0.051257394,-0.02072634,0.056630403,0.07303911,0.085199416,-0.09773287,0.12652813,0.062042747,0.059764042,-0.03539492,-0.085239716,-0.026538685,-0.09109499,0.1418453,0.064966835,-0.03610113,-0.06564709,0.086170085,0.08129197,-0.089320086,0.09392889,0.063943066,-0.09270358,0.049732383,0.092465155,-0.06503406,0.014311819,-0.10034563,0.14865136,-0.11292423,-0.03918218,-0.057209864,-0.10205976,-0.02599459,0.07838537,-0.14356445,-0.012937828,0.034212563,-0.050119214,-0.0041091074,0.08977721,-0.111195885,-0.05636984,-0.074893065,0.030275445,0.037702035,0.027011821,-0.12292584,-0.112686485,0.009652618,-0.054568075,-0.032245126,-0.11141646,0.06246537,0.09582593,-0.057713125,0.08673356,0.115431875,0.007856753,-0.10710165,-0.0759562,-0.0011658842,-0.06341777,-0.057085074,-0.04474611,-0.08519689,0.098515995,-0.027129972,0.13376556,-0.048436604,0.0785999,-0.10967292,0.026927972,0.09710662,0.06848988,0.055223666,-0.110778965,0.12568368,0.09808084,0.10980018,0.10038948,-0.078570366,0.047467966,-0.037641734,0.050774064,-0.07882099,-0.111252025,-0.04543257,0.09180714,-0.09594747,0.018251786,0.013601196,-0.056468986,0.059349712
Amy_Poehler,0.111147925,0.10273378,0.15419269,0.027133321,-0.049304496,-0.1379018,0.13648923,-0.028075323,0.056156043,0.0003512905,0.03731592,-0.042499255,0.13368468,0.048166133,0.017773101,-0.022776598,-0.13094,0.051183004,-0.0040369118,0.07621542,0.118143454,-0.103893384,-0.05990597,0.009775521,0.12392409,0.013917731,-0.018658567,0.13474686,-0.022344818,0.06594005,0.08495355,-0.06842657,0.00027726853,-0.08416741,0.056934442,-0.053015254,-0.042419657,-0.07523558,-0.11583837,0.08799296,0.10833731,-0.07297847,0.08423632,0.0046299435,-0.00566253,-0.06544989,0.057703182,-0.05876295,-0.10083982,-0.018605378,-0.13939227,0.12237867,0.12165668,-0.01937987,0.014238117,0.101217195,-0.12199032,0.19085062,-0.11385632,-0.0035048386,0.11616078,0.055814583,0.10899827,-0.013983473,0.014706104,-0.0750657,-0.11691186,0.08250903,0.06507168,-0.058837313,-0.033411752,-0.13141732,0.039068066,-0.010378684,0.1743095,-0.070657596,0.012281604,-0.10292941,0.055027284,0.099133216,0.09658363,-0.040869497,-0.18369885,0.10898221,0.09836811,-0.021211546,0.10240615,-0.12641723,-0.022404151,0.06491356,0.036148947,-0.10346974,-0.013751997,-0.12094701,0.093431674,-0.06333998,0.029873714,-0.082570046,-0.054878887,0.025150547
Amy_Spanger,0.074466184,0.03412995,0.032563593,0.045842238,0.065532036,-0.06521913,0.05340303,-0.042063933,0.06354986,0.014162472,0.08590516,-0.045569383,0.006844235,0.087487474,0.03123504,0.0045476346,-0.11541578,0.05137163,-0.024190899,0.05569608,0.1317884,-0.043191675,-0.09380514,-0.0048991246,0.0986297,-0.053573206,0.038724508,0.11325315,-0.024911027,-0.0068997038,0.03311267,-0.013480763,-0.06219501,-0.021852408,-0.010297754,-0.073332354,-0.05985878,-0.100425236,-0.034521867,0.10027707,0.043795373,-0.069826305,-0.03749845,0.028771766,-0.033170514,-0.0532008,0.07422108,-0.061143428,-0.045000177,-0.036867466,-0.0051410273,0.027908277,0.059110813,0.038505785,-0.07801729,0.009678073,-0.0021431576,0.048706662,-0.0042695617,0.08445454,0.096410744,-0.070048474,0.021911122,0.008322496,-0.010027879,-0.0579158,0.01600395,0.009040142,-0.0590968,-0.06499878,-0.05633978,-0.07941912,0.047213197,-0.06577311,0.010616255,0.013447955,0.008026744,0.0069409255,0.024798539,0.030402698,0.034122963,0.102127194,-0.07775231,0.030919565,0.074511975,0.081867576,0.044822395,-0.070535205,0.02412916,0.051787548,-0.0034978865,-0.051421735,-0.06115665,-0.047119543,0.039869055,-0.0119131,0.021686144,-0.05568951,-0.03958239,0.080472626
Anatole_France,0.042624816,0.073810905,0.03698472,0.11331184,0.0033643784,-0.050991904,0.08320478,-0.0878432,0.072200716,0.024565564,0.061338276,-0.022097379,-0.006816264,0.0493743,0.07856781,-0.06410222,-0.1208222,0.08279346,-0.04034229,0.103614576,0.105584666,-0.050512213,-0.10074789,0.0055205957,0.023685863,0.018659651,0.02989016,0.11349328,-0.11365039,-0.0017946862,-0.049003176,-0.028114581,-0.035903376,-0.07961856,0.016481975,-0.027708096,0.0020231386,-0.031294238,-0.09769968,0.033876937,0.053348023,-0.042752065,0.021767352,0.045930658,0.0074213254,-0.06062412,0.08265948,-0.03271489,-0.12386844,-0.098727666,-0.085036986,0.017213106,0.051120132,-0.012254254,-0.043100268,0.092498556,-0.028841475,0.03421522,-0.093908966,0.024430512,0.101167925,-0.028638884,0.069729574,0.000517922,0.015863515,-0.04623005,-0.07385325,0.054290347,-0.013586075,-0.03844912,-0.06769277,-0.010691458,-0.030326847,-0.037570186,0.12497323,-0.11842674,0.028870111,0.0024490557,0.016208183,0.07647863,0.055747416,0.11392832,-0.04054068,0.030150486,-0.011043324,0.10155781,0.039710548,-0.07980987,0.033804026,0.03209814,0.00072749663,-0.0676044,-0.06864688,-0.08158922,0.04075458,-0.029665446,0.021779815,-0.043978844,0.004575313,-0.014358952
Anders_Fogh_Rasmussen,0.04273741,0.04635083,0.025526738,0.09570922,-0.030018313,-0.06701002,0.08419538,-0.01657631,0.06576288,0.020834018,0.067389235,-0.05464764,0.034367688,0.12604572,0.09160916,-0.027712833,-0.043243546,0.08702895,-0.094207466,0.074048474,0.010574688,-0.09492173,-0.0053409967,0.02111404,0.099571094,0.018329052,0.047238793,0.110376656,-0.09462312,0.023450594,0.09864048,-0.014748955,0.036979683,-0.06296209,0.10536343,-0.064752005,-0.020795451,-0.103868164,-0.109879255,0.05885393,0.05988617,0.012998671,0.015096259,0.0053506815,-0.042260587,-0.09063008,0.07631161,-0.07735501,-0.09375195,-0.09745415,-0.046584085,0.06896661,0.008991252,-0.035414744,-0.06153238,0.10379475,-0.026246263,0.028522119,-0.11463389,0.060233187,0.09732185,-0.028080303,-0.013005591,0.05172834,-0.08408383,-0.05671507,-0.09696617,0.055000894,-0.005956636,-0.07607851,-0.041857246,-0.02371002,0.012139712,-0.039379172,0.056372527,-0.11004845,6.5988684e-06,0.012337108,0.069901824,0.0845924,0.037992314,0.08436285,-0.033540964,0.023608288,0.055207472,0.053686824,0.05384512,0.0035293691,0.050677523,0.04102472,0.015598215,-0.0419707,-0.08240205,-0.053714357,0.03431238,0.0013558418,0.034635033,-0.06437334,-0.08254233,0.040019374
Andre_Agassi,0.06379754,0.039198216,0.021781636,0.07973551,0.07009258,-0.033842027,0.03377743,-0.05536087,0.048566993,0.04775944,0.10377828,-0.024023483,0.04236213,0.027097976,0.110088095,0.0055878744,-0.11098136,0.093623415,0.006424543,0.040420778,0.13412613,0.02072937,-0.094202645,0.05938188,0.11431372,-0.037808232,0.05437366,0.05850636,-0.10047554,0.03183126,0.106226526,-0.048676245,-0.022278199,-0.034703813,0.061664272,-0.033529036,-0.0020084006,-0.11133552,-0.07089034,0.0012726284,0.07369942,-0.033665016,-0.0143313585,0.038326014,0.03172656,-0.05901014,0.025500294,-0.09693351,-0.11635321,-0.033269476,-0.080346465,0.017489934,0.07384229,0.025642073,-0.028961288,0.06910634,0.0067379274,0.028487977,-0.09189679,0.08250665,0.01729567,-0.059716348,0.08364131,-0.001834506,-0.08464971,-0.045104224,0.025602035,0.10030148,-0.025593057,-0.043647066,-0.033085562,-0.100215964,0.042407345,-0.038594034,0.03439008,-0.11846724,0.03248261,-0.0015552823,0.011202872,0.10815493,0.025806578,0.07795261,-0.059587322,0.06738022,0.085730225,0.05633583,0.070426576,-0.07530525,0.00045045523,0.04090656,-0.015491045,-0.043363497,-0.042501293,-0.06575577,0.035967015,-0.011940513,0.019964438,-0.052217774,0.0066190865,0.054607145
Andrei_Kirilenko,0.07293381,0.08945372,0.063364,0.09719458,-0.073229425,-0.03550929,0.10249666,-0.09880551,0.07969312,0.018429067,-0.0045006387,-0.02278619,0.080423,0.13394147,0.08358691,0.03384153,-0.081875965,0.07265097,-0.07679366,0.07571857,0.014046554,-0.10613903,-0.11078132,0.0016718768,0.0911334,0.016403938,0.08101565,0.11766038,-0.05852291,0.00045704618,0.028697874,-0.006815186,0.096806064,-0.096365385,0.10984715,-0.07440907,-0.009428198,-0.060779102,-0.11158937,0.03801068,0.054811403,0.009260257,0.001566417,0.042047143,0.022348043,-0.056184024,0.018986098,-0.022748444,-0.061160747,-0.10005154,-0.058768872,0.00920079,0.022886336,-0.031233946,-0.044096883,0.10420482,-0.07402911,-0.01370606,-0.019487338,0.0772216,-0.005910402,-0.03780834,0.08486983,-0.010986063,-0.007233544,-0.06651963,-0.10258192,0.054112762,-0.014900916,0.0326581,-0.06289735,-0.061121814,0.01663336,-0.041361034,0.07462674,-0.062051903,0.054241646,-0.036173966,0.021537475,0.07178246,0.018237682,0.076153316,-0.053390253,0.036020804,0.017290704,0.098744154,0.058561783,-0.040174168,-0.04256004,0.037753597,-0.011675985,-0.041739926,-0.045534898,-0.050993215,0.03688153,-0.019021016,-0.0037190546,-0.055037845,-0.056687202,0.046033427
