,0,1,2,3,4,5,6,7,8,9,10,11,12,13,14,15,16,17,18,19,20,21,22,23,24,25,26,27,28,29,30,31,32,33,34,35,36,37,38,39,40,41,42,43,44,45,46,47,48,49,50,51,52,53,54,55,56,57,58,59,60,61,62,63,64,65,66,67,68,69,70,71,72,73,74,75,76,77,78,79,80,81,82,83,84,85,86,87,88,89,90,91,92,93,94,95,96,97,98,99
1634:_The_Ram_Rebellion,0.117490806,0.09546706,-0.13734731,0.12941723,0.049467802,0.060086526,0.061234448,0.070500724,0.05339731,-0.054754086,0.051386427,0.10484387,0.039626464,-0.08635941,0.061008893,0.07797107,0.11416552,0.05006777,0.10317753,-0.020531155,0.081606105,0.13342997,-0.023533147,-0.030022478,0.0044313325,-0.08040042,-0.12170625,-0.08527163,0.063537896,-0.0720228,-0.07136415,-0.10676137,-0.040510807,0.10477719,0.09205922,-0.13056614,0.017932385,-0.073613755,-0.07013047,-0.069243275,0.013980759,0.088652514,-0.13228959,0.076226644,0.083703406,0.056063086,-0.026166374,0.08510466,0.08030187,0.08613592,-0.11329824,-0.07707239,-0.057917558,-0.07098392,-0.09679495,0.08660097,0.14085308,0.08923365,0.12603416,-0.08226785,-0.08226196,0.01598153,0.0973572,-0.016286377,0.113782614,-0.07601899,-0.04577701,0.12568568,0.0785009,-0.074673064,0.031138048,-0.08597473,0.02567335,0.1384501,-0.108494416,-0.093175225,0.051919762,0.017025493,0.07932008,-0.100968584,-0.11245146,-0.07784516,-0.09884947,0.08812817,0.113551766,0.047723882,-0.076029964,-0.06859996,-0.13019979,-0.089458436,-0.041326355,-0.07725092,-0.043668047,-0.031342514,0.042539842,0.10642616,0.08503261,-0.06430482,0.11409188,0.056976814
1635:_The_Cannon_Law,0.094767496,0.12350007,-0.07813625,0.07758664,0.13118212,0.018922633,0.109524846,0.044393133,-0.026852684,-0.054571614,0.001731568,0.10106103,0.0627477,-0.11306106,0.06354746,0.10364863,0.10223663,0.048344806,0.028651416,0.029105408,0.09412483,0.12080031,0.042962335,0.009912911,0.08769511,-0.12280106,-0.04358432,0.011206564,0.1141104,-0.09163774,-0.110463925,-0.07663005,-0.035326794,0.09364374,0.08750458,-0.09806083,0.024625571,-0.080437645,-0.10000805,-0.08339406,0.0055983933,0.062278256,-0.07778884,0.09951259,0.07963506,0.050758176,-0.06295984,0.09249985,0.08587304,-0.013382597,-0.09226622,-0.0702987,-0.097795874,-0.088456616,-0.10075821,0.08556506,0.077998355,0.10609156,0.1489238,-0.112680204,-0.112203605,0.07657319,0.113221094,-0.05190665,0.052595377,-0.021429643,0.021265615,0.037559584,0.06020771,-0.034781877,0.09834576,-0.0673774,0.14479162,0.020828096,-0.10107852,-0.034616824,0.067784876,0.06624648,0.119938016,-0.09162209,-0.06854388,-0.024171975,-0.09872487,0.030234726,0.091493435,0.01461897,-0.121488586,-0.063059315,-0.10737015,-0.10181024,-0.11885636,-0.08135444,-0.018212195,-0.07632585,0.017978605,0.12085342,0.0951349,-0.012213346,0.094596066,0.15695792
2012_(film),0.00663429,0.0678032,-0.039141957,0.08904028,0.015299385,0.019743524,0.006026266,0.03410519,-0.062228624,-0.047802757,-0.01167147,0.04824298,-0.00035329998,-0.06384822,0.06420276,0.051719487,0.084088266,0.0025796515,0.09627137,-0.007418939,0.04547138,0.005176732,0.014130979,-0.024264479,0.091148935,-0.05468518,-0.081368074,-0.03117339,0.013877013,-0.018146824,-0.03125459,-0.045636807,-0.01925441,0.074177645,0.03955914,-0.09790913,-0.030053077,-0.025951395,0.015866874,-0.03734415,0.04471904,0.08182627,-0.078617066,0.033285554,0.029466435,0.04721885,-0.07097048,0.07034108,0.017040472,0.008304663,-0.044251144,-0.010281139,-0.017521104,-0.037361473,-0.018928628,0.06903515,0.0675928,0.07473526,0.097616285,-0.10855901,-0.02098967,0.010721975,0.03209192,0.004673756,0.036709942,-0.0035887342,-0.04984625,0.07673893,0.08898822,-0.1359793,-0.014831945,-0.07965304,0.06550303,0.08110134,-0.05998838,-0.06269992,0.036683165,0.06841121,0.039970394,-0.08421036,0.0013373058,0.023395138,-0.075161785,0.032106243,0.06545103,0.010776199,-0.0005512301,-0.118851595,-0.043470312,-0.07047838,-0.034674264,-0.041251104,0.008524703,-0.004060885,0.034744684,0.12123872,0.06394008,-0.00072757795,0.06094919,0.079586506
334,0.09263678,0.044482995,-0.07667814,0.05731778,0.081732646,0.05714303,0.005649324,-0.019951226,-0.010612893,-0.06815096,-0.061354373,0.030873556,0.048975494,-0.100508586,0.04706185,0.077169254,0.1230185,0.05042341,0.08405016,-0.0006290048,0.098099306,0.095888436,-0.028138103,-0.07739063,-0.018814597,-0.031804066,-0.06648093,-0.015824357,0.09055075,-0.030430581,-0.067441896,-0.03253662,0.06657697,0.09327468,0.12869205,-0.103406966,0.050101187,-0.09534244,-0.10358718,-0.06874429,-0.0012768676,0.053292338,-0.016768215,0.07797568,0.027607597,0.12766975,-0.11419688,0.049069654,0.10237389,0.0813267,-0.04207211,-0.08333829,-0.049531687,0.026806764,-0.07053149,0.1424836,0.062490504,0.051178105,0.11376334,-0.019356536,-0.09018061,-0.0466651,0.12564987,-0.049822062,0.04784466,-0.011526825,0.07196764,0.06790459,0.12515715,-0.09301743,0.05792251,-0.039159045,0.08487159,0.04643771,-0.061412387,-0.04723105,0.03869531,0.061230335,0.071557395,-0.10466442,-0.025070215,-0.016117807,-0.04355439,0.12087427,0.043984555,0.06791955,-0.0863423,-0.10141691,-0.15236756,-0.1621749,-0.14327304,-0.0034897502,0.013316046,-0.09667357,0.053661957,0.08842825,0.07832856,0.0100927595,0.11648103,0.09689006
360Commerce,0.03261626,0.06763554,-0.16713569,0.11985339,0.033370927,0.036326434,0.042201925,0.010800561,-0.024402356,-0.08526637,0.0045692814,0.16323358,0.035061527,-0.117519535,0.16158509,0.12988088,0.094288684,0.019310074,0.08572374,0.0020423091,0.027410755,0.08725689,-0.039341778,-0.032471746,0.03518573,-0.057112206,-0.06624915,-0.061741598,-0.0083866585,-0.037841313,-0.023641689,-0.0693387,-0.002798355,0.051861458,-0.021276075,-0.10218648,0.0992291,-0.035351045,-0.051139716,0.02117942,0.06329662,0.104856804,-0.07198562,0.04936215,0.039690677,0.046985567,-0.02030246,0.10845172,0.10243942,0.030190064,-0.031029113,-0.1005641,-0.0616998,-0.0922743,-0.073509976,0.08282003,0.10225019,0.0917737,0.11687097,-0.06593873,-0.07686394,0.004484235,0.052426346,-0.049618665,0.043952174,-0.039451327,0.025786318,0.08723959,0.0613817,-0.08928566,0.026159454,-0.04256226,0.082802586,0.11772341,-0.13360257,-0.055797182,-0.004206064,0.084467255,0.06632486,-0.07834214,-0.090332925,-0.04855676,-0.13048808,0.1096479,0.15861158,0.02224184,-0.052063473,-0.09914736,-0.0687987,-0.045606114,-0.10355729,-0.13756017,-0.032477777,-0.03477215,0.028161842,0.11947065,0.07560784,-0.034439344,0.09503045,0.112555295
A._E._van_Vogt,0.046177052,0.069054686,-0.060512055,0.04127765,0.0042388663,0.05563831,0.03202197,-0.025788663,0.06590517,-0.041689534,0.025578357,0.09608297,-0.01882959,-0.09486021,0.07007283,0.07374435,0.061540753,0.02270134,0.032874055,0.027516024,0.098805875,0.09652755,-0.026468059,0.041825987,-0.022859808,-0.075068414,-0.0458426,-0.07465672,0.09397805,0.02469962,-0.023617605,-0.08935573,-0.025272032,-0.006236208,0.08096989,-0.054901898,0.020814467,-0.047551673,-0.089844815,0.023647211,-0.034633104,0.09593403,-0.024551414,0.051216424,0.09130927,0.03399273,0.0066914177,0.08377246,0.072086364,0.03818535,-0.028352004,-0.038187146,-0.06431466,-0.076466255,-0.12157957,0.063428186,0.05245492,0.045382563,0.09565885,-0.08066777,-0.13093722,0.015985578,0.068739146,-0.07763382,0.052706912,-0.049175285,0.057033524,0.044271264,0.02966627,-0.047461182,0.05265063,0.023935363,0.049138695,0.046086114,-0.053348448,-0.07650435,0.0154085895,-0.009595061,0.061304882,-0.05710349,-0.059908,-0.048842877,-0.14069118,0.04511797,0.107078046,0.0047445307,-0.10751705,-0.043329276,-0.07601766,-0.055542465,-0.11985543,-0.025202444,-0.019906975,-0.0938477,0.07793755,0.07900493,0.07638123,-0.020074874,0.12182842,0.028991329
ABC_Family_Worldwide_Inc.,0.049928933,0.09670035,-0.12295592,0.06935132,0.028885914,0.026316116,0.00044000242,0.052822333,0.022553705,-0.013343839,0.018973362,0.06697814,0.021295087,-0.087350465,0.020068515,0.05417005,0.045521922,0.019118456,0.083876275,-0.04325556,0.05043962,0.077134065,0.0063721887,-0.005917183,0.04782175,-0.06531801,-0.10125326,-0.061976187,-0.004832013,0.04645873,-0.05547861,-0.047631755,-0.037255723,0.06537031,-0.015052152,-0.06947797,0.013953983,-0.03480536,-0.11393924,-0.039542824,0.0214076,0.025232583,-0.063095145,0.033593025,0.04759116,-0.009180811,-0.011501972,0.037892066,0.053687647,0.04910339,-0.034781743,-0.01638837,-0.033687733,-0.076527625,-0.059396546,0.054213762,0.06416944,0.081355445,0.12951097,-0.08970495,-0.10175133,-0.005360546,0.10792336,-0.007974433,0.07214209,0.045381054,-0.0307753,0.08729715,0.09379813,-0.068259045,0.021768281,-0.054490037,0.026089335,0.07209873,-0.06032056,-0.011185754,-0.011975611,0.08639207,0.01640069,-0.07690195,-0.0576156,-0.04912613,-0.073223226,0.057731174,0.08393074,0.038145356,-0.054131154,-0.099135555,-0.101293504,-0.074104056,-0.06676707,-0.09784084,-0.018364731,-0.047328882,0.052331615,0.093017295,0.13167971,-0.0134883635,0.11426077,0.1236106
ADC_Telecommunications,0.042637896,0.06221959,-0.062429305,0.07011063,-0.03060734,0.065233774,0.037645757,0.021650746,0.013439867,-0.07167966,-0.03358848,0.09049606,-0.021471439,-0.117716245,0.037901472,0.08457612,0.03132672,-0.010226943,0.09099599,-0.020959271,0.04304228,0.06844077,-0.035042908,0.011877529,0.011544399,-0.07725785,-0.09966122,-0.10047908,0.025955884,0.031170405,-0.037338536,-0.09104654,-0.01925524,0.023684224,0.030582972,-0.119783446,0.036833912,0.00711577,-0.08684116,-0.031409737,0.003213202,0.06724779,-0.047051176,0.02183778,0.06096068,0.048922863,-0.016599191,0.110026024,0.06422499,0.014045487,-0.052729636,-0.021493228,-0.03754424,-0.08122261,-0.06424902,0.031139597,0.059474587,0.0395275,0.14121404,-0.10652024,-0.1250877,-0.0060924455,0.08074282,-0.018621257,0.04072181,0.021467965,0.0066887266,0.057567663,0.03263329,-0.07174601,0.015464483,-0.019820223,0.024270823,0.067184225,-0.056261662,-0.045832824,0.023865871,0.027018033,0.05666207,-0.016960626,-0.027568934,-0.0033792765,-0.13163033,0.045409564,0.07357021,0.06683537,-0.062465608,-0.05289842,-0.083315015,-0.0827364,-0.123144224,-0.021833548,-0.03121539,-0.043452997,0.050943594,0.061434604,0.09425921,0.004587876,0.1363525,0.052732814
AOL,0.038777646,0.012049418,-0.11599181,0.03318719,0.013549419,0.09164689,0.011642301,-0.006259224,-0.035766188,-0.07802353,-0.034347057,0.0680746,0.0033668336,-0.08994467,0.029420678,0.048260804,0.064888224,-0.016552525,0.05719013,-0.036805663,0.07957991,0.031318244,0.00037279425,-0.011913259,0.07275834,-0.12931308,-0.059555333,-0.06423374,0.01828764,0.017479176,-0.06740594,-0.0023874699,-0.0075167962,0.11661188,0.015848465,-0.09692426,-0.009782222,-0.011692748,-0.06498737,3.2213684e-05,0.050311685,0.03754729,-0.0840052,0.021479262,0.040795736,0.05669267,-0.07748196,0.077389084,0.007656617,0.043607313,0.0013067746,0.017419452,0.025050264,-0.10439326,-0.07223308,0.081230484,0.03338686,0.06302843,0.07661973,-0.11206065,-0.092861496,0.07633417,0.08668448,-0.038634922,0.058804885,0.017802048,0.00453874,0.02856398,0.04125015,-0.08861761,-0.028537352,-0.034955323,0.081869215,0.085725136,-0.024046732,-0.017145848,-0.003226311,0.08337317,0.0934554,-0.09983041,-0.07325338,-0.017830888,-0.13714477,0.064726196,0.025486974,0.03152917,-0.049568612,-0.104932934,-0.003755324,-0.054463796,-0.039969325,-0.04816485,-0.032344528,0.0017584125,0.0017748174,0.095916286,0.100914985,-0.018057145,0.05040955,0.06340162
A_Calculus_of_Angels,0.08661093,0.06247807,-0.13191158,0.10909247,-0.0062432196,0.06578859,0.028694093,-0.005406367,-0.020518273,-0.107541844,-0.039849557,0.0567995,0.047731232,-0.110504836,0.021161024,0.08034868,0.050160002,0.08852318,0.03307596,0.06759571,0.11832344,0.11037435,0.022477014,-0.0037551904,-0.0019673905,-0.12963024,-0.045943603,-0.03803884,0.055169497,-0.007613003,-0.045303814,-0.089690715,-0.0064187516,0.10536932,0.050722525,-0.047326997,0.0470434,-0.06124618,-0.08334831,-0.0180078,0.046572786,0.13587946,-0.0434984,0.09130476,0.09251043,0.07129298,-0.042244267,0.027692867,0.08589561,0.082856834,-0.10489258,-0.08078929,-0.009495386,0.009385701,-0.022684352,0.09448116,0.07672365,0.049610466,0.12413507,-0.12361544,-0.11613858,0.025822373,0.098681465,-0.03898785,0.038287442,-0.059530057,0.011538886,0.100094184,0.020734258,-0.06424143,0.06643231,-0.03477082,0.09472634,0.059805907,-0.11906928,-0.065083414,0.07470707,-0.020426676,0.07548373,-0.10036871,-0.054145712,-0.12258602,-0.07576087,0.07998447,0.09407573,0.035623033,-0.08617709,-0.03351042,-0.08507268,-0.059678487,-0.11070326,-0.085280806,-0.018539902,-0.12700643,0.06313645,0.095239654,0.07017064,-0.022749305,0.09332765,0.05198045
A_Canticle_for_Leibowitz,0.066333346,0.018189207,-0.08939805,0.06586226,0.036296815,0.05968834,0.040475756,-0.08873406,-0.00029987725,-0.07748519,-0.010931415,0.13331662,0.045250047,-0.11372472,0.06860962,0.006942149,0.091709,0.07445925,0.06845005,0.07789815,0.114569396,0.08151705,-0.022035988,-0.04261385,-0.0029201647,-0.078239374,-0.10130708,-0.049731888,0.066116914,-0.048540924,-0.06526025,-0.08084852,-0.062845945,0.07993265,0.089512825,0.0076228837,0.051798914,-0.102352425,-0.09185123,-0.014960343,-0.01252211,0.0432703,-0.07921845,0.107578084,0.0812346,0.09814235,-9.946384e-05,0.06269999,0.123442024,0.06758343,-0.059668936,-0.04748899,-0.029274875,-0.019984225,-0.059493437,0.078130215,0.08558213,0.049580093,0.14302179,-0.10345835,-0.07648878,0.06437251,0.096164815,-0.046805713,0.017910557,-0.019362314,0.004244814,0.07561009,0.088263504,-0.02614676,0.07290032,0.02264414,0.09093561,0.075193815,-0.02014243,-0.06094399,0.06575794,0.0283167,0.12933911,-0.0619656,-0.06254906,-0.097359344,-0.07988392,0.113788396,0.042583894,-0.02166312,-0.07614822,-0.072170354,-0.10853579,-0.106764376,-0.09225898,-0.041987173,-0.018648656,-0.06566097,0.03461429,0.09979962,0.09853387,0.0016954435,0.11987853,0.10662113
A_Connecticut_Yankee_in_King_Arthur's_Court,0.06437692,0.065374345,-0.13285775,-0.024473384,-0.012917924,0.07265252,0.017302595,0.07188898,0.052396275,-0.046615966,0.017959896,0.12486956,-0.004009135,-0.08243544,0.09071874,-0.015898779,0.082319394,0.11607728,-0.0075956127,0.085062884,0.004623312,0.027167706,0.005481904,0.0041138753,0.060756683,-0.11201847,0.006364817,-0.107208006,0.0991623,-0.024943674,-0.08871662,0.0148848025,-0.050488994,0.047501046,0.08753412,-0.05749954,0.06197027,-0.07343003,-0.08577161,0.015836904,-0.035771027,0.11483619,-0.034791466,0.09473623,0.13837054,0.019927584,-0.011902414,-0.0024147383,0.08404474,0.037165683,-0.042925388,-0.04359033,-0.10992867,-0.052210066,-0.052151702,0.117923684,0.09198259,0.05677158,0.11925055,-0.09526309,-0.09213624,0.054993723,0.1272797,-0.028825844,0.11271499,-0.027161496,0.0025715334,0.08951012,0.05674294,-0.02690739,-0.067222446,-0.066361055,0.12980485,0.11766366,-0.033912696,-0.09341605,0.010957118,0.018021675,0.123514414,-0.110618666,-0.09268697,-0.025960319,-0.085851684,0.110474445,0.10862696,-0.0789676,-0.115768045,-0.09759515,-0.10237361,0.01776622,-0.09958568,-0.06678434,0.007480375,-0.054226086,0.07736105,0.08977234,0.061494645,-0.061674617,0.12154122,0.09920139
A_Deepness_in_the_Sky,0.046556745,0.09051016,-0.122794844,0.045359142,0.03398138,0.081762314,0.044761606,0.03282853,4.5987475e-05,-0.062612474,-0.033540066,0.11193775,0.063384555,-0.121824175,0.08270547,0.08680614,0.11991533,0.053305294,0.08515892,0.019940438,0.08815817,0.1320881,0.0407199,-0.027811991,0.03538774,-0.14164446,-0.09334114,-0.054796033,0.10666969,-0.04707943,-0.10212859,-0.1308935,-0.038546115,0.0789045,0.099891506,-0.08932933,0.026585165,-0.1216548,-0.074453376,-0.026178177,0.05178413,0.070055604,-0.05313059,0.07902604,0.11265875,0.048589405,-0.021047208,0.0796096,0.013058384,0.0059146765,-0.06142424,-0.1048492,-0.064482674,-0.08624091,-0.09533819,0.08049695,0.14454058,0.10143217,0.1410156,-0.08030296,-0.09870473,0.06395236,0.13735913,-0.024844095,0.05309015,-0.059518084,0.042107396,0.110339984,0.021889273,-0.09659832,0.010236486,-0.085285395,0.15528916,0.10626742,-0.083964445,-0.07577186,0.045458633,0.05330755,0.08686855,-0.098660685,-0.09059105,-0.09434132,-0.10110427,0.07492526,0.11698897,-0.016161488,-0.09153456,-0.04900566,-0.12454336,-0.04687067,-0.10786209,-0.08838194,-0.024713788,-0.109166935,0.07062055,0.07676612,0.10502919,0.0154805435,0.10634616,0.11770546
A_Door_into_Ocean,0.06919285,0.037307106,-0.08823988,0.017372616,0.070668474,0.07337522,0.0591269,-0.037606977,0.06295644,-0.09566493,-0.0071945474,0.18654555,0.038889304,-0.03813033,0.027642742,-0.0016836477,0.07858944,0.07639174,0.08360498,0.014847975,0.05300189,0.029167682,-0.01823655,0.0037787438,-0.058932245,-0.11960895,-0.00662127,-0.035692617,0.05266121,0.003231651,-0.0673067,-0.0011485739,-0.05413823,0.03500933,0.04432122,-0.066030055,0.07113716,-0.088898204,-0.04494453,0.04482691,-0.025889,0.07806153,-0.082185246,0.102653496,0.10623214,0.11512666,-0.014136197,0.05528652,0.13428494,-0.011387911,-0.09438944,-0.08838042,-0.011809849,-0.024075957,-0.06477831,0.12994358,0.12228757,0.031661954,0.021267843,-0.12027552,-0.11105023,0.024389638,0.088858716,0.014258028,0.11390366,-0.027942486,-0.011496593,0.029310752,0.073986955,-0.06433493,-0.0033589215,0.0027818775,0.114801586,0.066315286,-0.013914558,-0.08889849,0.0876151,-0.0089056175,0.07155196,-0.12390872,-0.08735808,-0.05860776,-0.06932123,0.07885376,0.04938084,-0.04685745,-0.13484348,-0.071954794,-0.11410574,-0.038810316,-0.09166257,-0.10097323,-0.0008027662,-0.07649525,0.035145856,0.09846006,0.050614476,0.016974246,0.08250632,0.07402285
A_Hard_Day's_Night_(film),0.0021975145,0.021937594,-0.026659839,0.04369664,0.020591836,-0.01736142,0.01640688,-0.027943969,-0.050913006,-0.059503715,-0.048754368,0.022621099,0.050866053,-0.0053245886,0.045597743,0.069776244,0.10934595,0.03103353,0.015576765,-0.029385306,0.11500126,-0.0024511716,0.022345481,-0.041433293,0.079295486,-0.043461733,-0.06883128,-0.014987462,0.05222249,-0.08039753,0.0039376286,-0.013875131,0.03949846,0.08273415,0.10791578,-0.067234665,-0.010103229,-0.011709793,-0.015273667,-0.013479832,0.038151186,0.002960526,-0.11604809,0.05337498,0.037706736,0.06790964,-0.066029415,0.0984988,9.9429046e-05,0.009090154,-0.07290661,-0.0016977978,-0.024149181,-0.012041143,-0.014104288,0.12238615,0.02058884,0.09096211,0.016978448,-0.06689203,-0.016245648,0.0075459876,0.024314221,0.01148821,0.06456101,-0.010670789,-0.04897552,0.042892385,0.044111162,-0.10597411,-0.035292644,-0.040364847,0.12886947,0.11162966,-0.053254385,-0.020414842,0.03861111,0.06667477,0.027488563,-0.12367623,-0.08841758,-0.0041798395,-0.038137287,0.044340353,0.028639136,-0.03143399,-0.055127274,-0.09413883,0.0079310145,-0.016488368,-0.019919232,-0.00039602074,-0.039375506,-0.011214366,0.013066157,0.02044317,0.051012434,0.0025770315,0.012060895,0.07388915
A_Time_of_Changes,0.088529825,0.0017847822,-0.06315208,0.029262906,0.015566484,0.09461715,0.02679599,0.0031426186,0.103307866,-0.07706579,-0.00872623,0.063170925,0.07102609,-0.09270965,0.07105525,0.032951955,0.09178602,0.077723905,0.034530867,-0.049436845,0.07228396,0.06346501,0.018534902,-0.03158621,0.055485435,-0.12799254,-0.004803935,-0.037071716,0.13307667,-0.021058638,-0.11345733,-0.06781129,-0.009213204,0.098630734,0.0965872,-0.03742266,0.026280394,-0.069959074,-0.080132864,0.017261868,0.00063242036,0.07736982,-0.028170446,0.08071536,0.08930728,0.07993787,-0.053523183,0.04122689,0.10683589,0.04606448,-0.02798256,-0.07261073,-0.05796271,-0.003023914,-0.05754514,0.09947053,0.105616234,0.08296531,0.095494255,-0.12971091,-0.12632032,-0.0035406952,0.07579963,0.014394245,0.0070492434,0.0060103377,-0.039214138,0.14872682,0.012328016,-0.071946405,0.01052938,-0.011014239,0.07763801,0.030481678,-0.090501666,-0.08195284,0.030022008,-0.10135666,0.08583898,-0.14040616,-0.016118089,-0.07872271,-0.08429355,0.10490194,0.05836539,0.024296822,-0.1290284,-0.034466833,-0.11295387,-0.04530569,-0.08965895,-0.09774182,-0.05555763,-0.06675789,0.12023648,0.08756392,0.0963489,-0.006892191,0.05555439,0.09073188
Aaryn_Doyle,0.0730866,0.1053054,-0.12216086,0.092182465,-0.030099653,0.077188045,0.010145118,0.03157719,0.03992914,-0.054629307,-0.01489035,0.18875112,0.012876512,-0.14020497,0.09397576,0.1676121,0.06593775,0.0014229116,0.05350531,0.01329892,0.10014674,0.031871885,-0.08135194,-0.037574533,-0.042795744,-0.13062227,-0.08977807,-0.0688006,0.1521082,-0.032498654,-0.035063498,-0.0872276,0.025707642,0.05230271,0.072499625,-0.10006057,0.0359283,-0.10831245,-0.057155836,-0.046806496,0.0045070183,0.11112069,-0.10503085,0.010300838,0.10342232,0.14269072,-0.023791058,0.058219336,0.08301953,0.090849265,-0.1309243,-0.0558574,-0.04627452,-0.090646066,-0.10170834,0.13252604,0.102521405,0.15920193,0.05650366,-0.057776805,-0.14587417,0.0029318337,0.08315975,0.022935208,0.08221485,4.743526e-05,0.062176175,0.07807625,0.11632222,-0.09832491,0.08922989,-0.04264663,0.12580912,0.12057802,-0.12500478,-0.12979455,0.030789336,0.048426226,0.04968781,-0.12016901,-0.14495732,-0.015442156,-0.102576435,0.032648765,0.15464967,0.0045026042,0.0142238885,-0.0683469,-0.05411325,-0.15106021,-0.027895132,-0.100665405,-0.06307519,-0.020218497,-0.012442038,0.079579234,0.05993511,-0.046228398,0.026320191,0.124555446
Aarón_Díaz,0.04955165,0.04520141,-0.053498268,0.06525507,0.0056723855,0.06351363,0.044383947,0.03398289,0.01324183,-0.04240581,0.018249987,0.070932195,-0.0056033707,-0.10236109,0.034761935,0.11491217,0.05708927,0.033411406,0.054144446,0.013283772,0.057821292,0.12657873,-0.050908294,-0.00412449,-0.03424963,-0.06305176,-0.034238074,-0.11620067,0.07056718,0.037755955,0.013459883,-0.09804737,0.04012692,-0.0040698294,0.041515645,-0.10451016,0.062082313,-0.049116675,-0.0572356,0.005072064,-0.025908956,0.0743579,-0.081549205,0.04591091,0.09357064,0.024948725,0.021117412,0.07563076,0.039852355,-0.0054524573,-0.07964623,-0.05476891,0.00611397,-0.072704725,-0.09633801,0.04398045,0.06622973,0.02963124,0.13128506,-0.043185014,-0.14822347,0.0120162405,0.090661235,-0.04390462,0.043023158,-0.05310131,0.04234538,0.0423129,0.014563391,-0.06385753,0.039784234,0.018894281,0.067894265,0.084887706,-0.10054164,-0.007759262,0.068335935,0.033082757,0.08508749,-0.02883125,-0.03791889,-0.023194602,-0.114679515,0.057086375,0.06153955,0.034488216,-0.09323196,-0.042710595,-0.079908155,-0.09723529,-0.12478844,-0.04823428,-0.010360708,-0.04542011,0.029354932,0.01884131,0.07585672,0.0019638727,0.05396076,0.070619404
Abbie_Cornish,0.04610774,0.12822318,-0.06280004,0.12150985,-0.012458958,0.092954904,0.031966735,0.028891452,0.018655494,0.002308686,-0.020117223,0.15580551,-0.038947437,-0.065137535,0.039253145,0.04736547,0.115632795,0.0613445,0.023481175,0.040830232,0.07243218,0.14682165,-0.032529145,0.02681446,0.052646246,-0.043824155,-0.066088475,-0.08600828,0.09144681,0.022622574,-0.057976168,-0.10928747,0.04690614,0.0951539,0.010019285,-0.09545311,0.06912883,-0.019092089,-0.05279343,-0.03227726,0.08149561,0.10951625,-0.10343159,0.03807425,0.07493631,0.09983445,0.025222283,-0.007971806,-0.0028227617,0.0019317984,-0.09847223,-0.03337578,0.040127967,-0.123353034,-0.058574717,0.11396894,0.093236536,0.04828189,0.1635029,-0.021396562,-0.15527327,0.04018436,0.14915296,-0.056100246,0.09238947,-0.031177534,-0.056490604,0.06873874,0.049623903,-0.10218315,-0.008435045,-0.052059557,0.13228677,0.08307529,-0.034782328,-0.012991309,0.04520429,0.005665526,0.08125227,-0.10224322,-0.10564051,-0.061634198,0.03684157,0.07340204,-0.055517744,-0.026855158,-0.07342209,0.0035766345,-0.03673675,-0.071846865,-0.120617084,-0.019909443,0.03207501,-0.062248185,0.006218231,0.032174833,0.033567935,-0.0048750658,0.07755532,0.092909336
"Abbott,_Texas",0.13655181,0.039667126,-0.06784816,0.06996904,0.07718498,0.075983346,0.0114897145,0.020257782,0.00159728,-0.083160244,-0.027882684,0.10246773,-0.010616912,-0.11037432,0.06183455,0.09189569,0.121217,0.11038107,0.04787754,0.07158217,0.06489486,0.107454374,0.017702172,-0.015429815,0.025932992,-0.14875838,-0.09383159,-0.08163801,0.083323985,0.012222526,0.005457529,-0.07336773,-0.020697925,0.086542875,0.13751279,-0.042232532,0.036521867,-0.05199442,-0.06698444,-0.0729566,-0.018713996,0.073811285,-0.09196673,0.05805831,0.082827516,0.036887437,-0.052767742,0.09826272,0.07479495,0.03970187,-0.08839368,-0.05039268,0.028087752,-0.033676893,-0.1346306,0.051673766,0.12852798,0.117615245,0.15525669,-0.09769298,-0.06762902,0.058917124,0.09967808,-0.01323788,0.05395793,0.059546594,-0.03623192,0.1036698,0.014743402,-0.032250326,0.10266903,0.013276132,0.11475507,0.0969977,-0.069501966,-0.048430234,0.069596656,0.103610694,0.085421056,-0.13923186,-0.029691521,-0.01810036,-0.06954203,0.098775364,0.103545144,-0.0041361833,-0.061598364,-0.0810384,-0.1309325,-0.13370249,-0.12355081,-0.1234551,-0.061236404,-0.096659206,-0.021989267,0.100744165,0.07423335,0.0002072327,0.024831137,0.13818254
Abd_Al-Rahman_Al-Gillani,0.026801549,0.066110365,-0.08143284,0.057470337,-0.04572059,0.05657442,0.06444354,-0.0028341357,0.023209332,-0.063679196,-0.028386913,0.11078937,-0.0141916685,-0.12424888,0.018397119,0.09483212,0.0456756,0.019419,0.08178328,-0.03356975,0.099269874,0.11692016,-0.013586226,-0.014399916,-0.005505641,-0.11453947,-0.09264277,-0.0938728,0.086704135,0.015019648,0.0040020123,-0.026484016,0.00795617,0.03442815,0.10193749,-0.113904305,0.06185698,0.0045524677,-0.06925938,-0.008018109,0.011917313,0.045461785,-0.07246423,0.04308924,0.081616335,0.06398547,-0.010763268,0.13486326,0.00649454,0.030285627,-0.04497725,-0.02535029,-0.024182044,-0.06452134,-0.11637018,0.052270308,0.019240662,0.05532278,0.07357677,-0.09347821,-0.11147874,0.012665935,0.09379835,-0.06258691,0.017756121,-0.0059952857,0.039038565,0.029638778,0.0012308466,-0.033881422,0.0051563834,0.0055923867,0.0892114,0.09316468,-0.04163696,-0.029215325,0.031175023,0.040368766,0.079980455,-0.062613614,-0.077956796,-0.022679469,-0.117992625,0.06259772,0.04239342,0.015532208,-0.11373403,-0.043014795,-0.04648181,-0.084532805,-0.122949876,-0.018204497,-0.06799001,-0.06991194,0.0018595974,0.049095657,0.055881448,-0.02853118,0.08439404,0.05139807
Abdul-Wahab_Mirjan,-0.004613305,0.061210524,-0.07362859,0.11950628,-0.043258827,0.02894926,0.06620221,0.05723892,-0.00095366343,-0.024645114,0.004018324,0.10245937,-0.002590414,-0.082538515,0.061045498,0.07660522,0.045566585,0.0029774152,0.089205965,-0.017041914,0.11275368,0.116793506,-0.022328489,-0.014826751,-0.027437214,-0.05052609,-0.10462663,-0.047070753,0.06524064,-0.0018080598,0.0099956365,-0.055661153,0.0025985576,0.015142234,0.08441402,-0.13222857,0.008578636,0.011097775,-0.04125762,-0.025165169,-0.01066513,0.0930042,-0.06329105,0.06948662,0.10864093,0.06425339,0.0114258155,0.060429726,0.06387318,-0.002411932,-0.07852559,-0.0036215568,-0.05195603,-0.079507045,-0.051696967,0.057127964,0.053689323,0.062101867,0.10599489,-0.09691347,-0.036654796,-0.043905035,0.06319061,-0.026223043,0.064677395,0.0126540875,0.017207814,0.07955653,0.030987833,-0.05836348,0.03602417,-0.002438754,0.056160856,0.10277418,-0.12764981,-0.05861385,0.05915845,0.022685999,0.03558188,-0.043690097,-0.07052656,0.0035755213,-0.10262999,0.0151074715,0.09389813,0.025155535,-0.12699865,-0.048185952,-0.06732101,-0.102919266,-0.12201097,0.0072306744,-0.050759632,-0.05233126,0.041979298,0.05317315,0.03721656,0.03384982,0.11111951,0.038560748
Abdul_Razak_Hussein,0.04648458,0.025131332,-0.056165144,0.07606213,0.023106573,0.0840666,0.022909582,0.034067255,-0.01995707,-0.085955694,0.0013269907,0.12635216,0.028930709,-0.06410782,0.06139298,0.123981826,0.066810176,-0.022827268,0.03624318,-0.020875055,0.10701355,0.06335121,-0.008314836,0.024960304,-0.024051659,-0.11855087,-0.04697978,-0.060065746,0.031347398,0.038186617,-0.015462296,-0.079317786,0.014894105,0.008163382,0.07392243,-0.103308395,0.010478613,-0.05872603,-0.025372906,-0.0051928833,0.005618555,0.0774374,-0.069676906,0.017348347,0.10468741,0.069515474,-0.016963674,0.08139053,0.057259724,0.03518295,-0.092012554,-0.024132114,0.005604623,-0.09475814,-0.09954957,0.063277006,0.054815065,0.00819097,0.10474802,-0.10359482,-0.09495099,0.0053538904,0.04961897,-0.07512182,0.05179938,-0.0257255,0.025799792,0.04187179,0.045955174,-0.04977697,-0.0020774193,-0.022726035,0.09044915,0.07637716,-0.083409,-0.0055248616,0.06846967,0.022141585,0.10062525,-0.036049075,-0.077614054,0.0054580607,-0.15590447,0.009134527,0.06585801,0.0416684,-0.07885713,-0.06196198,-0.08816425,-0.028090322,-0.028721897,-0.011614215,-0.03440886,-0.059824537,0.07353379,0.07407181,0.09007814,0.020580377,0.030368788,0.041244633
Abdullah_Ahmad_Badawi,0.03897463,0.07793178,-0.07887775,0.06413921,-0.015630232,0.08589829,0.04998552,0.021936381,0.011805625,-0.07135687,-0.02045953,0.055531893,-0.020316256,-0.11630211,0.031761017,0.080797754,0.02579062,-0.026746375,0.095485784,-0.034081474,0.066536345,0.058971453,-0.036628813,0.023613509,0.0014227153,-0.08830501,-0.09986694,-0.1100763,0.016450217,0.04366264,-0.018149799,-0.10572164,-0.013355006,0.044260666,0.031826235,-0.10780029,0.017465185,-0.0010068702,-0.11534076,-0.028260894,0.023212789,0.069203086,-0.036747307,0.025142057,0.043359943,0.033779327,-0.003733965,0.08389583,0.0515199,0.027479907,-0.03552874,-0.03193914,-0.024756346,-0.06810868,-0.04735838,0.028216718,0.075527385,0.056553837,0.14221759,-0.12294517,-0.11157172,0.0055864365,0.102661565,-0.04481726,0.010022051,0.01913673,0.00562853,0.073883355,0.044494793,-0.06478118,0.021458305,-0.019533373,0.035880063,0.07414909,-0.056674276,-0.07625551,0.027191792,0.04141038,0.06258798,-0.027293414,-0.047979474,-0.0018083986,-0.14257097,0.015490074,0.08394322,0.057353064,-0.078912735,-0.044242673,-0.095127895,-0.1030395,-0.12164148,-0.03959562,-0.013698298,-0.042638548,0.055195168,0.067219906,0.10373149,-6.6169516e-05,0.14061287,0.088048056
Abigail_Spencer,0.08185164,0.05268833,-0.11255846,0.098797284,0.091846175,0.06790664,0.11429117,-0.011287871,0.03196071,-0.08080558,0.04229507,0.117563315,0.049626842,-0.108209245,0.05170591,0.07985341,0.092043884,0.035085272,0.09161494,-0.0102703255,0.12216452,0.0820947,-0.03769667,0.0038578785,0.09186985,-0.088778235,-0.10573191,-0.09505714,0.06498737,-0.017767638,-0.035888962,-0.06262224,-0.010179068,0.042400233,0.07339287,-0.09466582,-0.028453741,7.6985525e-05,-0.16227068,-0.009161903,0.006481431,0.093750946,-0.09058619,0.03144808,0.067195855,0.10344241,0.03394887,0.0939036,0.048864245,0.042843137,-0.12003827,-0.07423084,-0.044592235,-0.087604634,-0.08405642,0.0813046,0.105862536,0.038034357,0.10436473,-0.06163034,-0.15648323,-0.010622064,0.10002509,-0.05599721,0.110310525,-0.01134952,0.0208931,0.02955889,0.03721524,-0.09303903,0.05094028,-0.019531995,0.113755085,0.07635013,-0.088763915,-0.017238602,0.048875812,0.04599002,0.09625395,-0.07145898,-0.06820803,-0.061228495,-0.023630379,0.090245664,0.023123575,0.05909945,-0.08824118,-0.069704674,-0.071517155,-0.10665364,-0.16092406,-0.10242486,0.053055298,-0.05808735,0.07187931,0.07652338,0.060138926,-0.034564313,0.043211233,0.12536801
Abraham_Lincoln,-0.014877835,0.0929865,-0.036734283,0.05834111,-0.0214395,-0.0050328374,0.027111404,0.013122659,-0.013105425,-0.019422334,-0.028636608,0.06885184,-0.014424231,-0.040715184,0.042902265,0.06819876,0.07424051,0.032088503,0.09213271,-0.026179396,0.099447474,0.067163445,0.0050467006,-0.06806317,0.032973666,-0.06604399,-0.12974454,-0.046463728,0.04784325,-0.045995492,-0.016523112,-0.020655002,0.016706215,0.071958736,0.103857934,-0.102181435,0.025437605,-0.018663859,-0.035677973,-0.039924826,0.0046853228,0.04559076,-0.115729086,0.10204015,0.056616418,0.047959413,-0.0458425,0.13157867,-0.01927338,-0.008394097,-0.045319255,-0.0023669892,-0.0421696,-0.044043932,-0.031299394,0.0752758,-0.0068506445,0.10280259,0.054129053,-0.07348074,-0.02657659,0.0076149823,0.017432034,-0.008678741,0.05043961,-0.022394562,-0.013958356,0.0398088,0.029897036,-0.101140305,0.0027601337,-0.04340013,0.06599392,0.1137153,-0.025505118,-0.054514978,0.020904323,0.075341515,0.04217683,-0.11832037,-0.04658482,-0.013524434,-0.025334682,0.060098235,0.05086173,-0.026012063,-0.06581104,-0.0969789,-0.0006520576,-0.095619805,-0.085981466,-0.024100248,-0.060429666,-0.025306616,-0.0025922027,0.09298892,0.033082314,-0.012696173,0.07301299,0.06003316
Aceva_Technologies,0.05082569,0.09917132,-0.1349454,0.09805859,0.042546473,0.08480622,0.04873902,0.016488146,-0.038216565,-0.08425356,-0.032725547,0.13280861,0.01919371,-0.07638607,0.06633318,0.040703963,0.08545396,0.059013765,0.07321872,0.0146864075,0.045754563,0.08037652,-0.010339784,-0.027277475,0.037272926,-0.08847286,-0.02261813,-0.049309365,-0.025228128,-0.0060910406,-0.0974338,-0.13063458,-0.0050003864,0.08008283,-0.008048672,-0.07226109,0.038299542,-0.014454041,-0.06661002,0.007138169,0.039820377,-0.0017600344,-0.11891684,0.06586856,0.106586084,0.007326279,-0.019272285,0.09439963,0.056044534,0.036867075,-0.0971804,-0.069392376,-0.0599063,-0.075475365,-0.106997125,0.04535807,0.09624496,0.12032413,0.10000195,-0.09882219,-0.11777216,0.01506301,0.061044954,0.008273199,0.081941955,-0.03632876,-0.024282768,0.074174315,0.05455182,-0.038078036,0.09917868,-0.058223348,0.05403613,0.09186093,-0.112560116,-0.044812467,0.02892751,0.06356099,0.045849063,-0.08245653,0.0013211841,-0.08459408,-0.062833376,0.08523692,0.011112181,0.0004037353,-0.09120932,-0.091706365,-0.00064410444,-0.057743132,-0.10629207,-0.09485433,-0.054791234,-0.051545862,0.08091813,0.097641855,0.06662191,0.00036516206,0.091903605,0.0678236
Acronis,0.029737273,0.060354825,-0.06620099,0.053867087,0.02941077,0.043607775,0.012046671,0.031169496,-0.03275998,0.015668921,0.02431038,0.10528997,-0.0007284312,-0.084083505,0.035737637,0.049855158,0.08772858,0.035174876,0.0705538,0.0025999483,0.09017215,0.10663009,-0.02177406,-0.033741616,0.015343402,-0.014819647,-0.033387024,-0.04724222,0.08113152,-0.00836223,0.0016423947,-0.029984666,0.008301691,0.053756297,0.035935268,-0.1221091,0.0006905887,-0.037352968,-0.010781295,0.008197502,-0.008790427,0.078649685,-0.120239235,0.07650063,0.08552533,0.025485426,0.015227317,0.07328216,0.028523587,-0.032292306,-0.09218163,-0.022173656,-0.041416552,-0.07061749,-0.056843717,0.102736786,0.084125705,0.021423925,0.086464874,-0.053580295,-0.04653263,-0.0043758117,0.07681242,0.028237531,0.10739871,-0.019977793,-0.008235933,0.06967409,0.037416656,-0.11774401,0.049473688,-0.023497479,0.06161838,0.1092229,-0.1008931,-0.013042343,0.044748522,0.0726722,0.04153648,-0.06145643,-0.032659292,-0.059464373,-0.099674195,0.058395173,0.037413333,0.012502185,-0.14262682,-0.06414098,-0.06895051,-0.14704193,-0.10374184,-0.05147733,-0.0031872813,-0.016290255,-0.007931553,0.038187243,0.040451933,0.017464953,0.040947624,0.07670402
Acuson,0.008396025,0.058664255,-0.13154165,0.071973264,0.048933685,0.051711522,0.0827423,0.027724981,0.031759355,-0.050886296,0.012537643,0.072831765,0.036090057,-0.0647398,0.044936717,0.04518064,0.07904434,0.14988016,0.07735562,-0.005271676,0.05459621,0.1104923,0.010490293,-0.06561937,0.036327723,-0.12224329,-0.07312025,-0.11919894,0.057104293,-0.031115713,-0.04304006,-0.11950179,-0.01008086,0.11115509,0.07229013,-0.104271516,0.05696166,-0.10539847,-0.063866325,0.041313544,0.0060156127,0.1527007,-0.10489489,0.080762535,0.10447088,0.06546441,0.050013587,0.114083655,0.10765184,0.0436098,-0.087446414,-0.028312668,-0.05904351,-0.055190522,-0.1125699,0.09375356,0.15253489,0.08723136,0.14349331,-0.12667759,-0.11172271,0.027102986,0.13531478,-0.056762155,0.07343196,-0.035422098,0.067028195,0.10500967,0.09568622,-0.09178045,0.0054420307,0.009185722,0.09472717,0.08780085,-0.07726671,-0.06751942,0.07212159,0.03325948,0.08740951,-0.11374478,-0.096429534,-0.093755014,-0.13636854,0.040264253,0.0008789443,0.0023737412,-0.09062552,-0.01610803,-0.1355193,-0.12198357,-0.11046505,-0.099261984,-0.04084287,-0.028627455,0.00929605,0.09759458,0.073432095,-0.030037574,0.12820831,0.13575065
Adam_Kaufman,0.09378256,0.13047567,-0.10059231,0.11410056,0.05281243,0.001415831,0.08654786,-0.0032373792,-0.025148101,-0.009004817,-0.06723583,0.06706445,-0.033404507,-0.008534199,0.0038576245,0.12326555,0.07172817,0.08376337,0.04029883,-0.08226294,0.044686995,0.09956209,-0.055783883,-0.08693012,-0.009498589,-0.057204273,-0.07619693,-0.06343487,0.094816074,0.009760506,-0.04506075,-0.11512989,-0.015503125,0.06393483,-0.022952935,-0.064070344,0.0715372,-0.08466242,-0.05878329,-0.12411847,0.060800258,0.13811183,-0.04683438,0.035975132,0.066665,-0.011624277,-0.06941777,0.040243767,0.12486271,-0.11363162,-0.064117014,-0.073538765,-0.0071547856,-0.0495804,-0.10439317,0.12910996,0.11221329,0.030669127,0.07265961,-0.0047544464,-0.1147879,-0.023426406,0.10799203,0.032853626,0.0754193,-0.04721619,-0.0014201998,0.1007941,0.02863268,-0.027923435,0.045432113,-0.064149715,0.057557058,0.015452393,-0.047104288,-0.053248536,-0.012842974,0.02477297,0.096985996,-0.081396915,-0.04214289,-0.013795895,-0.09535033,0.10192226,-0.001710125,0.038655456,-0.038102116,-0.11794913,-0.12404858,-0.07338102,-0.15405495,-0.07521521,-0.027977655,-0.122346886,0.030482052,0.08638399,0.039873622,0.025950413,0.113334194,0.023702268
Adam_Smith,0.04476844,0.063457906,-0.035681233,0.071639895,0.03445524,-0.01143759,0.03891923,-0.02338913,-0.019076042,-0.06707804,-0.0047243787,0.04895437,0.031524055,-0.043876115,0.06563965,0.08096283,0.12844263,0.07862978,0.045219805,-0.0030071111,0.110341296,0.04213358,-0.035522364,0.0006802052,0.016496086,-0.06481035,-0.0981954,-0.07218612,0.059654433,-0.032802533,-0.026923688,-0.094306044,0.016265363,0.017326875,0.08495431,-0.031136254,0.04473483,-0.057840645,-0.039736442,-0.015522314,0.022971949,0.02678242,-0.08639928,0.051415514,0.06331847,0.0016428983,-0.00428412,0.12433808,0.0018074549,0.037767638,-0.08778906,-0.08429932,-0.03170334,0.010515089,-0.043881483,0.07900219,0.045257602,0.13270535,0.06530209,-0.06648711,-0.033479694,0.024491595,0.055709094,-0.01820831,0.02814753,-0.015799602,-0.0104886135,0.10328705,0.08217871,-0.11100718,0.0049234554,-0.012204459,0.102222465,0.08498256,-0.074748725,-0.07089626,0.049172565,0.05495608,0.025019025,-0.12231359,-0.053316165,-0.022575464,-0.038799334,0.07065976,0.04612288,-0.011788648,-0.061955407,-0.08725278,-0.029703245,-0.06738417,-0.036648914,-0.06920226,-0.028598674,-0.068181776,0.05708221,0.043363515,0.12623258,-0.035510536,0.06989715,0.07699945
Adelaide,0.1311602,0.088084556,-0.08172585,0.077208914,0.06287723,0.045208134,0.039502498,0.048898757,0.0053259106,-0.06758053,-0.05298451,0.046635184,0.02217473,-0.04276053,0.050809983,0.06475697,0.12742385,0.06463151,0.10036378,-0.06957148,0.07926578,0.0427926,-0.08901687,-0.020194259,0.03336639,-0.14751601,-0.0344551,-0.066599056,0.05010245,-0.12205266,-0.1100216,-0.08176786,-0.040810034,0.05575099,0.11425491,-0.0048632314,0.023630723,-0.047415577,-0.08030351,-0.03535263,0.103568114,0.080695756,-0.03143106,0.13881661,0.01902105,0.113495424,-0.0645263,0.05378974,0.07611558,0.041628893,-0.11018989,-0.01469576,-0.018547285,-0.012308995,-0.12445036,0.03848781,0.086528346,0.08507575,0.091070734,-0.06470665,-0.10084482,0.036071785,0.048585992,-0.0052410904,0.07925618,-0.10930995,-0.019331452,0.04274864,0.07104727,-0.046114326,0.09790309,0.015353281,0.10602144,0.044200014,-0.08945282,-0.017293997,0.094202444,-0.016416395,0.13891716,-0.019681394,-0.008447658,-0.093324095,-0.07769582,0.12346545,0.057763185,0.09154761,-0.05840915,-0.053628545,-0.050403424,-0.11312625,-0.08664234,-0.066329755,-0.00030236627,-0.047971748,-0.021370342,0.055381525,0.042159233,0.0342073,0.05575724,0.12968396
Adjowa_Hayes,0.055028833,0.057054073,-0.074962705,0.016659772,0.009259035,0.0601256,0.022874596,0.0035737916,-0.0009136586,-0.02376816,-0.023242557,0.08346591,-0.01632055,-0.10156313,0.010893453,0.085388035,0.05574985,0.06471372,0.041894063,-0.008167691,0.08348727,0.13155752,-0.035386574,-0.05750425,0.00542457,-0.06517097,-0.037564017,-0.09907491,0.0834833,0.010362363,-0.025354039,-0.029251585,0.034149118,0.042515624,0.044169523,-0.120984584,0.062411167,-0.041431487,-0.038277477,0.029861622,0.017034784,0.0407902,-0.1059408,0.08263215,0.06445396,0.050652813,0.010778388,0.079080135,-0.0013292884,-0.0013915071,-0.04568556,-0.023178194,0.0039132303,-0.06878622,-0.10188497,0.10991752,0.021680776,0.030944558,0.052202135,-0.03583018,-0.13993315,0.05646065,0.11876988,-0.022284845,0.0725923,-0.018588249,0.039146893,0.03081556,0.0016351393,-0.07229592,0.030972041,-0.0054312735,0.09319437,0.117077716,-0.05218233,0.013334148,0.012508138,0.08949992,0.08337395,-0.083648786,-0.06189939,-0.061847467,-0.059233002,0.09339771,0.01814081,-0.0048801503,-0.14287435,-0.05280218,-0.0106891105,-0.07927379,-0.06512794,-0.059663754,-0.01997294,-0.051686686,-0.01778488,0.042073186,0.082836695,-0.032779258,0.04062937,0.07063883
Adobe_Systems,0.04510507,0.09935942,-0.07300369,0.051393088,0.02577619,0.016600436,-0.03482399,0.07387457,-0.025828637,0.015811397,0.023488514,0.06733619,-0.023160364,-0.07725266,-0.0009619626,0.05372699,0.03595396,0.038097695,0.09687825,0.004639136,0.026203342,0.07526146,0.02046505,-0.04942324,0.020569991,-0.009689957,-0.05915088,-0.02970601,0.0048168814,0.026392752,-0.047600005,-0.01049299,-0.023465298,0.06753121,-0.023014465,-0.09944731,-0.002672569,-0.031521555,-0.044737484,-0.022855092,-0.0009435601,0.048679747,-0.100301266,0.03725032,0.06668089,-0.021443926,0.014318289,0.015967304,0.054214504,-0.021948403,-0.06069666,-0.00021598629,-0.0065449085,-0.09023276,-0.02026924,0.07346904,0.051269144,0.04693089,0.12210645,-0.049795277,-0.07136157,-0.03659458,0.098692335,0.04147776,0.10402669,0.017448248,-0.03958019,0.08745903,0.05024688,-0.10500378,0.07115253,-0.044279195,0.0041273213,0.08832369,-0.097019345,-0.00033803107,-0.005580019,0.11463848,0.00025502735,-0.04198177,-0.008915316,-0.061979175,-0.055863205,0.049364924,0.06145704,0.08729416,-0.046103306,-0.058914438,-0.103382275,-0.10866074,-0.08697879,-0.0647825,0.027613157,-0.0087753,-0.023536492,0.053464375,0.06445662,0.020404177,0.05973063,0.09187692
Adolphe_Thiers,0.014337243,0.06590312,-0.077423334,0.062416967,-0.03237958,0.07251974,0.06905368,0.003526905,0.013729935,-0.070126124,-0.035734825,0.12286451,-0.011906246,-0.13455598,0.01875925,0.09608063,0.022909265,0.027716251,0.08501642,-0.033597317,0.095114805,0.14312996,-0.027629515,-0.005804473,-0.013457514,-0.10357739,-0.10093881,-0.10204294,0.09516131,0.01282317,-0.0053697056,-0.039235722,0.024166804,0.020111825,0.0888656,-0.097586565,0.064327925,-0.0055550225,-0.071892604,-0.009642815,-0.005574851,0.03955311,-0.07992235,0.069346696,0.06731645,0.06762698,-0.021681804,0.13160065,0.0109206615,0.024891077,-0.050539803,0.0024604104,-0.042938847,-0.07234044,-0.10606171,0.06447609,0.00944546,0.060858484,0.05972335,-0.10860487,-0.12756011,0.023176689,0.10227444,-0.0659805,0.037601802,-0.00014960954,0.049195178,0.031258095,0.0042170887,-0.044923823,-0.00506519,-0.003619975,0.07061397,0.09392277,-0.051223606,-0.025112173,0.028809646,0.047850244,0.070832595,-0.04810605,-0.05898893,-0.01736405,-0.045611303,0.057672597,0.045243625,0.018335572,-0.10395143,-0.04630151,-0.045060724,-0.088002816,-0.062144343,-0.013328722,-0.07984456,-0.07526489,-0.011520835,0.06266239,0.06286737,-0.030546896,0.080182254,0.04726664
Adrianne_Curry,0.07972844,0.092121065,-0.0036523151,0.074550234,0.033113588,-0.00030204043,0.0010831085,0.016776284,-0.078791715,-0.07507855,-0.0375426,0.09353306,0.12023196,-0.090586066,0.14586279,0.014353146,0.11016578,0.077093184,0.13478723,-0.043201003,0.050992932,0.11099428,-0.025015645,-0.02072441,0.018109433,-0.1197992,-0.037963953,-0.035311904,0.018813308,-0.054772362,-0.03180308,-0.12817757,0.08006672,0.08487655,-0.011461287,-0.16252378,-0.014335219,-0.027902013,-0.035826936,0.020589873,-0.03596778,0.078931704,-0.041583605,0.054233402,0.05106157,0.011206333,0.0077837617,0.12846525,0.0445547,-0.040545683,-0.045612957,-0.068765804,-0.02861602,-0.058363803,-0.078676924,0.12669188,0.08030137,-0.015949339,0.08155366,-0.053051487,-0.13936932,0.03462978,0.12358205,0.019881196,0.069953926,-0.100198425,0.013755446,0.12158354,0.04947506,-0.012124422,0.027644522,0.01255539,0.07420623,0.12796557,-0.059073377,-0.034762762,0.060023952,0.099875994,0.09190459,-0.060933366,0.0058163074,-0.13874343,-0.051506862,0.073117115,0.08967686,-0.017993972,-0.0780119,-0.04814014,-0.14015967,-0.068221144,-0.050351877,-0.1356247,-0.012904356,-0.0977115,0.086926825,0.055160105,0.10084532,0.010788165,0.014985258,0.07678814
Adrien_Brody,0.08826897,0.07406275,-0.008734571,0.11556336,0.035307173,0.09138305,0.012212394,0.044956718,-0.008731339,-0.05177645,-0.029233137,0.08906064,0.04536271,-0.0755518,0.12524082,-0.024657732,0.1328967,0.08846646,0.116386235,-0.11172819,0.062232275,0.121441126,-0.11966001,-0.0034396031,0.07650222,-0.15933482,-0.14069274,-0.08406396,0.08196989,-0.031901922,-0.09722313,-0.07777896,-0.02767252,0.0812419,0.076054625,-0.1523527,-0.014931668,-0.10936798,0.02542244,-0.051777773,0.08723036,0.09534083,-0.013647561,0.119491465,0.1026031,0.029452387,-0.007376886,0.08869101,0.038885366,-0.034320567,-0.10046575,-0.08332791,-0.017328134,-0.056017913,-0.06351869,0.10766437,0.076578125,0.078823484,0.10799801,-0.062702134,-0.15778822,-0.021986166,0.15425846,-0.11050963,0.08397887,-0.027038958,-0.0055328454,0.086426765,0.12978208,-0.019645035,-0.012952533,-0.015232711,0.071458906,0.13400675,-0.11045721,-0.05034782,0.05275742,-0.0015962637,0.06595669,-0.16587104,-0.06070896,-0.08418127,-0.035810385,0.06470801,0.047959134,0.0026367253,-0.06245265,-0.03306628,-0.037512068,-0.12676892,-0.10658781,-0.098461464,0.1032197,-0.097660445,0.06976183,0.10260311,0.07436278,-0.040399622,0.0068428274,0.08269145
"Again,_Dangerous_Visions",0.039135385,0.071608536,-0.04241935,0.087386444,0.043059807,0.010106122,0.021602694,0.016285831,-0.024454843,-0.002588402,0.021356396,0.067598,-0.02137792,-0.08637959,0.04429107,0.019624805,0.15739956,0.096744284,0.10749794,0.07793269,0.068879925,0.063054234,-0.06631809,-0.0016014049,-0.004238119,0.0085297385,-0.047697738,-0.015375981,0.08877381,0.0034309016,-0.09381506,-0.058068007,-0.08386339,0.03747309,0.045459766,-0.08009562,0.021203663,-0.06739415,-0.10557388,0.07682816,0.038274683,0.0158147,-0.049593467,0.09501905,0.14793675,0.09609815,0.026726529,0.054731082,0.06822261,0.029433861,-0.06666682,-0.058085024,-0.07866697,-0.046600945,-0.067570336,0.1198697,0.08651706,0.085623324,0.056933954,-0.05537772,-0.1074513,-0.034543727,0.060381167,-0.07535799,0.04781387,-0.008915894,-0.03852563,0.13538873,0.009990944,-0.069417715,0.024815891,-0.05567826,-0.00111864,0.113929704,-0.11275402,-0.006581377,0.11044186,-0.09323374,0.10669895,-0.1433743,-0.08299132,-0.10700152,-0.07983888,0.09042887,0.116686136,0.007668313,-0.093987904,-0.09294979,-0.07356861,-0.035205748,-0.12759395,-0.12751463,-0.016287388,-0.123000644,0.036953986,0.077199385,0.05678764,-0.06339047,0.04542158,0.10218325
Agile,-0.003163787,0.10285435,-0.13326876,0.10474097,0.061942518,0.03807495,0.0757058,0.0013425315,-0.018528549,-0.13471842,-0.06361794,0.08985291,0.025349056,-0.052607078,0.09343856,0.05990437,0.1434293,0.015586021,0.037490975,-0.032223172,0.04087213,0.13462776,0.064361766,-0.033717792,0.08274696,-0.18575895,-0.07281631,-0.11300413,-0.0251052,0.009096798,-0.07879757,-0.08647177,0.004398099,0.09176264,-0.040230267,-0.07095003,-0.0036026763,-0.05459177,-0.07299243,0.048008837,0.039770115,0.07161613,-0.046466067,0.026276266,0.11103821,0.05661672,-0.034448437,0.10295385,0.03250238,0.04835188,-0.11030117,-0.072921805,-0.0694516,-0.098385155,-0.13176759,0.06865578,0.13854079,0.13180338,0.11692262,-0.09729595,-0.120636985,0.025378633,0.099878594,0.0027738651,0.089663476,-0.054688983,0.0032103192,-0.029024677,0.06801302,-0.10902292,0.10549644,-0.0495945,0.02127615,0.10191025,-0.09276042,-0.082769774,0.09680323,0.06958542,0.008868667,-0.0108109275,-0.057212777,-0.07321594,-0.03943709,0.09228576,0.011765168,0.07513471,-0.051857486,-0.0979347,-0.049935695,-0.10440898,-0.090931624,-0.09029658,-0.020099897,-0.043053262,0.07764303,0.13573627,0.058893595,-0.03179968,0.11476029,0.13346621
Agra,0.00042206072,0.09765446,-0.07461499,-0.0146734165,-0.0009569548,-0.014019021,-0.020089379,0.008664823,-0.038975067,-0.08239121,-0.029112088,0.09095141,-0.052271422,-0.04459195,0.08568165,0.09890788,0.14783022,0.06658179,0.10617502,-0.029303884,0.02191699,0.06571226,-0.0062646125,-0.020834187,0.0073136888,-0.14959566,-0.06058471,-0.013074981,0.015038459,-0.08656883,-0.025689162,-0.10598006,-0.009297517,0.06877748,0.06374837,-0.08250488,0.067619465,0.017503323,-0.08563793,-0.059072763,0.049796928,0.076607004,-0.09488721,0.11673173,0.14271322,0.05347678,-0.049087662,0.045731977,0.07802029,-0.008818614,-0.05593667,-0.06853818,-0.09993412,-0.0025406217,-0.09676414,0.092623614,0.074477844,0.10285988,-0.0038083796,-0.08393182,-0.052558996,-0.028831571,0.08706794,-0.054183774,0.12285913,-0.0006117795,-0.012561127,0.09308558,0.057954792,-0.09741304,0.05524777,0.04207685,0.084033884,0.119717486,-0.06595947,0.0061661243,-0.038403995,0.18031499,0.05817679,-0.04848127,-0.03877016,-0.048711564,-0.10797018,0.060730852,0.0029474653,0.0035623587,-0.09613836,-0.0063617732,-0.100525886,-0.09082213,-0.057489555,-0.006439315,-0.13795951,-0.032900948,0.105614305,-0.0052054226,0.15407282,-0.05027027,0.064614646,0.11083005
Ahmed_Ouyahia,0.033852335,0.082106054,-0.0673472,0.057925552,0.0022726823,0.069102906,0.05836586,-0.0152670555,0.044381596,-0.0379951,0.025637737,0.079274505,-0.010168238,-0.08676582,0.066811234,0.06034582,0.07805618,0.022228615,0.03442516,0.012585588,0.087829284,0.0974342,-0.006564646,0.033363096,0.006262366,-0.064467475,-0.048202246,-0.05621271,0.08601396,0.03582386,-0.017072802,-0.07706844,-0.024852179,-0.0021450685,0.08883313,-0.07592084,0.020609846,-0.04998361,-0.095033176,0.046356365,-0.016656788,0.08312057,-0.041618098,0.05356969,0.093243256,0.024258804,0.006647347,0.09582755,0.060929343,0.03892414,-0.03424768,-0.05647911,-0.051014278,-0.064541906,-0.09599132,0.043153003,0.06779718,0.06991744,0.10701612,-0.08312239,-0.13020247,0.013296137,0.06923514,-0.073740356,0.045658417,-0.02340251,0.04059328,0.04034162,0.028481547,-0.038220458,0.06172053,0.024237541,0.06738451,0.045011245,-0.01180185,-0.076719515,0.045116205,-0.015699677,0.08419199,-0.0568436,-0.059755474,-0.025249695,-0.13448155,0.020538725,0.10636926,-0.006411928,-0.13646547,-0.023748761,-0.07778683,-0.09642271,-0.12690294,-0.029183099,-0.018514158,-0.089167304,0.07184809,0.060013093,0.08901673,-0.018378349,0.12345482,0.03765074
Ahmed_Zewail,0.016576609,0.04213817,-0.10698671,0.046706736,-0.026219852,0.022667086,0.047735993,0.009608159,-0.0065873787,-0.004685768,-0.033165302,0.09069953,-0.01719853,-0.077230066,0.030260844,0.04648573,0.064957865,0.012452969,0.07513139,-0.036920037,0.14754742,0.10259853,0.008599809,-0.043757778,0.050452374,-0.05752925,-0.11090588,-0.039038077,0.095604785,-0.029583728,-0.0123785,-0.017002588,0.0033680985,0.07473516,0.072602674,-0.12550634,0.0015874149,7.208281e-05,-0.03393364,-0.025688116,0.035123467,0.04557287,-0.10229442,0.07640652,0.09062111,0.07158284,-0.035490673,0.12987223,-0.0005999719,0.0040109362,-0.03827781,0.02087999,-0.039428513,-0.09313396,-0.06356279,0.09805397,0.0073401225,0.11981172,0.034298405,-0.0945289,-0.049740907,0.012027058,0.07658022,-0.017129464,0.087660536,0.011245354,0.0150856245,0.043716617,0.0014473068,-0.07994857,0.014529599,-0.029267857,0.07664453,0.14332889,-0.055903148,-0.03572219,0.025343966,0.07252076,0.03810347,-0.104642764,-0.06923236,-0.041153755,-0.08200187,0.07510961,0.06052549,2.5772988e-06,-0.12103574,-0.09453574,-0.017073857,-0.10704936,-0.112797394,-0.020852894,-0.0623501,-0.01794285,-0.016998872,0.07727608,0.03995057,0.003818292,0.0875583,0.05213921
Ahna_O'Reilly,0.044600822,0.07517373,-0.031042738,0.06390329,0.035971005,0.034348454,-0.013698205,0.028582955,-0.010536105,-0.02772702,0.018302718,0.045191772,0.011489731,-0.07172019,0.06074585,0.10941013,0.110479444,0.087009445,0.057647444,0.023728995,0.05896396,0.06690791,-0.058119357,-0.040759016,0.00010753848,-0.07039348,-0.03959256,-0.068319455,0.04825778,-0.0049115904,-0.02789457,-0.092613034,0.031695537,0.019620443,0.05186653,-0.08766239,0.042280722,-0.074015066,-0.020955823,-0.011649329,-0.023240892,0.08609951,-0.12563004,0.08531563,0.05955923,-0.00038315638,0.010558071,0.077365346,-0.014143866,0.0054068253,-0.10333284,-0.10355766,0.015292417,-0.020388203,-0.034762524,0.06557511,0.07869139,0.031195672,0.13392015,-0.027663723,-0.06466205,0.06096413,0.056206167,-0.0072560976,0.026536841,-0.052536897,0.008191726,0.061229944,0.059418704,-0.12551121,0.023167053,-0.021787548,0.08852411,0.09485215,-0.079808034,-0.032688823,0.032326277,0.0685285,0.07442864,-0.08419689,-0.033152945,-0.029808806,-0.043599095,0.06753942,0.05507731,-0.008890191,-0.058459103,-0.0874865,-0.04135402,-0.1000297,-0.09732564,-0.095656626,0.010831899,-0.07505003,0.010499658,0.058886323,0.11020261,-0.028020889,0.053338077,0.10620007
Ai_Sugiyama,0.045380857,0.07926421,-0.13525066,0.03992678,-0.012658716,0.053767983,0.044102263,0.0010077864,0.0017484378,-0.050319146,-0.03172008,0.108730935,-0.0012205038,-0.12282056,0.015824981,0.07819291,0.042866226,0.034690358,0.06858675,-0.04789674,0.10541986,0.1159297,-0.022787532,-0.022626882,-0.026727326,-0.07509061,-0.109054655,-0.08178129,0.061881278,-0.013198661,-0.029148633,-0.021245996,0.005535469,0.058550514,0.07985048,-0.10819111,0.040076632,-0.012831378,-0.043628506,0.0057212217,0.030059999,0.03826605,-0.099052824,0.05707505,0.078707896,0.04367918,-0.025539095,0.09810389,-0.006961944,0.037279606,-0.045039717,-0.036290597,-0.010187962,-0.062554106,-0.11061827,0.101609886,0.035730664,0.12141941,0.04126846,-0.098335,-0.12261241,0.027218496,0.097097345,-0.053194232,0.037370365,0.0065217107,0.021955546,0.047100604,0.035101626,-0.066643596,0.008140391,-0.015713183,0.08905156,0.10818607,-0.020728406,-0.029265542,0.016425325,0.07036002,0.07618689,-0.117524855,-0.06409395,-0.038719382,-0.08022349,0.09455064,0.04909522,0.0037695733,-0.084585465,-0.07809453,-0.009954086,-0.09801963,-0.078346886,-0.053646848,-0.07309148,-0.05405594,-0.010662876,0.06341539,0.068753555,-0.03692203,0.06846196,0.06365144
Aimo_Cajander,0.053215925,0.049165007,-0.038370203,0.066647425,0.0035163811,0.07210086,0.025762226,0.051332917,0.014562144,-0.040876627,0.017009744,0.12428053,-0.003453644,-0.11176241,0.036327247,0.12719224,0.0385116,0.043784797,0.05575726,0.0053745448,0.070076585,0.10528879,-0.034156274,-0.015411767,-0.021688256,-0.06604798,-0.040123235,-0.10570814,0.06800698,0.03915911,0.008011274,-0.09200794,0.042848792,-0.022769066,0.038526632,-0.13579725,0.061852995,-0.03450547,-0.048377678,0.010559257,-0.02541234,0.08399478,-0.07580217,0.054236352,0.085151054,0.027201554,0.02927954,0.0680176,0.03768532,-0.0015088281,-0.1016182,-0.05316888,0.01526772,-0.07103605,-0.104130045,0.047266904,0.07137217,0.0104324045,0.14824043,-0.05640431,-0.11253054,0.015663529,0.08913197,-0.039697845,0.037001375,-0.031258445,0.045427687,0.059476044,0.014462877,-0.050757527,0.03636633,0.0040259794,0.07059894,0.08878,-0.08760833,-0.014122434,0.054747593,0.047487088,0.09004028,-0.05114257,-0.050408345,-0.023448402,-0.10944142,0.04209029,0.051900238,0.028395977,-0.15827173,-0.009720158,-0.04778915,-0.08480735,-0.1330273,-0.06507901,-0.015732875,-0.073590085,0.02943338,0.031063966,0.08856346,0.002794391,0.06423708,0.07341138
Akbar,0.012547841,0.035293654,-0.080965206,0.08982067,-0.039811615,0.009372881,0.085787095,0.0071082753,-0.02125696,-0.04615265,-0.028648177,0.047244005,0.016679214,-0.049164906,0.051312596,0.08670771,0.057593912,0.004076736,0.024395935,-0.013773491,0.14143674,0.07222392,-0.035326667,0.01732758,-0.017010177,-0.033992853,-0.11535148,-0.043617815,0.0756505,-0.013923775,0.03158841,-0.07412257,0.025332892,0.008062548,0.09275323,-0.04754906,0.018935597,0.0065041115,-0.06323182,-0.033081487,0.015526035,0.021814039,-0.052306116,0.026114998,0.07094689,0.039206427,0.0022578896,0.1606436,0.09551736,-0.003977136,-0.11516924,-0.017875835,-0.08534798,-0.022502404,-0.031475604,0.06592007,0.0497656,0.073285535,0.053464714,-0.083768606,-0.023246532,-0.010514127,0.048727103,-0.020487608,0.058234476,0.02429489,0.0073982193,0.08999124,0.035095572,-0.056467477,0.02925149,-0.0020891894,0.035330687,0.08729048,-0.13349438,-0.045365606,0.101405494,0.0023412944,0.00030749457,-0.053140815,-0.055610582,0.008535111,-0.07291642,0.022684796,0.06632166,0.03391315,-0.15115616,-0.034572866,-0.05569872,-0.07433964,-0.064377114,0.017163703,-0.07801964,-0.043063063,0.04592772,-0.0017509749,0.023176624,0.03523521,0.10448733,0.05934737
Akira_Kurosawa,0.048764385,0.079947345,-0.1222095,0.039737277,-0.0121934395,0.057801772,0.018817717,-0.0018513326,0.0022050885,-0.05301504,-0.040800527,0.11129073,0.0013403819,-0.10967428,0.012695516,0.07611633,0.05724501,0.03912591,0.06608618,-0.04466332,0.09772912,0.12590632,-0.010158632,-0.029112693,0.033556055,-0.11834122,-0.09955396,-0.036596213,0.049755406,-0.012010947,-0.028419364,-0.04320652,0.008777373,0.06481596,0.08325781,-0.0845379,0.04463033,-0.03405973,-0.05944906,0.0012099135,0.029283058,0.048061598,-0.08956343,0.074065425,0.080196224,0.049461395,-0.026504492,0.11512768,-0.0061189756,0.031919163,-0.044584874,-0.0035624322,-0.0049674273,-0.060893483,-0.104016274,0.1091429,0.012524603,0.1182601,0.056524698,-0.09346712,-0.10842823,0.045890447,0.094213694,-0.051126674,0.06591414,0.0009771052,0.025118032,0.043661613,0.019983143,-0.06199895,0.0017180198,-0.012716962,0.103605404,0.10295345,-0.03309808,-0.006832938,0.017398275,0.07957839,0.07372536,-0.09766074,-0.04482018,-0.053271115,-0.08159734,0.09008734,0.055243243,-0.008772232,-0.096218444,-0.09178539,-0.021103835,-0.09332112,-0.09867556,-0.058327217,-0.06626713,-0.061018437,-0.009712076,0.066638134,0.078368045,-0.036113393,0.068902135,0.063760564
"Akron,_Ohio",0.025849363,0.03205851,-0.08717606,0.06489781,0.11106905,-0.009183551,0.10365473,0.0443343,0.01034115,-0.030684033,-0.0035205141,0.07571762,0.068146326,-0.095103875,0.060635537,0.1041441,0.13429134,0.06041225,0.072298974,0.0023637721,0.1307673,0.10300745,-0.105521545,-0.016501123,0.010625153,-0.097485594,-0.11940432,-0.05521788,0.1135762,-0.11566732,-0.082785904,-0.07783215,-0.023081863,0.024330007,0.053031407,-0.071806096,0.037188355,-0.09304947,-0.13761169,0.02783205,0.059023153,0.008817718,-0.109575436,0.08569603,0.08300226,-0.028459938,0.010995967,0.09891229,0.0635473,0.05869753,-0.06780267,-0.11240254,-0.053352058,-0.12442424,-0.07981453,0.117048115,0.10759009,0.095818385,0.07146974,-0.07859101,-0.14751188,0.041381814,0.12720636,0.01935218,0.06379794,-0.027090361,-0.02992989,0.1311396,0.017167803,-0.12775052,0.033167742,0.028425558,0.08951272,0.085386656,-0.073662646,-0.02987425,0.06555183,0.04658456,0.12944451,-0.102562204,-0.026729766,0.005301009,-0.091958545,0.056538373,0.019057795,-0.037333157,-0.06416034,-0.016360678,-0.11451335,-0.09188512,-0.109967284,-0.09642866,0.026985683,-0.07053564,0.022865957,0.06598032,0.10463307,0.03667128,0.070709445,0.14927866
Al_Jefferson,0.07788081,0.0689031,-0.08545258,0.060210995,0.04443354,0.03270595,-0.04065811,0.047164414,0.016895087,0.016603742,0.033854607,0.11786149,0.03490773,-0.1048995,0.016039949,0.12078261,0.040296767,0.07020921,0.055681556,-0.008642415,0.09160525,0.08616262,-0.02495797,-0.03808992,-0.0056358813,-0.040261235,-0.040883347,-0.055524357,0.05804068,0.04176847,-0.030466765,-0.059471596,0.010987196,0.015960626,0.012973807,-0.098817,0.03138565,-0.0646448,-0.04001147,0.02103841,-0.012225162,0.03639307,-0.1015422,0.060572315,0.06431357,-0.029985659,0.041321624,0.010035624,0.03411447,0.02568705,-0.08770588,-0.04061476,0.0061685867,-0.061405152,-0.0930565,0.06444947,0.07153948,0.041178547,0.12914558,-0.047347657,-0.15627827,0.0105930725,0.095253296,-0.021430163,0.09816922,-0.0009827054,-0.016257409,0.06314435,0.05109419,-0.069410205,0.034748618,-0.022073291,0.06401291,0.09602668,-0.09928424,0.026943171,-0.0060513914,0.0871207,0.035460018,-0.074222006,-0.059686158,-0.052690007,-0.06820828,0.062008318,0.062143665,0.039812546,-0.14806066,-0.07371226,-0.06012021,-0.059580367,-0.06308912,-0.080825955,-0.021825494,-0.06773081,0.009785665,0.049753677,0.12665917,0.007906134,0.041719694,0.09773222
Alan_Arkin,0.016436651,0.14672555,-0.0864188,0.12620981,0.036453076,0.12791295,0.051259097,0.09675757,-0.027197706,-0.0990493,0.045806497,0.17210765,0.0011170907,-0.1453288,0.11672898,0.14186357,0.13696508,0.072827995,0.07615154,0.004881912,0.05792211,0.05662941,-0.04990547,-0.063264094,0.026588483,-0.099011734,-0.13118224,-0.017589059,0.1044768,0.011659054,-0.016578643,-0.058583748,-0.0409386,0.06803102,0.07413467,-0.110644914,0.020395376,-0.048547305,0.004587123,-0.0932768,-0.044996813,0.096360296,-0.09854515,0.07610588,0.066811174,0.07975173,0.072993904,0.053517275,0.019579494,-0.03525713,-0.07011445,-0.06623552,-0.05783002,-0.08827979,-0.058466826,0.10241472,0.0349073,0.12593958,0.031412728,-0.12768133,-0.07192062,0.020021122,0.071126044,0.064621575,0.08703503,-0.034162182,0.05528444,0.065466255,0.078601494,-0.116078615,0.07004092,-0.10696446,0.03960583,0.10864854,-0.084327325,-0.09195558,-0.013070491,-0.011347174,0.06194025,-0.11717257,-0.10724506,0.0052633835,-0.13705443,0.05263287,0.07010653,0.014842911,-0.021589242,-0.07129448,-0.08016548,-0.059784222,-0.12513012,-0.10505419,-0.020160697,-0.086495906,0.036022563,0.028757282,0.077897005,-0.024096603,0.0449016,0.1196213
Alan_E._Nourse,0.03984848,0.07337297,-0.02103208,0.04393518,0.054290928,0.019502454,-0.004171534,-0.025489207,0.018440288,-0.039099403,0.023148105,0.059909582,0.0105626,-0.06689473,0.09436725,0.07282264,0.09149506,0.07475251,0.05961123,0.024821408,0.066851415,0.07477159,0.00019550143,0.0018966898,0.034976184,-0.07893278,-0.03580514,-0.044868045,0.049482822,-0.025039617,-0.06251379,-0.084397815,-0.016142685,0.031042514,0.09552748,-0.039061483,0.013160254,-0.08490086,-0.015439087,0.0038294333,-0.02956468,0.091736466,-0.06282923,0.08648381,0.05261124,0.008253023,-0.032891218,0.08720373,0.01621184,0.050187577,-0.034763955,-0.07529879,-0.042481143,-0.00200997,-0.07099842,0.07781797,0.07722252,0.13776767,0.08562981,-0.057370953,-0.065883584,0.04936019,0.046041638,-0.036532782,0.041242804,-0.03621193,0.020178113,0.06402389,0.08422207,-0.10365767,0.037817743,-0.0142139485,0.07275704,0.064660095,-0.029473148,-0.07046623,0.021775965,0.021699565,0.076408185,-0.08786581,-0.053359393,-0.029524524,-0.056733128,0.075146735,0.102658845,-0.033469684,-0.03211868,-0.08560329,-0.061394185,-0.09245561,-0.0883133,-0.061565258,0.011483761,-0.081853025,0.059510216,0.109422475,0.10832728,-0.045245714,0.084168084,0.073393226
Alan_Rickman,0.08655818,0.0650454,-0.013053334,0.11712796,-0.002554324,0.052130233,0.093541846,-0.11574508,0.116723515,-0.10627966,0.021615937,0.10112857,0.05560865,-0.0652445,0.089165136,0.0921292,0.13794486,0.059884846,0.10704767,-0.051035047,0.046968948,0.056286123,-0.05471894,-0.023321213,-0.028233068,-0.092374526,-0.09915038,-0.02924088,0.107746944,-0.030848674,-0.1273008,-0.08839845,-0.038954884,0.1126431,0.041361917,-0.07971117,0.030480854,-0.088727206,-0.22312608,-0.06613784,0.010511089,0.078772254,-0.0724423,0.09284601,0.107025445,0.03490329,0.0004989265,0.05145148,-0.04525949,-0.015708411,-0.11511281,-0.03369147,0.0067839045,-0.020195482,-0.1051333,0.13475935,0.06501646,0.10971765,0.091872446,-0.08723489,-0.10690681,-0.042651996,0.03271071,-0.0071639507,0.07389556,-0.028008958,0.05509099,0.10423765,0.039839808,-0.14174545,0.0022100706,-0.06534642,0.082177855,0.13143465,-0.16903728,-0.044930164,0.018042514,0.1157468,0.0629114,-0.11215535,-0.07993679,-0.063669525,-0.12094849,0.048451137,0.0025522956,0.068558626,-0.090868026,-0.08553118,-0.033125605,-0.0900747,-0.057778995,-0.104561515,0.0011018062,-0.085326955,0.06698307,0.07668516,0.11290522,-0.09665858,0.07340481,0.1480629
"Albany,_Georgia",0.057452757,0.038462166,-0.06910298,0.044550125,0.05171354,-0.04605062,0.043862116,0.03902236,-0.014234005,-0.05286715,-0.000526086,0.109211005,0.138775,-0.02724763,0.03853881,0.10845707,0.07674446,0.077777416,0.12678742,0.05924877,0.072095245,-0.010253955,-0.07284825,-0.033470094,0.025034899,-0.0991464,-0.11127349,-0.0350689,0.13334075,-0.051813442,-0.027840916,-0.061638664,-0.016341254,0.12041794,0.120423116,-0.10801293,0.05069483,-0.053030886,-0.041472208,-0.03625208,0.017721726,0.097945265,-0.08522433,0.07822362,0.020274878,0.13032989,-0.082078554,0.087372094,0.0028089897,0.030755565,-0.11286433,-0.06251732,-0.06671148,0.02402921,-0.0700364,0.0474723,0.13439004,0.05756445,0.0989302,-0.033154093,-0.03515737,0.027484264,0.07370949,-0.060229316,0.023699047,-0.055237398,0.008442533,0.15384056,0.030058242,-0.06907863,0.029162537,-0.006861506,0.11609707,0.13037422,-0.11103092,0.007861571,-0.00016012421,0.09399293,0.02622917,-0.042732988,-0.043262582,-0.059474092,-0.03402425,0.14748758,0.08807539,0.057355665,-0.047441732,-0.034045804,-0.079074666,0.0008018549,-0.07081371,-0.09242754,0.012390013,-0.09103529,0.064175084,0.13463457,0.0645967,-0.03015316,0.033777922,0.048797525
Albert_Camus,0.073598996,-0.0051976102,-0.07636891,0.015497631,0.040258743,0.09005176,0.0057555567,0.011173974,-0.032499555,-0.03224679,-0.02627048,0.09647887,0.0020532669,-0.06432852,-0.004080777,0.10552557,0.053450882,0.019620413,0.018580103,-0.0076366886,0.09752846,0.068307094,-0.017670501,-0.043081343,0.027751666,-0.06767665,-0.01679638,-0.049958225,0.033704825,0.026590662,-0.023342934,-0.007999635,0.038132273,0.07719544,0.046324287,-0.10515235,0.013122401,-0.06394664,-0.02999666,0.038795635,0.028036533,0.05402749,-0.121264756,0.0513195,0.061770376,0.050447255,-0.028744424,0.033769395,-0.014971977,-0.0018194034,-0.06055041,-0.014876848,0.041207846,-0.109927736,-0.14594556,0.10112033,0.030615889,0.011147683,0.07908988,-0.06721029,-0.13571556,0.092544705,0.090107225,-0.0348692,0.095771946,-0.04029289,0.03973297,-0.0081800185,0.0145858135,-0.08322801,-0.013793065,0.0012859879,0.09860735,0.12528744,-0.072559975,0.018619198,0.012125501,0.081640065,0.12256495,-0.09320136,-0.057006977,-0.05167115,-0.092043646,0.057198983,-0.0007172017,0.011030341,-0.10603289,-0.06732566,-0.005785729,-0.04234012,-0.019196346,-0.061450616,-0.015451281,-0.04794508,0.019881794,0.051179867,0.09241558,-0.017851437,-0.0041492726,0.040169284
Albert_Einstein,0.052044187,0.0258239,-0.12837037,0.0155509,0.0154537605,0.030854456,0.06776747,-0.036974102,-0.012363167,-0.06801318,-0.037353504,0.04342216,0.03813324,-0.06915375,0.0019314745,0.08536101,0.065068886,0.06362254,0.012566049,-0.05402175,0.15686733,0.072480805,-0.046003953,-0.010033692,0.027554417,-0.06907681,-0.11977896,-0.10570326,0.074064836,-0.019723112,-0.015122652,-0.06020644,0.019623635,0.06317657,0.06806468,-0.07390986,0.05452107,-0.016630119,-0.0653296,0.021200348,0.054013807,0.011023674,-0.06977628,0.038463183,0.05195896,0.041031107,-0.018924545,0.124904044,-0.00062563294,0.033416137,-0.053205237,-0.00774386,-0.037197083,-0.029215693,-0.055876512,0.1322185,0.04361195,0.13460052,0.01926537,-0.07383917,-0.09208828,0.051324144,0.12645997,-0.036230747,0.06955123,0.013543648,0.018698063,0.037176836,0.015284818,-0.08202029,0.00089955324,0.00047799345,0.09764508,0.11624083,-0.030889122,-0.023522446,0.019656556,0.057895,0.01255519,-0.11829118,-0.065522715,-0.05710071,-0.07099697,0.11422256,0.019753126,-0.0052464018,-0.12526035,-0.074046776,0.021117996,-0.06405737,-0.0571294,-0.047673993,-0.07132148,-0.04584398,-0.0015924944,0.02291754,0.081397176,-0.04741791,0.06511135,0.09132795
Albuquerque,0.04559623,0.000353247,-0.15517409,0.08254108,-0.015917014,0.11035092,0.055080842,0.05944558,-0.045943245,0.0009401107,-0.030849155,0.08608917,0.037336405,-0.114939414,0.043557875,0.058600053,0.09553459,0.054381914,0.10541382,-0.013131818,0.16878518,0.10098355,0.07438163,0.00012192706,0.0027229553,-0.075983465,-0.07582823,-0.092253536,0.13893336,-0.03310159,-0.055974185,-0.02255804,-0.03943769,-0.019526165,0.0797277,-0.12276383,0.041170537,-0.00998278,-0.051153313,0.0954123,0.009780534,-0.032970544,-0.08076084,0.024742024,0.0811275,0.019614719,-0.022585252,0.03039991,0.08692156,-0.0353153,-0.027092662,-0.030085197,-0.08214787,-0.038656298,-0.06387022,0.071396746,0.03813524,0.124121554,0.08876257,-0.087027945,-0.06179047,-0.09390604,0.06521592,-0.074266344,0.09773375,-0.06489985,0.0830063,0.0896401,0.021057433,-0.10840746,0.072404526,-0.034778416,0.11721153,0.06627726,-0.042494994,-0.028112331,0.09820827,0.022038214,0.08431902,-0.06008921,-0.069190815,0.03255893,-0.16371714,0.05396041,0.071627006,-0.07450025,-0.121041425,-0.09158794,-0.10206059,-0.06980368,-0.14203268,-0.04261605,0.011680187,-0.05911718,2.0942542e-05,0.01552109,-0.025690716,-0.07959774,0.08236914,0.04521907
Alcalá_de_Henares,0.07433856,0.089778855,-0.0697405,0.01987562,-0.051712655,0.03492409,-0.025047451,0.004732728,0.025133459,-0.07521802,-0.091780186,0.06671268,0.023769563,0.011899053,0.055998154,0.08377795,0.10907522,0.07986536,0.10025298,0.004872352,0.09155548,0.11441296,-0.0341175,-0.045770057,0.05393423,-0.027483016,-0.060087822,-0.05942192,0.07602034,-0.01372899,-0.058427546,-0.11289449,0.05952305,0.038292352,0.11544385,-0.11820656,0.03802132,-0.016725726,-0.022789782,-0.04025082,0.07006301,0.10783176,-0.10460355,0.027813682,0.16715068,0.09467661,0.027465714,0.06586399,0.10424931,0.02990358,-0.015446666,-0.07164816,-0.015168382,-0.04030558,-0.054885406,0.062383413,0.10544146,0.08033897,0.05774137,-0.045638464,-0.031450704,-0.011602221,0.0746877,-0.00482574,0.06792529,-0.050278496,-0.026739134,0.09979077,0.05228861,-0.116054624,0.031656377,0.023718959,0.0948658,0.13573298,-0.089584075,0.002742736,0.007959869,0.022174543,0.07757101,-0.04902748,-0.072751306,-0.07888069,-0.093440145,0.09807945,0.01396779,0.025131086,-0.07255537,-0.07474049,-0.03625661,-0.045658093,-0.099567495,0.0055718343,-0.07872322,-0.047087304,0.09203175,0.020400284,0.035398137,-0.03254489,0.086349845,0.050216664
Alec_Douglas-Home,0.033458848,0.07421659,-0.08952485,0.08013875,-0.029080672,0.086148806,0.04486793,0.023167139,0.015581899,-0.071108885,-0.019921588,0.05071467,-0.021518435,-0.11132294,0.027777879,0.07252762,0.03932609,-0.006204904,0.10440416,-0.03590376,0.08255831,0.073112614,-0.032886863,0.02801041,-0.008587847,-0.09511377,-0.11952332,-0.10766237,0.013810478,0.057219375,-0.016044246,-0.098372586,-0.02066812,0.025635246,0.022353197,-0.1067184,0.021966152,0.009310031,-0.11060908,-0.033634797,0.005423055,0.057214867,-0.05744407,0.024341863,0.047142144,0.047063038,-0.004308802,0.10293958,0.060196355,0.02582611,-0.038497843,-0.013103842,-0.039004277,-0.06991385,-0.03362937,0.019831901,0.06421453,0.07693664,0.13351674,-0.100834794,-0.123400584,0.0037726576,0.10349733,-0.03381032,0.025743878,0.01506426,0.017410971,0.07106485,0.04588272,-0.055881064,0.008585899,-0.017004237,0.029359432,0.08378407,-0.06879278,-0.053219296,0.03409312,0.03853221,0.06923592,-0.019264111,-0.04091418,-0.003507082,-0.10721719,0.0150245195,0.082724705,0.056359567,-0.06842983,-0.06615369,-0.06053513,-0.09087925,-0.12819806,-0.05000177,-0.02428308,-0.030013273,0.06045068,0.07464896,0.10290523,4.184928e-05,0.11692812,0.072282545
Aleksandr_Solzhenitsyn,0.06424449,0.025618086,-0.10102524,0.09856699,0.029336138,0.06408949,-0.021949796,0.029243365,-0.019185258,-0.054450035,0.0047865035,0.06929651,0.017745454,-0.06928454,0.054444075,0.12321402,0.06116983,-0.010679044,0.037154533,-0.016291227,0.12134037,0.042521134,0.0043293787,-0.0017502733,0.036145072,-0.05603746,-0.029606773,-0.038193747,0.005010639,0.012609664,-0.062041845,-0.06066939,-0.0074039055,0.06528653,0.06750264,-0.10527365,-0.020724596,-0.07620638,-0.0032288746,0.009616515,0.024463685,0.089561135,-0.111206084,0.01829149,0.10250966,0.06049759,-0.033943553,0.051549546,0.046454456,0.04333448,-0.070222236,-0.045763623,0.0043842182,-0.07775202,-0.0851124,0.119177364,0.07012389,0.049962074,0.09485537,-0.08311071,-0.085116,0.04804109,0.06009937,-0.052206207,0.09253138,-0.008671577,0.014088692,0.06575494,0.04035852,-0.08440285,0.008522862,-0.04378478,0.09580591,0.10091931,-0.07403113,0.003068613,0.04642624,0.05229584,0.08527476,-0.1220501,-0.057500664,-0.028405173,-0.118495256,0.05459491,0.07072515,0.028500186,-0.06951147,-0.1146625,-0.078924656,-0.020313695,-0.06300494,-0.05797307,-0.021035073,-0.050705887,0.0496908,0.10046383,0.1269841,-0.0027767,-0.0025937648,0.06343337
Alexa_Internet,0.13119842,0.04771265,-0.108415365,0.1287656,0.049812146,0.05710181,0.04855435,0.0068549314,0.012556301,-0.090443194,0.04958986,0.107516766,0.0041305632,-0.055787977,0.044122476,0.08807642,0.08714174,0.0019516175,0.10122449,0.05554473,0.059313595,0.088194996,0.008471216,-0.04321763,0.047032293,-0.095163316,-0.081153944,-0.12084964,0.12289353,-0.056728877,-0.108384885,-0.10082256,0.08664905,0.06124476,0.076148696,-0.076196425,0.04008388,-0.045127783,-0.11070298,-0.0024132808,-0.0021555254,0.0875498,-0.13084805,0.058842402,0.10860786,0.086881556,-0.0017213493,0.122284055,0.072570354,0.0401252,-0.12558463,-0.093681864,-0.0054878863,-0.0656363,-0.06883258,0.12072158,0.13436222,0.09664225,0.11299748,-0.10214687,-0.11463992,-0.05502668,0.15069538,-0.1046079,0.12387884,0.03707664,-0.028048322,0.10197483,0.06663592,-0.09055224,0.08425954,-0.037114143,0.112442,0.1164007,-0.07494479,-0.06340522,0.00024083325,0.07797682,0.027052961,-0.14207448,-0.07947326,-0.06582881,-0.08981712,0.08046004,0.052828733,-0.03287391,-0.10560896,-0.034198277,-0.11586244,-0.15598243,-0.07453499,-0.117135316,-0.07509148,-0.062801845,0.085630976,0.11246912,0.13453987,-0.030779103,0.11089615,0.103642985
Alexander_Jablokov,0.06977423,0.09547666,-0.14330459,0.035642806,0.032117885,0.06461554,0.015612302,-0.026939884,0.0126868645,-0.04531711,-0.012117695,0.05277188,-0.020442422,-0.11954981,0.04736619,0.031563476,0.07824387,0.0057607964,0.038843196,-0.008884607,0.063147135,0.056356624,-0.0009810494,0.036372922,0.03412159,-0.06403596,-0.07331852,-0.056743424,0.016945502,0.02700129,-0.060210057,-0.09191437,-0.056317326,0.05450825,0.03009311,-0.055822358,-0.01642477,-0.039338637,-0.093000904,-0.0006688397,0.017268801,0.104557134,-0.025732297,0.04395967,0.040573087,0.0061852844,-0.02647932,0.081232995,0.051602624,0.053429063,0.006063518,-0.03629992,-0.03240317,-0.033825964,-0.041764777,0.06931629,0.09604906,0.1448626,0.09241689,-0.06967022,-0.12278703,0.030899912,0.08002347,-0.01647702,0.06592589,-0.0051422627,0.021748405,0.085409895,0.075658195,-0.12446522,0.04640434,-0.010245588,0.029106593,0.06319788,-0.011342584,-0.06309173,-0.0022027534,0.01963351,0.06081457,-0.076977596,-0.036057502,-0.068588726,-0.09688721,0.057643387,0.08774102,0.018682355,-0.042903963,-0.09255607,-0.09892019,-0.09356184,-0.115629695,-0.065769084,0.021245603,-0.040145442,0.04655105,0.11347221,0.13489147,-0.022002308,0.10273482,0.07069544
Alexandre_Pato,0.054197147,0.06684142,-0.050471317,0.019600032,0.009634743,0.04906269,0.009817563,0.015680255,-0.0008306419,-0.020326955,-0.01089182,0.06125986,-0.01623676,-0.10817152,0.022631437,0.07092154,0.06639673,0.05490683,0.040715493,-0.010561156,0.08954557,0.11206568,-0.04499627,-0.045314386,0.0079131415,-0.061773114,-0.02983794,-0.09108937,0.0835602,0.0151605625,-0.029250653,-0.030129818,0.022975283,0.051444963,0.044228654,-0.13185573,0.058418803,-0.03394724,-0.05752865,0.029492887,-0.009172887,0.05330962,-0.13738336,0.09392487,0.076622166,0.038988657,0.00068802724,0.08883729,-0.0077844057,-0.0074351067,-0.06576963,-0.014756088,0.02853177,-0.07041854,-0.10548779,0.11910677,0.028826848,0.040000845,0.07203864,-0.02764774,-0.13514207,0.07521675,0.11890144,-0.035059705,0.07012444,-0.034291938,0.045284193,0.02938229,0.009280825,-0.07683961,0.018595714,0.0015694763,0.098076895,0.095475145,-0.026610248,0.013222598,0.014124635,0.081672825,0.056682248,-0.08440782,-0.07780478,-0.07308524,-0.08849565,0.095635094,0.03270014,0.0014817396,-0.12146391,-0.049078353,-0.019761452,-0.06486111,-0.0839044,-0.045664523,-0.030177452,-0.05304974,-0.030258795,0.03371066,0.08736784,-0.032884743,0.030450303,0.07249307
Alexis_Valdés,0.06679957,0.104874305,-0.14962511,0.07503276,0.02436963,0.03005533,-0.0002825753,0.04882919,0.022773093,-0.021930452,0.023681423,0.08070702,0.017918868,-0.115827955,0.0099181235,0.042402957,0.06815419,0.0052009714,0.07063573,-0.05225334,0.06032368,0.08015017,0.007142597,-0.0016120215,0.048052475,-0.076149166,-0.10513793,-0.053189207,0.007850945,0.038024127,-0.076676615,-0.04888607,-0.03705314,0.061604507,-0.0099768145,-0.0680389,0.015827058,-0.01856218,-0.11300297,-0.021759888,0.035908505,0.02647153,-0.06745985,0.017347693,0.048488606,-0.009900815,-0.013206342,0.0385506,0.056564834,0.033417083,-0.011770535,-0.035246745,-0.008672233,-0.08496642,-0.027215445,0.060051534,0.039101478,0.096335,0.095004246,-0.06962124,-0.061958406,-0.010761792,0.07593524,-0.011567532,0.065519035,0.038792264,-0.023177082,0.0916479,0.10378256,-0.06365021,0.017079292,-0.06611643,0.03207991,0.06867746,-0.06170627,0.0053877425,-0.019791596,0.070448086,0.001808678,-0.081048675,-0.050462227,-0.04674502,-0.07117353,0.061626922,0.07533766,0.061723996,-0.042307153,-0.115309976,-0.09730198,-0.06907629,-0.071211554,-0.10335806,-0.019651478,-0.032073613,0.046733882,0.078911565,0.1434683,-0.017914282,0.073521994,0.09856699
Alexondra_Lee,0.111717515,0.08937665,-0.01852044,0.071933985,0.09017821,0.015406301,0.055348154,0.032213736,-0.063825995,-0.03195876,0.0074474844,0.0654703,0.07071733,-0.12160837,0.06695218,0.078753844,0.06534605,0.044331305,0.11935098,0.03838223,0.020260548,0.035291728,-0.079664186,0.03333191,0.076879114,-0.10842054,-0.07722817,-0.07192804,0.15250573,-0.014093517,-0.060201567,-0.0825731,0.029014654,0.071959056,0.04075444,-0.13488697,0.017646488,-0.008682996,-0.10367711,0.00047700197,-0.06668998,0.047756705,-0.08334994,0.05966267,0.10624191,0.036668137,0.0743338,0.044685625,0.03372168,-0.019971184,-0.12920447,-0.09154409,-0.040628176,-0.020133175,-0.08496413,0.07959255,0.040246624,0.05609223,0.12599055,0.046555646,-0.06712858,-0.06910071,0.123963885,0.07078603,0.06805545,-0.0006041916,0.07318972,0.062559985,0.03291789,0.0003578686,0.019051136,0.018847305,0.16298173,0.0938693,-0.1123361,-0.010559543,0.033265922,0.05060364,0.13746542,-0.017778635,-0.07150543,-0.09040307,-0.05358982,0.06191575,0.024155939,-0.028742138,-0.09744018,-0.053650603,-0.101876676,-0.059793066,-0.13453788,-0.08209695,-0.017510392,-0.108825065,0.033989083,0.083986714,0.07496714,-0.13723882,0.041892454,0.094118
Alfred_Bester,0.03738576,0.06338196,-0.045257464,0.03345802,0.030383125,0.060376633,0.05011487,-0.01986956,0.052254606,-0.047741625,0.021312064,0.08720859,-0.020857962,-0.1058186,0.061348468,0.050789185,0.057884477,0.030426683,0.024840573,0.013959403,0.08035381,0.11862585,-0.0147968205,0.037710894,-0.003365666,-0.07074439,-0.014885656,-0.06323749,0.104081504,0.0211108,-0.003578332,-0.08094602,-0.02421557,-0.0021406529,0.09703522,-0.05540605,0.042180073,-0.042812955,-0.07370654,0.028321823,-0.023875566,0.096541785,-0.03197547,0.046725523,0.09434962,0.030454993,0.009004923,0.07932212,0.038885478,0.026832681,-0.04424292,-0.054746278,-0.052194532,-0.07109705,-0.097991,0.047023617,0.059681337,0.03913362,0.10673275,-0.06858475,-0.11700647,0.0035275172,0.049689934,-0.074051775,0.04454626,-0.038894583,0.059218924,0.05435916,0.034639604,-0.051730834,0.03312071,0.021087466,0.05123651,0.046508007,-0.03749876,-0.08163813,0.04637643,-0.024455365,0.09031695,-0.072744235,-0.07885395,-0.056447305,-0.1422733,0.046943665,0.10444423,-0.011353264,-0.110679224,-0.04954042,-0.08615447,-0.06614398,-0.09778652,-0.038919277,-0.03008887,-0.10062748,0.07072674,0.086865105,0.054787777,-0.02747478,0.1124007,0.022084719
Algeria,0.058652867,0.11162904,-0.09167867,0.115943134,0.02758363,0.09603499,0.061892785,2.5273315e-05,0.046646226,-0.082737245,-0.019600747,0.13121861,0.00084998505,-0.075234815,0.11285837,0.08453316,0.08108018,0.043263763,0.053480625,0.02640736,0.09213915,0.032620054,-0.0071197697,-0.0014339596,0.029034786,-0.105424024,-0.13161069,0.010557462,0.029909382,0.027729543,-0.104439914,-0.0909779,0.011474005,0.042454187,0.091609165,-0.11805316,0.07382219,-0.08288648,-0.038054477,-0.018351644,-0.034786984,0.06831814,-0.11065162,0.04393306,0.07392993,0.044656526,0.011357071,0.117667004,0.09636529,0.04436101,-0.11238967,-0.12217257,-0.013072059,-0.06314381,-0.105704464,0.044862434,0.13683616,0.07340744,0.07126546,-0.137547,-0.106511444,0.038197797,0.093103915,0.014126984,0.107152455,0.019384721,0.04465005,0.08700447,0.06762365,-0.018801812,0.0746941,-0.06875035,0.09209348,-0.009193818,-0.061248,-0.07367423,0.052425917,0.012393305,0.04618093,-0.071326435,-0.102045506,-0.032994024,-0.10322174,0.0027847057,0.077938065,-0.0022473456,-0.099219985,0.02833472,-0.11872934,-0.08078719,-0.062227197,-0.07905031,0.04631253,-0.09433921,0.07199635,0.076335445,0.1272885,-0.052051388,0.05189468,0.070167765
Ali_Landry,0.07051736,0.046048425,-0.08597948,0.047920577,0.030910106,0.07249119,-0.0017415143,0.01618777,-0.028583521,-0.057711292,-0.009536688,0.06840494,-0.024411645,-0.10770724,0.024686389,0.06960498,0.071199186,0.02040611,0.073843874,0.0065209884,0.020918028,0.063161425,-0.053200167,-0.0078141475,-0.0019257332,-0.02955658,-0.051210962,-0.13398843,-0.004383167,0.039220084,-0.040397946,-0.089767255,0.0014726765,0.045558453,-0.0037752753,-0.110291205,0.015050375,-0.046755612,-0.06816867,-0.015131816,-0.0048736623,0.08533403,-0.069822185,0.050962996,0.039157577,0.0014216698,-0.008309595,0.06893543,0.037757326,-0.00047907603,-0.026933165,-0.03169502,0.023543058,-0.07387417,-0.041042916,0.08044785,0.110933505,0.033472575,0.13764404,-0.044779275,-0.12713,0.045121305,0.12617068,0.005649533,0.049345948,-0.0005291092,0.01390564,0.075409584,0.047345024,-0.12880956,0.043534625,0.0011628359,0.049513508,0.07658027,-0.07282421,-0.038128566,0.019217238,0.088980585,0.06230039,-0.05566932,-0.024815934,-0.041728877,-0.08760761,0.05959658,0.035813082,0.04601371,-0.052859347,-0.06474851,-0.059445933,-0.108027436,-0.11677875,-0.08929094,0.015773186,-0.02184472,0.0031629426,0.06208433,0.13204758,-0.0107528865,0.047964506,0.1218428
Alicante,0.11394751,0.07641623,-0.048930015,0.013676409,0.057027657,0.038196493,0.09142893,-0.045139506,0.020916218,-0.018172618,-0.046906326,0.14074358,0.06023358,-0.053343087,0.11264177,0.07266441,0.086512074,-0.007351635,0.08896518,-0.09226459,0.07763369,0.10443334,0.00031006726,-0.08849257,0.024864804,-0.09749404,-0.03260769,-0.07552578,0.059288632,-0.12946524,-0.061659142,-0.105395354,-0.019778267,0.075794324,0.14543822,-0.066394515,0.06633465,-0.033758152,-0.09905149,0.0020105985,0.061050624,0.12594877,-0.14084458,0.06573132,0.11514528,0.0469495,-0.04080079,0.032145552,0.059643332,0.094409704,-0.09717804,-0.09370199,-0.0837752,-0.03122205,-0.094071075,0.096132405,0.18400961,0.05090914,0.030407995,-0.023425816,-0.11050757,-0.0008980922,0.10523155,-0.04549434,0.077963375,0.010736623,-0.039784316,0.061139133,0.03036025,-0.093102045,0.0447152,0.039641377,0.11402263,0.10784366,-0.08709635,-0.07746958,0.0018159904,0.10716745,0.10780576,-0.05895105,-0.0695512,0.0007605351,-0.042509284,0.05694953,0.15353861,0.07203226,-0.11188215,-0.05499228,-0.05910851,-0.11627037,-0.06948837,-0.12279191,-0.037616983,-0.059903465,0.04742815,0.059002794,0.15231234,-0.06194171,0.104225785,0.05966243
Alki_David,0.076516785,0.048815273,-0.0826448,0.10063199,0.10671093,0.05094441,0.06869364,-0.028008815,-0.0021043392,-0.049055755,0.011619953,0.07522854,0.040167402,-0.11763104,0.06094352,0.008649313,0.067757525,0.05581972,0.073998734,-0.053451896,0.12531725,0.08747658,0.021735014,0.015292917,0.09800947,-0.08818472,-0.072033785,-0.01444988,0.0712361,0.003893976,-0.0070049544,-0.104449764,0.08916982,0.08835309,0.11462868,-0.05449418,0.065477185,-0.036857598,-0.12932757,-0.0022861592,-0.015712028,0.071343146,-0.09540676,0.053948823,0.11457094,0.08895523,-0.041304104,0.068278626,0.049761284,0.10209377,-0.10507492,-0.07342891,0.01720756,-0.048344277,-0.077693485,0.06326811,0.14179279,0.016053924,0.12055825,-0.0496698,-0.10033014,0.014808612,0.0902008,0.020250602,0.08682759,-0.10810782,-0.02294694,0.09947813,0.014724695,-0.07112523,0.019029105,-0.014258979,0.1041905,0.082628034,-0.045199998,-0.08091225,0.027462766,0.08485629,0.13088517,-0.12410516,-0.087622784,-0.08462137,-0.08097016,0.04323365,0.060585503,0.007015479,-0.06845555,-0.054603886,-0.07460855,-0.1144881,-0.10499388,-0.07737692,0.09981993,-0.059353508,0.010780663,0.0643161,0.0810594,-0.021742774,0.09817126,0.056189764
Alyson_Stoner,0.096302375,0.06182667,-0.080782555,0.07560155,0.036460366,0.092397206,0.020881275,0.05139007,0.0672998,-0.026956663,-0.008166039,0.09095485,-0.07933568,-0.065674126,0.09964842,0.12223104,0.11477998,0.06694114,0.09319631,0.013883792,0.001316058,0.006675463,-0.025011253,-0.051120307,0.037252426,-0.16200098,-0.11073067,-0.08776513,0.117417976,-0.021963255,-0.13753726,-0.0813494,0.032564025,0.053226862,0.08543042,-0.11023507,0.07312275,-0.1116702,-0.04296908,-0.12836447,0.011719086,0.07410448,-0.11786232,0.038000975,0.12180806,0.11254896,0.031349286,0.09876587,0.018794628,0.02267941,-0.10996059,-0.025033468,-0.11824567,-0.09323207,-0.10401386,0.14314535,0.10232248,0.10765688,0.046749607,-0.016062839,-0.111198075,0.048034225,0.079462714,-0.07904613,0.118535355,0.01784903,0.03618626,0.09617921,0.085791826,-0.1488773,0.1184889,-0.029232724,0.113106705,0.11280696,-0.12911965,-0.06324533,0.08972202,0.06282486,0.11940167,-0.09543082,-0.11700987,-0.023867352,-0.0987218,0.08384058,-0.0051982943,0.006332668,-0.06651271,-0.097845,-0.023129681,-0.051053397,-0.043686498,-0.040913977,-0.032452565,-0.06673778,-0.010695471,0.06628311,0.09438579,-0.037889674,0.119134404,0.12050045
Amanda_Peet,0.052386466,0.08346968,-0.12247511,0.12435929,0.007889434,0.031756036,0.02066574,-0.031338636,0.04759173,-0.026789324,0.042230744,0.104166016,-0.010781371,-0.101601,0.11833923,0.12973699,0.09107109,-0.010974693,0.0694736,-0.0015857033,0.057868414,0.0096641565,-0.04013658,-0.06255582,-0.043163735,-0.086583756,-0.14125277,-0.09472624,0.0690872,-0.053230383,-0.0044852737,-0.064645626,0.025409723,0.013300703,0.049267177,-0.10798882,0.0138306115,-0.10608494,-0.11563863,0.006038804,0.013078327,0.079756066,-0.11328686,0.04167647,0.09501672,0.112283975,0.041867416,0.0977708,0.060168974,0.10153278,-0.14929,-0.029654447,-0.033335473,-0.08765026,-0.078943074,0.12278348,0.079071134,0.15319897,0.035444427,-0.022296263,-0.1408766,-0.066531934,0.12562542,-0.06526113,0.08561886,-0.017043155,-0.020045722,0.064757384,0.072004475,-0.09818044,0.02368597,-0.05033286,0.14155442,0.13780977,-0.09972267,-0.051041555,0.02750954,0.047562353,0.042278193,-0.1607505,-0.13587569,-0.045033228,-0.045027822,0.00072570925,0.102051124,0.058088735,0.033356123,-0.0814021,-0.012599811,-0.11132896,-0.031242505,-0.11525027,-0.024348449,0.032314718,-0.032567322,0.078426816,0.02074062,-0.066707216,0.07103763,0.08042673
Amanda_Seyfried,0.13614169,0.06589073,-0.10559248,0.04129141,0.10165782,0.07224602,0.068440594,0.111450516,0.014478268,-0.087606914,-0.009426762,0.095934235,0.020534985,-0.07838084,0.109307386,0.06380717,0.0980431,0.11616394,0.117992744,-0.039762806,0.049327865,0.0984659,0.03015957,-0.010811717,0.029146144,-0.06383354,-0.13221464,-0.062732935,0.11384629,-0.14539932,-0.1296947,0.004184056,-0.03623807,0.12582067,0.08998451,-0.10015779,0.057425972,-0.063968636,-0.04333979,-0.062886454,-0.044151507,0.04962629,-0.1415323,0.053454734,0.08213252,0.089311115,0.017770683,0.08189145,0.100169,0.118941516,-0.06460679,0.0060776575,-0.07213357,-0.087669775,-0.08224939,0.06260432,0.12869316,0.08356342,0.100612946,-0.055408858,-0.082167804,0.013199274,0.078743026,-0.0824969,0.08873665,-0.07257161,0.068877935,0.07289976,0.08975124,-0.12663184,0.06092474,-0.13588776,0.07344984,0.10036709,-0.092032984,0.042731456,0.09432904,0.05403291,0.050579455,-0.13464762,-0.12777245,-0.10673795,-0.12949641,0.0851736,0.117488824,-0.003501984,-0.10097397,-0.12610127,-0.13027072,-0.08788865,-0.069201246,-0.09134813,-0.05519145,-0.09314601,0.0629443,0.14097458,0.031042438,-0.061087772,0.06747186,0.05906768
Amazon.com,0.07880182,0.08040341,-0.130943,0.07966913,0.009527671,0.068720184,0.021150075,0.018070724,-0.0011791048,-0.032128435,-0.017842114,0.0786068,-0.008878663,-0.113465406,0.05462718,0.055492114,0.09709207,0.007008613,0.047172017,-0.03420471,0.06384136,0.060748454,-0.035103373,-0.0017252418,0.02916382,-0.09219206,-0.10291816,-0.09292198,0.020285685,0.022222819,-0.0581985,-0.08340279,-0.024131207,0.064521834,0.014107232,-0.10488244,0.016968854,-0.025105841,-0.08032164,-0.008238731,0.050195448,0.07885326,-0.07276003,0.046949472,0.05178487,0.031249845,-0.024937743,0.10902378,0.036032077,0.028978156,-0.030743377,-0.022393683,-0.017631033,-0.068816066,-0.035379864,0.083098814,0.07944769,0.11698593,0.12434214,-0.10804339,-0.09949469,0.022957454,0.09408052,-0.007454157,0.05698178,0.024074726,0.0072841067,0.087868705,0.0860643,-0.10185154,0.049208954,-0.022342814,0.034711387,0.09258524,-0.05917767,-0.062206198,0.013135505,0.052383266,0.05318241,-0.079052664,-0.06059351,-0.046284653,-0.08836268,0.05714064,0.08177511,0.040269326,-0.04910568,-0.108435385,-0.083245784,-0.10520571,-0.11081775,-0.073442146,-0.022752864,-0.023849268,0.038891822,0.096464984,0.12105427,-0.012271604,0.12581152,0.08798593
Amir_Johnson,0.05854051,0.07573699,-0.10717964,0.08141592,0.027083375,0.008443491,0.015175859,0.036234975,0.014387601,-0.0022269352,0.004886123,0.039133903,0.03746727,-0.10782169,0.03253142,0.110608794,0.086546734,0.037698787,0.07679675,-0.04607433,0.11413681,0.03919907,0.016132146,-0.023278851,0.029880904,-0.07736433,-0.08499124,-0.057770617,0.060913555,0.029040352,-0.0763918,-0.057020806,-0.013466398,0.036520705,0.05048127,-0.07958308,0.02567167,-0.061283674,-0.070127755,0.028400967,0.023614898,-0.0047818813,-0.097836524,0.06251406,0.10182282,0.0002034086,0.017187163,0.031786487,0.057162855,0.050069887,-0.06441497,-0.042682033,-0.021512518,-0.070290044,-0.100183286,0.07310131,0.050232694,0.11886252,0.0976569,-0.08066069,-0.11552098,-0.03265443,0.09813618,-0.04127094,0.06035367,0.024988068,-0.031733774,0.09150929,0.081009306,-0.043615434,0.036395382,-0.060283557,0.07959109,0.10584454,-0.08635368,-0.0034523483,-0.008533716,0.05844716,0.038470604,-0.119851194,-0.091076665,-0.06327702,-0.057789855,0.08371181,0.085535675,0.052394986,-0.13397034,-0.09880815,-0.086548634,-0.044818208,-0.052714825,-0.07908986,-0.0264754,-0.0734618,0.025744025,0.07971859,0.12428715,0.00075444486,0.060862683,0.08617143
Amnesia_Moon,0.019434819,0.06469493,-0.083550364,0.03532728,0.10422284,0.08333,0.030584287,-0.0476134,-0.01908803,-0.080165245,-0.048869483,0.15243208,0.017040074,-0.08744858,0.09913796,0.049625415,0.102400534,0.095827244,0.15050146,0.0027888708,0.014271281,0.072188586,-0.0024009387,-0.070712045,0.033790264,-0.10227261,-0.0745529,-0.031002816,0.07206687,-0.001313693,-0.12686938,-0.17727137,-0.029269537,0.071296595,0.085027024,-0.083239235,0.043131445,-0.050905548,-0.10727167,-0.018183004,-0.018082976,0.055091064,-0.1081976,0.073626876,0.10446673,0.03485049,0.014956486,0.09065871,0.07221204,-0.037663657,-0.1010038,-0.11726202,-0.08186743,-0.047934126,-0.111063145,0.13976678,0.119864985,0.048100747,0.0575576,-0.15677497,-0.09535845,0.013066132,0.13394678,-0.058603443,0.031232206,0.067840606,-0.0035692225,0.11632922,0.061933015,-0.11334832,0.0392417,0.006992478,0.072368994,0.14745691,-0.038750675,-0.065140486,0.05773635,0.041774575,0.101569034,-0.106037505,-0.040799394,-0.045171022,-0.014917225,0.107994914,0.13092941,-0.07320492,-0.12745105,-0.11984007,-0.12458058,-0.05276776,-0.024826389,-0.1178871,-5.6156896e-05,-0.10803125,0.05973539,0.09021792,0.119238354,-0.0061932947,0.11578348,0.061870262
Amy_Poehler,0.04340603,-0.019781314,0.015459064,0.07842029,0.016966224,-0.0110471165,-0.06517246,0.062041163,-0.039677653,-0.0757484,-0.025734926,0.16052803,0.02325742,-0.11549268,0.09165932,0.05101973,0.12104667,0.08583602,0.0574453,-0.0032405294,0.04352635,0.04053431,-0.029161703,0.030765349,0.12349045,-0.07670536,-0.034930605,-0.0492734,0.085532,0.04334681,-0.06794774,-0.091305986,0.032131072,0.08844582,0.02073266,-0.15939248,0.046945274,0.023437247,-0.043598574,0.0033406976,0.011980383,0.123576894,-0.065945186,0.10100549,0.12918703,-0.03347695,0.0547695,0.06729629,0.023264593,-0.016980128,-0.11079227,-0.06730289,-0.045451537,-0.05418416,-0.02969427,0.10962603,0.08414737,0.0062563275,0.09301787,0.00020823695,-0.07993917,0.017179485,0.12093345,0.017242435,0.072361246,-0.06950388,0.013098732,0.07212162,0.11114398,-0.0025149318,0.06545802,-0.00921079,0.11706334,0.1084324,-0.053477813,-0.037089273,0.03934655,0.068887375,0.0987493,-0.06758884,-0.08328144,-0.0978667,-0.05305585,0.12071899,0.05837108,-0.010430472,-0.08411553,-0.030440612,-0.083779916,-0.08052293,-0.08834719,-0.06380134,0.015634943,-0.10492363,0.049067378,0.056642324,0.060513575,-0.042501744,0.013380123,0.101764
Amy_Spanger,0.13211139,0.04094572,-0.08412061,0.011454573,0.095831,0.020507693,0.0015519116,-0.0031101704,0.020486346,-0.003808583,0.046898182,0.034238964,0.04508007,-0.07843962,0.009062699,0.094618365,0.08538619,0.08738701,-0.023535209,0.008309636,0.081805296,0.07384216,-0.021194337,0.0069702864,-0.005105068,-0.009731008,-0.036836974,-0.050032284,0.07465807,0.003589376,-0.035967067,-0.07382416,0.008340373,-0.00032650674,0.01921637,-0.035332482,0.05236534,-0.08738016,-0.044148687,0.058182716,-0.0047157514,0.017995136,-0.06399453,0.037505426,0.0575968,-0.03697354,0.052070413,0.012804084,0.07721885,0.036617704,-0.093611196,-0.08166488,-0.03406512,-0.03010663,-0.074322164,0.100309886,0.088486716,0.04740673,0.059977654,-0.0073761283,-0.09168267,0.02371934,0.10321525,0.006329336,0.12434924,-0.016596505,0.0068220887,0.0664402,0.06147612,-0.07562993,0.07187089,0.01492053,0.049471904,0.06376447,-0.06884598,0.012925068,-0.003955273,0.032081258,0.0066647073,-0.09546839,-0.057752166,-0.102625795,-0.026235338,0.11404968,0.03193561,0.008134764,-0.14211616,-0.024425143,-0.02940182,-0.051518794,-0.033529557,-0.10549005,0.0118754385,-0.07016921,0.025059225,0.040794946,0.1523858,-0.05528247,0.037678994,0.08250131
Anatole_France,0.030508215,0.08323343,-0.11368613,0.026889544,0.020771595,0.033144582,0.010079586,0.022265399,0.037746184,-0.007457073,0.014785197,0.099265054,0.012453278,-0.1079616,-0.01295058,0.08328567,0.030581145,0.07629376,0.08322896,-0.053607266,0.11874424,0.10269897,0.015704526,-0.05457468,0.04871098,-0.099797755,-0.08152461,-0.057489358,0.08561656,0.019621631,-0.045642786,-0.009065798,0.0046418183,0.068283364,0.04879739,-0.0815716,0.044529963,-0.040336527,-0.08670604,0.0023401745,0.013272236,0.0036012519,-0.118739866,0.07093763,0.088647865,0.031442013,0.0025300593,0.05157574,0.021295145,0.04704839,-0.04808782,-0.00015911796,-0.023839565,-0.0990879,-0.12002462,0.0748692,-0.00029543776,0.1132756,0.050676513,-0.06930816,-0.12331357,0.00514235,0.09387294,-0.05421915,0.069682576,0.020475892,-0.006827453,0.0415673,0.055429637,-0.047359116,-0.005616678,-0.051461216,0.08492795,0.103838354,-0.033199757,0.019259831,-0.007313957,0.085852206,0.041810792,-0.13314644,-0.10728371,-0.064934246,-0.059175856,0.113405935,0.02751168,0.029566625,-0.109324895,-0.07881118,-0.018841607,-0.04803576,-0.06107674,-0.05305381,-0.072553046,-0.06658947,-0.019460084,0.06431083,0.063393354,-0.055759024,0.07325227,0.075587526
Anders_Fogh_Rasmussen,0.037848514,0.07847586,-0.072366394,0.06911945,0.0025183437,0.06867739,0.07121797,0.03416862,0.018221797,-0.06493857,0.0071865795,0.12567952,0.006721804,-0.08262908,0.057804044,0.09768923,0.04651309,0.014196177,0.09658598,-0.036776982,0.10572095,0.10389062,-0.055694148,0.008522366,-0.025995124,-0.097590245,-0.09452592,-0.10202758,0.060655728,0.028578585,-0.0007990725,-0.10094014,0.007580228,-0.0019421098,0.08228304,-0.11692423,0.040517926,-0.016872918,-0.089206286,-0.015173175,-0.0062914025,0.07610333,-0.05715484,0.03655427,0.1098412,0.05459381,0.016042195,0.08614609,0.041305933,0.040089823,-0.094402,-0.05081018,-0.02861375,-0.06556946,-0.100833476,0.049921717,0.048930936,0.04674718,0.1271236,-0.10947806,-0.082199395,-0.008438695,0.09026375,-0.06953624,0.027292414,-0.0013431892,0.042451248,0.069348514,0.021674667,-0.06116195,0.026280029,-0.0034001223,0.07665586,0.09531813,-0.0970246,-0.05628065,0.059494656,0.022563338,0.08600992,-0.047004964,-0.08151456,-0.0096975565,-0.1309277,0.03339014,0.09254743,0.029432196,-0.14174384,-0.057924446,-0.06863355,-0.08671555,-0.12140239,-0.028335,-0.038129307,-0.083008066,0.060234424,0.06827341,0.07635057,-0.0016306716,0.10465971,0.057665136
Andre_Agassi,0.04421085,0.055976085,-0.066779934,0.071630925,0.036313068,0.00018069067,0.02395163,-0.02095588,-0.013768729,-0.06867866,-0.01060933,0.04632825,0.043404415,-0.053986914,0.04727003,0.12861043,0.124813996,0.0686022,0.041018564,-0.011788263,0.10420982,0.033544905,-0.048231382,0.0049853045,0.014118001,-0.046365228,-0.121977806,-0.0686372,0.047361113,-0.044883195,-0.03236361,-0.08597012,0.019737734,0.018485878,0.08299833,-0.022851167,0.03891491,-0.052888036,-0.044593997,-0.01930914,0.00364819,0.03307666,-0.082018174,0.05877577,0.0504605,0.025325524,-0.005808301,0.1202798,-0.007365247,0.04216722,-0.09262572,-0.08640259,-0.043195937,0.012835434,-0.04594504,0.067587994,0.05893511,0.12644804,0.060938943,-0.07023688,-0.030807223,0.033298712,0.07753531,-0.016489265,0.03457439,-0.012662146,-0.006018248,0.08332438,0.08622097,-0.110473275,0.0012660427,-0.018080676,0.09450879,0.0916709,-0.074502766,-0.06261741,0.050603136,0.05826021,0.018131858,-0.12613724,-0.046475556,-0.0058728056,-0.043249596,0.07450934,0.047082335,-0.0007056935,-0.07485568,-0.084220976,-0.023559975,-0.055307735,-0.037972968,-0.071734756,-0.027604224,-0.064314894,0.03741022,0.048737947,0.12907131,-0.038322333,0.06454314,0.11283369
Andrei_Kirilenko,0.045529198,0.053322855,-0.1323226,0.068813965,0.018904846,0.016741768,0.0147685055,0.024409259,0.025180545,-0.019451903,0.021708794,0.07601391,0.016033776,-0.11658636,0.01229121,0.055943314,0.046164755,0.00943272,0.07889801,-0.05577596,0.06834616,0.058211096,-0.01264665,-6.238515e-06,0.045830388,-0.08437653,-0.09424988,-0.07227827,0.0042779217,0.050363272,-0.07295014,-0.045766205,-0.03412693,0.042767204,0.0054855957,-0.08433857,0.010250561,-0.020306293,-0.0996519,-0.03549823,0.041520808,0.008758516,-0.06900572,0.024190852,0.06960317,0.002367737,-0.005285266,0.015734449,0.048116714,0.030344037,-0.057253066,-0.019662064,-0.028800685,-0.06548581,-0.039380692,0.04131206,0.05635791,0.12341643,0.14283411,-0.08538034,-0.11148622,-0.010870641,0.1017176,-0.02130615,0.061427545,0.032097884,-0.052412834,0.10500435,0.08774194,-0.07318461,0.028732302,-0.03927509,0.028476333,0.0749603,-0.050419647,-0.015328664,-0.022486795,0.08186954,0.029690156,-0.059487954,-0.05467225,-0.04609761,-0.06282744,0.057203036,0.0841017,0.04180576,-0.060309026,-0.10634245,-0.0866464,-0.06282962,-0.062655345,-0.07604066,-0.019073233,-0.027284628,0.048569076,0.10388308,0.1298783,-0.013293387,0.10371022,0.10722566
Andrew_Bynum,0.0732343,0.067082055,-0.06900375,0.052579362,0.035561193,0.019478269,-0.027954439,0.038696684,0.005605879,0.019069448,0.049809627,0.1110613,0.020155488,-0.1015612,0.015402296,0.10418578,0.067454465,0.061676875,0.057204932,-0.0075463564,0.08255427,0.09928496,-0.019086089,-0.037905775,0.0019075824,-0.06345718,-0.016369352,-0.066043995,0.06870469,0.038880743,-0.04502415,-0.061536595,0.038904354,0.017262518,0.016610928,-0.10041433,0.041506942,-0.07639282,-0.048875734,0.024835017,-0.0095408475,0.028626459,-0.11369075,0.062178995,0.09156051,-0.015271118,0.04096073,0.022179587,0.033409152,0.0017816487,-0.099297084,-0.056295373,0.0007015559,-0.06746997,-0.097601525,0.08514541,0.06661636,0.040625867,0.11570317,-0.04903962,-0.11765728,0.008267537,0.08604266,-0.014816778,0.10431053,-0.013636289,-0.010678914,0.0784226,0.0520771,-0.06905442,0.047211375,-0.009778002,0.07794542,0.0700863,-0.091243654,0.029668238,-0.0070933145,0.07304718,0.04697158,-0.08120652,-0.07304131,-0.08672549,-0.06300794,0.07886464,0.04456505,0.047256995,-0.14491794,-0.08227658,-0.042726766,-0.080592975,-0.05100074,-0.0275364,-0.0053627407,-0.07346591,0.0035301042,0.034045953,0.12523247,0.006694938,0.043255456,0.1039595
