,0,1,2,3,4,5,6,7,8,9,10,11,12,13,14,15,16,17,18,19,20,21,22,23,24,25,26,27,28,29,30,31,32,33,34,35,36,37,38,39,40,41,42,43,44,45,46,47,48,49,50,51,52,53,54,55,56,57,58,59,60,61,62,63,64,65,66,67,68,69,70,71,72,73,74,75,76,77,78,79,80,81,82,83,84,85,86,87,88,89,90,91,92,93,94,95,96,97,98,99,100,101,102,103,104,105,106,107,108,109,110,111,112,113,114,115,116,117,118,119,120,121,122,123,124,125,126,127,128,129,130,131,132,133,134,135,136,137,138,139,140,141,142,143,144,145,146,147,148,149,150,151,152,153,154,155,156,157,158,159,160,161,162,163,164,165,166,167,168,169,170,171,172,173,174,175,176,177,178,179,180,181,182,183,184,185,186,187,188,189,190,191,192,193,194,195,196,197,198,199,200,201,202,203,204,205,206,207,208,209,210,211,212,213,214,215,216,217,218,219,220,221,222,223,224,225,226,227,228,229,230,231,232,233,234,235,236,237,238,239,240,241,242,243,244,245,246,247,248,249,250,251,252,253,254,255,256,257,258,259,260,261,262,263,264,265,266,267,268,269,270,271,272,273,274,275,276,277,278,279,280,281,282,283,284,285,286,287,288,289,290,291,292,293,294,295,296,297,298,299,300,301,302,303,304,305,306,307,308,309,310,311,312,313,314,315,316,317,318,319,320,321,322,323,324,325,326,327,328,329,330,331,332,333,334,335,336,337,338,339,340,341,342,343,344,345,346,347,348,349,350,351,352,353,354,355,356,357,358,359,360,361,362,363,364,365,366,367,368,369,370,371,372,373,374,375,376,377,378,379,380,381,382,383,384,385,386,387,388,389,390,391,392,393,394,395,396,397,398,399
author,-0.2524551,-0.054415848,-0.116665,-0.02729801,0.084151395,-0.04196207,-0.08633934,-0.10223671,-0.006208576,0.12237687,0.20772456,0.16882917,0.0006194026,0.0026174823,-0.12939106,0.034830328,-0.06122318,0.23854263,0.07355265,-0.12210988,-0.073035374,0.24252331,-0.096912615,0.054281536,0.13073836,0.032453958,-0.3130812,0.26019466,0.120210335,-0.25860006,0.06126885,-0.12185691,-0.06421992,-0.2830209,-0.31898108,0.050229628,-0.22261819,-0.06404295,0.013339078,-0.10609538,0.027531896,-0.05664558,0.07258252,0.17451344,0.056410797,0.10314776,0.23237637,-0.1620384,0.23975639,0.18942288,0.21016043,-0.008124372,-0.18830667,-0.020231156,-0.10049848,-0.16074312,0.3730101,-0.26153105,0.084085405,0.08091087,0.13345063,0.16723776,-0.07935378,0.124360114,0.32626206,-0.01515256,0.20646669,-0.14706717,-0.22559337,0.07890323,-0.015653659,0.07553225,-0.3042127,-0.016850319,-0.29157028,0.030022746,-0.059170753,-0.18304335,-0.016920904,0.06735923,-0.041209195,-0.08284483,0.05104101,-0.23587139,-0.10948176,0.06329183,0.3044993,0.10199167,-0.23743364,-0.12399082,-0.2689471,0.18867728,0.055238184,-0.19305259,0.3283778,-0.3119041,-0.32345238,-0.054095414,0.13331297,-0.06515013,0.10129742,0.18488517,0.07981388,-0.49833643,0.164016,0.10087151,-0.15208432,-0.00874323,0.24921921,-0.10888749,0.30045813,-0.29159147,0.063137114,-0.34176472,-0.27140814,0.11001662,0.16864239,-0.06896423,-0.04727519,-0.02611908,-0.10298218,-0.050451554,-0.38053864,-0.107103966,0.18797895,-0.19376639,-0.023938498,-0.04046578,0.041314494,-0.25403076,0.123915024,-0.10360847,0.007954269,-0.064873904,-0.1714731,-0.11684709,0.03933139,-0.08437979,0.16480461,-0.12673362,-0.26864266,-0.006166554,0.15718491,0.08502253,-0.14439677,0.13004401,0.04335089,-0.16038066,-0.18728517,0.02099299,0.10559225,0.040442586,0.063956566,-0.08979613,-0.047919244,0.029140834,0.2900814,-0.030549875,0.044692304,-0.3512368,-0.02850703,0.30906123,-0.054541264,-0.09746859,-0.084425226,0.05168131,0.11441729,0.04088062,0.20361866,-0.26032293,0.11665288,-0.008140755,-0.13379206,-0.068884425,-0.32152122,-0.055184677,-0.02980474,0.107268006,-0.22233567,-0.021379026,0.31279066,-0.18642874,-0.04520681,0.0018401381,-0.004880612,0.16639887,-0.014628903,0.05534569,-0.05772425,0.022737779,-0.0533412,-0.23153752,0.07662944,0.057696957,-0.14859556,0.036977317,-0.15161869,-0.34367234,-0.13351242,0.15613338,0.026734468,-0.2676694,0.25962678,-0.1774448,-0.32532263,0.07427458,-0.0040214914,-0.21414976,0.18839912,-0.511206,0.11743933,-0.20209546,-0.21184325,-0.07011043,-0.2304472,-0.3852399,0.06652842,-0.07163939,-0.21443073,0.02119784,0.13716479,-0.014923761,-0.18196757,-0.19343458,0.0743625,0.13758127,0.22635673,-0.16826457,0.16136724,0.039807893,-0.011213062,-0.039281443,-0.06418387,-0.030683454,-0.12101385,-0.22323,0.096457995,-0.22267087,0.20044166,0.2702364,-0.32892743,-0.15750243,0.15181465,0.26278654,-0.2800041,-0.049865328,0.02199644,-0.29334676,-0.12192028,0.32717374,0.12045129,0.16597459,-0.08563137,-0.010898226,-0.18109806,0.057586353,-0.053563554,0.17869233,0.11385484,-0.118388966,0.13770989,-0.170113,0.24208562,-0.016671207,0.2064725,-0.16865711,0.4278491,0.20627496,-0.31528452,0.18140428,-0.14962222,-0.2813853,0.30002734,0.14464301,0.1154136,-0.08974345,0.14963986,0.106731765,-0.027607208,-0.2510848,-0.18308182,-0.1858101,0.22205515,0.21195497,-0.093716495,-0.11519218,-0.0140409265,-0.10741696,0.024892233,0.031520266,0.09553975,0.22337899,0.045873463,0.14302517,-0.19959638,0.31314144,0.05256996,0.18816262,-0.028294126,-0.025977815,-0.0085765235,-0.14621033,0.3313118,-0.008549108,0.106714465,0.038648847,0.049635332,0.41322455,-0.29044658,0.14149623,-0.10060271,-0.06644176,0.13216624,0.06666734,0.29829225,-0.057261508,-0.13211654,0.4495191,0.030511118,0.10745892,-0.145681,0.00752735,-0.19665737,-0.03632179,-0.18391868,-0.21497762,0.01900176,0.14332697,0.16398226,-0.10332432,-0.09797886,-0.25336576,-0.014898521,0.09672274,0.07705554,0.1794217,0.26617718,-0.2460932,-0.032088883,0.039173618,-0.050665855,0.031921268,-0.2632457,0.3076534,0.019054657,0.1239775,-0.21832028,-0.19518426,-0.13287951,0.3530976,-0.3427503,0.086451806,0.08278584,-0.067713745,-0.056162313,0.24474211,0.10604297,0.22718361,-0.25332865,0.08449575,-0.20419191,0.017842304,-0.2521406,-0.064220846,-0.1960122,0.16684227,-0.1813718,-0.09779515,-0.026628414,-0.014291593,-0.04326359,0.20609458,-0.009239358,-0.073078446,-0.14004391,-0.15109225,-0.059030704,0.0866868,-0.002836927,0.08071456,-0.13633889,-0.15868187,-0.12546179,0.29575613,0.16780016,-0.2875702,-0.15488563,-0.14709218,0.23695081,-0.33058035,0.24016681,-0.09927477,0.2110869,0.28977537,0.10720934,0.031200858,0.031582404,0.096615754,0.09216542,-0.10243433
award,-0.12330135,0.17403552,-0.14210156,0.25556666,-0.029695708,-0.26163122,-0.3270039,-0.12732883,-0.37617457,0.02268348,-0.08821309,-0.20949714,0.28538305,-0.14695323,-0.11221654,0.049126796,-0.20302382,-0.24068265,0.13729881,0.076695606,-0.17902677,-0.26437497,-0.4102585,0.2045452,-0.10546363,-0.46063185,-0.18441866,0.556164,0.16574857,0.06733018,-0.101167224,-0.02515641,-0.20974721,-0.062969804,0.34824336,0.15107709,0.19773674,0.09135428,-0.19004892,0.074988246,0.023891408,0.056540582,-0.10029581,0.11637858,0.13740888,0.11331896,-0.25293052,0.42445093,-0.029369792,-0.31845126,-0.15949911,0.16869546,0.20646818,0.13332702,-0.044850867,0.20827484,0.15466414,-0.10990612,0.3348184,-0.019606024,0.03508263,0.07780428,0.029773733,-0.111674435,0.25420848,0.16699837,-0.03345672,-0.21360707,0.10988327,-0.25260064,0.05849042,-0.15549438,0.15666479,0.18570584,-0.06700216,0.14573342,-0.12138883,-0.014509179,0.24790443,-0.15774502,0.0896042,0.47985834,-0.14522092,-0.32207605,0.07635706,0.21480788,0.1574531,-0.11980041,-0.107944764,0.14355303,-0.09173215,-0.18649037,-0.050930195,0.14632767,0.14032327,0.20522843,-0.054388378,0.32967466,-0.13195378,-0.0017626985,0.3607733,-0.15541318,-0.28472945,-0.3466768,0.13247243,-0.045080036,0.19878049,0.3919666,0.35572618,-0.3251788,-0.03242457,0.038038556,-0.21911459,-0.0059344666,0.09223859,0.10422728,-0.13286175,-0.08076074,0.5745637,-0.14265826,0.11480008,0.009859856,0.21804377,0.27994195,-0.19260956,-0.068875045,0.04658816,0.26907092,0.38710618,-0.0023629647,-0.18868218,0.2684528,0.035193685,-0.17786108,-0.27718762,-0.08662509,-0.14141718,-0.10366382,-0.082897685,0.17311223,-0.042389117,0.008462136,-0.010868998,-0.0017543224,-0.06289518,0.26964515,0.27730057,-0.2183768,-0.3267322,-0.02754434,-0.14095132,-0.25084764,0.23659125,0.103967465,0.11854154,-0.03640215,0.18269858,-0.09350953,0.105838105,-0.054746255,-0.20021781,0.40056318,-0.15909652,-0.050886862,-0.030101163,0.0761835,-0.16611215,0.45870477,-0.017755827,0.16618542,0.10806535,-0.17277244,-0.14085296,-0.26177618,-0.258068,-0.02662321,-0.015777463,-0.09155323,0.09906838,0.026635451,-0.29183593,-0.16832608,0.05339435,-0.141384,0.07304526,-0.054099947,-0.22105679,-0.19221869,0.044661373,-0.11911864,-0.07052449,0.13636053,0.089612976,-0.28095326,-0.15986942,-0.1233694,-0.14080334,-0.03284865,0.030150741,0.350243,0.1834207,0.008957444,0.016380744,0.28872225,-0.17516947,-0.3550694,0.020718722,-0.046495505,-0.06511635,0.119728975,-0.12039374,0.038362544,-0.002521185,-0.020055125,0.061222054,0.002797377,0.2317492,0.093972266,-0.16678871,-0.21564507,-0.16915068,-0.21030425,0.28960806,-0.022746831,-0.17392913,-0.27145094,0.1356459,0.10254381,-0.33343762,0.03814359,0.122037865,0.1743352,-0.33466122,-0.2747308,-0.11453268,0.26266068,0.22381026,-0.047423873,-0.06688986,-0.30135846,-0.052910194,-0.29011494,-0.01199958,-0.27415016,-0.32534322,-0.25042742,0.060358986,0.09399587,-0.07159698,-0.070860974,-0.2915469,0.035153136,0.0076308604,0.04896174,0.0066410108,-0.16031528,0.19225052,0.027669247,0.09261457,-0.074438326,0.043337103,-0.1779187,0.13531129,-0.22907788,0.24657312,-0.086727686,-0.30165055,0.056491833,0.13786031,0.55658585,0.21862659,-0.12112805,0.22999275,0.00448018,0.20189819,-0.0047877436,0.06189934,0.2842649,0.075249605,0.17692871,-0.15522651,-0.03367745,0.36051622,0.066435106,0.023621948,0.38099033,-0.0006451531,0.36866933,0.30613953,-0.029816544,0.1449352,0.121664815,0.084917285,-0.1292077,-0.0113773905,0.1085082,-0.14684011,-0.057963178,0.14429735,0.13498539,0.18832515,0.011579895,-0.08031522,-0.09061889,-0.049616598,0.13532338,0.116831556,-0.0808471,-0.24025829,0.3349085,-0.20504075,0.2541333,0.020786228,-0.17617866,0.01930479,-0.22641036,0.25573784,-0.26551253,-0.116311915,-0.24968739,0.13179857,0.14474933,-0.13878033,0.50591594,0.0050324504,-0.047053933,-0.11972703,0.017141443,-0.15793793,0.4404761,-0.12824455,0.17935865,0.100359485,-0.28359553,0.02086202,0.06369806,0.119736224,-0.11396329,-0.22685216,-0.039513793,0.18713428,-0.14737917,0.32503742,0.044948503,0.11275296,0.07285879,-0.22629465,-0.12696329,0.05907938,0.17524934,-0.19489536,0.14611647,0.14712475,-0.16828258,0.3338043,0.35986573,0.37020558,-0.18683618,0.11020549,0.3183802,-0.06801964,0.03375155,0.10891183,-0.21632563,0.07116705,-0.18441264,-0.055030003,0.10194998,-0.069753125,0.05570249,0.009820935,0.15615833,-0.017397095,-0.118484296,0.1598642,0.3321467,-0.18642983,0.281972,-0.14504492,-0.18275507,0.165198,-0.116257265,0.08042381,-0.07767832,-0.012807642,0.39896768,0.064590394,-0.040511034,-0.16906296,0.17610249,0.22663228,0.038265653,0.15666296,0.06347114,-0.098221295,-0.2586105,-0.44520146,-0.24121293,-0.14045644,-0.08416424
birthPlace,0.26815808,-0.05521049,0.07266668,-0.1063684,-0.23183109,-0.135557,0.18789469,-0.27867487,-0.19031565,0.07479793,0.28902873,-0.1871906,-0.012500841,-0.068616614,0.08794233,-0.028798051,-0.1567098,-0.039763294,0.11868791,0.020481614,-0.10828796,-0.25483492,-0.11651839,0.63380015,0.065488145,0.17063989,-0.08300288,-0.004240543,0.068876006,-0.1302746,0.13350955,0.087779276,0.22265103,0.0084279785,-0.15637669,0.0450071,-0.19007398,0.218536,-0.15856019,-0.15611407,0.021822022,-0.18400751,0.27989036,0.14465494,0.32946813,-0.16125226,-0.06711923,-0.015973406,0.0027777997,-0.05472123,-0.27478167,0.11489648,-0.25551093,-0.014128137,-0.05481269,-0.011123225,0.061702996,0.14005552,0.16236632,-0.039193347,0.22716142,0.13376182,0.017499518,-0.046948764,-0.5303299,-0.2831091,-0.46333593,-0.31891316,0.10184371,0.11485236,-0.11500716,-0.0023683568,-0.24707343,0.0022747377,0.005920763,0.33637184,0.10713121,0.18052527,-0.14870414,-0.17767279,0.102109745,0.17657094,-0.00307574,0.17109403,0.038252022,-0.04758133,-0.31139386,-0.24027194,-0.095603436,-0.48212186,-0.16917352,0.090944774,0.20044109,-0.21430828,0.083413534,0.11959215,0.36270338,-0.20049486,-0.1680379,-0.019097058,-0.084947705,-0.25792113,0.015096967,-0.2865241,0.23674473,0.10586133,0.24075423,-0.12754482,-0.079532474,0.111514956,0.257527,0.095528655,0.09975804,0.24906626,0.18138136,0.16345091,-0.042863477,-0.032976117,-0.07728618,0.121100634,-0.16661379,-0.068773665,0.08313825,-0.011904066,0.30415773,-0.099861056,-0.031536527,-0.049793098,0.027992029,0.27776682,-0.19993211,0.036459867,-0.0018029434,-0.04144701,-0.3751045,-0.20031598,-0.15862302,-0.12806992,-0.06962819,0.30310842,0.057464987,0.07688635,-0.0964761,0.1764949,-0.044298414,0.27864915,-0.053138845,0.04582421,0.040941294,0.122757286,-0.03201193,-0.1753041,-0.038568996,-0.25779614,0.060905598,0.07231491,-0.06707821,-0.0052595725,0.2257004,-0.2098081,-0.21120676,0.016416311,0.040252276,0.11072154,0.12313732,0.17277192,0.05682645,0.24616456,-0.24172206,0.10674386,-0.016330883,0.040776823,-0.024378177,0.058586817,-0.15353125,-0.3170845,-0.16810459,0.28459957,0.080259904,0.036082294,-0.10790338,0.1691801,-0.16838783,-0.07760206,-0.31749284,-0.082016714,-0.025350155,0.021654874,-0.026056556,-0.041621897,-0.36535266,-0.11731898,0.06931351,0.24424142,0.19605504,-0.13811499,-0.14170961,0.040023528,0.28064305,-0.09177863,0.1808159,0.17210814,0.02119738,0.058769003,-0.018905401,0.10192968,0.1427922,-0.5143413,0.13587163,0.20879585,0.19652288,-0.025153477,0.15382555,0.32976508,-0.23146343,-0.10706892,-0.043889947,-0.02955838,-0.17832784,0.50673527,0.22854558,0.04244181,0.11792732,-0.13988465,-0.019316562,0.1047843,0.24069479,-0.07685488,0.2301673,0.17004365,-0.31478688,-0.1741278,-0.12112863,-0.29070827,-0.15413707,0.15492149,0.070850976,-0.09808205,-0.21691753,-0.122955404,-0.11113506,-0.00906946,0.39172897,-0.17399618,0.16592145,-0.30163106,-0.011700889,0.005192807,-0.17990771,-0.18267025,-0.30510876,-0.069210775,0.17394932,-0.040931623,-0.18408112,-0.24089326,-0.13835552,0.09641783,-0.061790455,-0.01133369,0.13621996,0.052483987,0.094624005,0.13021423,-0.117832355,-0.26800758,-0.0034978946,0.31573454,-0.11884994,0.09143399,-0.12815751,0.013623754,0.13076693,0.045280118,-0.21097465,-0.1474515,-0.09299208,-0.26950738,0.04582091,0.12588188,0.22767189,0.0033366235,0.026224056,0.103619926,-0.09317747,-0.17780596,-0.16561313,-0.2529853,-0.16806193,0.21598828,0.04680119,-0.30517995,0.16837265,0.06316508,0.0228502,-0.10753588,-0.47895202,0.055617075,0.2286033,-0.015998164,0.12686306,-0.077967755,0.16993563,-0.14356153,-0.21493083,-0.090147674,-0.11430819,-0.13148549,-0.19575803,-0.08273853,-0.18602599,0.28358793,0.19558033,-0.1247854,0.122064285,0.078147374,-0.08120752,0.059523847,-0.029063853,-0.13637877,0.08693335,-0.0013077102,-0.08074089,0.3558966,-0.12559333,0.16872703,0.16038527,-0.0628814,-0.38853547,-0.06347497,0.14139442,-0.036546614,-0.23692943,-0.2119258,0.018200679,-0.06039623,-0.18406709,-0.109073974,0.00041372285,-0.10021239,-0.089580424,0.08602803,0.087014966,-0.15825237,0.2436446,0.09097839,-0.2455228,0.2717288,0.19099513,0.33371556,-0.15229438,-0.054303847,-0.27961382,-0.0065354006,0.02714887,-0.110842705,-0.08215021,-0.16729097,0.049594402,-0.20709471,0.04891078,0.016133005,-0.09649364,0.2029867,0.13249059,-0.11683556,-0.14366671,0.002497656,0.1836115,0.20842369,0.08503139,-0.36788803,0.12275207,-0.29299855,-0.037215687,-0.0027977105,0.12717448,0.2212306,0.034956165,-0.23330778,-0.1621013,-0.09694362,0.047354806,-0.09707901,0.12489877,0.09340762,0.009792529,0.21521093,0.018680656,-0.20021355,0.08114247,-0.247076,-0.08465566,0.09542516,0.3349958,-0.057815325,-0.061810866,0.01930531,0.010303514,0.099568486
deathPlace,0.001109746,-0.0052338163,-0.0010753091,-0.18458278,-0.2120916,-0.35800028,0.056275144,-0.25546995,-0.14222845,0.015124795,0.15205182,-0.12868384,-0.14429119,0.13540578,0.10924229,0.051139012,-0.10982482,0.03863586,0.055659734,0.27079433,-0.058397286,-0.12047633,0.08312555,0.018979868,-0.42406085,0.2826265,-0.22334665,-0.055161797,0.17061174,0.12760419,-0.17087975,-0.28344053,0.20108584,0.26642486,-0.4708499,0.061646756,-0.017884424,0.084680684,-0.11091475,0.23080868,0.048747018,-0.20473635,-0.012674719,0.088416085,-0.050810866,-0.092895895,0.24139334,-0.060139816,0.027808657,0.09329353,-0.16708073,0.33557364,0.14942919,0.30441427,-0.5157687,-0.1852886,-0.23824161,0.004214844,0.11753429,0.28361782,0.09388779,0.03471201,0.19580518,-0.07350301,-0.10369059,-0.014421527,0.1456534,-0.007694132,-0.04051476,0.2685825,0.074694104,0.11302679,0.12609202,-0.49819112,0.14692181,-0.15087473,0.006792428,-0.029187258,0.14925997,-0.08044444,-0.37441993,0.06477918,0.013552835,0.12667187,-0.11702783,-0.0076133846,-0.3633185,0.021565061,-0.13773017,0.01136357,-0.06982226,0.16514644,-0.093527146,0.45561796,-0.13052054,0.26765773,0.15906931,-0.13804506,-0.1248625,0.09550926,0.23586698,0.12674168,0.26386696,-0.022646671,0.023846474,-0.09552171,-0.0005867304,-0.08622637,0.12709121,-0.09034265,-0.18852748,-0.10889043,0.13019249,0.044909723,-0.07963792,-0.09488512,0.2544205,0.125817,0.09777249,-0.023807423,-0.06712605,0.0015729181,-0.12397351,-0.33950153,0.14722729,0.10227948,0.11487816,-0.11664687,-0.16007082,-0.32429114,0.049991123,-0.25642684,-0.18338993,0.22937536,-0.039318927,-0.07106107,0.16329545,0.21392684,-0.25858003,0.011693042,0.12900166,0.0023324934,-0.18544607,-0.22926494,0.05672705,0.30568177,-0.08965827,-0.06910891,-0.18219456,0.06555396,-0.1280667,0.0038937598,0.11780546,0.046659596,-0.0053039566,0.15137547,0.121896,-0.11777183,0.030001985,-0.30440435,0.16317901,0.0671326,-0.084989175,-0.08054217,0.22908275,0.08023307,-0.069559924,0.15440743,0.15311868,0.03503761,0.22007552,-0.14169307,-0.18015744,0.13248715,-0.12947206,0.07312704,-0.040289324,0.023877257,-0.24748842,0.25515765,-0.00010052029,0.017320544,-0.16228914,0.063734114,-0.1147783,0.044961166,0.1579811,-0.32477918,0.11115408,0.1285266,-0.1894068,-0.12132973,0.0142643,0.36729822,-0.19876903,0.16987365,0.039462946,-0.0019330357,-0.1092334,-0.29220864,0.0349932,-0.004894639,0.18073222,0.21444261,0.01581554,-0.062173873,-0.005202538,-0.36141777,0.17478606,-0.29354784,-0.12861624,0.04930341,0.017981814,0.017160956,-0.13899225,-0.1409166,0.2757154,-0.0228276,-0.24651395,0.06130429,-0.026573185,-0.10300468,0.061676342,0.049886376,0.2158386,0.014400633,0.0625979,0.2687988,0.13856323,0.25155985,-0.08957337,0.05771737,-0.050039366,0.13439998,-0.14426813,0.021878522,-0.0015382762,0.09974717,0.008671867,-0.11351924,0.1441754,-0.12860936,-0.007984474,-0.08882104,0.023728512,-0.11528104,-0.06481033,0.24979024,-0.261433,-0.012966973,-0.19019702,-0.12553023,-0.44326496,-0.10927235,0.35277048,-0.22501276,-0.23509951,0.04096552,-0.21868894,0.05632262,-0.027040662,0.21594302,-0.07799098,0.11740827,0.12729344,-0.1325973,0.064974554,0.09244572,0.09724192,-0.18390131,-0.042960104,0.29181272,-0.061644983,0.16360128,-0.027954172,-0.34508923,0.1375797,-0.04117944,0.20318998,-0.32339033,-0.1717956,-0.14151432,0.046746194,-0.0845804,0.11954513,0.25573644,-0.097937696,0.08901404,0.029016273,-0.014674572,-0.24808845,-0.16617207,0.01029588,-0.37612218,0.17514506,0.22101249,-0.011463064,0.14251384,-0.27429366,-0.0043710982,-0.059143715,0.06708797,0.28063473,0.15825911,0.15774827,0.42646617,0.20745538,-0.31832147,0.020132177,0.039542086,0.17323765,-0.09020595,0.0046372847,0.4426735,-0.033654105,-0.16566154,-0.13106444,-0.064058915,-0.017519597,-0.08874468,-0.04842047,0.45940596,-0.0553301,0.057865575,0.07600602,0.02319763,-0.22041506,-0.26471394,0.041958787,0.22540967,0.072491266,0.11549752,0.37251723,-0.1935543,0.073112234,-0.16439632,0.0003876278,0.12221428,-0.105256885,0.039846253,-0.24595565,0.20442693,-0.69168764,-0.14317411,-0.16967565,0.018140012,0.17781219,-0.12240123,0.2182525,0.2031633,0.2497001,-0.12529796,0.11824424,0.094518065,-0.006622451,-0.024221385,0.14984332,0.289561,0.025106749,-0.13522941,-0.24274789,-0.10789638,-0.29671586,0.009331287,0.17662847,-0.053032547,-0.13081603,-0.2912824,-0.15653488,0.27610952,0.21490562,-0.22688355,-0.1789184,-0.026506934,0.2894595,0.1664297,-0.01817222,0.10852731,0.0313236,0.025110671,-0.16868179,-0.18330964,-0.018514868,-0.28986195,0.0924394,-0.07560707,-0.09332648,-0.08010139,0.04663969,-0.2645865,0.47136664,0.0351325,-0.3096071,-0.11074657,0.13842946,0.34521303,0.0052656573,0.024331369,0.1120569,0.050006997
foundationPlace,-0.09651875,-0.07896488,-0.13800019,0.3555557,0.33726704,-0.22039579,-0.21972784,0.06447708,0.07049828,0.06789724,0.19414185,-0.27913743,0.07911015,-0.2248886,0.0034921516,-0.08933098,0.15156911,0.24300988,-0.28201905,-0.18861742,0.13803157,-0.1284809,-0.0048183315,-0.14752692,0.21640347,-0.17244937,-0.29779705,0.0069126906,0.27736998,-0.045503676,-0.16608605,0.076280884,0.19274913,-0.24693939,-0.21512353,-0.11714602,-0.20806617,0.11619183,0.1786542,0.049192626,0.024125136,-0.22182132,0.18207945,0.122912504,0.043293606,0.34140462,-0.04159253,-0.14595863,0.07910243,-0.020516379,0.0900651,-0.24828343,-0.42743167,-0.039704088,0.18239526,-0.20625418,0.06660241,0.0029498576,-0.17696416,-0.34031373,0.04318601,0.021250349,0.002433929,-0.042286437,-0.046333373,-0.20026888,0.14943568,0.20909303,-0.012119846,-0.10158115,0.21969774,-0.07130654,-0.047686767,0.19872253,0.12295547,0.14072773,-0.040749136,0.045263458,-0.2563326,0.035448465,0.24693976,0.1135675,0.19110657,-0.22470681,-0.24137673,0.10415493,-0.13006741,-0.29135364,-0.18902959,0.09201293,-0.034534346,-0.1855696,-0.006364823,-0.1814382,-0.12155074,-0.058785282,-0.09879015,-0.24856928,-0.25738186,0.20395142,0.29265383,-0.27309173,-0.024711892,0.3439786,0.3003784,-0.0054656705,-0.08245591,0.09357698,-0.103616826,-0.21469516,-0.25629768,0.071549036,-0.04849736,0.22212133,0.16260241,-0.28410876,-0.10494307,-0.25424442,0.11456435,-0.03928522,0.1266188,-0.055696975,0.17672461,-0.01404516,0.21980171,-0.05431003,-0.32698867,-0.35043433,0.02806539,0.16427426,-0.15120476,0.038435232,-0.22322586,0.030314941,0.12241822,-0.017816111,-0.23113424,0.13126169,0.1354167,0.1568802,0.20355852,0.08107667,0.11684815,-0.1786027,-0.010610691,0.06584475,-0.07122389,-0.23087938,0.2476354,-0.17409666,0.16054776,-0.07537192,-0.02172493,0.3145837,-0.24287364,0.04901671,-0.0668432,0.112368844,-0.016116496,-0.36011177,-0.46649897,0.17626646,-0.04220193,-0.084641375,0.037100494,0.031219086,-0.16225293,-0.1469375,0.1914657,0.31770095,-0.12331742,-0.11948315,-0.027374905,-0.063318916,0.069215655,0.049882945,-0.017495526,0.028525518,-0.106653824,-0.16098866,0.094625115,-0.047393084,-0.010563584,0.00015810796,-0.08879157,0.37533584,-0.101969644,-0.27065802,-0.31708437,-0.25265676,-0.041778404,-0.26713344,-0.086115174,0.030219072,0.3452085,-0.24576169,0.21801667,-0.10763168,0.16800192,-0.21783842,0.012832141,-0.07970954,0.20835306,-0.18003872,0.23974134,0.25477254,0.4796955,-0.036230184,-0.066075146,-0.07999493,0.15832599,-0.05143406,-0.0123722805,-0.105273545,0.16890135,-0.09112795,-0.18455684,0.16747442,-0.12125045,0.17265971,0.15242945,-0.019479534,0.43139005,0.066578485,0.36965114,0.06468913,-0.067143805,-0.2126484,0.326992,-0.41941318,-0.047560345,-0.07496301,-0.016670797,-0.2810256,-0.07961223,-0.06354531,-0.03930153,-0.17778648,0.3111373,-0.10674574,-0.036073226,-0.13806851,0.019270893,-0.39647543,0.04340223,-0.17529601,-0.11504021,-0.13794394,0.30609116,-0.05141151,-0.027564228,-0.046877936,0.056178812,-0.30955663,0.12324532,0.26118645,-0.18593386,0.050706193,-0.31598684,-0.0895256,-0.071708374,-0.13244362,-0.039914034,0.06999738,0.025623776,-0.022824846,0.5795612,0.10631628,0.12034689,0.2710239,0.22990762,-0.4111539,-0.0010325601,0.20213294,-0.013746171,-0.24925806,0.24663754,-0.3267618,-0.18710345,0.0848962,0.025753079,0.3183087,0.10611135,-0.16468221,0.18075275,0.091021456,-0.36613917,-0.50484514,-0.063936174,0.22094071,0.034225643,0.058457825,-0.12077062,0.04813271,0.17043221,0.014207571,-0.1293186,0.041571707,-0.1710014,0.27886403,0.011208064,0.039322965,-0.20320061,0.21736918,-0.071878,0.3281751,-0.07357404,-0.103325434,-0.13168873,0.01334291,-0.14568414,0.09054385,-0.16409926,0.06749751,-0.056919552,0.65483034,0.22858629,-0.0872734,0.24866815,0.028622128,-0.14299083,-0.16251199,-0.032493677,0.19401854,0.00071111525,-0.08595798,-0.15052776,0.019044958,0.16717274,-0.066107444,0.051220924,-0.042197112,0.23455504,0.24851827,0.19760759,-0.054203276,0.23433967,-0.27582735,0.12397205,-0.052015584,0.050860208,0.14172082,0.20895587,-0.065956645,0.21529618,-0.5280077,0.21675086,-0.080049016,0.08565778,0.04501661,0.40396494,0.07489682,0.29199558,0.09059361,0.26785976,0.04828306,0.041488696,-0.18201934,0.12887873,0.4010189,0.043080512,-0.00439107,0.077735886,0.06605428,0.21850322,-0.061280478,-0.14514221,0.08274075,-0.06534851,0.12825912,-0.02956358,0.078455225,-0.03494552,0.081660725,-0.20532355,-0.2419052,0.000101239166,0.030914169,-0.1306262,0.13764189,0.20190935,-0.15737078,-0.19071983,-0.09801758,0.3111816,0.17954054,0.11406221,0.033937853,0.29424146,0.08082867,0.078578316,0.33230355,-0.030161936,0.463323,-0.09407451,0.50649685,-0.074858755,0.114669256,-0.061181527,0.0865171
office,0.02281862,0.024834359,0.031012163,0.31367156,0.038140006,0.03671993,-0.033480532,0.31577313,0.325681,-0.038334552,-0.09556899,-0.3024149,0.25871265,-0.101437874,-0.28980365,0.4863602,-0.05514704,0.2826097,-0.045665614,-0.14891842,0.39335263,0.003468454,-0.030084537,0.22623569,0.23215641,-0.042365655,-0.12670821,0.028286237,0.045175403,-0.10555905,0.0900352,-0.15085137,-0.192369,0.16168894,-0.1842842,-0.1044779,-0.1794006,-0.098127015,-0.10453795,0.17384775,-0.2270143,0.053424895,0.3416504,0.029411647,-0.22104566,0.028818674,0.07451813,0.022094514,-0.06198658,-0.25080594,0.099853285,-0.20335896,-0.06163849,0.10624128,0.13383499,-0.57499343,0.2796256,-0.11436526,0.016152445,-0.13450111,0.0027464104,-0.053904906,-0.10966193,0.023910115,0.013684608,-0.058750205,-0.2335483,-0.2131413,-0.08250816,-0.13919999,0.09253642,0.053755417,0.31712306,0.25823843,-0.13391194,0.2165084,-0.16373035,-0.077885315,0.16563888,-0.1931253,0.11692789,0.3418966,0.09242862,-0.07713211,0.03448351,0.34217578,0.16983919,0.035931446,-0.19438574,-0.11225017,0.054606102,0.18110499,0.14098597,0.038970027,0.2144704,-0.404959,0.04043701,-0.25874478,0.07242994,0.43200952,-0.09590925,-0.0018174128,-0.2447235,-0.32828212,-0.19761471,-0.13940655,0.22398955,0.26644877,0.26646608,0.06328304,0.28385034,-0.004047847,0.041973002,0.08020158,0.12134485,-0.1532135,-0.19993745,0.007885813,-0.0750172,0.10527659,-0.1710178,0.29157522,-0.007405938,0.0021470706,0.15583725,-0.045564014,-0.3634938,-0.01079346,-0.08778742,-0.4081879,0.03084839,0.1798389,-0.043754682,-0.058160756,0.21893063,0.11834828,0.1569307,0.17717873,0.12475787,0.15029618,-0.23624778,0.037711874,0.073700674,-0.1546932,-0.11547414,0.11523374,-0.2183362,-0.08446105,-0.037314743,0.02831261,-0.0021827256,-0.09559991,0.18997316,-0.10402903,0.044057947,-0.1513213,-0.30621207,-0.2124375,0.16312177,0.14572532,-0.279079,-0.29349113,0.037208814,0.30656907,0.067500785,0.0076607484,-0.11495751,-0.61157507,-0.022696273,0.36713165,0.09966808,0.08408234,-0.077248156,-0.22983228,-0.11856596,0.09560545,0.1306174,0.10597539,0.031274594,-0.09840783,0.29383576,-0.025901193,0.23759025,-0.32516629,-0.13719986,-0.06727892,-0.023756715,-0.019383537,0.11548622,-0.18852012,-0.05439831,0.55577594,0.014304372,-0.32739225,-0.1502464,0.12006986,-0.322606,-0.25865322,-0.06206783,-0.0058478536,-0.23092996,-0.1890876,0.11809552,0.073934615,-0.06286986,0.009737224,0.023000857,0.19519076,0.3110279,0.19019292,-0.14814097,0.17725798,-0.275015,0.16196848,-0.20233811,0.065539114,0.0054988833,0.16234665,-0.1666187,0.48112777,-0.17547318,0.07673443,-0.051332965,0.16079934,0.2582351,0.04058849,-0.54182583,0.226054,0.23218647,0.024265131,-0.17441726,0.14107653,0.026727533,0.30120888,-0.042873938,0.21252336,0.25642923,-0.13303868,0.15507407,-0.039053652,0.07714964,-0.2842529,0.08813398,-0.007368352,-0.14251648,-0.25592735,0.16714175,0.14238821,-0.19140118,0.062235072,-0.105299994,-0.12832539,-0.29966408,0.16091794,0.16971208,-0.07563418,-0.13185766,0.3552428,0.04165984,0.26783913,0.09480106,-0.31494012,-0.22887243,-0.1418697,0.300077,-0.071082935,0.40889552,-0.09551473,-0.25570285,0.0011729898,-0.52514017,0.04582118,-0.037797127,0.3225746,-0.3372002,-0.12175101,0.04671541,0.13554956,0.034931388,-0.08588732,0.15473723,0.19207437,0.1626052,0.06368663,-0.046063147,-0.12804756,0.13626458,0.17733085,0.30827433,-0.14671603,-0.10304387,0.14903328,-0.07606756,0.20222566,-0.0131326625,0.1433745,0.091299035,-0.17048454,0.26690233,0.05401224,-0.010826141,-0.13737175,-0.17281236,0.0653033,0.16454029,0.033017512,0.09767824,-0.06587158,-0.06645145,-0.20337404,-0.11837648,0.110594295,0.3414773,0.04068136,-0.30822936,0.039801724,-0.004603482,-0.25245398,-0.00072441,0.071059525,-0.15248793,0.05966574,-0.15592387,-0.10314147,-0.10060052,0.05184898,-0.080735974,0.2604005,-0.06024446,0.09149248,0.049435843,0.03219516,-0.0637305,-0.09765793,0.4551401,0.23147488,-0.15042034,0.12386548,-0.21022901,-0.31908384,0.0075364322,0.24021843,-0.13915955,-0.16051683,0.35888422,0.12042014,0.14041324,0.0984903,-0.15412463,-0.011609077,-0.15009546,-0.21016486,0.36803523,0.17549314,-0.2968307,-0.0495389,0.08060284,-0.32317936,0.06445587,0.05653383,0.17001615,-0.06376802,-0.01622024,-0.15847297,-0.28270194,0.12786348,-0.12946196,-0.15972745,-0.31884027,-0.025354993,0.10284832,-0.2845627,0.026428323,0.001101073,0.05656332,0.05448519,-0.30806407,0.2232668,-0.06686605,-0.08582995,-0.06496897,-0.017076174,0.018627245,-0.2679718,0.17119648,0.07395512,-0.0901991,0.09404308,-0.24506927,-0.14916168,0.0040636943,-0.02304096,-0.16068895,0.24980444,0.22410478,-0.18331996,0.106784716,-0.16923222,-0.26309526,0.15184063
spouse,0.32737392,0.36549923,-0.24553093,-0.35645428,-0.04043824,0.27504432,-0.094048984,0.056028813,-0.12390674,-0.08082283,-0.052347947,-0.07938529,-0.11929753,0.12973185,-0.27671123,-0.05631389,-0.31095347,-0.18028158,-0.08822482,-0.007203503,-0.014100861,0.16845231,-0.056008548,0.053471286,-0.12631954,-0.26032263,-0.2553208,0.10413321,0.18939483,-0.14058845,-0.007459931,0.051866416,0.11338215,0.033603273,-0.21341483,-0.12084987,-0.11929267,0.42954543,0.11506242,-0.057195406,-0.10881348,0.15271647,0.112397514,0.29766792,0.0645877,-0.004504016,0.012727111,-0.23725316,0.13997664,0.17541386,0.034365132,-0.02014033,0.18453327,-0.07467132,-0.06661164,0.11035903,0.11403075,0.094983295,-0.1129547,0.13001594,0.125124,0.11604428,0.21567595,-0.38609752,-0.15889558,0.15309072,-0.23438117,0.092468314,0.11871979,-0.4782772,-0.13585609,-0.106661186,-0.17798041,0.06100971,0.10562445,0.19098403,-0.02731332,0.118976906,0.3750538,-0.41920027,0.17200024,0.044084653,0.010551008,-0.141329,-0.20773406,0.087076716,-0.03245737,-0.067771874,-0.4586264,-0.21477625,0.08273974,0.050710503,-0.1355999,0.120342344,-0.2585032,0.06886188,0.012728336,0.11124112,-0.14166106,-0.15953268,0.33061764,-0.1287194,0.109994404,-0.08361966,-0.14180398,-0.21765286,-0.063714124,0.035701472,0.09949404,-0.1734311,-0.32513076,0.13207035,0.190594,0.16501014,0.1416734,0.21794298,0.15166137,-0.09491298,-0.2201539,0.019750383,0.029481184,0.25658846,-0.124193825,-0.16903721,0.19019657,0.095169626,-0.24715956,-0.032927115,0.18056104,-0.063157864,-0.2248348,-0.241392,0.025524653,-0.1687924,-0.12197723,0.050374225,0.09056207,0.37240428,0.08697829,-0.28112465,-0.19462298,0.20395555,-0.48636696,-0.1762872,0.019417938,-0.109191485,0.3173887,-0.2615089,-0.01100653,-0.21334033,0.028939378,0.10355174,-0.3506706,-0.119678415,0.22113031,0.05871416,0.034839593,-0.051872574,0.23703024,0.20582977,0.06485021,-0.15555018,0.060123697,-0.3925568,0.35432777,0.023330472,0.06037584,-0.0628184,0.20638858,0.40950885,0.08880184,-0.05691228,0.18371794,-0.15933281,0.021248667,0.059692018,-0.23812483,0.13468884,0.1757116,0.065268405,-0.0975966,-0.16650012,0.22515182,-0.31928673,0.22524948,-0.3366007,0.062253695,-0.03473379,-0.25934845,-0.099845104,-0.14770399,-0.38429725,0.008812409,0.013859165,0.10816466,-0.042250797,-0.20070243,-0.009581274,0.17258926,-0.029162431,-0.20640488,-0.13793658,0.20142828,0.073105924,0.13970415,0.05586267,-0.31932524,0.17835037,-0.22725272,-0.28344098,-0.13442232,-0.11259819,-0.2710019,0.2839478,0.14958677,0.16359954,-0.035300363,-0.0024724817,-0.055563707,0.043598108,0.14513092,-0.22378954,0.019559463,0.23477502,0.05307693,0.30996287,-0.4249231,0.06304931,-0.0106903,0.386653,0.31457227,0.034601945,-0.35552716,-0.035878558,-0.101062134,-0.095498405,-0.09013948,-0.15937963,0.28085175,0.09181451,0.14658245,0.037432272,-0.17409602,0.1807899,0.07310397,-0.00656126,-0.38769308,-0.25391427,-0.26407525,-0.067187965,0.123375796,-0.16514763,0.19482255,-0.024169236,0.083015,-0.05574177,-0.051966034,0.030893678,0.24848184,-0.105729,-0.07150783,-0.27728516,-0.2961523,0.160023,-0.028151315,0.31471518,-0.27758268,-0.11191232,0.06648656,0.091413625,-0.35284704,0.06888301,0.29675162,-0.12890366,0.07206864,0.120597936,0.18093143,-0.11255706,-0.15835401,-0.21832213,-0.20323639,0.37154815,0.17442308,-0.27634284,0.022704026,-0.10556473,-0.15206786,-0.12334321,-0.2550828,-0.42875364,-0.02746159,-0.3749537,-0.05037834,0.12702246,0.014652758,0.013063448,-0.07918069,-0.08318886,0.07405062,0.13266777,-0.067819476,0.3405449,-0.017312057,0.11518842,-0.46190628,-0.124666385,0.1648916,0.019453255,0.037903443,0.11656793,0.17698386,-0.29081255,0.07513102,-0.017536487,-0.17769419,-0.3412072,-0.16183384,-0.1066133,-0.23644026,0.18775383,0.10674125,-0.15589608,-0.08834875,0.0254213,-0.018093472,-0.09580899,0.017711895,0.25913277,0.23617339,0.038275152,-0.16579966,-0.1061116,-0.100204796,-0.25961643,0.23522921,0.07234379,-0.29783797,0.10576784,-0.027080767,-0.29296452,-0.021735355,0.16322777,-0.067833856,-0.061481725,0.21943283,0.40401936,0.3153116,0.019433724,-0.24455102,-0.11945448,-0.1558794,0.2937511,-0.09292482,0.07967243,0.054228965,0.028932534,-0.20743616,-0.1150071,-0.01136314,0.40653193,0.067458205,0.011547564,0.10182886,0.010397205,-0.03337614,0.0024780638,0.16628931,0.052400503,-0.05891756,0.09774482,-0.3104359,0.2405023,-0.25356078,-0.14760046,0.26705793,0.105677836,-0.27215567,0.22386618,-0.18486679,0.058145974,0.3997419,-0.33240038,0.1674009,0.07181147,-0.0050952076,0.021707071,-0.21791144,0.078788154,-0.107621565,0.11595026,0.3074051,-0.25749096,0.061571192,0.13146724,0.06878806,0.19474366,-0.30741537,-0.11624364,0.12336728,0.265593
starring,0.089314856,0.11152845,-0.19685963,0.052972335,-0.13628621,-0.013260476,-0.15733401,-0.17928492,0.21194863,0.061549388,0.041039318,0.30045536,0.05826245,0.08282429,-0.14067334,-0.09805021,-0.12516208,-0.2253744,0.07374539,0.020545065,0.111976996,0.06761178,0.056038745,0.51978296,-0.27983025,-0.39143205,-0.26031226,-0.024517711,0.31648278,0.37106887,0.058959812,-0.24211416,0.27336878,0.070591815,-0.02319755,-0.14820287,-0.22830878,-0.07741469,-0.24347317,0.017789416,-0.013956171,-0.21332793,0.6148012,0.14906314,-0.019966325,-0.16619237,0.15154442,-0.0115316305,0.1373829,0.015208407,0.1242228,-0.26972914,-0.19324063,-0.03403531,0.28172675,0.31982934,0.089687526,0.0576038,-0.06763387,-0.17659535,0.013695314,-0.47150773,-0.22460562,0.057282615,-0.17695533,0.06690418,0.15747271,-0.16159502,0.046822563,0.123100296,-0.021448666,-0.00023304467,-0.16840571,0.22099686,0.03458,-0.16152453,0.32912838,-0.16882586,-0.18349528,0.16803712,0.43931594,0.18955834,-0.12737042,-0.05549221,0.1426035,-0.2678806,0.3606474,-0.045640975,0.38830116,0.2490044,0.12202298,-0.24947758,0.46326104,-0.2408283,-0.21862923,0.13555484,-0.1444388,0.32182834,-0.24320696,0.021426084,0.22823182,-0.2043644,0.07617264,0.119081065,-0.41046196,0.3678616,-0.07106099,-0.09135819,-0.12770562,-0.32896104,0.048061095,-0.037838943,0.2444532,-0.07586791,-0.213539,0.0302342,-0.017182779,-0.2483877,0.0056698616,0.2544155,-0.17921038,0.35160163,-0.0026563178,0.057907466,0.017507618,-0.158845,0.04235405,0.038437568,0.07453068,-0.0071513,0.28056115,-0.032844376,-0.020794677,0.12501504,-0.1295835,0.1060446,-0.018878747,-0.067333154,0.05225519,-0.20929228,-0.07644191,0.11198488,-0.0016594114,0.031939704,-0.15253802,0.18652503,0.09880569,-0.0066366564,-0.1238608,-0.064867586,-0.27865618,-0.13373484,0.102283694,0.11359178,0.1896142,-0.26593104,-0.2487532,-0.076668724,0.1494105,0.100393,0.015548287,-0.026214208,0.13628359,-0.17088439,0.28216526,-0.09854146,0.20182398,0.28868985,-0.10684689,-0.017788887,0.43951187,0.063367,-0.42633218,-0.05919335,-0.21322206,0.10672592,-0.2433066,-0.08287812,-0.016484892,-0.18133362,0.07211856,0.10901223,-0.04361417,0.52201957,-0.119908445,-0.10284194,-0.032270506,-0.041826908,-0.014717255,-0.2200195,0.1582186,0.24617016,0.13690618,0.120076984,0.20667078,0.06970466,0.36384153,0.17048964,0.015787257,0.3097751,-0.02526845,-0.04676455,0.07531245,-0.03214209,0.08442215,-0.07788182,-0.0950995,-0.18146342,0.23716862,-0.20568088,-0.21234097,-0.21902141,0.0054411455,0.24290997,0.22662961,-0.05121108,-0.16216037,0.364668,0.14524214,-0.18469346,0.23979351,0.2670244,0.35923105,-0.19897857,-0.113551565,-0.36064762,0.03653483,0.25535285,0.14618921,0.2888839,0.07712747,0.14633396,0.24847965,0.18347178,-0.1522077,0.15185897,-0.03636661,0.15794952,0.021725886,-0.17269318,0.059604634,0.1494079,-0.40750247,-0.1980554,-0.3669472,0.14129981,0.19218756,-0.094343826,0.23901059,-0.06614722,-0.051392358,0.18332313,0.062359136,0.015370976,0.03243232,0.22616895,0.009045085,-0.15046522,0.08532891,-0.14281775,0.06943902,0.062044166,0.023675816,0.1327669,-0.17566511,0.10763678,-0.06280399,0.33500898,0.074715376,-0.18960467,0.30812535,-0.018905755,-0.12931298,0.06415188,0.0655758,-0.19294724,-0.1211071,0.16452585,0.051954605,-0.10771519,0.24827845,-0.3813142,-0.15740822,0.047293026,-0.2872026,0.2299964,-0.17713343,0.3174438,0.32929218,0.046381544,0.20889404,0.17789686,-0.030204764,0.073696494,0.25867847,0.17299621,-0.40111,0.30728862,-0.15456587,0.06181182,-0.027146464,0.21396722,0.36479744,-0.31608343,0.048854068,0.109054215,0.16965973,0.29907244,0.26066008,-0.06354631,-0.21098725,0.019588048,-0.08344727,-0.1870662,0.4938575,-0.08788956,-0.22748196,-0.05324251,-0.23854364,0.13340698,-0.26608798,-0.09386213,0.08725399,0.1315355,0.045369644,-0.31107184,-0.09881634,-0.30393562,-0.18112998,-0.033737257,0.100831285,0.24862237,0.23185194,0.13815892,-0.04563554,-0.074892536,0.06537405,-0.23067163,-0.052886922,0.041126814,-0.0394662,-0.15692374,-0.11698809,-0.10670113,0.16235669,-0.23661862,-0.20546077,-0.060955394,0.11601954,0.031430375,-0.046328615,0.20886049,-0.098588236,0.029274149,-0.10735024,-0.054305367,0.39139816,0.15884587,0.10803234,-0.26413703,-0.029461471,-0.3008018,-0.08322611,0.28935376,-0.025121456,0.2593167,0.19052947,0.05307536,0.19281344,0.18926115,0.23442394,-0.10631118,-0.075703286,0.07760261,0.056449026,0.17803219,-0.055426884,-0.26596582,0.13647649,0.08391541,-0.18128148,-0.10517543,-0.18388174,-0.010629601,-0.08664804,0.1998647,0.045027364,0.3524618,-0.19275121,0.34224188,-0.503938,0.052292254,-0.2088182,-0.02576432,-0.22290185,-0.11870136,-0.14569406,0.0054636276,-0.34957314,0.20274793
subsidiary,-0.08026189,0.15242447,-0.10914757,0.2588157,-0.18009882,-0.044036426,-0.14356376,-0.14760952,0.17824636,0.18906553,-0.07937206,0.02844522,0.10335213,0.07528736,-0.15831533,-0.0819415,-0.05647788,0.12557133,-0.111642465,-0.114599295,0.015708616,0.15596712,0.148249,0.37138468,-0.15032198,0.032622825,0.29251856,0.099403664,-0.105708346,0.056226287,-0.15327887,0.09423684,0.18382376,-0.07247762,-0.28379685,0.05514826,-0.22676344,0.08324943,-0.062337782,0.28558654,0.023482766,0.09535201,-0.29422194,-0.34046474,-0.055069003,-0.13765286,0.4507366,0.09842451,-0.1874906,0.01686586,0.18576957,0.075167276,0.084614284,0.076301076,0.24509019,0.049877163,0.2603171,0.04123522,-0.13591214,-0.42475396,-0.12161024,-0.030173073,0.15072486,0.068432756,-0.09431453,-0.03965525,0.12532258,0.007655953,0.26106405,-0.054731708,-0.06825733,0.10325234,0.21222584,0.24413805,-0.012458604,0.3148658,0.04124673,-0.16955595,0.16195904,0.2401354,-0.11300791,-0.114915505,-0.010947226,0.022743495,-0.2718747,0.084041506,-0.013013069,-0.16772988,0.27205825,-0.08699719,0.28000897,-0.11058559,-0.030914046,0.02968031,-0.16572215,0.20055288,-0.09555199,0.016625775,-0.16105326,0.5406696,0.062055342,-0.11134955,-0.18841946,-0.14274937,0.04201394,0.21375176,-0.21743834,-0.11107033,0.034925338,-0.0868255,-0.012499512,0.24167539,0.4078597,0.08898463,-0.21103895,0.17690082,-0.028457765,0.023254322,-0.37505317,-0.3735802,0.13776496,-0.037210774,-0.09032972,-0.103739105,0.22474128,-0.040719572,-0.14093514,0.14895563,0.16229784,0.13492283,0.4849745,-0.06716082,-0.087977804,0.18395966,-0.34054688,0.015477294,0.1294716,-0.015809229,0.15938643,-0.30780634,-0.17239183,0.19069025,0.08491521,0.061252456,0.3588376,0.3439764,0.24588591,0.22464746,0.06200876,0.07004557,0.084130175,0.19300918,0.2674884,-0.189345,-0.2598918,-0.19541186,-0.13568138,-0.08482357,-0.112590075,-0.20612976,0.053400397,-0.11776542,-0.1686851,0.09222398,0.19417863,0.15608704,0.40500227,-0.045279555,-0.14841768,-0.21815261,0.00976374,0.02579313,-0.21834275,0.020636369,0.31836465,-0.1772204,0.2439856,-0.15565087,-0.09524251,0.0051262225,-0.06407812,-0.1200677,0.054753263,-0.09131541,-0.0007384691,0.22127831,0.18744606,0.11852623,0.07273289,-0.04877646,-0.14242041,-0.032238103,0.022455458,-0.26589498,-0.11309804,0.21968989,-0.197544,-0.09502916,-0.14158754,-0.081523426,0.19403283,0.027417127,-0.39816275,-0.09506186,-0.074349694,-0.23221788,0.055996414,-0.3957585,-0.36451095,-0.21124497,0.3459661,-0.081818655,0.042138137,0.001472036,0.028935574,-0.04813642,0.16133416,0.008839962,-0.05380324,0.209676,-0.021778846,-0.11405159,-0.0153161455,-0.3361819,-0.18060805,0.24686208,-0.11397498,0.06369363,0.093531884,-0.5622493,0.19606869,0.09601653,0.38684735,-0.23205753,0.21417058,-0.09014555,-0.035858773,0.017510878,0.031870153,0.16295888,0.11520873,-0.10694306,-0.044301867,-0.05740186,-0.1453058,-0.29531783,0.060560986,-0.28140905,0.07578315,0.2226924,-0.19918823,-0.25328267,0.057495255,-0.27151477,-0.061275527,0.1399124,-0.5536087,-0.0060506137,-0.060645375,0.013049955,0.03802819,0.14400066,-0.037961863,-0.17023136,0.10429513,-0.19625282,-0.30887637,-0.09606346,-0.048525162,0.12838101,-0.19832268,-0.0037439042,-0.2316182,0.010208296,0.39710203,0.17593516,0.00089438306,-0.08830172,0.15995662,-0.24293984,-0.15473238,0.1901391,-0.22208223,-0.07968258,-0.04538067,0.3014596,0.095293894,0.2756644,-0.07877384,-0.12566185,-0.0069843153,0.1275198,-0.09541315,0.0994543,0.039991193,-0.11357106,0.22296162,0.056036957,-0.079888225,0.123655885,0.052200954,0.095237754,-0.16981274,0.25909242,0.10046711,0.1280467,0.020465968,-0.07200043,-0.12302217,-0.38702723,-0.43147644,0.23129892,-0.25148904,0.2673832,-0.20556936,0.70002604,-0.020764422,0.15475428,-0.09500709,-0.046266835,0.12568955,-0.35951263,0.031138027,0.11703804,0.019078778,0.06279629,-0.17231941,-0.06052205,-0.08704363,-0.050733514,0.020100372,0.23844337,0.13368285,-0.22995357,-0.054307446,0.12729271,0.13884427,-0.23648988,0.34217843,0.010759806,-0.050225608,-0.117098756,0.18811612,-0.09632151,-0.007808423,0.11257151,0.31682986,0.22000152,-0.1789821,0.11891736,-0.044177767,-0.19145748,0.18671876,0.06475126,-0.14047326,0.1690794,0.0052086106,0.12483654,-0.23652261,0.30255982,-0.16941829,0.04978802,-0.1753117,0.020088343,0.1235889,0.083588295,0.15196086,-0.0020487271,-0.17011717,-0.019246388,0.237801,0.2577661,-0.028054846,0.12676662,0.03170657,-0.21190386,-0.21252887,0.07266088,-0.07207848,-0.2402243,-0.056821488,0.008030526,0.034684822,0.56311226,0.059746847,0.010890795,0.3252881,0.04168558,0.36779863,-0.017486405,0.04821813,-0.3770768,-0.31880307,0.25632703,0.04570707,0.27586427,0.19680737,0.17779619,-0.03860523,-0.08389712
team,-0.17503864,0.09219861,0.22247534,0.3204471,0.1202384,0.025933607,-0.22901765,-0.3426289,-0.12300272,0.050130777,-0.035073537,-0.23831737,0.22571415,-0.06307929,0.063866146,0.12650147,-0.4536085,0.45897883,-0.18763308,-0.09469358,-0.17513445,-0.32442605,0.34302348,0.0063811014,0.2067271,-0.2631867,0.24837296,0.11934195,0.011838482,-0.051520083,0.10288943,0.20652945,-0.18784182,0.08470524,0.08818513,0.49472845,0.10570832,-0.2999304,0.20832072,-0.08812829,-0.10373953,0.0706754,-0.09015377,-0.10848264,0.21162836,-0.14959227,-0.34185684,-0.09156901,-0.2445569,0.069607995,0.0930981,-0.119695716,0.42215568,0.46402875,0.0664555,0.14078254,0.20799752,0.041133586,-0.061031617,0.20734115,0.14847678,-0.015500621,0.08706977,-0.1735152,-0.06659743,-0.16802172,-0.007720855,-0.08227854,-0.083379336,0.11940633,0.21521315,-0.15547028,0.123514265,0.052098926,0.054302223,-0.050638616,-0.09008464,-0.11481506,0.23242065,-0.1080372,-0.2631426,0.011210236,-0.26159018,-0.18946458,0.3993441,0.21566696,-0.035960127,-0.12555388,-0.12036585,0.16320287,0.0018101992,0.102440864,0.085819036,-0.09049993,0.105299845,0.24657616,0.015244477,0.075357504,0.14892407,-0.12327539,0.22567505,-0.07418051,-0.28285232,-0.00572236,0.03562626,0.28908324,0.007131372,0.32744992,-0.09043148,-0.07017779,-0.15118751,0.026856635,-0.167394,0.27762052,0.009194379,0.043489065,0.2237365,-0.37222436,-0.11033201,0.031719938,0.24714117,0.37331405,-0.07876458,0.16837613,-0.21994536,0.21404979,-0.09594365,0.37471718,-0.072152436,-0.30434233,-0.07462873,0.3302422,0.10581947,-0.12729663,0.012561134,-0.05705202,-0.21344113,0.21524166,-0.14545517,-0.14911005,0.1796202,0.05667445,0.114703864,0.16907613,0.26978737,0.022664333,-0.06350934,-0.075305216,0.34072003,0.035662677,-0.24042448,0.25029126,-0.032058753,-0.2543948,0.34035093,0.40422243,-0.25700387,0.047018703,0.02672499,-0.15601203,0.019655604,-0.16041346,0.338205,0.13807335,0.062386632,0.037215803,-0.2031358,-0.15321812,-0.22514935,-0.18953203,0.13533781,-0.124203235,0.120034024,0.3579868,-0.18682802,-0.13457635,0.030060472,0.08209385,-0.038192216,-0.18493496,0.09920782,-0.28422606,-0.122837946,0.07961664,0.17334755,-0.26649758,0.123224966,0.41972336,-0.054775074,-0.050822508,0.14745618,-0.04263452,0.070766866,0.04291234,0.12411871,0.08152191,-0.0885283,-0.13218437,-0.10096282,-0.17007957,-0.019532626,0.15790872,0.05437994,0.15191007,0.033196326,0.18216147,0.035711166,-0.13544776,0.23967938,0.17589921,0.16648126,-0.33194512,-0.18335405,-0.13630861,0.022486687,0.07197341,0.065714754,-0.08816625,-0.09650306,-0.37538543,0.061265767,-0.2638135,-0.18320413,0.2046013,-0.2744439,0.04073594,0.23864368,-0.014903814,-0.03919814,0.109789565,-0.26641703,-0.19016404,0.07018825,-0.24352185,-0.355372,-0.092490315,-0.22942308,0.10366524,0.40649125,0.06668414,0.26177692,0.028385848,-0.031244121,0.026833957,-0.2817323,-0.091581166,0.14436951,0.09373748,-0.04787113,-0.2362976,-0.09615374,-0.53407633,-0.3117916,-0.16292132,-0.08526864,-0.13154054,0.34324744,-0.21136506,-0.093800835,0.28275353,-0.005415122,-0.11240163,0.1431462,0.32871178,0.011964137,-0.014006981,0.04303698,0.114982635,0.05984292,0.08168528,0.0027686667,0.17767358,0.08180036,-0.055941116,0.05008245,0.07053698,-0.06641835,-0.056261215,0.110571355,0.0756876,0.09025569,-0.10679753,0.4540813,-0.048451014,-0.23148045,0.07970072,0.1524282,0.24970798,0.036487307,0.072013974,0.1947796,0.22287303,0.11084308,-0.047903415,-0.11359943,-0.19674584,-0.09244524,-0.029886939,-0.009846386,0.13577941,-0.26774284,-0.028035661,-0.07718001,-0.08033233,0.06949307,-0.24731734,-0.07242709,0.14736333,-0.2848982,0.061913535,0.04251531,-0.07260542,0.33528718,0.069952965,0.412551,0.32306167,-0.08352474,0.17203392,-0.21638295,-0.34828362,0.057331245,0.2998495,0.016635356,0.030679619,-0.012358077,0.31503856,0.15706933,-0.01063444,0.35128134,-0.15033008,-0.20861714,0.060774203,-0.08543504,-0.37349126,-0.05236044,-0.12660787,0.05200252,-0.12862507,-0.00090632477,-0.15784615,0.12311091,0.17939797,0.04110368,-0.25603345,-0.2439528,0.17094918,-0.032585222,0.08446923,0.24644463,0.027542822,0.12484416,-0.13724287,-0.056846865,-0.010589264,-0.039309334,-0.023549702,-0.14567067,-0.07765092,-0.18161756,0.31347635,-0.1374855,-0.18199112,-0.110650346,0.11134998,0.023126518,-0.35434586,0.12507023,-0.018865366,-0.013830251,0.45153108,-0.25626236,0.036616173,0.10322588,0.17480366,-0.10826612,-0.026594553,-0.15995072,0.17930812,0.06270596,-0.1279102,-0.037251156,0.027454983,-0.083396964,-0.053380255,0.0505193,0.28600416,0.052790496,-0.30333346,-0.12188017,-0.002085049,-0.028557742,-0.11410964,0.0046479884,-0.06405956,0.24503109,-0.014167821,-0.36776868,-0.2376661,0.053617287,0.10113823
